nep4 4 B As Ga O 
cutoff 5 5 57 57
n_max 4 4
basis_size 10 8
l_max 4 2 0
ANN 40 0
  4.1450782e+00
  1.1219596e-01
 -3.4102726e-01
 -1.0719563e+00
 -1.9976912e-01
 -6.8389559e-01
  1.2087414e-01
  2.8031299e-01
  5.1355118e-01
  2.1315222e+00
 -1.1666695e+00
  4.5182526e-01
  3.3311659e-01
 -6.1045182e-01
  3.8757329e+00
  7.7755588e-01
 -7.4516869e-01
  7.5222380e-02
  1.9477460e+00
 -1.3056551e+00
 -3.1098828e-01
  1.7047988e+00
 -8.8212587e-02
 -8.2769275e-02
  9.8932460e-02
 -4.5760587e-02
 -5.5142246e-02
 -4.4697946e-01
 -2.0648259e-01
 -3.7733096e-01
  7.1940309e-01
 -3.9765397e-01
 -1.0074015e+00
 -7.6916784e-02
 -5.6064224e-01
  5.4236431e-02
  6.2409872e-01
 -2.2376768e-01
 -4.0293288e-01
  1.4980292e-01
  1.3797344e-01
 -8.0633956e-01
 -6.4833260e-01
 -6.7428440e-01
  1.7501667e+00
 -3.3783287e-01
  2.1729255e-01
  6.8764806e-02
  1.1480163e+00
 -4.4078779e-01
 -6.6651958e-01
 -1.2565607e-01
 -7.7415109e-01
 -2.9598117e-01
  9.5089704e-01
 -1.0710910e-01
  1.3071692e+00
  2.5655940e-01
 -2.6633030e-01
 -3.3452356e+00
 -4.4311407e-01
 -1.3225858e+00
  2.3897440e+00
  2.0471352e-01
  2.4675867e-01
  1.2209024e-01
  6.1253262e-01
 -1.8337476e-01
 -5.6017947e+00
 -5.2080072e-02
  2.5360307e-01
  1.9224109e-01
 -2.4634023e+00
 -3.5817271e-01
 -7.0606631e-01
 -8.8787854e-01
 -3.8565037e-01
  2.0041792e+00
 -1.1720379e-01
 -1.7051880e-01
  2.8230516e-02
 -2.1891066e-01
 -1.6208588e-01
 -3.9792478e-01
 -1.1804800e+00
  2.1537776e+00
 -9.1476887e-01
 -3.4082943e-01
 -9.6073538e-01
  2.1057573e-01
  1.4182055e+00
  1.8590140e+00
 -6.7648917e-01
 -4.9756345e-01
  4.6929258e-01
 -3.7167925e-01
 -2.0882520e-01
  1.3885003e+00
  1.7661403e-01
  1.5301239e+00
 -2.3159637e+00
  3.4776280e+00
 -5.1009071e-01
 -1.0105187e+00
  5.5128884e+00
  7.5933254e-01
  5.9216375e+00
  3.8954074e+00
 -1.1745588e+00
 -4.0311055e+00
 -1.0691206e+00
  2.6666576e-01
  1.9353056e+00
 -1.6454279e+00
 -7.6073873e-01
  1.1074533e+00
  5.6204990e-02
  1.5904837e+00
  1.2871989e+00
 -1.7785013e+00
 -1.4623518e+00
 -4.2742839e+00
  8.6934239e-02
 -4.7641354e+00
  3.1543645e-01
  5.5846941e-01
 -7.3050398e-01
  2.5968707e-01
  2.4064580e-01
  6.4531887e-01
  1.9460374e+00
  8.3228305e-02
 -3.0671630e+00
 -1.9866322e+00
 -4.4284734e-01
  4.6203449e-02
  5.0547022e-01
 -2.5412843e-01
 -1.4238210e+00
 -6.2761295e-01
  7.6533604e-01
  1.0434439e+00
  4.9723539e-01
 -2.3908839e+00
 -6.3686877e-01
  5.0127394e-03
 -1.3370779e+00
  3.7948873e-02
 -1.3961353e+00
  2.0470738e+00
 -2.2275565e+00
  3.4196661e+00
  1.7108917e+00
 -6.7557412e-01
  2.6441708e+00
 -3.1100053e-01
 -2.1747067e+00
  3.4461420e+00
  5.1189818e+00
 -1.6270297e+00
  3.9810327e-01
 -2.3058989e+00
 -6.7095339e-01
  9.2280072e-01
 -6.3843578e-01
  5.0067818e-01
 -2.9518254e+00
 -2.3948884e+00
  1.9938784e+00
 -4.3158255e+00
  9.7356987e-01
 -1.2765366e+00
 -1.9369895e+00
 -2.0769639e+00
  5.6897020e-01
  4.9467659e-01
  1.5794791e+00
  5.0668759e+00
 -3.7023970e-01
  1.8048041e+00
 -2.0823007e+00
  3.4326664e-01
 -5.1893711e-01
  1.7379692e-01
 -4.3561503e-01
  1.7593292e+00
 -1.2855722e+00
 -1.2681465e+00
 -7.6062489e-01
  1.1311948e+00
 -6.9712609e-01
 -3.5946637e-01
  1.5159812e+00
 -3.8197637e-01
  5.1021940e-01
  9.3207084e-02
 -8.7420452e-01
 -2.9694983e-01
 -3.0621328e+00
 -7.9649620e-02
 -4.3700305e-01
  1.8679407e-01
 -1.2482040e+00
 -1.0667491e+00
 -5.2785635e-01
  2.2673600e+00
  5.9976977e-01
 -2.6066487e+00
  1.1649245e-01
 -4.1508064e+00
  2.6294732e-02
 -1.2543571e+00
  8.7055188e-01
  7.2654587e-01
  1.8430194e+00
 -3.7547734e-01
  5.4816031e-01
  4.4466236e-01
  1.1092201e+00
 -5.1132572e-01
  2.1301703e-01
  7.3170893e-02
 -3.6153206e-01
 -7.0997751e-01
 -2.4088022e-01
 -6.9710892e-01
  9.5902497e-01
  9.8226354e-02
 -1.5973695e-01
 -4.0725538e-01
  1.1303397e+00
 -2.5641349e-01
  6.6333365e-01
  2.3480456e+00
 -2.6467443e-01
  3.0244848e-01
 -6.5736157e-01
 -4.3947630e+00
  3.2637413e+00
  3.6569241e-01
  2.0646797e-01
  4.3374893e-01
 -5.0951374e-01
 -2.1874547e+00
  2.0000124e+00
 -3.1523246e-01
  7.5799143e-01
  3.3312550e-01
 -1.6484866e-01
  5.6184018e-01
  9.5503724e-01
  2.1583893e+00
 -6.7211765e-01
  1.2719774e+00
 -5.5353627e-02
  6.4198929e-01
 -1.3145084e+00
 -2.5432459e-01
  1.9545376e-01
 -3.0228105e-01
  9.6254951e-01
  1.6924889e-01
  1.5890975e-02
  1.5995130e-01
 -2.3545442e+00
  2.9130745e-01
 -3.9564750e-01
 -3.7477887e-01
 -6.8508321e-01
  6.7892820e-01
  1.2710865e-01
  4.1926365e-02
 -2.5258985e-01
  4.7899684e-01
  9.3979090e-02
  1.2350812e-01
  1.5713045e-01
  3.1002933e-02
 -1.0234256e+00
 -1.4672877e-01
  6.1857796e+00
  8.3496231e-01
  2.9191101e-01
  1.8037564e-01
 -5.1268592e+00
  9.4321114e-01
 -1.7867059e+00
  5.7125074e-01
 -3.8995013e+00
 -6.8190879e-01
 -1.5932642e+00
 -8.7981594e-01
 -7.9439712e-01
 -2.7555664e+00
 -2.5270644e-01
 -2.4572413e-01
 -1.6696069e-01
  2.7900010e-01
  4.4404003e-01
  3.3646394e-02
  1.0658793e+00
 -1.5974447e-01
  1.0847824e-02
 -2.5717217e-01
  7.3414332e-01
  7.4869913e-01
  9.8300606e-01
 -9.9005419e-01
  1.5850814e-01
 -3.5230267e+00
  6.0648453e-01
  1.9877446e-01
 -1.8243427e+00
 -2.7846143e+00
 -7.0477897e-01
  1.2154384e-01
 -2.3911843e-01
  5.0752992e-03
  8.0395862e-02
 -1.5123013e+00
  2.7353090e-01
  1.4125201e+00
 -1.8999673e+00
  1.0699774e-01
  1.7159245e+00
 -6.5251613e-01
 -3.8264817e-01
  1.2114195e+00
 -1.7661479e+00
 -2.9930723e-01
  1.2276703e+00
  1.7524840e-01
  1.0001984e+00
 -1.7467376e+00
 -3.7118968e-02
  1.7406342e+00
  1.4022608e+00
 -2.3601630e+00
 -1.3280743e+00
 -2.3978183e+00
  2.1378357e+00
  1.4721342e+00
  3.6767182e-01
 -1.6803887e-01
  1.4033334e+00
  1.7433587e+00
 -2.2562355e-01
  2.3515558e+00
 -5.7009034e+00
  5.6868482e-01
  1.9607675e+00
 -3.7013525e-01
  1.3130565e+00
  1.6376079e+00
 -1.4620603e+00
 -1.0587361e+00
  1.6819400e-01
  9.5958821e-02
  1.0486000e+00
  1.8567015e-01
  6.7532629e-02
  2.4942891e-01
  1.1197033e+00
 -3.1324914e+00
  5.1878172e-01
 -2.3959670e+00
  1.2868607e+00
  1.6031106e-01
  4.6043706e+00
 -6.9594556e-01
  1.2751884e+00
  6.3686115e-01
  2.5977719e-01
  5.1002037e-03
 -1.9253231e+00
  2.6245372e+00
 -1.1969060e+00
  7.3599619e-01
  1.5362853e+00
  2.7016124e-02
 -3.4849855e-01
 -1.4174294e+00
 -1.0828384e+00
 -4.6914679e-01
 -8.0661261e-01
  1.8071817e-01
 -8.8845223e-02
  3.4885561e-01
  2.8445065e-01
 -5.4813784e-01
  2.3725727e-01
  4.2357680e-01
  3.0433342e+00
 -9.2629975e-01
  1.0103254e+00
  5.3088474e-01
 -7.3355615e-01
  3.6940843e-01
 -1.9039947e-01
  3.3975020e-03
  2.0863883e+00
 -7.6587397e-01
 -2.6339075e-01
  1.3443038e+00
 -8.3756334e-01
  4.3771198e-01
 -5.7243270e-01
 -2.1171315e+00
  2.1102345e+00
 -3.7159002e-01
 -1.1368246e-01
  4.3280113e-02
  7.9822290e-01
  7.3859267e-02
 -2.2434258e-01
 -2.3958023e+00
 -1.8569520e+00
  1.5570694e-01
  1.3346347e-01
  5.0825916e-02
  1.2307922e+00
 -6.2424028e-01
  2.0878465e+00
  6.9800198e-02
 -2.0400791e+00
 -6.9335337e+00
 -1.2771783e+00
 -1.0702766e+00
 -4.5783681e-01
 -1.2329439e+00
  6.7194438e-01
 -1.2531732e-01
  2.0955484e+00
  5.6891191e-01
  2.2074497e+00
  5.5943805e-01
  5.3179342e-01
  2.2012095e-01
  4.3596725e+00
 -1.8263796e-01
  9.6937889e-01
  5.2798009e-01
 -8.4461963e-01
  2.6743279e+00
  5.1822358e-01
 -7.5421639e-02
 -5.5501264e-01
 -1.4947070e+00
 -1.2078509e-01
 -5.5099754e+00
 -1.1473480e+00
  1.0066822e+00
  5.2876675e-01
 -1.7594047e-01
  1.4638807e+00
  5.9108216e-01
 -3.0765705e-02
 -4.3887779e-01
  1.5948584e+00
 -5.4015052e-01
 -4.0900648e-01
 -2.2238047e-01
 -8.0684477e-01
  2.4455512e+00
 -2.0647286e-01
 -1.7914660e+00
  3.0351201e-01
 -1.6260575e+00
  2.0746055e+00
  1.6835408e+00
  1.0336080e+00
 -2.1172754e-01
 -3.4119314e-01
  2.9795167e+00
 -3.1406574e+00
  8.9631289e-01
 -3.6506226e+00
 -6.9780380e-01
  1.9050835e+00
 -1.1223562e+00
 -2.8704748e-01
  6.7096069e-02
  1.1984679e+00
 -4.9341482e-01
 -1.2241759e+00
  3.7277870e+00
  1.2410588e+00
  1.4895474e+00
  6.5524286e-01
  1.5668185e-01
  1.7809956e+00
  1.4045997e+00
  4.3544587e-01
  1.2674385e+00
 -3.3851337e-01
  1.9950996e-01
 -2.4505757e-01
 -8.2491839e-01
  7.2357500e-01
 -2.8943892e+00
  1.4545472e+00
  7.2147518e-01
 -1.9098825e+00
  1.9394391e+00
  3.9750198e-01
 -7.6463586e-01
  5.1161230e-01
 -7.3844567e-02
  1.0749413e-02
  9.9886650e-01
  3.1552261e-01
  5.6572813e-01
 -9.5588040e-01
  1.3694811e+00
 -1.1475432e+00
  4.1306022e-01
  1.2100060e+00
  8.1691468e-01
  9.3280798e-01
  2.2556946e+00
 -3.4518026e-02
  3.1531870e-01
  3.3334419e-01
  1.7929069e+00
  2.9435125e-03
 -4.9462563e-01
 -4.6415031e-01
  3.2410750e-01
  6.9525555e-02
  9.5236605e-01
 -9.3556833e-01
  2.5669125e-01
 -3.3601373e-01
  1.3005601e-01
 -2.1041665e+00
 -1.4876573e-01
 -1.4641155e-01
 -2.3978992e+00
 -2.1381527e-02
  4.9204376e-01
 -1.8792933e+00
  1.5663713e+00
 -2.7773581e+00
  7.2773457e-01
 -1.1770672e+00
  1.0012452e-01
  1.7487150e+00
 -8.6274378e-02
  4.9093671e+00
 -7.9531074e-01
 -1.9485256e-02
  3.9423881e+00
 -9.4348967e-01
 -3.5368209e+00
 -2.7916615e+00
 -1.2092685e+00
 -1.3941022e+00
  2.8142970e+00
  1.2821383e+00
  1.2707928e+00
  3.7110442e-01
  7.2026646e-01
  7.6778889e-01
  3.4621978e+00
  1.1066071e+00
  2.3390004e-01
 -4.9259633e-01
  1.0355984e+00
 -2.7930460e+00
  3.9111924e+00
 -2.0072579e-01
 -6.4360070e-01
 -1.9522284e+00
  1.6492983e+00
  2.1917131e+00
 -1.3530652e-01
  6.3942701e-02
 -8.0157012e-01
 -5.2409548e-01
  1.4970867e-01
  1.0951524e+00
  4.8810906e+00
  2.5408628e+00
 -1.2676680e+00
 -1.1199468e+00
  5.7573393e-02
  1.3255985e-01
  2.1654277e-01
 -9.1084921e-01
  4.1977778e-02
 -4.3655306e-01
 -1.5925859e-01
 -1.2838307e-01
 -5.3628874e-01
  1.6117934e-02
 -1.5771796e-01
  6.1537826e-01
 -2.0528481e+00
 -3.0625615e-01
 -3.0316160e+00
 -3.9420556e-02
 -6.3898170e-01
 -2.3778794e+00
  1.5926386e+00
  1.7669511e+00
 -4.1280141e-01
 -1.4801772e-01
 -3.8762179e-01
  6.3680811e+00
  2.1392009e-01
 -1.8789932e+00
  1.8011315e-01
 -3.0252156e-01
 -2.0784168e+00
  6.4162195e-02
  5.0187820e-01
 -1.6707024e-01
 -6.2091815e-01
 -2.2477984e-01
  1.0354162e+00
 -5.7221669e-01
 -2.8689295e-01
  1.6820524e+00
  3.3389884e-01
 -9.3770367e-01
 -8.9000422e-01
 -1.1197850e-02
  1.0035219e+00
 -4.6007055e-01
  3.6198854e-02
 -5.9007920e-02
  3.2067409e-01
 -9.1477418e-01
 -1.3504353e+00
 -3.3403914e+00
  2.2251365e-01
 -1.1568791e+00
 -4.3449000e-01
 -4.1264148e+00
 -1.1878171e+00
 -5.5998311e+00
  3.4605810e-01
 -7.9760939e-02
 -2.8329358e-01
 -1.1742492e-01
  2.0926560e-01
  9.0897077e-01
  9.8816359e-01
 -1.4529840e-02
  1.4508510e-01
  9.1587162e-01
  2.3811111e-02
  1.2753716e+00
  1.4265575e-01
  4.9125266e+00
  2.1316686e+00
 -2.4089777e+00
  2.8311014e-01
 -1.5933853e-01
 -7.0636386e-01
  1.2726471e-01
  3.4277236e+00
  2.7218912e+00
  1.4133951e-01
  4.0441874e-01
  7.0093012e-01
  2.1897449e+00
 -1.0107181e-01
 -9.3441653e-01
  9.4471735e-01
  4.5626497e+00
 -2.5663868e-01
  4.6891260e-01
 -2.4822319e+00
  2.5626862e-01
 -7.3627067e-01
 -6.0046963e-02
 -1.1805075e+00
  4.3754020e+00
  8.5968316e-01
  1.2574546e+00
  7.6383704e-01
  1.5954293e+00
  3.0927813e+00
  5.3143430e-01
  5.8394384e-01
 -2.1685444e-01
  6.2606400e-01
  3.6098951e-01
  8.7548918e-01
 -1.4317639e+00
  1.6803865e+00
 -5.4942340e-01
 -2.8019993e+00
 -2.0110343e+00
  4.3435436e-02
  1.1525937e+00
 -1.4523989e+00
 -2.6537561e+00
  3.5723880e-01
 -6.3165164e-01
  1.3728213e+00
 -1.6586155e+00
 -9.4585335e-01
 -1.3202626e+00
 -7.1040440e-01
  3.3913987e+00
  1.1508243e+00
 -2.5826111e+00
  2.0168142e-01
  2.1247087e+00
  5.8313495e-01
  5.6845683e-01
 -4.9621806e+00
 -1.8788828e+00
 -1.7817944e+00
 -2.7705452e+00
 -7.5518832e-02
 -2.7796209e+00
 -2.2511182e+00
 -5.4964375e-01
 -3.4721833e-01
  2.3098471e+00
  1.2324326e-01
  6.8392915e-01
  3.2857080e+00
 -1.2254931e+00
  3.4124696e-01
 -1.9359138e+00
  2.0508386e-02
 -1.3716543e+00
 -4.1110039e-01
  9.4882488e-02
 -3.9503333e-01
  7.4501193e-01
 -2.8160977e+00
  5.5179977e-01
 -1.1862378e+00
 -2.2425354e-01
  5.5472106e-01
 -3.6564177e-01
  5.3088385e-01
  5.8849204e-01
 -4.2189115e-01
  1.3750439e+00
 -4.5239350e-01
 -1.0462438e+00
  1.4757417e-01
  1.0451171e+00
 -2.6697743e+00
  1.4592550e+00
 -4.0556321e+00
  2.5452767e-03
  2.7945408e-01
 -6.1618829e-01
 -3.0737889e-01
  3.6692080e-01
 -1.1077975e+00
 -1.3939418e+00
  5.9528184e-01
 -2.2459769e+00
  1.8231243e+00
  1.3954520e+00
 -2.8971391e+00
 -1.8713902e+00
 -6.3768071e-01
  3.2845511e+00
 -1.6912745e+00
  2.0613511e+00
 -2.7921078e+00
 -8.7403059e-01
 -4.7441113e-01
  2.4717882e+00
  2.4665852e+00
 -3.5981140e+00
  5.7750171e-01
  3.4204516e-01
  5.9987307e-02
 -2.8617764e+00
 -1.4153025e+00
  7.5319815e-01
 -1.2883455e-01
  1.2956867e+00
 -2.1915994e+00
 -7.5009191e-01
 -1.4355507e+00
 -1.2096718e-02
 -7.3792183e-01
  6.1138058e-01
 -1.0932274e+00
 -1.7415683e+00
 -2.8277264e+00
 -3.7720411e+00
  1.7726694e+00
 -1.1159953e+00
 -2.4617548e+00
 -2.7096531e+00
 -2.4081972e+00
  2.2407498e+00
 -2.6398271e-01
  2.8224015e-01
 -5.1636591e+00
 -4.0869641e+00
  1.5977061e+00
 -7.4775606e-01
  1.5328081e-01
  1.0255207e+00
  5.8713841e-01
 -1.5272163e+00
  9.6413052e-01
 -8.8158834e-01
 -6.3525230e-01
  3.1626940e-01
  6.1511308e-01
  6.6684443e-01
  4.0165055e-01
  7.8536946e-01
  2.6338211e-01
  1.5248156e-01
 -1.1474174e+00
  3.3366546e-01
 -1.9727412e-01
 -1.0294879e-01
  1.0527215e+00
  4.3295789e-01
  6.1992681e-01
 -7.6921143e-02
  1.3330841e+00
  4.8399076e-01
  4.1397985e-02
 -4.1135054e-02
 -3.4985617e-01
 -1.0979167e+00
  4.3175018e-01
 -2.2789757e-01
  6.9166076e-01
 -6.6223049e-01
  2.5046098e-01
 -3.2866916e-01
  8.0485809e-01
  1.6893809e+00
  8.6331338e-01
  2.9273286e-02
 -1.5835184e+00
 -6.4704305e-01
 -3.9041191e-01
  9.1733330e-01
 -3.0021081e+00
 -1.1415195e+00
 -3.1598890e-01
 -5.6899297e-01
 -1.1159018e-01
  3.9495349e-01
 -2.7089581e-01
 -4.4203052e-01
 -1.8356743e+00
 -1.8695964e-01
 -1.3076801e+00
  3.4960601e+00
 -2.4733543e+00
  7.3922403e-02
  3.6609587e-01
  4.2608467e-01
  1.6054103e+00
 -2.1582916e+00
 -6.4993960e-01
 -6.4229327e-01
 -3.5185197e-01
 -6.7143285e-01
  1.3695432e+00
  2.8303447e-01
 -1.9538916e+00
 -6.1901337e-01
  2.0474389e+00
 -1.2923931e+00
 -3.2526100e+00
 -1.1343814e+00
 -4.3290324e+00
 -5.0119865e-01
 -1.9869934e+00
 -2.6878220e-01
  3.6248386e-01
  2.7741883e+00
 -1.4302419e+00
  9.2918253e-01
 -2.3842062e-01
 -4.4347015e-01
  2.2150462e+00
  5.9544128e-01
 -1.0324503e+00
 -8.1860965e-01
  6.9689304e-01
  2.8973432e+00
  7.8100097e-01
 -1.3382659e+00
 -1.8491189e+00
  1.7258255e-01
 -1.5553670e+00
 -8.0753058e-01
  3.2320542e+00
 -7.2345161e-01
 -4.5687374e-01
 -8.2080954e-01
  7.7765352e-01
  7.1402031e-01
  1.3235836e+00
  2.7975366e-01
 -7.8827655e-01
  7.1838719e-01
 -4.6804813e-01
 -2.6747128e-01
 -1.7109854e+00
 -5.1593557e-02
  2.0505947e-01
 -3.3600736e-01
 -1.3103226e+00
  8.0589056e-01
  3.1257692e-01
  5.7525806e-02
  8.9255944e-03
 -1.2145250e-01
 -2.1985725e-01
 -9.5312297e-02
 -3.6858490e-01
 -4.2050126e-01
  1.5305147e-01
  1.0839543e+00
 -1.4038306e+00
  4.2099938e-01
 -8.3512264e-01
 -4.9427125e-01
 -1.8570275e+00
  6.8324327e-01
  1.3446043e-01
 -2.7563276e+00
 -4.4144520e-01
 -1.4968405e+00
  9.9126899e-01
 -1.1064838e+00
 -2.8169620e+00
 -2.3640002e-01
  8.7085712e-01
 -2.3742455e-01
 -3.4576300e-01
 -2.1582171e-02
  3.7361589e-01
 -7.4591851e-01
 -7.2603983e-01
 -2.8069670e+00
 -2.0195137e-01
  3.7514195e-01
 -5.2103704e-01
 -1.8690595e-01
  1.2766477e+00
 -6.2512672e-01
  1.1738212e+00
 -1.6067050e-01
 -1.2351475e+00
  3.0914280e+00
 -1.2145698e+00
 -2.4030596e-02
  9.9708132e-02
 -1.8829781e-01
  2.4447604e-01
  2.6509652e-02
 -2.8301609e+00
  3.4716025e-01
 -6.8426222e-01
 -3.2948503e-01
 -4.4263688e-01
  7.0702726e-01
 -4.7396305e-01
 -9.1662729e-01
  1.3372787e+00
  1.8577319e-01
  4.2246975e-02
 -5.7573974e-02
  2.5676173e-01
  4.5450476e-01
  1.0316871e+00
  2.6950768e-01
 -9.7703233e-02
  2.0651487e-01
  3.1591055e+00
  2.9104819e+00
 -6.0577106e-01
 -5.5975989e-02
 -4.9713498e-01
  1.1172124e+00
 -2.1942306e+00
  3.1969589e-01
  4.1061571e-01
 -2.8220043e+00
  4.4669485e+00
 -1.1519375e+00
  2.9639155e-01
 -9.6902594e-02
  1.7357866e+00
 -3.1353953e-01
  6.3677353e-01
  3.2357521e-02
 -1.0393098e-01
  4.8428833e-01
 -5.0116956e-01
  1.8946880e+00
  2.8508456e+00
 -3.1846222e-01
 -2.5751737e-01
  2.8684729e-01
 -8.6064351e-01
 -1.9069291e+00
 -1.3003545e+00
 -5.1005397e+00
 -2.9567572e-01
 -1.7851487e+00
  6.7945994e-02
  1.2199017e+00
  1.2456697e-01
  1.2701173e-01
  1.2686151e-01
  1.0351259e-01
  2.7304311e+00
 -8.7134051e-01
  2.7039993e+00
 -1.5432584e+00
 -1.2127190e-01
  1.1981282e-01
  1.9820254e-02
  5.0682478e+00
  1.9433970e+00
  4.5716987e+00
  2.8605325e+00
  7.4931806e-01
 -8.5571444e-01
 -2.7267201e+00
  4.1836804e-01
 -6.6292596e-01
 -1.5770270e+00
 -3.4313169e+00
  2.5825362e+00
  1.2687452e+00
 -3.5922566e-01
 -1.1335181e+00
  2.5590150e+00
  6.0072267e-01
  1.4489785e-02
  3.8238869e+00
  4.0714023e-01
 -6.7002642e-01
  2.3585095e+00
  6.1788857e-01
  6.7139149e-01
 -4.1504937e-01
 -1.6723787e+00
  1.2370038e+00
 -1.0120598e+00
  7.0004731e-01
 -1.9087578e-01
  9.3247169e-01
  2.7579076e+00
  2.9485213e-02
 -2.0961494e+00
  3.6475936e-01
  3.0498496e-01
  1.1781137e+00
  4.9759734e-01
 -3.3401313e-01
  6.1092460e-01
  1.7149670e-01
 -3.5056603e-01
 -8.6918551e-01
 -1.8732771e-01
 -1.1168071e+00
 -4.9473171e+00
 -5.2794099e-01
 -3.1697085e+00
 -8.3690602e-01
  4.3072498e-01
  1.5011959e+00
  4.7572353e-01
 -5.3036358e-02
  7.5417370e-01
  2.2282004e+00
 -1.3521394e-01
  1.0763496e+00
  4.8104959e+00
  1.6877283e-01
 -3.8996938e-01
 -7.0894685e+00
 -1.6607406e+00
 -4.2876107e-01
  8.6266506e-01
  1.0437337e+00
  3.3021811e-02
  6.7230612e-02
  1.7057149e-01
  8.5108966e-01
  5.0420117e-01
 -1.6362557e-01
 -1.3026798e+00
  1.3443440e+00
  4.3355744e-02
  9.7039866e-01
 -1.9928528e-02
  2.7452314e-01
 -2.8695649e-01
  1.3824880e+00
  1.0437782e+00
  2.7082887e-01
  6.6230559e-01
 -1.1191238e+00
 -1.3142079e+00
 -5.1891528e-02
  3.4251437e-01
 -2.7580056e-01
  1.2763186e+00
 -1.7147790e+00
  1.6505318e+00
  8.5834277e-01
  2.4779434e+00
 -1.7449596e+00
 -1.3085145e+00
 -1.1829364e+00
 -9.8543733e-01
 -4.8339158e-01
 -6.6006869e-02
 -2.1723938e+00
  5.9800711e+00
  3.4534341e-01
  1.8273982e+00
 -5.3130466e-02
 -1.1250732e+00
  6.7963833e-01
 -1.8497835e+00
  1.3547591e+00
  1.2460090e+00
 -3.5910699e-01
  3.9138758e-01
  1.3501306e+00
  2.5199210e-02
 -2.0595543e+00
  5.3459728e-01
  2.7993003e-01
 -3.6926454e-01
 -6.1824316e-01
 -2.8523329e-01
 -4.8792812e-01
 -1.7216894e-01
 -1.3009437e+00
 -2.5088284e+00
  1.2142739e+00
  5.6176219e-02
 -8.7969249e-01
 -2.6745486e-01
 -6.1222500e-01
 -1.3583262e-01
  2.2218411e+00
  2.8074145e+00
  1.1149818e+00
  1.4860969e+00
 -2.0271482e-01
 -2.4570161e-01
  5.3378934e-01
  4.2665877e+00
  1.7832856e+00
 -2.1503861e-01
 -1.2691988e+00
  1.8597100e+00
  6.4207524e-01
 -3.0676291e+00
 -1.9996019e-01
 -2.3761769e-01
  1.2418969e+00
 -9.2922963e-02
 -4.0933318e+00
 -1.2800063e-01
  1.1887334e-01
  1.0192039e+00
  1.4537451e-01
 -6.9088030e-01
  1.1117239e+00
 -2.4539442e-01
 -2.2737389e+00
  1.7492665e+00
  7.0005678e-02
 -5.9971623e-02
  7.3892689e-01
  4.5387536e-02
 -1.8207797e-01
  1.6093733e+00
 -2.0994978e+00
  1.2512702e+00
  3.8340311e-02
  7.9491919e-01
 -1.2067139e-02
  4.3921360e-01
 -8.7093663e-01
 -6.3010848e-01
 -1.4903630e+00
 -3.6606294e-01
 -2.5684240e+00
 -2.8972189e+00
  2.6618662e+00
 -5.0100718e-02
 -2.7873099e+00
 -2.3012660e+00
  2.4001797e-01
  1.2726386e+00
  2.8816223e-01
  3.0430419e+00
  6.0875958e-01
  7.4067819e-01
  7.9934657e-01
  1.3369637e+00
  1.2787503e+00
  9.2985255e-01
  1.2868933e-01
  4.7487793e+00
  1.8901564e-02
  1.1856197e+00
 -3.2009404e+00
 -2.8141621e-01
  1.1053984e+00
 -2.5725007e+00
 -7.4703354e-01
 -1.0740060e-01
 -2.0044713e+00
 -2.7664342e+00
 -5.3763026e-01
  1.3619021e+00
  1.8966416e-02
 -2.0173800e+00
 -3.1666527e+00
 -2.0166073e+00
  1.4180511e+00
  1.9031624e+00
  2.1025312e+00
  2.1695805e-01
 -2.4481211e+00
  2.6662987e-02
 -3.5738809e+00
 -4.8862692e-02
  2.3714207e-01
  4.6895847e-01
  5.7852872e-02
  4.5297948e-01
 -2.6921079e+00
 -1.3637848e+00
 -1.1129625e+00
  3.3046547e-01
  4.6643227e-01
  4.2416924e-01
  5.9486842e-01
  1.6969279e+00
 -1.2570987e+00
  2.5010171e+00
  1.5300371e-01
  3.3195405e+00
  3.9055163e-01
 -1.2810867e+00
 -1.0090399e+00
 -1.6486100e+00
 -1.2148731e-01
  1.8813276e-01
 -1.7743318e-01
 -3.8151920e-01
 -2.4317002e+00
 -6.0712743e-01
 -2.1875730e+00
 -6.3119715e-01
 -3.7639529e-02
 -4.8841149e-01
  1.2418881e-01
 -2.6318254e+00
  1.1741561e-01
  1.3324406e+00
  2.7229972e+00
 -3.7931988e-01
 -2.9776025e+00
 -1.8229167e+00
 -4.8433283e-01
  3.9860532e-01
  8.2777238e-01
  3.6581554e+00
 -1.4181116e+00
 -1.6442864e+00
 -5.6756479e-01
  3.6328781e-01
 -6.1852086e-01
  3.7387233e+00
 -3.8821375e-01
  4.0035293e-01
 -5.4152250e-01
  9.3758082e-01
  2.2867801e+00
 -3.1411254e-01
 -1.2355938e-01
  1.9205929e-01
  8.8791046e-03
  5.1430106e-02
  3.6752637e-02
  2.2533038e-01
  8.0843031e-01
  1.8718904e-02
  3.1849664e-01
  1.6069734e+00
  8.2111549e-01
 -3.6958030e-01
  4.1076395e-01
 -6.9759893e+00
 -4.7702849e-01
 -2.3178501e+00
  2.7022013e-01
  2.9991353e+00
  8.4664986e-02
  2.7385718e-01
 -3.2390526e-01
  3.0790973e-01
 -1.7630193e-01
 -5.2192634e-01
  5.1847100e-01
  2.1295843e+00
  7.3507649e-01
 -1.1052052e+00
 -6.1672127e-01
  2.2175934e+00
 -1.1928624e-01
  8.8135058e-01
  1.4846488e+00
  8.3660299e-01
  5.7584423e-01
 -3.3125684e-01
  2.4979998e-01
  1.0330584e+00
 -1.4219548e+00
 -8.7530494e-02
  3.7240392e-01
 -5.5745256e-01
  2.5292990e-01
  4.2419772e+00
  7.7508289e-01
 -1.8296763e+00
  5.4038197e-01
  2.5187144e+00
 -2.2549908e+00
  2.2768547e-01
 -3.1908686e+00
 -3.9903438e+00
 -4.9206784e-01
  1.7730976e+00
  1.1248802e+00
 -3.6647203e+00
  2.0068250e+00
 -6.6569901e+00
  2.4491823e-01
 -1.5767688e+00
  3.1680651e-02
  2.7009382e+00
  2.0743349e+00
  1.5153719e+00
 -2.8522924e-01
  2.5859013e+00
 -2.4676979e-01
  5.3397977e-01
 -1.8776910e+00
 -9.5835406e-01
 -7.8204179e-01
 -4.9480459e-01
  7.8303456e-01
 -1.8618156e-01
 -6.0543495e-01
  2.8498836e+00
  1.6476121e+00
 -1.7700472e+00
 -2.5692725e+00
 -2.8551517e+00
  6.7285441e-02
 -2.1630011e+00
 -3.6673987e-01
 -7.9732776e-01
  1.0696993e+00
  2.1105292e+00
 -8.6793810e-01
  4.0125709e+00
 -1.4166062e+00
  4.3416691e+00
  4.3788206e-02
 -4.1092701e+00
 -4.8613977e-01
  2.9309049e-01
 -2.2046027e+00
  1.2962402e+00
  6.6278738e-01
  1.3896555e+00
 -1.9432133e+00
  1.4364144e+00
 -1.0431015e+00
  5.1233936e-02
  4.5907384e-01
 -1.2648182e+00
 -7.0995945e-01
 -2.8315814e+00
  6.5292925e-01
 -1.7682788e+00
  1.4855291e+00
 -1.8158539e-01
 -2.2965796e+00
 -2.9274418e+00
  8.6911941e-01
  3.0836830e-01
 -2.9262352e-01
  2.4146774e-01
 -1.1902802e+00
  2.8955936e+00
  1.6783968e+00
  3.1268885e+00
  2.8719056e-01
  2.3013650e-01
 -3.3145872e-01
  2.5326989e+00
 -6.7850685e-01
  6.1672437e-01
  1.2415780e+00
  2.5907624e+00
  1.2021352e+00
  7.4590755e-01
 -4.7434855e+00
 -7.4178082e-01
 -1.2742791e+00
  1.2628402e+00
  5.4971498e-01
  6.2322151e-02
  2.7958682e-01
  1.6189700e+00
  4.2598944e+00
  4.7473803e-01
  2.3823850e-01
 -2.4863538e-01
  1.6121143e-02
  1.3510783e-01
  7.0314306e-01
 -3.2284144e-02
 -9.8413211e-01
 -1.7677695e+00
  6.9848418e-02
  2.8390816e-01
 -1.4181532e+00
  5.3695649e-01
  1.8617634e+00
 -3.2626421e+00
 -1.8784145e+00
 -8.2286602e-01
 -8.6431056e-01
 -2.5639108e-01
  1.6161301e+00
 -1.4942396e+00
  2.1881482e-01
 -8.6994970e-01
 -1.2250452e-02
 -7.7431208e-01
  2.9189309e-01
  2.0465379e+00
  9.6905285e-01
  4.2956570e-01
 -4.5850744e+00
 -2.9376199e+00
  3.8834590e-01
 -3.7624291e-01
  6.2249357e-01
 -6.0398936e-01
  5.5383134e-01
 -1.7141377e+00
  4.5909813e-01
  8.5561877e-01
  5.2979177e-01
 -1.8418220e-01
  1.3989691e+00
  2.2044587e+00
 -6.0995331e+00
  1.8365867e+00
 -3.0656329e-01
  4.5805702e-01
 -3.9656547e-01
  5.4239702e-01
 -1.8221204e+00
 -9.4744343e-01
 -7.7091962e-01
 -1.4287041e-01
  1.3785977e+00
 -2.0757456e-01
 -3.8173344e-02
 -1.1902226e+00
  4.1034722e+00
 -1.3200253e+00
  8.0750132e-01
  6.7292869e-01
  2.8543497e-02
  3.2966790e-01
 -4.1619247e-01
  2.4601011e+00
 -1.4034182e+00
  5.6806141e-01
  3.6437160e-01
  2.4291599e-02
  5.4422635e-01
  3.9880392e-01
 -3.5914460e-01
  4.8478980e-02
 -2.1010675e+00
 -3.6853287e-02
  1.0765772e+00
  2.4624877e+00
 -1.1218213e+00
  2.7544987e-01
 -2.4738947e-01
 -9.2077804e-01
 -1.4232916e+00
  2.5328675e-01
 -6.0623145e-01
 -1.3776828e+00
  7.6125985e-01
  1.4427938e+00
 -1.5444134e+00
  7.9094678e-01
  4.4868679e+00
  1.4820702e+00
 -6.2849754e-01
 -7.0837933e-01
  5.6783640e-01
  1.7464372e+00
 -8.9476109e-01
 -5.2503828e-02
 -2.5644699e-01
 -1.0866495e+00
  1.6976016e+00
  1.1247951e+00
 -1.1255474e+00
 -3.1279761e-01
  1.2694222e-01
 -6.9783551e-01
 -1.2115077e+00
  7.4814194e-01
 -9.3727246e-02
  2.6030067e-01
  4.7274438e-01
 -6.1302465e-01
 -1.1345837e+00
 -2.4989564e+00
 -9.0231277e-02
 -2.5896141e-01
  2.6627953e+00
  3.1353836e+00
  1.4639343e+00
  1.8534336e+00
  1.5064981e+00
  2.6232392e-01
 -1.3059304e+00
 -1.0239389e+00
  5.7709819e-01
 -1.2826115e+00
 -3.7011309e+00
 -3.4678406e-01
 -1.9450309e+00
  9.7320324e-01
  1.1280981e+00
  1.7690359e+00
 -2.7597988e+00
 -1.1192478e+00
  1.3598763e+00
  4.1371655e-01
  1.9944484e+00
 -2.4439981e+00
  1.1301426e+00
 -1.8738929e+00
  6.1113220e-01
  2.3117721e-01
  1.1317143e+00
 -2.0513463e-01
 -7.1938366e-01
 -4.7338051e-01
  1.9348758e-01
 -2.3954253e+00
  5.0039405e-01
  2.5484884e+00
 -2.6180689e+00
 -1.8520406e+00
 -1.1616815e+00
 -1.4938239e+00
  9.1440576e-01
  2.2418995e+00
  8.7559426e-01
 -3.5998982e-01
 -2.1235275e-01
 -3.6514848e-01
 -2.0898566e+00
  2.9015601e-01
  3.7954468e-02
  7.8430152e-01
  4.1749686e-01
  2.4477096e+00
 -6.3376707e-01
 -3.4715757e-02
 -3.7850091e-01
 -6.6204345e-01
 -4.9542075e-01
  3.4172332e+00
  7.8675580e-01
 -2.7950253e+00
  1.4777616e-01
 -1.5153364e+00
  7.6238155e-01
 -2.3217727e-01
  2.4687026e-01
  1.5906681e+00
 -8.7591416e-01
 -7.5915468e-01
 -1.7333604e+00
 -1.7040279e+00
  1.3664216e+00
 -3.7329024e-01
 -2.5506499e+00
 -6.4073050e-01
 -1.0047742e-02
 -5.8410186e-01
 -5.2886248e-01
 -5.6540698e-01
 -1.5132275e-01
 -1.2150522e+00
 -3.7570298e-01
  1.3268495e+00
 -4.4199273e-01
  4.5295876e-01
 -1.6780505e-02
 -1.0151461e-01
 -8.5472518e-01
  1.0584564e+00
 -1.2762871e+00
  1.0265968e+00
  1.6863504e-03
 -1.2145973e+00
 -7.6231164e-01
  1.0064445e+00
 -9.5146739e-01
 -7.6375735e-01
  1.2627037e+00
 -2.4135113e+00
 -1.6851036e-01
 -4.9735770e-01
  1.6056385e+00
  1.6245362e+00
 -4.4504957e+00
 -3.0120201e+00
 -4.0197885e-01
  4.4053426e-01
  2.8525338e-01
 -1.5980610e+00
 -2.8339696e+00
  8.6093730e-01
 -3.9047542e-01
  5.9284520e-01
 -1.4452056e+00
 -1.0897970e-01
  1.7593396e+00
 -2.6022370e+00
 -2.4555858e-02
  3.7139108e+00
 -3.2429519e-01
  1.1588695e+00
  1.6679968e+00
  2.3407228e+00
  1.3147955e+00
  1.4968497e+00
  5.8626633e-02
  2.8276415e+00
 -1.5156146e+00
  1.5900040e+00
  2.7586091e-01
 -2.0057985e-01
  1.4702761e-02
 -1.9126238e-01
  3.0046159e-01
 -4.8624787e+00
  5.3220981e-01
 -4.4729948e+00
  1.7874964e+00
  8.9670604e-01
  1.3375547e+00
  1.7800280e+00
  3.3294959e+00
  4.8734349e-01
  1.7834025e-02
  1.7746172e+00
  7.8004414e-01
 -1.1402673e-01
 -7.9830581e-01
 -2.4463768e+00
  1.7417245e-01
  3.3457184e-01
  2.6150720e+00
 -8.1633776e-02
  9.8850784e+00
 -5.4467731e+00
 -9.3402553e-01
  2.5603404e+00
 -2.4045990e+00
 -6.2760681e-02
 -7.6082945e-01
  6.9314623e-01
 -5.6958163e-01
 -3.9340314e-01
  6.7871720e-02
 -6.1460304e-01
 -6.5400630e-01
  2.0840454e+00
  4.0317097e-01
  4.9286249e-01
 -2.1780936e-01
 -1.3111874e+00
 -9.7519219e-02
 -2.7149573e-01
  1.3166713e+00
 -1.5107816e+00
 -1.2373648e+00
  1.0806287e-01
  9.9824840e-01
  1.6105273e+00
 -3.3673576e-01
 -3.5096556e-01
 -1.0029919e+00
 -5.8406299e-01
 -5.7952702e-02
  2.1940739e+00
  2.4332318e+00
  1.3311650e+00
 -4.7169572e-01
  1.8285807e+00
  1.0129354e+00
 -9.5052236e-01
  3.2623296e+00
  6.4720787e-02
  5.9155697e-01
  1.2182371e-01
 -1.1072860e+00
  1.9227084e+00
  2.2856283e+00
 -9.0944648e-01
  1.7930119e+00
  1.4845688e+00
 -1.0914979e+01
  1.4254377e+00
 -2.4686749e+00
 -7.9338722e-02
 -1.2712042e-01
  1.2362430e+00
  1.8170569e+00
  8.1661236e-01
  6.7851079e-01
  2.5690630e-01
  5.8465809e-02
 -2.8814466e+00
 -3.2742992e-01
  9.0099019e-01
  1.1794708e+00
 -1.2399791e+00
  1.5324987e-01
  2.6456469e-01
 -1.5180346e+00
 -3.1773265e-02
 -1.1096183e+00
 -9.3136072e-01
 -2.0701820e-01
  5.6714278e-01
  8.9325577e-01
  2.1425873e-01
  2.0783134e+00
 -2.3429246e+00
 -2.5927928e-01
  3.2728529e+00
  1.6265413e+00
  2.8643772e-01
  1.7631169e-01
 -1.5484303e-01
  2.7025485e+00
  1.9072163e-01
 -1.3226546e+00
  2.0943928e+00
  1.3099021e+00
  4.3579683e-02
  6.0354239e-01
  1.6193672e+00
 -5.8432907e-01
 -2.0620866e+00
 -2.2738469e+00
  6.8001974e-01
 -2.3242638e+00
 -1.5843172e+00
 -2.6732428e+00
  2.0087216e+00
  7.4359598e+00
  1.3203328e+00
  1.7460496e+00
 -9.5317990e-01
  7.0138850e+00
 -4.1952724e+00
  1.2033764e-01
 -5.2645249e+00
 -4.0201396e-01
  1.8379337e+00
 -4.3551898e-01
 -1.0353898e+00
 -4.0945730e+00
 -2.8025873e+00
 -3.4188750e+00
 -2.0961735e+00
 -1.7086217e+00
 -7.1610373e-01
 -8.5301280e-01
 -2.8873572e+00
  2.6447973e+00
 -2.2403370e-03
 -2.6290443e+00
  1.0841074e+00
  4.4387345e+00
 -9.9806410e-01
 -1.1538709e+00
 -2.1288055e-01
 -3.7465495e-01
 -4.4160938e+00
  6.4626318e-01
 -1.8556452e+00
  1.2927963e-01
 -4.2533946e-01
 -2.0200191e+00
 -6.1160690e-01
 -9.6941936e-01
 -4.0695640e-01
 -1.7752559e+00
 -1.9858693e-01
  1.1835032e+00
 -2.2042875e+00
  6.1245374e-02
 -2.5074859e+00
  2.2456424e-01
 -6.2848732e-02
 -1.1892667e+00
 -2.3765016e+00
  5.2138752e-01
  6.5457499e-01
 -6.2801796e-01
 -1.2253267e+00
  2.4377563e+00
 -4.0355182e-01
 -2.3414664e+00
 -5.3978157e+00
 -4.0337605e+00
 -2.5670370e-01
  2.7944169e+00
  3.4340057e+00
 -1.2108551e-01
 -3.9606279e-01
 -1.0323766e-01
 -3.4172745e+00
  3.6117584e-02
 -2.6963601e+00
  8.1002247e-01
  1.9292954e+00
 -3.5493805e+00
  1.4666384e+00
  3.3741054e-01
  2.1160690e-01
 -7.1134990e-01
 -2.5572913e+00
  4.8579961e-01
 -3.4636760e-01
 -3.3972812e+00
 -1.0877031e+00
 -4.7456500e-01
 -1.1793793e-01
  7.0864594e-01
 -6.9496202e-01
 -8.4735084e-01
 -2.2246605e-01
 -1.2654001e+00
  2.8122816e+00
  9.9989551e-01
  2.4633062e+00
 -5.5344801e+00
  2.6123347e-02
  1.6644359e-01
 -2.0467932e+00
 -7.2340226e-01
 -6.3319987e-01
 -7.3286310e-02
 -2.9265060e+00
 -6.3787401e-01
 -3.8804727e+00
  2.4090300e+00
 -1.6287491e+00
  4.8413402e-01
 -1.4481994e+00
  1.1066598e+00
 -1.6509243e+00
  6.6736251e-02
 -6.5042841e-01
  6.6448903e-01
  2.0576967e-01
  2.6390171e-01
  8.4877747e-01
  2.2280230e-01
 -2.8870556e+00
 -7.8310597e-01
  1.0660776e+00
 -9.1917209e-02
 -2.2344017e+00
  2.3599665e-01
 -1.9564685e-01
 -2.6186046e-01
  8.6755179e-02
 -2.8074524e+00
 -4.7310492e-01
 -1.0625435e-01
 -5.5307472e-01
 -3.0029488e-01
 -5.4299229e-01
 -3.7990960e-01
  1.6966012e+00
 -5.1742709e-01
 -2.1594606e-02
  1.7284176e+00
  1.0381956e+00
 -9.2499800e-02
 -6.0015422e-01
  2.1554895e-01
 -5.5792868e-02
 -4.7777552e-02
 -3.0236759e+00
 -5.8739114e-01
  1.7746314e+00
 -6.6819137e-01
  1.9024651e+00
  5.8857977e-01
 -7.8734832e+00
 -3.9943702e+00
  1.8167759e+00
  3.5147834e-01
 -3.3529410e-01
  2.0070531e+00
  6.0518408e-01
 -1.8588364e+00
  6.2136954e-01
  3.2902141e+00
 -5.9202977e-02
 -1.1979427e-01
 -2.3415527e+00
  4.1646427e-01
  3.4699063e+00
  1.7370241e+00
  1.0558587e+00
  2.2106974e+00
  1.2014568e+00
 -3.9101712e-02
 -1.9129367e-01
  1.5597266e+00
 -5.5685169e-01
 -8.9403194e-01
 -8.8670278e-01
 -7.0495903e-02
  1.2114865e+00
 -1.7491229e-01
  3.4703290e-01
 -1.1529047e+00
  6.1025229e+00
  1.9141023e+00
 -2.7522554e+00
 -3.8579887e-01
 -1.9200010e+00
  1.3311119e+00
 -4.8443100e-01
  6.2180414e+00
 -1.9999659e+00
  4.7283083e-01
  5.9162817e+00
  2.3521407e-01
  1.2091165e+00
  3.7423447e-01
  1.1035067e+00
 -4.2291703e+00
 -9.4878668e-01
  3.8487488e-01
 -1.0174377e+00
 -4.6764693e+00
 -2.3652055e+00
 -2.9010541e+00
  2.8325129e+00
  2.8083080e-01
  2.4866617e+00
 -2.0448689e+00
  6.1314541e-01
 -8.1910469e-02
 -1.1754944e+00
  2.0449581e+00
 -3.9479761e+00
  2.3664379e+00
  1.6685696e+00
 -1.7118955e+00
  1.6772028e+00
 -3.7421906e+00
 -1.0452784e+01
  5.3423232e-01
 -2.5283948e-01
 -5.8172607e+00
 -3.2818449e-01
 -2.1486177e+00
  9.4993033e-02
  1.0776219e+00
  2.4044549e+00
  1.5306853e-01
 -2.8875241e-01
  6.1924944e+00
  5.2771020e-01
  8.7781709e-01
 -1.4069359e+00
  9.6600795e-01
  2.0764630e+00
  9.2655665e-01
  5.3994276e-02
  1.9601079e+00
 -4.1248430e-02
  1.5632615e+00
 -1.7661691e+00
  4.3123770e+00
 -1.6401174e+00
 -3.5178069e-02
 -1.8559607e+00
  2.1366358e+00
 -3.5293303e+00
 -7.1684951e-01
 -2.9352555e-01
 -1.1367320e-01
 -1.0772531e-01
  9.6347106e-01
  3.5252288e-01
  1.1798698e+00
  7.6918507e-01
 -2.2635019e+00
  3.2210788e-01
  8.7002449e-02
  1.3804872e+00
 -3.1658006e-01
  1.0865349e-01
  1.5064502e-01
 -3.3664006e-01
 -3.4666514e-01
 -6.1981928e-01
 -1.4566848e+00
 -1.8596081e-01
 -7.0188515e-02
  2.7957407e-01
  3.0373707e+00
  1.1214322e+00
  7.8421986e-01
 -8.0658752e-01
  1.3951927e-01
 -1.3828465e+00
 -3.4829853e+00
 -2.6658279e-01
 -2.7798721e-01
 -1.2756000e+00
 -4.9700278e-01
 -1.6178380e+00
 -1.2095741e+00
  1.6393157e+00
 -1.4442470e+00
 -8.4474045e-01
 -5.8875144e-01
  1.1268667e+00
 -6.3582219e-02
  1.7974865e+00
  2.4654780e-01
  1.6512690e+00
 -3.8287086e+00
  4.5835328e-01
 -2.5881859e-03
 -2.7691901e-01
  2.3937264e-01
 -5.6587709e-03
 -9.9825996e-01
  4.8158810e-01
 -8.7528378e-02
 -3.9586506e+00
  4.3640065e-01
 -1.5020368e+00
  5.3111941e-01
 -7.2730464e-01
  4.9271446e-01
  7.4840993e-01
  5.6194812e-01
  4.6949420e+00
 -7.5920015e-03
  9.2926222e-01
  1.0135188e+00
  2.9802455e-03
  1.0819058e+00
 -2.4235630e+00
 -3.4783062e-01
  6.0408533e-01
  1.2089344e+00
  4.2270434e-01
  3.8836962e-01
 -1.1957984e+00
 -1.2795720e+00
 -8.9770693e-01
 -2.6986609e+00
  8.6588264e-01
  1.3975475e-02
  1.9165484e+00
  1.2315729e+00
 -3.5730809e-01
 -7.3806995e-01
  7.5777447e-01
  6.5855390e-01
  2.9238608e+00
 -2.3924413e+00
 -6.7250342e+00
  1.4021366e+00
 -8.8433260e-01
  1.4260460e+00
  1.3008966e+00
  1.4131893e+00
  8.5552053e+00
  5.6617675e+00
  3.3610449e+00
  1.1446970e-01
 -3.7576929e-01
 -3.5366337e+00
 -2.9298117e+00
 -1.1109576e+00
 -1.6772160e-01
 -7.1460629e-01
 -1.3770757e+00
 -3.6785102e-01
  1.8683039e+00
  1.3593746e+00
 -5.8719654e+00
  2.9101627e+00
 -1.2871546e+00
  1.5635332e+00
  1.8268073e-01
  1.3089547e+00
 -5.9907454e-01
 -1.0659052e+00
 -1.2413776e+00
  2.0620683e-01
  1.0260637e+00
  2.9309712e-02
  1.2750418e-01
 -1.2052780e-01
  1.2645744e-01
  7.2961140e-01
 -1.8194252e+00
  3.6028984e-01
  1.4011487e+00
  6.8952900e-01
  1.3298039e+00
 -1.3687779e+00
 -9.0817767e-01
 -7.8644806e-01
 -6.4375430e-01
 -5.9862864e-01
 -4.8634097e-01
  6.0821974e-01
  4.1021335e-01
 -1.5969148e-01
 -2.8126812e+00
 -5.9623826e-01
  2.7585369e-01
  6.4761591e-01
 -3.5934874e-01
  5.7005405e-01
 -3.2546073e-01
 -1.9327252e-01
  1.3328118e+00
  8.1448384e-02
 -3.4865506e+00
 -3.1198056e+00
 -4.6492505e-01
 -8.8027734e-01
  1.8433884e+00
  1.2484709e+00
 -6.8653882e-01
  6.4515543e-01
  5.7237607e-01
  4.3430071e+00
  5.2909124e-01
  9.4002235e-01
 -9.5446205e-01
 -2.7401376e+00
  1.1337291e+00
  9.2905862e-03
  8.9416367e-01
 -1.3756049e-01
  5.2580458e-01
  6.4913410e-01
  6.4645286e+00
 -4.3164456e-01
 -8.4158164e-01
  2.3792192e-02
  2.7047992e+00
  3.0579681e+00
 -2.7382785e-01
  3.3551896e-01
 -3.4486160e-02
 -8.3152896e-01
  1.6935964e+00
 -1.6252350e+00
  9.0242952e-01
  4.4047246e+00
 -1.2551175e-01
 -1.8098719e+00
 -3.6041194e-01
  1.4355723e+00
  4.6797670e-02
  8.2253397e-01
  3.0213055e-01
  1.9108011e-01
 -1.1234649e-01
 -2.6672834e-01
 -1.4938432e+00
 -5.4546518e+00
  1.3398607e+00
 -2.8762996e+00
  3.1066632e+00
  7.6736832e-01
 -7.4921840e-01
  7.3861784e-01
  4.3835087e-05
 -9.0565912e-02
  1.2236815e-02
  1.5760305e+00
 -7.9065341e-01
  1.7587551e+00
 -7.3807019e-01
 -2.6768620e+00
 -3.9577666e-03
  1.8184222e+00
  3.2474124e+00
 -2.6131210e-01
  1.0492655e-01
  1.2507662e-01
  1.6217513e-01
 -2.1973999e-01
 -5.1153171e-01
 -1.2785186e+00
 -1.0962703e+00
  1.9692549e-01
 -4.1415262e+00
  6.4863123e-02
  2.5314846e+00
  4.2446718e+00
  2.9996490e-01
  1.6319526e+00
 -6.5444964e-01
  2.5815835e+00
  4.8857123e-01
 -1.0769572e+00
  8.7916446e-01
 -1.1747983e+00
 -2.8855619e-01
  1.2438904e-01
  9.8690651e-02
  4.9405694e-01
 -1.4398258e+00
 -3.2053910e-02
  3.2894096e-01
 -1.3219360e-01
 -1.6767523e+00
 -7.2749227e-01
 -4.1587191e+00
 -1.8589835e-01
  8.9300394e-01
 -7.8040880e-01
 -1.2286358e+00
 -1.1101665e+00
  2.5816217e-01
  4.7115883e-01
  9.1676456e-01
  4.0128117e+00
 -1.0346894e+00
 -5.6519470e+00
 -1.6850295e+00
  1.5875850e+00
  1.2158405e+00
 -9.5424867e-01
 -3.9898608e+00
 -1.6405609e+00
  7.6032299e-01
  1.7520427e+00
  3.6764085e+00
 -2.3310513e+00
  1.4426297e+00
 -4.4927642e-01
 -1.0608722e+00
  4.0705568e-01
 -4.4970363e-02
 -2.9957683e+00
  2.2879007e+00
  7.0438094e-02
 -4.2717215e-01
  6.8874770e-01
 -4.6710292e-01
  4.1222628e-02
  5.5443406e-01
  9.0657657e-01
 -7.7009273e-01
 -3.8095863e+00
 -3.9361078e-02
  1.1887155e-01
 -5.3237778e-01
  1.0704463e+00
 -5.3496605e-01
  2.2655956e-01
  2.1142550e-01
 -4.7770089e-01
  2.6587961e+00
 -3.2009870e-01
 -6.8923718e-01
 -6.6800445e-01
  3.9557579e-01
 -1.1717829e+00
  6.5738952e-01
 -6.9019765e-02
 -8.4959887e-02
 -3.4815255e-01
 -3.3121796e+00
  1.8080348e-01
 -2.2522192e-01
  6.2634975e-01
  4.7438183e+00
 -3.2321151e-02
  1.7821697e+00
 -1.6413362e+00
 -1.5264777e+00
  5.7961333e-01
 -1.0414450e+00
 -7.7461153e-01
 -9.4604725e-01
 -2.4811220e+00
 -3.6835167e-01
  4.3120295e-01
 -1.1479115e+00
 -9.0084374e-01
 -7.0830852e-01
 -1.1902305e-01
  2.3633154e-01
  3.5990882e-01
  1.1815605e-01
  2.4757679e-01
 -1.1023692e-01
 -1.6313574e-01
 -1.5632351e-01
 -1.2170129e+00
  3.2628305e+00
  2.5917619e-01
  4.2938366e+00
 -3.5004562e-01
 -7.7512938e-01
 -1.6955163e+00
 -2.8804371e-01
 -1.6145560e+00
 -6.1294681e-01
  3.1130123e+00
  3.0740032e-01
  1.0921814e+00
 -2.5162417e-01
 -9.1005868e-01
 -7.3776662e-02
 -1.0650626e+00
 -4.4555637e-01
  4.0482440e+00
 -1.2776015e+00
 -3.1449604e-01
 -2.9408556e-01
 -2.5808176e-01
 -2.0045187e+00
 -9.5367980e-01
  2.4371245e+00
  9.5747173e-01
  9.1343850e-01
 -2.9745555e+00
 -6.9029939e-01
  8.3997679e-01
  1.2912062e-01
  4.7278595e-01
  4.2691934e-01
  2.6086223e-01
  1.1420605e+00
  1.8706409e-02
  1.8565699e-01
  3.5589334e-01
  2.7478712e+00
  1.4413490e+00
  3.1519003e+00
 -7.1236831e-01
 -2.2547722e+00
 -1.7150351e-01
 -4.2798957e-01
 -3.3225822e-01
 -1.2512984e+00
  4.6252474e-01
 -5.3715914e-01
  2.1508179e+00
 -9.8354667e-02
 -9.8420256e-01
 -2.7760537e+00
  3.0213871e+00
 -6.5528715e-01
 -1.5476097e-01
  3.0113918e-01
  2.9025867e+00
  8.2445049e-01
 -6.8084460e-01
 -6.5939045e-01
 -5.5134451e-01
 -1.6138217e+00
 -1.3505145e+00
 -1.5884943e+00
  1.3198831e-02
 -4.8631644e-01
  5.9702396e-02
 -1.5558789e+00
  8.9592785e-01
 -1.0146096e-01
 -6.2371296e-01
 -2.6374857e+00
  2.1159461e-01
  7.0977134e-01
 -1.1213435e+00
  3.1684023e-01
  1.1748937e+00
 -1.7887560e+00
 -5.5420168e-02
 -2.6118106e-01
 -1.1695431e+00
 -6.5533459e-02
 -3.6751459e+00
  1.8906480e+00
 -3.3644083e-01
 -9.5606804e-01
  3.1042963e-01
 -5.3403300e-01
  1.4536783e+00
 -1.8893364e-01
 -1.5394400e+00
  1.5073588e+00
  1.4909207e+00
  2.7952254e+00
  2.0151608e+00
  1.3406838e+00
  1.0715810e+00
 -3.6712924e-01
 -7.9187536e-01
  1.1232476e+00
  1.5675691e+00
 -8.7730515e-01
  6.7214954e-01
  1.8154451e+00
  5.1660192e-01
 -4.8541021e-01
 -2.6949871e+00
 -6.6736112e+00
 -1.8277849e-01
  2.7715269e-01
  3.5364814e+00
 -1.3876379e+00
 -4.1698432e+00
 -4.4024742e-01
  1.5957202e+00
  1.5025176e-01
 -8.8670748e-01
 -1.6129521e+00
 -2.3948011e+00
  1.7292928e+00
 -4.3387142e-01
  1.3120248e+00
  2.3597744e+00
 -2.9577428e-01
 -2.7092474e+00
  1.4490256e+00
 -2.5324643e+00
 -1.0586792e+00
 -1.8214169e+00
 -1.3478974e+00
 -3.1446247e+00
  8.9116639e-01
 -5.4267120e-01
  1.4325815e+00
  9.8994166e-01
 -7.1780080e-01
 -1.0634373e+00
 -5.6944304e+00
  1.0120311e+00
  2.0672061e+00
  1.3300229e+00
  3.0262884e-01
 -4.4630161e-01
 -9.6908903e+00
  1.0092440e+00
  1.7575485e+00
 -2.3195453e+00
 -2.0865779e+00
  3.0640600e+00
 -9.2017931e-01
 -2.9570963e+00
 -1.9405941e+00
  2.1581614e+00
 -6.3505950e+00
  5.3493524e-01
 -1.2580873e+00
 -2.4884884e+00
  1.8042871e+00
 -5.1436157e+00
 -3.6931973e-02
  3.2551971e-01
 -4.8246223e-01
  3.1530685e+00
  1.6542466e-01
 -1.2818282e+00
 -1.7874274e-01
 -4.6206126e+00
 -1.4302189e+00
  5.6320506e-01
  1.0635486e+00
  1.2046565e+00
  1.3154863e-01
  1.0318614e-01
  2.5442868e-01
  1.7042112e+00
  3.4659678e-01
 -3.0114710e-01
 -6.5986377e-01
 -2.5512096e-01
  6.0494745e-01
 -5.6624156e-01
  3.6569652e-01
 -1.7672844e-01
 -3.4920052e-01
 -1.1480622e+00
  3.1807590e+00
  2.0342156e-01
 -2.1729419e+00
  3.2324085e+00
  3.7147987e-01
 -2.1279147e+00
 -1.0741708e+00
 -1.1080711e+00
 -5.9736156e-01
  1.2294367e-01
  1.0802532e+00
 -7.2080326e-01
 -1.5280949e+00
 -2.2307124e+00
 -2.8144288e-01
 -7.3472661e-01
 -3.7060007e-01
 -1.1085443e+00
  1.5058468e-01
  2.0704456e-01
  3.4214658e-01
 -3.0029151e-01
 -1.2533003e+00
  4.3453121e-01
  4.4136643e-01
 -7.9726400e-03
  1.7300877e-01
 -1.6136606e-01
  1.2807609e+00
 -8.9728050e-03
  9.5444703e-01
 -8.1019126e-02
 -7.0441419e-01
 -3.2642061e-01
 -8.2159364e-01
 -5.7638383e-01
 -6.7883432e-02
 -3.8683972e-01
 -4.7081098e-02
  2.5470335e+00
 -6.6694695e-01
  2.7951837e-01
 -1.3874218e-01
 -2.2504091e+00
  2.0793581e+00
 -2.7270961e+00
 -8.7014210e-01
 -1.3332071e+00
 -1.2066822e+00
  1.1228495e+00
 -2.5712116e+00
  1.2256967e-01
 -9.2412156e-01
  1.1330275e-01
  8.3396721e-01
 -2.0900583e+00
 -6.5066868e-01
 -3.6102754e-01
  1.4760696e+00
 -3.7247908e-01
 -9.7128397e-01
 -1.3075806e+00
 -6.4424700e-01
  1.8346344e+00
 -2.5252895e+00
 -4.8801851e-01
 -4.3052673e-01
  6.4690967e+00
 -6.7008692e-01
  1.1697015e+00
  1.4093766e-01
 -4.2871249e-01
  5.7905942e-01
  1.6141462e+00
 -2.8817387e+00
 -4.7142806e+00
  5.6967635e+00
  4.5681052e+00
  1.5872906e+00
  2.1707768e+00
 -2.3097944e+00
  4.5559916e-01
  2.6488531e-01
 -1.2113154e+00
 -5.1933208e+00
  1.5852962e-01
  3.5760528e-01
  4.4010082e-01
 -2.4067985e-01
 -1.5582991e+00
 -3.1840270e+00
  1.4179078e+00
  8.9133406e-01
 -5.7866273e+00
  6.4069889e-02
 -7.9832697e-01
  2.1445450e-01
 -9.4090235e-01
 -3.3900797e-01
 -2.0763257e+00
  5.0721663e-01
 -5.8242470e-01
 -1.1165326e-01
  1.3246481e+00
  3.1401087e-02
 -1.0335584e+00
  1.5354092e+00
 -3.7417903e+00
 -3.0885804e+00
  1.1516930e+00
  7.4313766e-01
 -7.3502481e-01
  3.1087363e+00
 -4.5019422e-02
 -8.8091195e-02
  2.5649495e+00
 -1.9775495e-01
  3.1358346e-01
  8.4403479e-01
  2.9707235e-01
  1.3928820e-01
  1.5497774e-02
  9.7413786e-02
  1.8993427e+00
 -9.7359389e-01
  6.5625566e-01
 -4.0042049e-01
  1.1257118e+00
  1.1505109e+00
  5.6546062e-01
  2.6408681e-01
 -1.4653094e+00
  3.7845084e-01
 -7.0945030e-01
  5.9641832e-01
  8.1967741e-01
  7.5605834e-01
  3.7914822e+00
  3.1723818e-01
 -1.6822021e+00
  1.9117060e+00
 -9.6091729e-01
 -1.3721322e+00
 -1.2398398e+00
 -2.9253536e-01
 -6.7051485e-02
 -2.5773937e-01
 -9.3135959e-01
  4.4689053e-01
  1.7590300e+00
 -9.7274852e-01
  4.3985834e+00
  2.3236835e-01
  7.7676304e-02
  5.0927776e-01
 -6.1917537e-01
  5.3060967e-01
 -1.2229877e-01
  3.9240342e-01
 -1.3282466e-01
  1.4633135e-01
 -2.9591857e-02
 -1.1694129e-01
 -7.3657894e-01
  3.0448050e+00
  1.5254043e+00
 -1.6980090e+00
  3.4597439e-01
  4.7054123e-02
 -5.9786290e-01
  1.5448914e+00
  3.2982907e-01
  1.6111261e-01
 -6.2661856e-01
  2.1106887e+00
  1.2297590e+00
  2.1104205e-01
  3.5404520e+00
  9.0945184e-01
  2.5581312e+00
 -1.0316071e-02
 -7.5495338e-01
  2.3040824e-01
 -1.4023477e+00
  2.1498210e+00
  8.7964553e-01
 -3.2251292e-01
  1.8869694e+00
  5.2886361e-01
  2.2549312e+00
 -6.8178439e-01
  3.9864948e-01
 -6.8731648e-01
 -2.8080454e+00
  3.3404315e+00
  4.5483279e-01
  3.8627520e+00
  5.9890432e+00
  4.9930230e-01
  7.2135001e-02
 -3.8529283e-01
  3.0947691e-01
  3.1587967e-01
  2.6384952e-02
 -2.1318841e-01
 -3.9855310e-01
 -4.5643610e-01
  5.7903790e-01
 -1.1421223e-01
 -4.4292089e-01
  1.7934920e-01
  3.5228118e-02
 -2.7224967e-01
  2.2042668e+00
 -1.1193899e-02
 -1.6677527e+00
  3.7500288e-02
  7.3726779e-01
 -3.3374608e-01
 -3.7709389e-02
  1.3387784e+00
  1.9636458e-01
  1.8439011e-01
 -3.5765469e-01
 -1.3181406e-01
 -1.6837552e-01
 -5.1761121e-01
  1.4541003e+00
  7.8955543e-01
 -1.6475445e-01
  1.2327944e+00
  1.3425581e+00
  5.3618431e-01
 -5.5893320e-01
 -6.1552995e-01
 -9.1057843e-01
 -9.2852175e-01
 -1.3576300e-01
 -5.2032098e-02
  5.2562523e-01
  5.0557113e-01
 -3.0575871e-01
  3.1945601e+00
  5.1114228e-02
  1.6162586e-01
 -1.5177564e-01
 -1.0697188e+00
  1.4375660e+00
 -3.1388560e-01
  3.3992249e-01
  3.7999874e-01
 -2.7317303e-01
 -7.3548792e-05
  1.5340104e+00
 -4.1156278e+00
 -1.4275386e+00
 -1.3692617e+00
 -2.0873659e+00
  4.7174996e-01
 -3.4638646e-01
  1.8350846e+00
 -7.3856807e-01
  1.7881344e-01
 -1.6062764e+00
 -8.2484376e-01
 -2.1062739e-02
  3.0403048e-01
 -1.0239639e+00
 -1.8825883e-01
 -1.1453534e+00
  3.0761215e-01
  2.0191669e+00
 -1.5696238e+00
 -2.4525905e+00
 -1.4708394e-01
 -4.3628678e-02
 -9.2839545e-01
 -1.3261789e+00
 -1.0935982e+00
  6.8236315e-01
  3.9047560e-01
 -7.7501237e-01
  1.2036885e-01
 -3.2208178e+00
 -9.1226912e-01
 -2.5598612e-01
 -7.8976554e-01
  2.1339360e-01
  2.6355863e+00
  4.1415846e-01
  1.1629730e-01
 -1.3763261e-01
  2.0982051e+00
  4.2701343e-01
  1.7376664e+00
 -4.4896305e-01
  5.5466175e-01
  1.7262121e+00
  1.3622717e+00
 -1.1652489e+00
  2.3398886e+00
  2.1800439e+00
  3.8884974e-01
  1.3114280e+00
 -9.9996531e-01
  2.4089584e+00
 -3.5141754e-01
  1.6150581e+00
 -6.4091742e-02
  1.0157765e+00
 -1.4595566e+00
  1.5173655e+00
 -3.6803448e-01
  8.6294882e-02
  1.2443149e-01
  2.6314983e+00
 -1.6981325e+00
 -2.5295017e+00
 -2.2685289e+00
 -1.1811142e-02
  2.6821321e-01
  3.3629391e-01
  1.2006483e+00
  1.4539334e+00
  2.5521424e-01
 -3.2506409e-01
  8.4385818e-01
  8.6492115e-01
  1.2068518e+00
 -1.3134809e+00
  1.6901328e-01
  2.1923228e-01
  8.3988750e-01
  7.1442360e-01
  4.8611555e-01
 -1.3286389e+00
 -7.8394324e-01
  2.0411415e+00
  4.0613723e-01
  1.1523071e-01
  1.3320389e+00
  2.0289938e-01
 -1.3795474e-01
  1.6630664e-01
 -1.4593631e-01
 -7.4140054e-01
 -3.1130724e+00
  1.1216280e+00
  8.1102133e-02
  1.2667204e-01
 -1.0546260e-01
 -1.6269976e-01
  2.7779111e-01
 -2.4615121e-01
  8.3222024e-02
 -3.5981220e-01
  1.7434295e+00
  6.7914265e-01
 -3.3559717e-02
 -9.8389171e-02
  1.9705629e-01
  4.3030276e+00
  6.2578845e-01
 -7.1894121e-01
  2.7520435e-02
 -1.2818095e-01
  1.5693725e+00
 -5.8394605e-01
 -6.4985156e-01
  1.7295768e-04
  4.5735147e-02
 -8.6964738e-01
  2.7740562e-01
  3.4859443e+00
 -1.2385241e+00
  1.6219583e+00
  2.5575346e-01
 -7.8874499e-01
  1.1682830e+00
  2.8220856e-01
  2.1162097e+00
 -2.1500335e+00
  2.6626623e+00
 -1.1894085e-01
 -1.0126929e+00
  9.1619414e-01
  1.9942001e-01
  1.4980845e+00
 -1.8705661e+00
 -5.1126588e-02
 -6.7824048e-01
 -2.5959200e-01
  4.8580578e-01
  3.4977034e-01
  6.5114766e-01
  7.7915293e-01
 -3.5946727e-01
 -2.9865435e-01
  6.5736353e-01
 -1.1997424e-01
 -2.5157130e+00
 -3.6474839e-01
 -8.9331818e-01
  3.5434771e-01
  8.8695830e-01
 -6.8881673e-01
  2.1375759e+00
 -1.3983952e-01
  1.4051120e-01
 -6.6025108e-02
  2.4958186e+00
  2.5379781e-02
 -1.3506064e-01
  1.7401049e-02
 -9.9562705e-02
 -2.3652333e-01
  2.9734543e-01
  2.7957740e-01
 -8.5850200e-03
  9.5382214e-01
  3.7763873e-01
  2.1023521e+00
  2.8634065e-01
 -1.2560193e-01
  8.4164321e-02
 -2.5132322e-01
 -2.9883030e-01
  7.4093841e-02
  1.1645006e-01
 -2.1226791e-01
 -8.5116458e-01
  1.1098506e-01
 -1.8211049e-01
  2.2080381e+00
 -2.0973620e-01
 -5.2676696e-01
 -4.3547043e-01
  5.9634703e-01
  4.8793337e-01
  2.2787084e-01
 -1.0166997e-01
 -6.8040347e-01
  3.5524961e-01
 -2.1174656e-01
 -1.5909441e-01
  1.6191393e-01
  7.8938764e-01
 -5.1825869e-01
 -5.5284965e-01
 -3.9806902e-01
  3.3848248e+00
  7.1171254e-01
  1.2049026e+00
  2.5633955e-01
 -1.1990865e-01
  1.0151153e+01
  4.3376297e-01
  4.6234185e-01
 -7.2749865e-01
 -6.9797152e-01
  9.7142775e-03
  4.2212954e-01
 -1.2119327e-01
  1.2534204e+00
  8.8224828e-01
 -1.5201829e-01
 -1.6527340e-01
 -6.5717840e-01
 -1.3745207e+00
 -2.4938536e-01
 -1.6768069e+00
 -9.2997289e-01
 -1.5474474e-01
  5.8461428e-01
 -2.8767836e-01
  6.9303012e-01
  3.5496154e-01
 -1.0716542e+00
  9.2732108e-01
 -1.0197334e+00
  9.6876979e-01
 -1.2215610e+00
  7.8660721e-01
 -1.6682715e+00
 -1.4888054e+00
 -2.0442148e-01
  2.3335813e-01
 -8.6182245e-04
  4.1749399e-02
 -1.0459797e+00
 -6.8626776e-02
 -1.2500819e+00
  1.6712201e-01
  2.0871005e+00
 -6.2246490e-01
  2.0008369e-01
 -2.3114637e-01
  1.9211996e+00
 -9.7077563e-02
  6.1338127e-01
  1.9165212e-01
 -2.1483806e-01
 -1.3134687e-02
 -2.1481393e-01
 -5.4881322e-01
 -2.8544465e-02
  6.5097606e-01
  7.4171656e-01
  5.3895094e-02
  1.1779886e-01
 -2.7686357e-02
  9.5046759e-01
 -2.9596668e-01
  4.3500108e-03
 -1.5507555e-01
  1.1394514e+00
 -3.4906787e-01
  5.2951169e-01
  3.8913791e+00
  7.3148274e-01
 -2.5178480e+00
  3.9999682e-01
 -9.8420876e-01
 -9.3280774e-01
 -1.9966622e-01
  6.7340088e-01
 -5.6198150e-01
  1.1281164e+00
 -3.5314938e-01
  4.4406438e+00
 -1.3718169e+00
  1.2828434e-01
  1.7627650e-01
 -1.4052540e-01
  9.5216763e-01
 -2.0246154e-01
  5.4155576e-01
 -9.3671364e-01
  8.3019741e-02
  3.0183622e-01
 -1.8475087e+00
  2.0747559e-02
 -3.8319287e+00
  2.4360883e+00
 -1.6933340e+00
 -2.3588488e-01
 -3.2610458e-01
  8.0661559e-01
 -4.6021500e-01
 -4.4213424e+00
  6.0604405e-02
  5.3693062e-01
 -4.3025216e-01
 -6.8068139e-02
  2.1365376e-01
  1.7457327e+00
 -1.5842645e+00
  1.0039335e+00
 -1.6424371e+00
 -2.9572272e+00
 -2.3596733e+00
 -1.3717475e+00
 -2.6571906e+00
  1.2282374e+00
  2.9128103e+00
 -7.0920639e+00
 -8.9210945e-01
  9.8687077e-01
 -7.4258840e-01
  7.7553026e-02
  2.3003113e-01
 -1.1677186e+00
  2.5254121e-01
  1.8223305e+00
 -8.7306780e-01
 -1.0420791e+00
  4.4760248e-01
 -1.0596055e+00
 -2.0241499e-01
 -6.7584443e-01
 -8.2687688e-01
 -8.3425745e-02
 -7.7130139e-02
  1.1655270e+00
  5.0198281e-01
  2.6377308e-01
  3.8375837e-01
  3.0724661e+00
 -2.5918645e-01
  2.3327861e+00
 -5.5870688e-01
 -1.2535352e+00
  8.0495644e-01
  1.3721801e+00
 -3.8508999e-01
 -2.3944499e+00
 -2.9369357e-01
 -1.5507911e+00
  3.8639035e+00
 -2.8939638e-01
 -5.7200484e+00
  7.4577713e-01
  2.0670118e+00
  3.9515874e-01
  4.6199241e+00
 -7.2544293e+00
  4.2294011e+00
 -1.5615799e+00
 -1.9490612e-01
 -5.5874877e-02
 -1.0234141e+00
  4.0872464e-01
 -1.6194475e+00
  3.3832812e-01
 -3.6126667e-01
 -2.3488953e+00
  2.9825704e+00
  2.9434855e+00
  3.9717421e-01
  7.6121318e-01
 -9.0864152e-01
 -1.5181179e-01
  3.1018221e+00
 -3.1992180e+00
 -1.9752201e+00
  8.2125133e-01
  2.1344651e-01
 -2.2779003e-01
 -5.3727262e-02
 -5.3628927e-01
 -4.7469038e-01
  3.7784702e-01
 -3.3111724e-01
 -4.1764253e-01
 -1.6890293e+00
  3.5948524e-01
 -1.2269852e-01
 -7.7216899e-01
 -1.3492958e-01
  1.3000238e+00
  1.0930219e+00
 -2.0442588e+00
  4.8959624e-02
 -5.5805773e-01
 -1.4796082e+00
 -1.6235235e-01
  8.7129289e-01
 -5.9558195e-01
 -7.8626394e-01
  6.5275306e-01
 -1.5473655e+00
  3.2536809e+00
 -1.0309759e+00
  2.1679202e-02
  9.2101002e-01
 -8.0418682e-01
  5.2693218e-01
 -1.7142069e-02
  8.6451575e-02
 -2.5560892e+00
 -5.0578099e-01
  2.6025243e+00
 -1.0726105e+00
 -1.0823759e-01
 -2.1593779e-01
 -1.8234949e-01
  9.4555312e-01
 -9.7134918e-02
  1.2790443e-01
  3.7863788e-01
  1.1685166e-01
  4.8438394e-01
 -8.2059199e-01
  7.5587595e-01
 -5.6262898e-01
 -2.2078173e+00
 -2.1269393e+00
  9.1284204e-01
 -7.1917064e-02
 -9.2811817e-01
  2.6782209e-01
 -7.1622807e-01
  6.8837986e+00
 -8.7393987e-01
  1.5319531e+00
 -1.3209246e+00
 -4.7188249e-01
 -6.8042360e-02
 -2.6016319e-01
  4.5295700e-01
 -3.2926887e-01
  1.0722122e+00
 -1.6102785e-02
  4.2781371e-01
  5.8412796e-01
 -6.1602610e-01
  5.2892286e-01
 -1.1597151e-01
 -4.0140441e-01
  1.0867157e+00
 -3.1930152e-01
  2.4025318e-01
 -8.2592785e-01
 -2.4132170e-01
 -2.6627092e-02
 -1.3319653e-01
  1.2788050e+00
  1.8809862e-01
 -1.8605916e-01
  7.7449042e-01
  9.6516961e-01
  1.7922238e-02
 -3.3531192e-01
 -8.2903087e-02
 -6.3670290e-01
 -3.7394932e-01
 -4.6233413e-01
 -4.1135302e-01
  7.6232582e-01
  1.3202445e-01
 -1.6708571e-01
 -1.3433174e-02
  5.0854260e-01
 -4.9646997e-01
 -1.6228302e-01
 -3.5793867e-02
 -5.7582814e-01
 -3.4427324e-01
  2.9972410e-01
  3.0523241e-02
  6.5097976e-01
 -6.5634742e-02
  3.7569780e-02
  2.5478703e-01
 -4.7453243e-01
 -1.7714070e+00
  1.6020054e-01
  1.1789190e+00
 -4.0505648e-02
  3.2148916e-02
 -1.1669452e-01
  1.0946731e-01
  3.9127219e-01
  1.9708756e-01
 -4.6236256e-01
  7.1438009e-01
 -3.0179712e-01
 -2.7748099e-01
  8.1804198e-01
  1.9681700e-01
  1.0443030e-02
  6.1520123e-01
  3.2323015e-01
  9.6796684e-02
 -3.8357994e-01
  7.7110279e-01
 -4.0275086e-02
 -8.1734341e-01
  3.3425084e-01
  8.7606239e-01
 -3.1624644e+00
  4.3123281e-01
 -2.7747455e-01
  3.8296184e-01
  1.3039302e+00
  1.7229562e+00
 -1.4130833e+00
  7.7395308e-01
 -1.9264388e+00
  5.3913787e-02
  1.8962221e+00
 -6.0619015e-01
  5.2927125e-01
  1.9704487e+00
 -4.3988869e-01
 -1.3654104e+00
  2.2132506e+00
  8.8406876e-02
  4.1279331e-01
  3.6183820e+00
 -7.6551753e-01
 -3.8894445e-02
  3.9320245e-01
  5.6310601e+00
 -4.2453751e-01
 -1.6797014e+00
  2.5127511e+00
 -2.2712618e-01
 -5.3911400e-01
  8.3646417e-01
  1.8409493e+00
 -1.5070452e-01
 -8.3874470e-01
  2.2324221e-02
 -3.8008395e-01
  3.2669320e+00
  6.7244254e-02
  4.0313203e-02
 -1.1477634e-01
 -1.8405870e-01
  7.6462892e-03
 -3.0015275e-01
 -1.4107639e-01
  2.5102165e+00
 -2.6397508e-01
 -1.7433527e-01
  4.3659067e-01
 -4.0010574e-01
  7.8694373e-02
  6.0088223e-01
  1.3168240e-01
  2.2211683e-01
 -2.1273887e-01
  2.0029629e-02
 -8.6908388e-01
 -9.0476501e-01
  1.4318675e+00
  2.3609051e-02
  9.1254258e-01
  1.9761519e-01
 -8.5462749e-01
  6.4929807e-01
  4.7768477e-01
 -2.1164151e-01
 -3.1669560e-01
  6.5274131e-01
  1.9622456e-01
 -1.7256967e+00
  1.0812395e+00
 -1.3323637e+00
 -5.8108252e-02
  6.9671309e-01
 -1.3246288e+00
  1.6606392e+00
  2.2869179e-01
 -1.8230909e+00
 -1.4906928e-01
  2.2195347e-02
 -8.0537073e-02
 -6.8869121e-02
 -1.1947038e+00
  2.9157731e-01
  2.7094671e-01
 -5.7471019e-01
  2.6113284e-01
 -2.9047015e-01
  8.1233621e-02
  2.7057874e-01
 -9.5593977e-01
  2.0490173e-01
  6.5681285e-01
 -1.5841265e-01
 -2.5570074e-01
 -8.9801836e-01
  1.1609701e+00
 -3.2091272e-01
  1.0746812e+00
  8.8740778e-01
 -1.3685296e+00
 -1.1812909e+00
  3.8736522e+00
  2.4380045e+00
 -1.4043001e+00
 -5.8118409e-01
 -9.3699449e-01
 -5.2980185e-01
  9.4043380e-01
 -3.1535180e+00
  2.2635578e-01
  2.0798580e-01
 -1.1183338e+00
 -1.4099820e+00
  8.3377373e-01
  1.0451587e+00
 -1.6162817e+00
  1.2428977e+00
 -1.6606517e+00
  1.4592597e-01
 -2.0484637e-02
 -7.0965469e-02
  3.8166770e-01
 -2.1433945e-01
 -7.0521426e-01
  2.3536718e+00
 -4.0530891e+00
  2.7314355e+00
 -2.6629937e+00
  2.9184518e+00
 -8.3951044e-01
  4.6720815e-01
 -6.7724447e+00
  1.2423496e+00
  3.6840937e-01
  2.4869637e+00
  4.8598403e-01
 -3.8772066e+00
  5.0045848e-01
  2.0786173e+00
  6.3047266e-01
 -5.6747973e-01
 -3.2065239e+00
 -2.7333125e-01
  1.2738805e+00
 -7.7227181e-01
 -5.1058847e-01
 -2.3406489e+00
  5.2327150e-01
 -3.1430039e-01
  4.6230979e-02
  1.3088064e+00
 -3.0027419e-01
  1.4338311e+00
 -1.2680986e+00
  2.0823538e+00
  1.7682985e+00
 -1.9941134e+00
  2.7405721e-01
 -2.8998381e-01
  2.5955269e-01
 -2.5830131e+00
 -3.8367839e+00
 -2.6150982e+00
 -2.2409683e-01
 -8.3368458e-03
  6.1041635e-01
  1.2336124e+00
 -1.9458316e-01
 -6.1558568e-01
  7.9507786e-01
  4.0821192e-01
 -1.1573553e+00
 -2.2829006e+00
  6.1573844e-02
  2.1134520e+00
 -4.7842573e-02
 -4.8951691e-01
 -2.2725058e+00
  2.4644397e-01
 -3.6325544e-02
 -5.8306879e-01
  6.0001898e-01
  3.0274078e-01
  4.6809855e-01
  2.5176289e+00
  4.0206418e+00
  9.8002487e-01
  7.8783798e-01
 -1.4700790e-01
  4.5454773e-01
 -4.9059361e-01
  2.5537229e+00
 -3.7233290e-01
 -5.3606761e-01
  1.5925324e+00
 -2.8769698e+00
  8.3256587e-02
 -5.7258779e-01
 -5.9895314e-02
  3.2712838e-01
 -1.9597651e+00
 -1.2620419e+00
 -7.8540003e-01
  2.1122310e+00
 -2.3994739e-01
 -1.9486949e+00
 -1.6330920e+00
  1.1192267e+00
  8.5910398e-01
 -1.7250724e+00
 -1.4031094e+00
  3.9515153e-01
  2.5302746e+00
  2.0348343e-01
 -2.3674111e+00
 -3.1410947e-01
 -1.3259972e+00
 -7.2574478e-01
  2.0834904e+00
 -1.3669114e+00
 -1.9969108e+00
 -1.9278896e-01
  1.5778199e-01
 -1.7486752e+00
  4.2934895e-01
  3.3921218e-01
  2.5713435e-01
 -8.5270591e-02
  1.2864112e+00
  2.6140485e+00
  9.3200499e-01
  5.7893664e-01
  5.9399301e-01
  1.6629772e-01
 -8.2848758e-01
 -1.4907541e+00
  1.1461018e+00
  6.7358482e-01
 -1.0212901e+00
 -2.3256747e-01
 -2.5830397e-01
 -1.1749798e-02
 -1.9414954e+00
  5.3703052e-01
 -2.5387192e+00
  2.0198110e-01
 -2.6477499e+00
  5.7548589e-01
 -1.3965359e+00
  1.6118629e+00
  4.0530138e+00
  1.2420059e+00
 -1.0346926e+00
  3.7633343e+00
 -5.1080805e-01
 -1.2221162e+00
 -3.6632442e-01
 -3.8167921e-01
  8.7237632e-01
 -5.5766326e-01
 -6.3027477e-01
 -1.8836807e+00
  2.0401567e-01
  2.2462842e+00
 -4.1343722e+00
  1.1469564e-01
 -2.0029035e-01
 -3.4913704e-01
 -7.5672996e-01
  7.8223711e-01
  2.9041496e-01
  1.6126722e-01
 -1.6013045e+00
  6.1326236e-01
  4.3598917e-01
 -7.1031637e-02
  8.5829151e-01
  1.4523131e-01
 -8.4770006e-01
 -1.1267385e+00
 -1.5547499e-01
  8.1472081e-01
 -6.4604841e-02
 -4.5114222e-01
  7.7595852e-02
  1.6674438e-01
  3.7598589e-03
  2.2882871e-01
 -2.0893237e-01
 -4.9824449e-01
 -2.9650271e-01
  6.1703777e-01
 -1.6315830e-01
  5.4893464e-01
 -1.1298476e-01
  4.4842276e-01
 -1.3540298e-01
 -5.8149047e-02
 -5.6157209e-02
 -1.2863618e+00
  1.4673536e-01
 -2.1194665e-02
 -4.0137076e-01
  3.5362729e-01
  2.2116788e-02
  6.1540365e-01
 -3.2678218e+00
 -8.7414145e-01
 -8.5183525e-01
 -6.1888045e-01
 -7.3363698e-01
  8.9529979e-01
  1.9027325e+00
  4.4944686e-01
  1.0374794e+00
 -1.2168132e-01
 -6.5728009e-01
  1.5161997e+00
  1.6309480e-01
 -2.2453218e+00
 -1.4895240e+00
 -2.3844235e-01
 -1.0951945e+00
 -8.8574284e-01
 -5.7706994e-01
 -2.7197394e+00
  1.4354174e+00
 -1.9849356e+00
  4.8096111e-01
  2.7704802e-01
  2.5512031e-01
  8.9479887e-01
  2.2008812e-01
  1.7182647e+00
 -1.2642437e+00
  4.1955357e+00
 -1.9434705e-01
 -2.7168465e+00
 -2.9784763e+00
 -7.5453627e-01
 -6.0507053e-01
  7.2539153e+00
 -3.1459229e+00
 -2.6219890e-01
  8.3745080e-01
  2.1400838e+00
  4.1034824e-01
 -4.6531630e-01
 -3.3367631e-01
  2.6364393e+00
  8.3848870e-01
  1.7991818e+00
 -3.9127765e+00
  1.7295030e+00
  3.9991364e+00
  1.1440549e+00
  1.2457027e+00
 -4.5132656e+00
 -1.4811288e+00
  7.9239351e-01
 -8.5615695e-01
 -1.2106940e-01
  2.6421735e-01
 -5.4756956e+00
 -4.6140438e-01
  3.8869419e+00
 -1.5680530e+00
 -2.2830741e+00
  2.4391825e+00
  2.9926188e+00
 -2.9124740e-01
 -1.1254392e+00
 -3.7593529e-01
  7.4297048e-02
  7.5381637e-01
  2.9375821e-01
 -1.7101958e-01
  1.0814418e+00
  4.1631138e-01
  4.9139068e-01
 -1.1198715e+00
  2.0022700e+00
 -1.5460588e+00
  4.1259223e-01
  3.3274835e-01
 -5.0655766e-03
 -2.5297005e+00
  3.0626445e+00
 -7.7961981e-01
 -6.9424266e-01
 -3.2908463e+00
  6.9118780e-01
 -3.4642020e-01
  2.1483937e-01
 -1.0911552e+00
 -1.8285378e+00
 -3.2757875e-01
 -9.6273100e-01
 -3.6900601e-01
  9.7318631e-01
 -1.7987126e+00
 -3.1101477e+00
  2.5619388e-01
 -1.6214777e+00
  6.7123836e-01
  9.4586712e-01
 -1.4837317e+00
  1.4607301e+00
  1.4077814e+00
  3.5280205e-02
 -2.7262070e+00
 -6.7804730e-01
  1.8607664e-01
  2.5091353e-01
 -8.5610002e-01
  1.4402590e+00
 -6.2852103e-01
  3.9688769e-01
 -2.7552527e-01
 -4.9446645e-01
 -4.4279028e-02
  1.2098498e+00
  7.9398893e-02
  4.5499846e-01
 -1.3278118e+00
 -1.1008538e+00
 -2.4374304e+00
  1.7039260e+00
  1.8377380e+00
  7.4514121e-02
  1.5882943e+00
 -3.6049206e+00
 -1.2172462e+00
  2.9774182e-02
  8.0156118e-01
  1.8967081e+00
  2.1686347e+00
 -8.7395573e-01
  4.3787828e-01
 -1.8409084e+00
 -7.3819411e-01
  3.2505481e+00
  1.2668620e-01
  1.2247298e-01
 -3.8121167e-01
  3.4171796e-01
 -1.0475852e-02
 -3.6722359e-01
  3.9295498e-01
  2.8911510e-01
 -1.4963116e-01
  1.9779252e-01
  7.1371652e-02
  1.8115429e+00
 -1.3387217e-01
 -2.2591720e+00
  3.0003747e-01
  2.0088878e-01
 -8.4390260e-02
  3.2496643e+00
  5.8442597e+00
 -1.5236703e+00
 -1.3563055e+00
  2.2735155e+00
 -6.5200949e-01
  1.0811257e-01
  1.1363766e+00
  3.6347549e+00
 -5.1955456e-01
  1.0266606e+00
 -5.7427704e-01
 -1.0897903e+00
 -1.8863867e-01
  1.0671191e+00
 -5.8771032e-01
  5.0922912e-01
  2.1074572e+00
  3.7702022e+00
 -1.0165157e+00
  4.9202242e-01
  1.3549328e+00
  1.0563619e+00
  1.3313918e+00
  1.3593547e+00
 -1.4352489e-01
 -1.7103781e+00
  9.5475428e-02
 -2.9366655e+00
  1.3148707e+00
 -5.2844882e-01
 -1.8671472e+00
  2.9959204e+00
 -3.0082815e+00
  9.3184876e-01
 -6.5163150e-02
  1.8247867e+00
 -8.3898857e-02
  5.4331136e+00
  6.4027363e-01
  1.3536268e-01
  1.0502887e+00
 -2.8970499e+00
 -3.2281047e-01
  2.6594132e-01
  1.2748891e+00
 -2.5978477e+00
  4.9530149e-01
  1.1332493e+00
 -2.0817320e+00
  1.1781296e+00
 -7.2106838e-01
 -1.5733215e+00
 -2.7443719e-01
  2.2759256e-01
 -1.0313420e-01
  1.3276844e+00
  3.9814928e-01
  5.3616112e-01
 -2.2097652e+00
  1.8698533e-01
  2.3919594e+00
  6.1381811e-01
 -9.8038608e-01
 -9.7266263e-01
 -1.1761270e-01
  1.0061611e-01
 -1.9358006e+00
  1.4724010e+00
  2.4330497e-01
  1.4284484e+00
  3.5025743e-01
 -2.1409391e-01
 -3.0657213e+00
  1.7542152e-01
 -8.1985897e-01
 -1.0369705e+00
  1.1959169e+00
  1.4923443e+00
  1.5376672e-01
 -2.9709762e-01
  1.0068749e+00
 -2.4135001e+00
 -2.5245988e+00
  1.8094149e+00
  1.2399113e-01
 -5.2123737e-01
 -1.0528822e+00
  1.3919617e+00
  8.8928588e-02
  2.9923000e+00
  4.6243182e-01
  3.3752719e-01
  1.3074115e-01
 -3.4291025e-02
  4.0774231e+00
 -5.7323027e-01
  1.0167891e-01
 -1.0860424e+00
  3.6035615e-01
  9.9990642e-01
 -2.3184414e+00
 -1.6615571e+00
  5.4260068e-02
  1.9537671e+00
 -5.9076709e-01
  7.9895693e-01
  8.3642222e-02
  4.7435671e-01
 -6.9445479e-01
  3.2928607e-01
  1.7336009e+00
 -1.8103039e-01
  6.0030735e-01
  2.0272932e+00
 -2.0122433e+00
  1.3935198e+00
 -8.2124573e-01
  3.9626791e+00
 -1.4226979e+00
  1.3236749e-02
  4.9219379e-01
 -1.1137780e+00
  9.6312863e-01
  1.9529539e-01
  3.3329725e-01
 -3.6200054e-02
 -1.8572313e+00
 -2.6810598e-01
  1.3892315e-01
  3.4736326e-01
  6.0351521e-01
  3.8716006e-01
 -2.4075669e-01
  6.6480869e-01
  1.1636297e-01
  4.3700104e+00
 -4.6586493e-01
 -1.7075331e+00
 -4.3775625e+00
 -1.9651352e+00
  9.2649889e-01
 -2.1516240e-01
 -6.6658759e-01
  2.0196795e+00
 -8.4391624e-01
  7.4722165e-01
  3.3153896e+00
  3.0797477e+00
  1.1911371e+00
  4.1485998e-01
 -7.7357762e-02
  6.9898605e-02
 -1.6317798e-01
  3.9421561e+00
  1.1870350e-01
  8.5971695e-01
 -2.8876168e-01
  2.0202746e+00
 -1.6031625e+00
 -4.2321056e-02
  2.0898074e-01
 -3.9890820e-01
 -5.7707947e-01
 -3.9495963e-01
 -2.0611084e+00
  4.2482379e-01
 -2.1711186e-01
 -1.4083223e+00
  1.0121520e+00
 -1.3924737e-01
 -2.0278989e-01
 -3.2378957e-01
 -3.7654269e-01
  4.5675597e-01
 -4.8495729e-02
 -8.7239712e-01
 -3.9076823e-01
 -2.6663476e-01
  9.5812604e-02
  1.8253499e-01
  3.6966801e+00
  8.5327893e-01
  2.1646562e-01
  7.6282166e-02
 -2.4666929e-01
  6.4665580e-01
 -6.2550702e-03
  1.3622221e-01
  4.9592096e-01
 -1.0877308e-01
  4.1589927e-02
  5.6183904e-01
 -2.0757029e+00
 -9.0508685e-02
 -4.0707150e+00
 -1.0249767e+00
  2.9805741e-01
 -1.3635325e-01
 -2.0203771e-01
  4.3097350e-01
 -1.2986091e+00
  5.0002283e-01
  6.2855178e-01
 -8.3655322e-01
 -1.9774948e-01
 -1.5979092e-01
  8.6052543e-01
  8.4119916e-02
  1.6512948e-01
 -1.8331407e-01
 -3.7821698e-01
  1.7381489e-01
 -1.6893543e-01
  2.8483920e+00
  4.0772349e-01
  1.1143900e-01
  3.9369464e-01
  1.5677205e-01
 -1.0698299e-01
 -5.6156081e-01
  4.0436977e-01
 -3.5776573e-01
 -3.2023454e-01
 -7.9638702e-01
 -8.3801168e-01
  2.3348641e-01
  7.6034755e-01
 -1.9398215e-01
  2.9968038e+00
 -3.6656660e-01
 -1.2044210e+00
 -9.0360039e-01
 -2.4915012e-02
  4.0929890e-01
  9.6378416e-02
  6.2284237e-01
  6.2576550e-01
 -4.4657361e-02
  9.6832797e-02
 -2.8590519e+00
  4.4074175e-01
 -4.6704125e-01
  5.6450605e-01
 -1.1039739e-02
 -4.6943158e-02
 -1.0106277e+00
  9.4840199e-01
  2.2315620e-01
 -7.5409594e-03
  2.7300471e-01
  1.1831316e-01
  7.3145646e-01
 -3.8810462e-01
 -3.1194717e-01
  1.3978127e-02
  2.3714731e+00
  9.9552982e-02
  1.4000428e+00
 -6.2699217e-01
 -1.4812275e+00
  5.1069248e-02
  6.8313634e-01
  6.4220780e-01
  6.7743808e-01
  5.0586700e-01
  2.3164036e+00
  1.0302881e+00
 -8.5709551e-03
 -8.6888719e-01
  1.1674089e-01
 -1.6005974e-01
 -1.5782150e+00
 -5.1364464e-01
  1.3785053e+00
  1.1146097e+00
  2.8463176e-01
  5.2872694e-01
  7.0864117e-01
  6.9550580e-01
  6.9590008e-01
 -5.1683664e-01
 -2.8413265e+00
  1.9189806e+00
  1.2572000e+00
 -1.3804309e+00
 -2.6117167e-01
 -1.8022765e+00
  8.5495746e-01
  3.4125853e-01
  4.4496724e-01
 -2.1595785e-01
 -1.4822443e+00
 -2.4672291e+00
 -5.1191646e-01
 -2.2679217e-02
 -2.3303797e+00
 -4.2258170e-01
 -3.1683725e-01
  7.7074778e-01
 -1.1117017e-01
 -1.2216666e+00
 -3.0672550e-01
 -2.3925574e+00
 -1.6020555e+00
  9.3430012e-01
 -1.6872716e+00
  2.3234575e+00
  3.0689669e-01
  1.1633350e+00
 -9.8324788e-01
  3.6854124e-01
  5.7959729e-01
 -1.6621056e+00
  8.6838841e-02
  6.5073919e-01
 -2.3443167e-01
  2.0161492e-01
  3.6105809e+00
 -7.9263031e-01
  4.1639659e-01
 -1.1263793e+00
  1.2649015e+00
 -2.4071231e+00
  2.5343841e-01
  4.2792651e-01
  1.8860544e-01
 -4.2921605e+00
  9.2452723e-01
  5.2339685e-01
 -4.7984309e+00
  6.2064087e-01
 -5.4267955e+00
 -1.5656875e+00
  5.1298609e+00
 -1.3761839e+00
  1.0347376e+00
 -2.9731653e+00
  2.4743376e+00
  1.9314060e+00
 -2.7667832e-01
 -5.8770216e-01
  1.0298468e+00
 -1.0527445e+00
  3.8536403e-01
  6.0724378e-01
  1.3797712e+00
 -1.7764871e+00
  6.6822720e+00
 -2.9977927e+00
 -7.7964133e-01
 -3.2078022e-01
 -1.5243977e+00
 -3.5113611e+00
  1.6254698e+00
 -8.7378763e-02
  2.3497069e+00
  1.0957158e+00
  2.9390903e+00
  1.9792149e+00
 -1.4080557e+00
  3.9220049e+00
  5.2217853e-01
  1.0732128e-01
  1.3823197e+00
 -4.2501450e+00
 -1.5141007e+00
 -1.3141420e+00
  2.0145752e-01
  4.1214326e-01
 -1.5698984e-01
  5.1751363e-01
  8.8801086e-01
 -3.6990554e+00
 -1.2020925e+00
  5.0093240e-01
 -9.8807670e-02
  4.2881194e-01
 -2.7634652e+00
 -7.2911131e-01
 -3.2740298e-01
 -4.8147669e-01
  6.9059801e-01
  1.7832496e+00
 -2.6310183e-02
 -1.0920400e-01
  4.0081871e-01
  6.7197390e-02
 -6.5393609e-01
 -2.8300157e-01
 -1.1977176e-01
  5.9236400e-02
  2.2011554e-01
 -8.9855514e-02
 -7.0196748e-01
  2.0939615e-01
 -7.9189777e-02
  1.8084231e-01
 -8.3494121e-03
  9.3862832e-02
  3.1264517e-01
  1.3384457e+00
 -6.4423907e-01
 -1.9473989e-01
  1.3592826e-01
 -4.4164071e+00
  2.1017404e+00
 -1.4941909e+00
 -5.5584750e+00
  3.5841007e+00
  4.0481954e+00
  5.1964521e-01
  5.8736897e-01
 -1.9453014e-01
 -7.9339072e-02
  4.0301606e-01
 -1.2952542e+00
  1.7631063e+00
 -8.2868028e-01
  4.6706882e+00
  7.3802114e-02
 -6.9258362e-01
 -3.3826202e-01
 -1.1580685e+00
  5.7768065e-01
 -5.7705514e-02
  6.0102802e-02
  1.0144858e+00
  8.4777123e-01
 -6.3559824e-01
 -2.1874580e+00
  5.2457535e-01
  1.4500637e-01
  1.6608236e+00
 -4.0985037e-02
 -5.9708393e-01
 -1.2868122e+00
 -3.9779559e-01
 -2.6306498e-01
  8.0220483e-02
 -2.6969483e-01
  3.4015499e-02
  1.0335775e-01
  2.2473853e+00
  1.1529635e-01
  7.9088980e-01
 -5.7197499e-01
  1.7331737e-01
  3.0182654e-01
  7.1364067e-02
 -3.9540264e-01
  1.6555730e-02
 -2.7949846e-01
 -2.0269865e-01
  2.9335642e-01
  4.2080390e-01
 -1.3495612e-02
  5.2178922e+00
 -6.2029283e-02
 -2.6121298e-02
 -7.6545486e-03
  3.2877737e-01
  4.1135019e-01
 -1.5724385e-01
 -1.8372624e-01
  6.8879020e-01
  2.3308735e+00
  5.1830035e-02
 -4.1314368e+00
  4.8985261e-01
  1.5507348e-01
  9.4863677e-01
  7.4888921e-01
  1.9454575e-01
 -2.4912168e-01
  5.5274320e-01
  3.2306713e-01
  1.0082893e+00
 -1.1975379e+00
  1.3550345e+00
 -2.4049763e-01
 -1.2044138e+00
 -1.6281992e+00
 -1.6480410e+00
 -5.4509559e+00
 -7.1290195e-02
 -6.7470950e-01
  1.2446977e+00
 -1.0100410e+00
 -4.2236581e+00
  7.8208759e-02
  5.1765507e-01
 -1.3665311e+00
 -1.4278033e-01
  3.2912859e-01
 -8.3477694e-01
 -2.1098711e+00
 -1.1116945e+00
  1.4373182e+00
  2.1204337e-01
 -1.0380824e+00
 -2.6835876e+00
  4.8136562e-01
  2.7206867e+00
 -5.2403665e-01
  1.3560326e-01
 -8.8946801e-01
 -1.4799664e+00
 -4.9115533e-01
 -1.5879273e-01
 -7.2130449e-02
 -7.9784560e-01
  3.9221328e-01
 -7.1618110e-01
  1.3768148e+00
  2.7583340e-01
  1.5264146e-01
 -8.5155396e-03
 -1.0761894e+00
 -2.7336752e-01
 -2.5250673e-01
  2.0025405e-01
 -4.0018130e-02
 -3.0225709e-01
  2.2277646e+00
 -7.2537661e-01
 -9.6222180e-01
  1.2552365e+00
 -5.4144567e-01
  1.6214771e+00
 -1.4909118e+00
 -4.0660638e-02
  1.6268655e+00
  8.1606680e-01
  1.7463586e+00
  1.1751580e+00
 -2.5837079e-01
  8.6565727e-01
 -3.9338768e-01
 -1.2386075e+00
 -1.6425402e+00
  1.4600334e-01
  3.4159473e-01
 -1.5872400e+00
 -1.5490298e+00
  2.8754418e+00
 -3.6268821e+00
 -1.4072037e+00
 -3.3021656e-01
 -2.7960247e-01
  6.9160670e-01
  3.0842695e-01
  1.3862915e-02
 -1.9067727e+00
 -5.4830041e+00
  1.0925093e+00
  5.7398105e-01
 -1.4769686e+00
 -3.0833869e+00
  1.0288626e+00
 -2.0708878e+00
 -1.9785212e-02
 -6.4121835e-02
 -5.2581100e+00
  3.9276617e+00
  9.6753383e-01
 -1.0480447e+00
  2.4518317e-02
 -1.6745140e-01
 -4.2776310e-01
 -8.2932216e-01
  3.6174792e-01
  4.0399866e+00
 -5.3430498e-02
 -5.2559072e-01
 -9.6096390e-01
  7.9153543e-03
 -2.5987401e+00
 -1.1172405e+00
  3.4797799e-02
  2.1728358e-01
  4.3613259e-02
 -3.9626654e-02
 -9.9143463e-01
  3.4424496e-01
  1.9602090e+00
  5.6511321e+00
  1.8184348e+00
  6.6397476e-01
 -3.5510073e+00
  2.3797560e+00
 -5.5198389e-01
  1.7319531e+00
 -1.2338303e+00
 -9.4194335e-01
  1.2970579e-01
  9.2667890e-01
  6.7546344e-01
  4.8740740e+00
 -1.1633240e+00
  2.0123448e+00
  3.0021556e-02
  7.3062479e-02
  9.8284501e-01
 -5.1168317e-01
  8.8747330e-02
 -1.0101865e-02
 -4.8820853e+00
  5.4350853e-01
  1.0940610e+00
 -6.0348812e-02
 -3.4678352e-01
 -3.4978566e-01
  1.6324750e+00
  7.1873271e-01
 -3.5946152e+00
 -1.6478326e+00
  6.1335745e+00
  1.2927731e+00
 -1.9003412e+00
 -4.3909696e-01
 -2.2915655e-01
  2.1560110e-01
 -1.8625898e+00
  4.5436335e+00
 -9.1890462e-02
 -1.6036316e+00
  1.5993349e-01
  8.1745434e-01
  1.0094690e-01
  2.3640198e-01
 -5.6575198e+00
  1.0532163e+01
 -3.1774704e+00
  1.0063890e+00
  7.2816992e-01
  6.2671745e-01
  9.9565113e-01
  7.9901320e-01
  1.9434272e-01
  4.9895403e-01
 -1.1231588e-02
 -1.8210834e-01
 -4.0183827e-01
 -2.5377569e-01
 -8.5355282e-01
 -6.2452930e-01
  7.6149964e-01
  4.7549257e+00
 -2.8614932e-01
  4.0189409e+00
 -9.2736796e-02
 -1.6559706e+00
  2.1119459e-01
  4.0105128e+00
 -6.4203757e-01
 -2.8414536e+00
  7.0191830e-02
 -3.2737586e-01
 -1.2553180e+00
 -8.9595735e-01
  8.3658934e-01
  9.3380183e-02
  2.0832591e+00
 -2.8211551e+00
 -2.0072985e-01
  5.0741096e+00
 -2.3470378e-01
 -4.0926307e-01
  7.7781454e-02
 -1.6515428e-01
 -3.5830703e-01
  6.7133021e-01
 -8.9125834e-02
 -2.0050542e-01
  1.5608898e+00
 -5.6416728e-02
 -2.3847127e-01
  3.1795592e+00
 -4.1712800e-01
 -9.0550023e-01
  3.4125578e-01
 -3.4160311e+00
 -2.3116985e-01
  3.0981863e+00
 -3.2684200e-02
  1.0513494e+00
 -3.7463980e+00
 -7.3017210e-01
  2.7236881e+00
 -5.9587049e-01
  2.5804739e+00
 -8.6934048e-01
  2.1234617e+00
  7.5465131e-01
 -1.9577591e-01
  4.8372111e-01
 -2.4321394e+00
  8.4171377e-02
  2.6446962e+00
  6.5869384e-02
  1.0204396e+00
 -1.4248035e+00
  1.1009765e-01
  8.2448274e-02
 -2.1405710e-01
  2.3288672e-01
  3.8309395e-01
 -3.0044851e+00
 -2.7186808e-01
  1.6182901e+00
 -1.8633822e-01
  9.6973521e-01
 -1.2025268e-01
  6.3606668e-01
 -1.3155273e-01
 -5.1169461e-01
  1.1458577e+00
 -7.6470178e-01
 -2.0094306e+00
  4.2107373e-01
  3.3434764e-01
  5.1120502e-01
 -1.2290885e-01
 -2.8996298e+00
  5.6083101e-01
 -1.9532663e-01
 -1.3488177e+00
 -1.0964127e+00
 -6.4371020e-01
  1.4762831e-01
  4.6454045e-01
 -2.7563730e-01
  1.2560451e-01
  2.2309789e-01
  1.3534082e-01
 -2.2835796e-01
 -2.1574755e+00
  1.9099576e+00
  4.3834910e-01
 -7.6052246e+00
 -8.6089693e-02
 -7.3926032e-02
  1.4191759e-02
 -1.2809180e+00
 -6.5211546e-01
 -1.4333289e+00
 -1.8792617e-01
  7.3850334e-01
 -7.3894387e-01
 -1.8640486e+00
 -2.5611696e-01
  9.8862624e-01
 -1.1058614e+00
  1.9566525e-02
 -4.5000347e-01
  6.2972814e-01
 -1.7859068e+00
 -1.2964931e+00
  2.0479844e+00
 -2.3306670e+00
  2.6226282e-02
 -2.4240291e-01
  2.8134828e+00
  2.0418884e-02
  1.7137738e+00
 -5.5225426e-01
  1.6413383e-02
  2.7041879e+00
 -1.4253192e-01
  2.9012710e-01
  4.5869118e-01
  3.3859150e+00
  3.8418967e-01
  2.4772828e+00
 -2.0364680e+00
  8.1677668e-02
  1.3307487e+00
  3.9688635e-01
  1.1587646e+00
 -2.3557522e+00
  9.6905893e-01
 -2.0047429e+00
  2.1559603e+00
 -7.0187128e-01
  1.9460840e+00
  2.3494465e-02
  8.1257039e-01
  1.3977005e+00
  3.8160209e-02
  1.2602918e-01
  3.4028285e-03
  2.1076740e-03
 -1.8716313e-01
 -2.9053497e+00
  1.1397536e+00
 -6.7712569e-01
 -1.3920505e+00
  2.6427585e-01
  8.6506581e-01
 -1.5090133e+00
 -1.7426153e+00
 -1.1088228e+00
  2.2682004e+00
 -2.7388144e+00
 -3.5838723e+00
 -1.1840273e+00
  8.9540398e-01
 -8.3225679e-01
 -1.1633577e-01
 -3.3030889e-04
 -2.8266819e+00
 -3.0925053e-01
  9.7853512e-01
 -1.7269796e+00
 -1.7435819e+00
 -2.0857959e+00
  2.5863606e-01
 -3.2017788e-01
  3.1236824e-02
 -3.5337466e-01
  2.0793753e+00
 -5.0255001e-01
  1.4729354e+00
 -1.1899840e+00
 -1.5677221e-02
 -2.3052425e+00
  4.7641698e-01
  2.7071192e+00
  4.0377688e+00
  3.9587598e+00
  1.3723283e+00
 -7.6683164e-01
 -5.3551965e+00
 -4.2400055e+00
 -5.1902378e-01
  1.7715175e+00
 -5.4356414e-01
  1.9481437e-01
 -3.8056169e+00
 -3.5124221e-01
  8.6567581e-01
 -4.6376765e-02
 -2.9155405e+00
  7.5930417e-01
 -3.3196345e-01
 -1.0817046e-01
  3.6041591e-02
  3.9458689e-01
  4.3844252e+00
 -5.9245288e-01
  1.4464693e+00
 -1.1900915e+00
  3.5798177e-01
 -2.0415351e+00
  9.1149938e-01
 -1.6518478e-01
 -1.6941404e-01
  5.2604925e-02
 -1.6198167e-01
  1.6134512e-01
  1.4449087e-01
  1.3244253e+00
  2.6523509e+00
 -1.7593285e-01
  1.4808136e-01
 -3.7840758e-02
 -1.3607250e+00
 -9.2364782e-01
 -9.3050167e-02
  3.2623363e-01
  2.0256990e-01
 -2.2480647e-01
 -4.1152751e-03
 -4.2855841e-01
  8.0333453e-01
  3.5051633e-02
  9.3324172e-01
 -1.7003154e-02
  3.1109884e-01
  4.0714303e-01
  1.0458990e+00
 -2.3148441e-01
 -6.9124854e-01
  2.7555636e-01
 -1.5829755e-01
  1.9774036e+00
 -1.4842404e+00
  1.0752640e+00
  1.4918575e-01
  3.7256211e-01
  2.2533860e+00
 -4.0693653e-01
 -5.5303951e-03
 -8.0750835e-01
  6.4352131e-01
  5.2684492e-01
 -1.3143456e-02
 -1.3642213e+00
 -6.6234030e-02
 -2.8792930e-01
  1.4864692e-01
 -2.0405111e-01
  9.5489109e-01
 -8.9252755e-02
 -3.0929762e-01
  6.1929269e+00
  2.0693193e-01
  3.6529168e-02
  6.4222687e-01
 -1.0495361e+00
  5.9279811e-01
 -1.4811628e-01
 -6.0073357e-02
 -2.5697052e-01
 -4.0606112e+00
  2.4076519e+00
  1.7814600e+00
  2.9453611e+00
  5.7783031e-01
  1.2691383e-01
  3.8174185e-01
 -3.2742452e-02
  3.8297603e-01
 -3.2242912e-01
  1.6027495e+00
 -6.0858887e-01
  4.6093905e-01
 -6.2370300e-01
  1.1805946e+00
  3.5170603e-01
 -1.1266453e+00
  7.0340252e-01
 -1.1850559e+00
  5.1497478e+00
  8.7353891e-01
  1.6925415e+00
  4.1638139e-01
  4.7460932e-02
 -2.1216538e+00
  6.6275233e-01
 -1.4861196e+00
 -9.6641672e-01
  1.2082355e+00
 -3.2685080e-01
  1.6212259e-01
  2.3153493e+00
 -1.4089928e+00
 -4.6945167e-01
 -2.1613162e+00
 -1.3943901e+00
  9.6277416e-01
  4.5784607e+00
  7.8715807e-01
  4.2395192e-01
 -3.0053806e+00
  1.5012900e+00
  7.6096165e-01
  2.7452259e+00
  7.3091924e-01
 -2.9755142e+00
 -5.5199486e-01
 -1.5993446e+00
  1.7735732e+00
  3.1905980e+00
  5.9576648e-01
  4.7859699e-02
  8.5731279e-03
  3.3361688e+00
 -6.1497056e-01
  2.6662713e-02
 -1.0806814e+00
 -3.4930435e-01
  3.1131598e-01
 -4.4531250e-01
 -6.5409827e-01
  3.7509432e+00
  6.8380318e+00
 -3.7728012e-01
 -4.3610473e+00
 -9.5295584e-01
  1.6256063e+00
  5.4845876e-01
  5.0670701e-01
 -3.4823892e-01
 -1.1026858e-01
 -3.2464414e+00
  2.6300459e+00
  3.2088378e-01
  5.4176893e+00
 -9.9814229e-02
 -6.7455679e-01
  8.4416395e-01
  1.7282387e+00
 -1.3420815e+00
 -3.5627487e+00
 -2.0101112e-01
  5.2151837e+00
 -4.4666477e-03
  1.4759351e-01
  2.8668344e-01
 -3.1845126e+00
  3.6126649e-01
 -3.8144960e+00
 -1.2194585e+00
 -2.3337364e+00
  1.2549276e+00
  5.0603690e+00
 -1.4315230e+00
  3.2787101e+00
 -1.3431807e-01
 -6.4044088e-02
 -4.1542399e-01
 -7.4818140e-01
 -1.3336381e-01
 -2.1459295e-01
 -7.5324702e-01
  4.0659700e-02
 -5.9381896e-01
  2.6385292e-01
  2.7543500e-01
 -3.9566340e+00
 -2.6678586e-01
 -1.2393103e-01
  3.6563033e-01
  3.9383188e-01
  1.3093576e-01
 -9.1204441e-01
  1.6710587e+00
  1.0472901e+00
  5.8611386e-05
  3.5699299e-01
 -5.4386888e-02
 -1.5223938e-01
 -2.6390009e+00
 -2.7298851e+00
 -2.6358896e-01
  4.8967976e-02
 -1.3795081e+00
  1.0997591e+00
  1.0448023e+00
 -4.0639278e-01
 -3.9957280e+00
 -2.4346094e+00
 -4.0101656e-01
 -3.4593213e+00
 -3.8230091e-02
 -2.8804484e-01
 -2.6040640e+00
 -8.8327628e-01
  1.7799090e-01
 -1.9131508e+00
  7.3410952e-01
 -1.3473829e+00
 -8.1022727e-01
 -5.0661862e-01
 -1.2913617e-01
  2.3154977e-01
 -4.0753806e-01
 -3.4137671e+00
  1.0732350e+00
 -3.7370257e-02
  8.9210367e-01
 -5.1481563e-01
 -3.1944337e+00
 -9.0900294e-02
  2.4757858e-01
  2.4389386e+00
  4.4380021e-01
  1.4977811e-01
  8.6814597e-02
 -3.7593818e-01
  5.6122789e+00
  3.1911209e-01
  1.1322516e+00
 -5.8420533e-01
  2.6279438e+00
 -2.0481610e-01
 -6.0143399e-01
 -5.9269280e+00
  4.3616107e-01
  2.7034536e-01
  2.6518109e-01
  1.0159516e+00
  8.0758542e-01
 -5.2528083e-01
  8.6779803e-01
 -8.1052321e-01
  3.5572746e-01
 -1.6562082e-01
 -2.5513470e-01
 -2.5257128e-01
  3.8301775e-01
 -5.1350904e-01
  1.2262806e-01
 -5.4751408e-01
 -3.3746350e+00
 -5.7395440e-01
 -2.6656964e+00
  2.2659454e+00
 -1.8342088e-01
 -2.5393279e+00
 -6.1432117e-01
  6.0436833e-01
 -2.6477370e-02
  3.2301944e-01
  1.3009112e-01
  5.1912170e-02
 -1.1987909e+00
  2.1639574e+00
  4.0795371e-01
 -1.2596473e-02
 -1.7442064e+00
 -2.5059664e-01
 -3.0181623e+00
  1.4370766e-01
  1.5020454e-01
  1.3831873e-01
  6.1992550e-01
 -3.4777761e-02
  1.4228150e-01
 -1.0535753e-01
 -1.5801759e+00
 -5.9270531e-01
  7.2298504e-02
  1.5979291e+00
  1.0193609e+00
  1.5195365e+00
  2.7025013e+00
 -2.9627187e+00
 -2.4924705e+00
 -9.3783873e-01
 -6.3478022e+00
 -4.9964526e-01
  6.1093798e+00
 -2.9352727e+00
 -3.7817895e-01
  2.2716348e-01
  6.4174813e-01
  2.9001913e+00
 -1.6709917e+00
  1.9104891e+00
 -5.2438390e-01
  2.4186931e+00
  1.6794885e+00
 -1.6221020e-01
  7.3668641e-01
 -1.7643318e-01
  1.6545901e+00
 -1.1844974e+00
  4.2706540e-01
 -8.7483719e-02
 -1.6241143e+00
  3.3665815e-01
 -2.5510538e+00
  1.8105106e+00
 -4.6515360e+00
 -7.9346627e-02
  3.3456347e+00
  3.8844531e+00
  5.3576648e-01
  1.6582031e+00
 -1.8350495e+00
 -5.1600701e-01
  4.0600929e+00
  2.7425480e+00
 -2.8778967e-01
 -9.6333218e-01
  8.8116097e-01
 -1.5401768e-02
 -6.1478548e-02
  2.0285871e+00
 -3.9726344e-01
  2.2859420e-01
  1.4522448e+00
 -4.0486705e-01
  7.7921319e-01
 -6.6334522e-01
  1.6096946e-02
  1.2432359e+00
  1.3308029e-01
  2.5437446e-03
 -3.9531432e-02
  4.6811286e-02
  3.4939852e-01
  1.6382443e+00
 -1.5755746e+00
 -2.0259886e+00
  5.0597320e+00
 -1.7202820e+00
  1.2041025e+00
 -2.3336375e+00
 -4.0046105e-01
  9.4822481e-02
  2.9208698e+00
  1.1144988e-01
  2.1274307e+00
 -6.7599893e-01
 -2.4359754e-01
 -1.6281796e+00
  8.3720100e-01
 -2.6254306e+00
 -5.5762649e-01
  4.5458815e-01
  3.4062231e+00
 -2.5931004e-01
  1.0290771e-01
  3.6095536e-01
 -3.8382119e-01
 -4.9534628e-01
 -4.6583709e-01
  1.1938114e+00
 -4.6819329e-01
  8.4938419e-01
  1.4541789e+00
 -1.5364470e+00
  1.7657514e+00
 -2.6149562e-01
 -6.1139411e-01
  6.6309839e-01
 -1.3343755e+00
  1.3130315e-01
  3.4263849e+00
  3.0802712e-01
  1.9315469e+00
 -3.3759851e+00
  5.0773668e-01
 -1.0681940e+00
 -6.4661646e-01
 -6.6995010e-02
  1.0637918e+00
  1.7659000e+00
  1.6658878e+00
  1.9564458e+00
 -2.0141118e+00
  3.3546796e-01
  1.5164881e+00
  1.1548806e+00
 -1.9659472e+00
  7.2855897e-02
 -1.0302685e+00
  6.7431860e-02
 -1.1043082e+00
  1.5248878e-01
  1.1420250e+00
 -3.1531148e+00
 -1.1963590e+00
  4.3467563e-01
  1.5331748e-01
 -8.3610505e-01
  3.2602162e+00
 -6.4918900e-01
  2.9817775e-02
 -2.4161142e-01
 -1.6178075e+00
  3.9494746e+00
  1.9165144e+00
  5.7701474e-01
  5.5496776e-01
  2.7427042e+00
  5.8838105e-01
 -2.6096134e-02
 -8.6732417e-01
  3.9875281e-01
  3.0145748e+00
 -1.0658115e-01
  4.9670820e+00
 -7.2351581e-01
  3.2895359e-01
  5.5645460e-01
  2.2066307e+00
 -3.6629820e-01
  1.1601740e+00
  4.4349360e+00
 -1.9294059e-01
 -8.7176293e-01
  1.5159888e+00
 -1.2597134e+00
  1.5649241e+00
 -4.2350149e+00
  3.9961257e+00
  2.7448494e+00
  2.3923805e+00
  1.2816315e+00
  1.4488275e+00
 -3.5207047e+00
 -1.5328943e+00
 -2.3727074e+00
 -1.7853504e-01
  1.8914478e+00
 -3.8824270e+00
 -1.3328075e-01
 -1.9057164e+00
 -1.0007433e-01
  2.6116366e+00
  2.9645438e+00
 -8.7831661e-02
 -2.9499395e+00
  2.4834056e+00
 -1.1363463e+00
  7.0573908e-01
 -2.7270899e+00
  8.0644733e-01
 -1.0564713e+00
  1.2240897e+00
 -1.7212296e+00
 -1.8840928e+00
  4.8809189e-02
 -1.1813869e+00
  8.4389472e-01
  6.8068302e-01
  4.5288086e+00
  1.6918412e+00
  5.5487145e-04
 -4.2266011e-01
 -5.7864141e-01
  4.4346631e-01
  8.6062688e-01
  2.1620390e+00
 -1.7157427e+00
  1.7120425e+00
  4.0170307e+00
  2.9197593e+00
 -1.1267715e+00
  1.0567428e+00
 -1.1326058e+00
 -2.4418899e-01
 -1.6922027e-01
  3.5267964e-01
 -3.0071607e-01
 -7.3535758e-01
 -9.5624223e-02
 -5.3441250e-01
 -1.5715227e-01
  1.9628297e-01
  1.1120365e+00
  1.7010513e-01
  1.7035390e-01
  2.4487308e-01
 -7.8491664e-01
 -1.4462450e-01
 -9.8483938e-01
  1.0190161e-01
  8.9307971e-02
  5.7432830e-01
  1.3344969e-01
  7.2354093e-02
  2.8919518e+00
 -9.9392585e-02
 -8.4312272e-01
 -1.9984894e+00
  2.8900907e+00
 -5.3210509e-01
 -1.0907956e+00
  5.1293604e-02
 -1.9504866e+01
  2.9758358e+00
  3.0085924e+00
 -1.3978007e+00
  3.2222781e+00
  6.4069235e-01
  1.0989034e+00
 -4.6673292e-01
 -4.4783628e-01
  2.5068860e+00
  1.9954216e-01
 -1.5352549e-01
 -8.6820310e-01
  4.9262104e+00
 -2.1997573e+00
 -7.8427315e-01
  5.0297433e-01
  8.3787191e-01
  4.4481673e+00
 -3.8330925e+00
  4.7042885e-01
 -3.0333035e+00
 -5.2832909e+00
 -8.2280478e-03
 -5.4625273e-01
  2.1614045e-01
  1.4232503e-01
 -5.1478028e-01
 -1.7915305e+00
 -7.4990296e-01
 -3.9305351e+00
  4.1474271e+00
 -8.5102329e+00
  1.6275657e+00
 -3.5358856e+00
 -9.0784383e-01
 -2.3057952e+00
 -1.2952951e+01
 -4.0332499e+00
  2.4877158e-01
  2.2413800e+00
  6.1977301e+00
  1.5377563e+00
  8.9096397e-01
  2.0002506e+00
 -7.0456996e+00
 -3.5679867e+00
 -2.1898229e+00
  2.4315512e+00
  8.7071049e-01
  4.8295370e-01
  1.9533179e+00
 -4.4389458e+00
  3.3637810e+00
 -2.2652030e-01
  9.3544893e-02
  1.4627659e-01
  5.2406268e+00
  5.9992981e-01
 -2.6654887e-01
  1.5488621e+00
  2.4796565e+00
  3.0852434e-01
  2.0259035e+00
 -2.3095441e+00
  2.8764184e+00
  1.3875769e+00
  1.2368373e+00
  1.1317634e-01
 -5.8496398e-01
  4.8319200e-01
 -5.0194752e-01
  2.2160504e+00
 -2.2678845e+00
 -9.2600197e-01
  1.9014651e+00
 -4.8005790e-01
  6.4954267e+00
  3.6127155e+00
  1.9551122e+00
  6.6680610e-01
 -3.4357576e+00
 -1.6578928e+00
  7.5134116e-01
  1.3025470e+00
  3.2657664e+00
 -1.7861770e-01
  1.9990561e+00
  1.7458874e-01
 -3.6181424e+00
 -4.0375169e-02
  1.7423162e+00
 -1.4677192e-01
  2.8806381e+00
  3.9068983e+00
  3.9164624e-01
 -4.1658446e-01
  1.9623767e+00
 -3.0462849e+00
 -2.4150853e+00
  8.4645295e-01
  4.1658845e+00
  3.5550995e+00
 -2.7762351e+00
 -5.2057546e-02
 -1.4133933e+00
 -3.5411975e-01
 -1.4859575e-01
  1.5323440e+00
  4.7885266e-01
 -8.1257623e-01
  1.0619171e+00
  7.3458308e-01
  2.5292392e+00
  1.5887201e+00
 -2.4732170e+00
 -2.1834893e+00
  3.1608629e+00
 -4.4894525e-01
 -2.5390995e+00
  7.8097022e-01
  1.1699623e+00
 -6.7309630e-01
  8.7266791e-01
  6.8974936e-01
  5.0203341e-01
 -2.0656109e+00
  2.3383124e-01
  4.7777224e-01
 -1.6811856e+00
  2.3977101e+00
 -1.1527854e+00
  2.1721041e+00
  2.0550564e-02
 -6.1186463e-01
 -1.8618840e+00
 -9.2567700e-01
  2.4315178e+00
  1.9901717e+00
 -1.1122360e+00
 -1.0820495e+00
 -3.8937309e+00
  5.0543565e-01
  1.1487912e+00
  3.4871122e-01
 -1.6549127e+00
  1.0079569e+00
  2.7663329e+00
  5.2347016e+00
 -9.6896410e-01
  2.1177819e-03
 -3.5552326e-01
 -3.3795783e-01
  1.4932495e+00
 -2.7287426e+00
 -4.8789537e-01
 -2.6695964e+00
 -7.0672348e-02
  2.5872772e+00
  2.6128433e+00
 -3.4630337e-01
 -8.2620782e-01
  9.3059146e-01
  6.2122923e-01
 -8.9283630e-02
 -2.6094792e+00
 -6.7299128e-02
  2.5340375e-01
 -1.4246632e-01
  5.2560502e-01
 -5.6521040e-01
  1.1482797e+00
 -9.1427527e-02
  4.5590310e+00
  1.9069686e+00
  1.5240805e-01
 -3.7339109e-01
  1.4091146e+00
 -2.5063021e+00
 -1.2641242e+00
 -5.3739219e+00
 -2.2070072e+00
 -2.6412100e-01
  1.7316947e+00
 -3.5910237e+00
  3.2670615e+00
  4.1397882e+00
  1.1715761e+00
 -7.0154631e-01
  1.1216003e-01
  1.8564647e+00
 -1.0696465e+00
  1.5777867e+00
 -2.7131052e+00
 -3.0522034e+00
  2.3028412e+00
 -9.5104361e-01
 -3.4224863e+00
  1.2653726e+00
  3.9795333e-01
  2.6357999e+00
  4.0190461e-01
 -5.5440176e-02
 -7.3933560e-01
 -9.4102898e+00
 -2.0947912e+00
 -5.4343337e-01
  7.3523455e+00
  3.0222170e+00
  3.5304728e+00
  1.0780363e+00
 -2.4814117e+00
  1.1947534e+00
 -4.7434478e+00
 -2.2728536e+00
  2.4403672e+00
 -1.6621569e+00
  2.9318886e+00
 -2.6100769e+00
  3.4883256e+00
  5.0039515e+00
  2.4985068e+00
  2.2115867e+00
  5.4545838e-01
 -4.4712394e-01
  6.2315798e-01
 -1.5520644e+00
 -1.7844106e+00
  6.9658303e-01
  3.5002742e+00
  5.7021040e-01
 -2.2762699e-01
  7.6691785e+00
  4.9737463e+00
  1.3650403e+00
  3.4699731e+00
  3.5934479e+00
 -1.6675328e+00
 -1.4300983e+00
 -1.2303234e+00
 -9.2487490e-01
 -3.4450157e+00
  2.7815614e+00
  6.1121230e+00
 -3.1719260e+00
  5.2271309e+00
 -1.4900210e+00
 -2.8636503e-01
  4.1966337e-01
  8.2814497e-01
  1.2810968e+00
  1.9337742e+00
 -4.6979384e+00
 -9.8837748e+00
  3.9451258e+00
  2.5895521e-01
 -1.2133230e+00
  3.8698895e+00
  3.1514685e+00
  4.1587429e+00
  4.6737459e-01
  3.5561240e+00
  4.0526371e+00
 -4.0144067e+00
 -1.3970305e-01
 -4.8431821e+00
 -5.5177325e-01
 -1.1811113e+00
 -5.7127266e+00
  1.8406387e-01
 -7.3431748e-01
  3.3785729e+00
 -2.5297694e+00
  3.1651123e+00
 -8.8783449e-01
  2.4988902e+00
  4.1682224e+00
  2.2093999e+00
  1.3575162e+00
 -7.2727556e+00
 -2.6850659e-01
 -1.7152194e+00
 -2.0982298e-01
  6.1900306e+00
 -3.3959520e+00
  1.5303978e+00
 -1.7820302e+00
  1.3208467e+00
  1.7549156e+00
 -2.9238417e+00
  3.0128652e-02
 -2.9692826e+00
  4.7709250e-01
 -1.0068426e-01
  3.0302997e+00
  5.8335412e-01
  3.6223271e+00
 -1.9681810e+00
  8.7464400e-02
  4.6855321e+00
 -1.3628665e+00
  3.0462272e+00
 -4.4940281e-01
 -3.2954664e+00
 -3.3482496e-02
 -4.5668368e+00
  1.3813443e+00
  3.2694716e+00
 -1.6556408e+00
 -1.2548218e+00
 -1.6090139e+00
  1.4316834e+00
 -4.5977631e+00
 -2.3861835e+00
 -6.8268135e-02
 -3.7095436e-01
  1.1233623e+00
 -3.6278205e+00
 -1.7232678e+00
  3.4299669e+00
 -2.5256312e+00
  1.0736887e+00
  2.6006968e+00
  4.3327622e+00
 -2.4340336e+00
 -1.3442782e+00
  7.0715910e-01
  9.0485317e-01
 -4.9324384e+00
 -3.6076269e+00
 -2.0671880e+00
 -1.3777407e+00
  2.0477970e+00
  1.6691459e+00
  1.5857512e+00
  2.2337604e+00
 -4.4672027e+00
  7.7320516e-02
  1.9839824e+00
  2.0154488e+00
 -1.1859715e+00
 -1.0998861e+00
  1.0772970e+00
  7.1982061e-03
 -3.4152849e+00
 -8.5899554e-02
  3.7960872e-01
 -5.1281834e-01
 -3.6019254e-01
  2.3240886e+00
  1.4995484e+00
  9.9683946e-01
  6.9101185e-01
  4.5021135e-01
  1.7737443e+00
 -3.3839624e+00
 -1.8234460e+00
  1.9899168e+00
 -2.6228392e+00
  4.7630253e+00
  2.9460721e+00
 -7.1148605e+00
  9.1392957e-02
  2.4813561e+00
  1.8398931e+00
  1.1923823e+00
  3.8597064e+00
 -2.1200557e+00
 -2.6247644e+00
  7.3704779e-01
 -2.1061769e+00
 -6.3355696e-01
 -1.8242420e-01
  6.9416180e+00
 -6.7789668e-01
  4.6011722e-01
  7.4033596e-02
 -1.1738223e-01
 -6.8937904e-01
  1.1367636e+00
 -5.8283567e-01
  4.4362936e+00
 -1.2552806e+00
 -5.5060434e-01
 -1.4266663e+00
 -2.0543075e+00
 -6.9034174e-03
  3.4090337e-01
 -6.9830447e-01
 -2.6969025e+00
  1.5568278e+00
 -6.1671835e-01
 -1.6874360e+00
  3.7423055e+00
 -2.4939840e-01
  1.5632857e+00
 -2.1737759e+00
 -3.4660614e+00
  2.7638540e+00
  8.9106965e-01
  1.6779730e+00
 -2.9764781e+00
  3.6484249e+00
  2.3375396e-01
  5.6439891e+00
 -2.1942263e+00
  1.8123578e+00
  2.7277081e+00
 -2.0340917e+00
 -1.1690421e+00
 -2.1300442e+00
  2.8372471e+00
 -1.1822828e+00
 -2.7810595e+00
 -1.1989374e-01
  5.2433662e+00
  1.8016197e-01
  1.9737197e+00
 -1.6986253e+00
  3.2336347e-02
 -3.3239334e+00
  2.9123858e-01
  8.6696358e+00
  2.7758405e-01
  3.2522902e-01
  1.6842562e+00
 -3.2299576e+00
 -6.3806516e-01
 -5.1013556e+00
  5.5872917e-02
  1.8111436e-01
 -4.0144411e-01
 -4.7643437e+00
  4.3101034e+00
  1.2169082e+00
 -2.0268219e+00
 -1.5823157e+00
  3.1251080e+00
 -5.9310853e-01
  5.2862334e-01
 -8.3504564e-01
  1.5695727e+00
 -1.5194170e-01
 -6.5154438e+00
 -3.7880319e-01
 -3.8670272e-01
 -1.0776025e+00
  7.4600302e-02
 -1.9273723e+00
  1.8781303e+00
 -2.5141106e+00
  6.7490369e-01
  2.6130559e+00
  1.3094507e+00
  4.8036280e+00
  8.5012935e-02
  3.3080213e+00
 -3.2068233e+00
  1.2089331e+00
 -4.2435679e+00
  1.5757178e+00
 -1.2431573e+00
 -1.9460601e+00
  1.0302608e+00
  2.4496267e+00
 -1.0743886e+00
 -5.8668985e+00
 -1.6383578e-01
 -4.9754933e-01
 -1.3962514e+00
 -2.2627265e+00
 -7.7995262e+00
 -1.9760525e-01
  2.4125296e-01
  1.9046078e+00
 -2.5007266e-01
 -2.0527054e-01
  1.3654569e-01
  3.0666345e-01
  1.2117428e+00
 -3.1699193e-01
 -8.9755052e-01
 -8.4744257e-01
 -6.7627555e-01
 -1.8292291e+00
  1.5224710e+00
 -9.5346135e-01
 -3.2596111e+00
 -4.5988005e-01
 -7.7962828e-01
 -3.0412753e+00
  2.7463165e-01
 -1.3677655e+00
 -1.7456323e+00
 -2.6513774e+00
 -2.8930390e-01
 -1.5033063e-02
  3.8084328e+00
  9.2899197e-01
  2.2835782e+00
 -2.5979109e+00
  3.0172405e+00
 -1.3710833e+00
 -1.7801324e+00
 -6.0230231e-01
  8.8405803e-02
 -2.0871850e-02
 -2.2456727e+00
 -5.1849592e-01
  2.3450866e+00
 -1.3447541e+00
 -3.7313569e+00
 -1.3815023e-01
  6.9136035e-01
  1.2851758e+00
 -8.0568939e-02
  1.2307110e+00
  1.0724939e+00
 -2.0274885e+00
 -1.7855573e-01
 -1.1646940e+00
 -1.3815315e+00
 -1.2354802e-01
 -1.7882466e+00
 -1.1334396e-01
  2.3568144e+00
 -1.2512065e+00
 -2.4859591e+00
  1.6827081e+00
  1.5095870e+00
  4.1496811e+00
  3.6223252e+00
 -5.6484470e+00
  5.1102825e-02
  2.3419023e+00
  3.8716753e+00
 -5.5382595e+00
 -5.2484150e+00
 -2.4196410e+00
 -4.0642619e+00
  8.8515669e-01
 -6.0887808e-01
 -4.6438175e-01
  2.1521451e+00
 -4.0240377e-01
  2.3177638e+00
 -1.4597874e+00
 -6.6591658e-02
  2.7555177e-01
  1.9096783e+00
  5.9855133e-01
  3.9519656e-01
 -2.0357387e+00
 -1.3649090e-01
  6.1412215e-01
 -1.0665795e+00
 -1.0255632e+00
  7.0100379e+00
  1.1430740e+00
  1.0924180e+00
  6.7749923e-01
  6.3756369e-02
  4.0896583e+00
  4.3217486e-01
  6.5642458e-01
 -7.5091261e-01
 -2.4202671e+00
  7.3411685e-01
  8.6064947e-01
 -2.8346407e+00
 -8.2913154e-01
  8.0427803e-02
 -5.1927490e+00
 -1.3554426e+00
  5.2820027e-01
 -1.3598153e-01
  1.8094600e+00
 -6.1634690e-01
 -2.0657783e+00
 -6.9476402e-01
  3.3442328e+00
  7.0030797e-01
  1.9295212e+00
 -1.3130136e+00
 -1.4117452e+00
 -3.9483590e+00
 -8.0547506e-01
 -2.8805549e+00
  2.2068179e+00
 -5.4833136e+00
  3.0204058e-01
  1.2107770e+00
 -7.2052121e-01
 -7.7045804e-01
 -7.4671827e-02
 -2.0190370e-01
  8.3075744e-01
  1.1003569e+00
  6.8836075e-01
 -1.3956051e-01
 -2.8956225e+00
  7.1619642e-01
 -1.7873801e+00
  1.8384806e+00
 -1.0953959e+00
  5.3195138e+00
  5.6546535e+00
  1.4167312e+00
 -3.6069458e+00
  7.5190336e-01
  2.0806837e-01
  6.1108512e-01
 -2.7458277e+00
 -2.5927439e+00
 -7.5352925e-01
 -3.2263346e-02
  5.2525353e+00
  6.7340672e-02
  3.6619167e-04
  3.6350117e+00
  3.7730196e+00
  1.8117578e+00
 -1.2780298e+00
 -1.1986450e+00
 -4.3287489e-01
 -1.1066923e+00
  3.3502903e+00
  3.4334223e+00
 -5.4268193e+00
  4.9529687e-01
 -3.7513387e+00
  1.4586194e+00
  2.3285928e+00
 -4.5934916e+00
 -3.2283447e+00
  3.9486384e-01
  1.0034454e+00
 -1.4836653e+00
  1.2446513e-02
  3.5390410e+00
 -8.5308939e-01
 -2.0129201e+00
 -1.0566093e+00
  3.3980210e+00
  2.6472335e+00
  3.5403419e+00
  2.8913584e+00
  6.2244469e-01
 -3.3868814e-01
  2.9582676e-01
 -3.5507980e-01
 -1.5983388e+00
 -1.2117039e+00
 -1.2856715e+00
  3.2138371e+00
  2.0514574e+00
  5.5794495e-01
 -1.3775965e+00
  2.2902322e-01
 -2.4646837e-01
  4.1682110e+00
  1.4196731e+00
 -4.0637898e-01
  4.0781340e-01
 -4.6100550e+00
 -2.4016258e-01
  1.1152160e+00
 -1.1546378e-01
 -2.8099680e+00
  9.1756296e-01
 -1.4273447e-01
 -4.8800245e-01
  5.6872749e-01
  2.3266859e+00
 -1.5012677e+00
  3.5524383e-02
  1.5732639e-01
  7.0137984e-01
  1.1801848e+00
  2.7556202e+00
 -2.6775088e+00
 -3.6301458e+00
 -2.7010765e+00
 -4.1693654e+00
 -2.0914522e-01
  1.8005065e+00
 -2.4557438e+00
 -3.4677346e+00
 -8.3970565e-01
 -2.0146947e+00
  1.5003511e+00
  1.0317990e-01
 -2.1434104e+00
  2.0709889e-01
 -7.2469401e-01
  2.8134885e+00
 -2.1272347e+00
 -6.1318293e+00
 -2.7440162e+00
 -2.2399902e+00
 -1.0925200e+00
  7.4946725e-01
 -1.2832091e+00
 -1.9150732e+00
 -2.9735759e-01
 -1.8685417e-01
 -7.0631588e-01
 -2.1289194e+00
  2.9661586e+00
  9.4554055e-01
  1.1474825e+00
  6.6041887e-01
 -1.1230779e-01
 -1.8401468e-01
  2.7504449e+00
  1.9187419e+00
  2.9139712e-01
 -2.8558526e+00
 -5.4898043e+00
 -1.3050001e+00
  2.4020324e+00
 -4.0610373e-01
  1.3032782e+00
 -1.8455691e+00
 -3.9855669e+00
 -2.4170187e+00
 -3.6160627e-01
 -8.8858873e-01
  2.3963038e-02
 -2.3329023e-01
 -6.1107266e-01
  1.3138810e-01
  1.1580440e-01
 -3.2398970e+00
 -1.0753250e+00
 -2.7990708e-01
 -3.1915457e+00
 -1.1627469e+00
  1.6368297e+00
  3.3604071e+00
 -2.0600104e+00
 -6.8099341e+00
  3.2433305e+00
  2.6938860e+00
  1.8807149e-02
  1.6390833e+00
  6.2636673e-01
  2.4542799e+00
  1.1102152e+00
  2.4130414e+00
  6.9465890e+00
 -1.8316480e+00
  5.4924518e-01
 -3.2532802e+00
 -5.0142884e+00
 -4.6599212e+00
 -4.7727604e+00
 -2.2324853e+00
 -1.6624777e+00
  3.3289521e+00
 -1.3983510e+00
  7.9113269e-01
 -1.5341420e+00
 -2.3683474e+00
  3.8589947e+00
 -6.7359190e+00
 -5.4444222e+00
  1.3404602e+00
  9.9579865e-01
 -4.7498608e+00
 -1.1901625e-01
 -7.9520955e+00
 -7.2362071e-01
  1.9148909e+00
  1.3168806e-01
  8.8161606e-01
 -9.4687003e-01
  2.6400120e+00
 -1.7307360e-01
  1.5330909e+00
  5.4637604e+00
 -9.1731066e-01
 -3.7653694e+00
 -3.8582582e+00
  1.7408594e+00
 -7.4761719e-02
 -1.6795578e+00
  2.6068957e+00
  8.4050053e-01
  1.6650708e+00
  3.3966547e-01
 -4.2936625e+00
  1.9914358e+00
 -7.6439464e-01
 -1.2649969e+00
 -6.3199681e-01
  3.0279070e-01
  3.9776125e+00
  4.5129700e+00
  5.1022869e-01
 -2.0281725e+00
 -2.2400284e+00
 -1.5145497e-01
 -3.2414496e+00
  2.7593737e+00
 -2.9053855e+00
  5.2857275e+00
  8.8014759e-02
 -8.2538742e-01
 -1.2909058e-02
  1.5743241e+00
 -1.2619514e+00
 -5.8957422e-01
  3.3948031e-01
  8.1172860e-01
 -4.8477250e-01
  1.3130999e+00
 -2.2143180e+00
 -2.8463238e-01
 -1.6196706e+00
 -4.2909551e-02
 -3.4313052e+00
 -1.0108308e+00
 -4.0484395e+00
  3.3460863e+00
 -3.7294006e+00
 -5.3796791e-02
  2.0612094e+00
  2.2044959e+00
  4.6064013e-01
  3.9281366e+00
 -3.6957252e-01
 -8.9292222e-01
  1.5996957e+00
  3.3195674e+00
 -4.6769899e-01
  7.5722426e-01
 -7.2193277e-01
 -5.6743190e-02
  5.3302842e-01
  6.8426591e-01
  1.7694310e+00
  1.6435245e-02
  1.9002689e+00
  9.4147360e-01
 -3.4086819e+00
 -1.5378691e+00
  4.3300232e-01
  1.6622263e+00
  1.5897558e+00
 -4.7296920e-01
  1.2529322e+00
  2.5726837e-01
  2.8795180e+00
  2.6621291e-01
  4.0957245e-01
  1.0121949e+00
  2.2107053e+00
 -3.5498482e-01
  1.2615597e+00
 -3.9971432e-01
 -1.1421080e+00
 -9.6425974e-01
 -1.5741266e+00
 -2.5892086e+00
  7.9703331e-01
 -9.9049425e-01
  3.4477964e-02
  4.5954269e-01
  1.6841617e+00
  1.2758240e+00
  3.1934440e-02
 -1.2290002e+00
  4.7581835e+00
  9.1298074e-01
 -9.9197632e-01
 -2.2894683e+00
  3.7053647e+00
 -2.6746020e+00
 -2.1827686e+00
  1.2474474e-01
 -1.4797157e+00
 -3.0475760e-01
 -4.2567115e+00
  1.0620462e+00
 -1.2228025e-01
  2.1727164e+00
  1.0890531e-02
 -2.9141550e+00
  1.4162227e+00
 -1.6396151e-01
 -1.0258805e+00
 -5.3072095e-01
  4.6830684e-01
 -1.3951353e+00
 -8.2490778e-01
 -1.0959389e+00
 -1.6315116e-01
  1.0889894e+00
 -7.9122233e-01
 -2.4788773e+00
  4.8395328e-02
  4.9052768e+00
 -2.1478462e+00
  5.2136307e+00
  1.3472108e+00
  3.9481239e+00
 -7.7107507e-01
  1.2173727e+00
 -3.5018518e+00
  8.2883883e-01
 -4.9902239e+00
 -2.0422454e-01
 -1.0075405e+00
 -2.4661899e+00
  6.2042475e+00
  3.4078224e+00
 -1.8623817e-01
  8.2012910e-01
  2.4530437e+00
 -1.8684955e+00
  3.9045546e+00
  4.3544069e-01
  1.0295534e+00
  3.2258358e+00
  2.8736088e+00
  1.1678877e+00
 -3.0490930e+00
 -3.5346284e+00
 -2.6211314e+00
  3.7121603e-01
  8.7739903e-01
 -1.6880229e+00
 -1.1199592e+00
  2.1693404e+00
  3.6467001e+00
 -1.8214917e-01
 -1.7458745e+00
  1.5485950e+00
  2.1650028e+00
 -5.8419719e+00
  1.8839320e+00
  4.2143005e-01
 -1.0744556e+00
 -1.7487037e+00
 -7.2181749e-01
  2.9910951e+00
 -3.0779111e+00
 -2.6861298e-01
 -7.1187186e-01
 -1.7113349e+00
 -1.7415518e+00
  4.5906010e-01
 -1.2682657e+00
 -4.6803780e+00
  2.5519094e+00
  3.0075529e-01
  1.2146411e+00
  1.6138462e+00
 -1.3695807e+00
 -1.8440745e+00
 -3.8089615e-01
  2.5971661e+00
 -2.1523356e+00
 -1.3217353e+00
 -1.7013162e+00
 -2.7293119e+00
 -3.5866559e+00
  2.0228095e+00
 -1.0022063e+00
  3.5845890e+00
  3.7339280e+00
  3.1877148e-01
 -1.2730850e-01
  2.5520558e+00
  7.7010393e-01
  1.1396545e-01
  3.8777144e+00
  9.1448613e-02
 -1.0306097e+00
 -1.4915289e+00
  2.3349943e+00
 -1.4166178e+00
  5.8667339e-02
  2.9268387e-01
  9.3604064e-01
  9.7763765e-01
 -6.4381928e+00
  3.8548687e+00
 -2.9151785e-01
  7.7038419e-01
  2.8737714e+00
  2.0513229e+00
  3.0571563e+00
 -3.1386580e+00
  1.1895415e+00
 -8.6622611e-02
  3.5528708e+00
  2.8541105e-02
  5.9157211e-01
  1.9020157e+00
 -9.0796191e-01
 -3.4025104e+00
 -7.5230231e+00
  4.6915522e-01
  3.8357120e-02
 -1.0808136e+00
  3.7497566e+00
  9.8601103e-01
  9.6350980e-01
  6.1624557e-01
  1.3856623e+00
  1.1833441e+00
  1.3473667e+00
 -1.8672225e+00
 -6.0027188e-01
  3.8153738e-01
  1.1281838e+00
 -1.6811235e+00
 -1.5813363e+00
  2.1366167e+00
 -4.2905697e-01
 -1.6499002e-01
  1.3918695e+00
  1.0257725e+00
  3.2909410e+00
 -1.3695793e+00
 -8.3143026e-01
 -1.7609296e+00
  1.4306992e+00
 -3.2039316e+00
  1.0718673e-01
  2.6619642e+00
  1.4951535e+00
  2.3283050e+00
  2.4032922e+00
  3.9157674e-01
 -1.7805021e+00
  1.7965370e+00
 -3.0482297e+00
  4.8330575e-01
 -8.4297886e+00
  1.1007117e+00
  3.6218040e+00
  2.6358388e-02
  8.9614620e+00
 -9.5124835e-01
 -4.5769420e-01
 -5.1662369e+00
 -7.9033911e-01
 -2.0291631e+00
 -1.4822420e+00
  3.9939983e+00
  2.1401801e+00
 -7.6733284e-02
 -1.1267865e+00
 -1.4772032e-01
  1.5363629e+00
  9.4235468e+00
 -1.9850518e-01
 -3.0823333e+00
  5.1210338e-01
 -1.5992457e+00
  1.5666752e+00
  1.7792423e+00
 -1.8772306e-01
  7.2133523e-01
 -1.7192122e+00
 -2.1191421e+00
  2.0900714e+00
 -4.0732255e+00
  5.0803990e+00
  4.5784545e-01
  1.6649615e+00
  2.0950313e+00
 -5.8691525e-01
  1.6620187e-02
  1.1336228e+00
  3.3275449e+00
 -7.0925182e-01
 -4.3898873e+00
 -2.9704659e+00
  7.1695596e-02
 -6.0378294e+00
  2.0926001e+00
 -2.4524083e+00
 -2.6434138e+00
  2.0951304e+00
 -1.2748613e+00
  1.2699072e+00
  2.4151999e-01
  1.3673506e+00
 -3.4819055e-02
 -1.6781857e+00
  4.0540118e+00
 -1.7050297e+00
 -1.3753140e-01
  2.0574801e+00
  7.9303034e-02
 -2.7050073e+00
 -2.8706446e+00
  9.5899612e-01
  1.7752255e+00
 -3.9291394e+00
 -2.6915727e+00
 -3.5426347e+00
 -5.4391017e+00
  1.3299102e+00
  3.1833091e+00
 -7.0248121e-01
  4.0878897e+00
 -1.0494562e+00
 -4.5872993e+00
 -3.1039894e+00
  3.9061215e-02
 -2.8171482e+00
 -2.7163317e+00
  1.9183003e+00
  1.3623103e+00
 -4.5376778e+00
  9.4652277e-01
 -2.8348074e+00
  3.5537013e-01
  2.8630766e-01
