nep3 2 Ga O 
cutoff 8 4 221 29
n_max 8 8
basis_size 8 8
l_max 4 2 0
ANN 50 0
 -6.8634272e-06
  1.0633260e-05
  1.8398549e-06
  1.1639363e-05
  5.1809793e-06
 -1.0664094e-06
 -2.0142294e-05
 -1.1917367e-04
  2.4128972e-06
  9.7825177e-06
 -3.4263528e-06
  5.8922374e-06
 -7.2452567e-06
 -7.6137903e-06
 -5.4798028e-07
  8.1461903e-06
 -9.8727423e-06
  1.1775754e-05
  2.0190644e-05
 -9.6795457e-06
 -1.1198589e-06
 -5.4364500e-07
  3.0004952e-05
 -1.9153462e-05
  7.4555510e-06
 -1.9136605e-06
  2.9760691e-05
  1.4245338e-05
  1.0277204e-05
  8.7136168e-06
  6.1075666e-06
  1.7102819e-05
  1.3759043e-05
 -1.8105105e-05
  2.9411258e-05
 -2.4244691e-05
  1.7095101e-07
  2.8185118e-06
  1.7907034e-05
 -2.4229748e-05
  1.0931589e-05
 -2.8974795e-05
 -6.1707728e-06
  3.9311562e-05
 -6.1156803e-05
 -2.6478257e-05
 -1.3203320e-05
 -6.3822539e-05
  1.6226046e-05
  5.5982517e-05
 -1.8088664e-05
  2.5951871e-05
  5.6966803e-07
 -4.6604215e-05
 -9.8470604e-01
  6.3662750e-01
  5.1836991e-01
 -5.2820367e-01
  3.3616024e-01
 -7.8405648e-01
 -2.3860617e-01
 -2.7120115e-02
 -4.8838264e-01
 -5.2493978e-03
  2.0654571e-01
 -5.2736980e-01
 -4.6766777e-02
 -4.0340275e-01
  3.5777479e-02
 -1.2658933e-02
 -2.7018321e-01
 -6.3161753e-02
 -3.9203137e-01
  3.1921545e-01
 -1.5847471e-02
  1.0356330e-01
  1.1927967e-02
  2.9801326e-06
 -2.6751479e-06
 -1.7508034e-01
  7.4946709e-02
 -5.8543342e-01
  5.5210149e-01
 -2.5756077e-05
 -4.3022129e-01
 -5.3301260e-06
 -3.3625718e-03
  3.4396902e-01
 -6.1430091e-01
  3.7268013e-02
 -2.3134647e-02
  2.0996974e-01
 -5.5734865e-02
  1.4431364e-02
 -1.9491054e-04
  7.2453177e-01
  8.9983732e-02
 -4.1987002e-01
 -3.4035176e-01
  1.0751432e-01
 -3.4481812e-01
 -1.4935859e-01
 -1.6144019e-02
  2.0889680e-01
 -9.9231074e-06
  5.7886762e-05
 -7.4691333e-02
  3.1080483e-06
  1.1267714e-01
 -5.0137901e-01
  1.8420633e-03
 -5.0884825e-01
  1.9407210e-01
 -5.7289922e-06
  4.6846765e-04
  2.5294530e-01
 -2.2813095e-01
 -2.4345230e-05
  2.2085862e-02
  1.2990321e-01
  1.8844695e-09
 -5.2135397e-04
  4.6944457e-01
  2.0915037e-01
 -5.9418207e-06
  8.5642105e-06
 -1.5799349e-02
 -3.1471220e-04
  4.1248449e-04
  1.7134835e-05
  1.0046586e-01
 -4.7429472e-05
 -1.1888885e-06
 -2.0905463e-05
 -9.8349378e-02
  2.8741475e-05
 -2.8933081e-01
 -6.4021369e-06
  2.8757979e-06
  8.0295456e-07
 -1.7384029e-05
 -1.2450307e-05
 -2.2149511e-01
 -5.8584714e-01
  1.4675785e-05
 -3.4371470e-03
 -3.3396718e-06
  6.1938745e-06
  2.4696494e-06
 -2.2283515e-05
  5.1072893e-06
 -3.3885374e-06
 -1.1889578e-02
 -1.0580199e-04
 -2.3834221e-02
  1.6483534e-06
  2.2081731e-05
 -5.9529953e-07
  1.5530888e-05
 -3.3592539e-06
 -2.6999373e-06
 -2.8997365e-06
 -3.2568289e-07
 -1.5980975e-05
 -1.0724779e-05
  9.3314393e-06
  1.5670560e-06
  7.2736962e-06
 -2.7346941e-05
 -2.5472384e-05
  3.2414977e-05
  1.1314640e-05
  2.5550389e-05
  1.1456832e-05
 -2.7651204e-05
  9.6644217e-06
  6.5912849e-05
 -1.7958904e-05
  9.0572457e-06
 -1.3230600e-05
 -1.9624389e-05
 -2.3926064e-05
 -1.6998860e-05
  1.4813253e-05
 -1.3286612e-05
  1.1459287e-05
  2.8073695e-05
 -9.9285744e-06
  8.4029507e-06
  1.6861964e-05
  2.6467731e-04
 -2.7065995e-05
 -5.1621089e-05
  1.1821880e-05
 -1.2540930e-05
  5.2669066e-06
  3.7330031e-07
 -4.8916136e-06
 -1.1111721e-05
  1.3773855e-06
 -5.8200738e-05
  8.3202149e-06
 -2.4759942e-05
 -2.8698572e-05
 -1.6913798e-07
 -5.9937861e-08
  1.2346670e-05
  5.6969981e-07
  2.0371313e-05
  4.6043920e-06
  4.0582313e-06
  3.8330505e-05
  1.0653788e-05
 -2.2433211e-05
  1.3785898e-05
 -7.2489343e-08
 -9.8909080e-01
 -2.4792094e+00
 -3.1207901e-01
  1.2719624e+00
  1.0131803e+00
 -3.6117679e-01
 -1.7379392e+00
 -1.2701056e+00
  1.9221404e+00
 -2.5197324e-01
  4.9545830e-01
 -2.2928072e-05
  3.0888179e-01
  4.1720915e-01
  4.8663041e-01
  2.1867022e-01
  1.3361343e-02
  5.1628612e-02
 -1.1849082e+00
  2.4789858e-01
 -2.8548038e-01
  1.2423679e+00
 -7.5583407e-06
  2.7257197e-02
  1.2805008e-03
 -4.0123849e-03
 -4.7042403e-02
  4.1830662e-01
  2.4626746e+00
 -8.7636501e-01
 -2.0228155e-05
 -8.1673079e-06
 -7.9403102e-02
  5.8868021e-02
 -2.3574495e+00
 -8.1444740e-01
  9.2533402e-02
  1.8166103e+00
 -7.6266688e-01
  1.3271679e-01
  4.5811644e-01
 -1.8158871e-01
 -1.1067224e+00
  2.8521287e-01
 -7.6035738e-01
  3.9905537e-04
 -5.6312632e-02
 -3.6946600e-05
 -5.3770316e-04
  2.6387140e-01
 -4.1597912e-05
 -1.8481217e-06
  1.3909034e-05
  5.0966877e-01
 -2.6985845e-05
  9.5681287e-02
  2.7334207e-05
 -5.4660336e-07
  2.2589779e-07
  5.0193935e-06
  4.9064693e-05
  4.5536224e-05
 -9.5010828e-06
 -4.5992983e-06
 -1.0171687e-05
  8.9804598e-06
 -1.9298159e-05
  1.1544591e-06
  1.7074937e-05
 -8.1288063e-06
 -3.7335913e-06
 -1.1706833e-06
 -1.7738388e-06
 -1.8111861e-05
 -1.2332953e-05
 -1.3390039e-05
 -8.1350145e-06
 -4.1195242e-05
  7.8274745e-05
  2.7804661e-05
  1.0010259e-06
  5.4969348e-07
  1.7058193e-05
  2.6554482e-05
  2.3375329e-05
 -5.5402566e-06
 -5.1787219e-06
 -1.9598780e-05
  3.3299315e-05
  5.2106652e-06
 -1.1219464e-05
  4.3160276e-06
 -1.1005532e-06
 -1.2118991e-05
 -6.6426677e-05
  6.2572667e-07
  9.7069860e-06
 -2.0006491e-06
  2.4593035e-05
  5.2656698e-05
 -1.6628103e-06
  4.5097504e-06
  2.6590280e-06
 -8.4249114e-06
  4.1633589e-06
  4.1770422e-06
 -6.2984841e-06
  1.8240748e-05
  1.0124722e-01
 -9.7643986e-02
 -1.5407873e-04
  5.0901419e-01
 -7.7681509e-03
  2.8735891e-01
  2.2676666e-05
  1.2973328e-02
 -5.9606694e-02
  1.3207482e-01
 -1.0899316e-01
  1.9180381e-01
  4.4956580e-02
 -9.0004505e-05
 -1.7856385e-04
 -2.8491215e-05
  2.2109477e-03
 -1.6497099e-01
  6.0160022e-05
 -4.2038229e-01
 -1.1028297e-01
 -4.0338335e-05
 -2.1962646e-02
 -6.2678270e-02
  2.3725352e-03
  1.3310367e-01
 -3.7821204e-07
 -4.9750286e-04
  9.7140267e-02
  5.7323998e-01
 -1.7785190e-06
 -8.5163727e-02
 -3.7110555e-01
  2.8995791e-02
  3.6163339e-01
  1.9566326e-01
 -4.1283456e-05
 -7.3759272e-03
 -2.8655827e-06
  1.7172722e-05
 -3.6816573e-07
 -2.9264240e-05
  1.8797518e-06
  6.7530004e-06
 -2.8119317e-05
  2.0207557e-05
 -1.2077795e-05
 -4.1173913e-02
  4.8614256e-06
  8.4980647e-06
  3.8784633e-06
  5.3589992e-02
 -9.2494056e-06
 -1.9061603e-01
  1.3571434e-01
 -1.0847959e-02
  1.5548656e+00
 -5.6676209e-01
 -4.7516476e-02
  1.0237067e+00
  3.5978305e-01
  6.6289119e-02
  1.0250307e-02
 -6.8533516e-01
  1.7877881e-01
 -5.5152631e-01
 -3.4902924e-01
 -1.8386374e-01
 -4.4594023e-02
  3.4628123e-05
 -2.9095820e-01
 -1.1581170e-01
  8.9640434e-06
  6.2388998e-01
 -5.3708965e-01
  5.4457796e-05
 -1.3253504e-02
 -2.4908990e-01
  2.1223506e-04
 -5.8290899e-01
  5.9469312e-01
  2.1971570e-04
 -7.3002249e-01
 -1.0527586e+00
  2.0875709e-01
 -8.1445581e-01
  7.0401715e-05
  1.3196403e-06
 -1.2475491e+00
 -7.0296429e-02
  7.9541125e-05
 -2.0684643e-01
 -8.4771511e-07
 -7.2833323e-06
 -3.3293700e-01
 -1.5301797e-05
  7.2990124e-06
  5.3126831e-05
 -3.1584334e-01
 -7.0753067e-06
 -6.9081956e-01
  1.0567889e-01
  5.6194331e-06
  7.3966213e-02
 -2.8118932e-06
 -5.5391539e-02
 -9.5149308e-02
 -1.7128552e-06
  1.9339814e-05
 -5.0563394e-05
 -3.1487165e-05
  6.5642789e-06
 -3.7620910e-05
 -1.9737854e-06
  7.9843339e-06
  5.7017583e-06
 -4.2230073e-05
  2.1037031e-06
 -7.0687352e-06
 -2.7929252e-06
  3.3927838e-05
  1.3253535e-05
  2.6010815e-05
 -2.3078233e-06
 -1.5254745e-05
  5.6974618e-06
  7.6635515e-06
  1.9043769e-05
 -3.1043396e-06
 -2.5974039e-05
  5.1231691e-06
 -2.9745293e-06
 -5.8048363e-06
 -1.7207087e-06
 -1.7228875e-05
 -1.9667645e-05
  2.2269828e-06
  1.9021771e-05
 -5.6381255e-06
 -8.3947128e-08
  2.2357652e-05
  2.8920775e-05
  3.0249037e-05
  2.1244388e-05
  1.0395230e-05
 -1.2775759e-05
 -6.5291642e-06
 -1.6010639e-06
  6.8737586e-06
  6.5453569e-06
 -1.5595790e-05
  6.3442412e-06
  1.7079396e-05
 -1.7581107e-05
 -5.0670837e-06
  2.6303092e-05
  4.8432789e-06
  9.5557634e-06
  3.3625187e-05
 -6.3902189e-06
  5.5526816e-06
  1.3863571e-05
 -3.8050997e-01
  1.0648815e-01
 -9.2870933e-01
 -8.2506863e-03
 -1.5607303e-01
  9.2453942e-02
  2.0028237e-02
 -1.2073232e+00
 -5.4897364e-02
 -6.6353011e-01
 -3.9501228e-06
  5.5193043e-01
 -1.5986811e-02
 -4.2777526e-01
 -3.1692454e-01
  2.9271987e-01
 -9.1144079e-07
  4.8449524e-03
 -1.5611175e-03
  4.3722779e-02
  2.3806056e-01
 -2.0776286e-06
 -4.2542986e-05
 -5.6645742e-05
 -3.3789306e-06
  8.6646251e-02
  3.5946608e-01
  3.4553634e-03
  7.7457494e-01
  1.1054243e-05
  4.6673953e-03
 -3.1347223e-02
  8.6566279e-06
 -1.2797064e-05
 -2.1418597e-01
 -1.7728527e-01
 -2.6408784e-06
 -1.4790952e-02
  1.8153845e-06
 -1.5082479e-06
 -1.3385603e-03
 -5.1215190e-01
 -1.6320406e-01
  9.4773359e-06
  2.3555030e-01
 -3.7001440e-04
  1.7922634e-02
  6.5100845e-05
  3.6166915e-05
 -1.7926104e-04
  1.5569569e-06
 -1.2714569e-05
  5.4946693e-04
 -1.8220389e-05
  1.6701961e-01
  7.7943929e-02
 -1.3092743e-01
  2.0562689e-04
 -2.2682933e-02
  2.3383334e-04
  1.9484526e-02
  1.0089696e-02
 -3.6172532e-02
 -1.3530160e-06
 -2.2163033e-02
  2.6060730e-02
 -1.4850951e-04
 -5.3100916e-07
 -2.8758848e-03
 -9.2355505e-05
 -3.2871992e-06
 -3.7696294e-04
 -7.1265489e-02
  7.9824768e-02
  2.5062848e-04
 -8.4831328e-05
  6.7450671e-04
 -2.6071009e-06
  6.5670843e-06
  4.9742118e-02
 -3.1706825e-02
 -3.6377844e-06
  2.1363432e-02
  2.8624728e-03
 -2.0866846e-05
 -3.0077113e-06
 -3.5951866e-03
 -3.2557957e-05
  9.9958861e-03
 -1.4580208e-03
  4.5389013e-05
 -9.3117822e-03
  7.3599385e-04
  1.8258412e-05
  2.2215925e-06
 -7.9652522e-04
 -1.1695120e-02
  8.2592933e-06
 -1.4748901e-01
  5.8378264e-06
  5.0633527e-02
 -2.9223470e-04
  5.7013949e-07
 -1.3278113e-06
 -1.0738311e-05
  1.6600740e-04
 -1.8173447e-05
 -2.8252347e-05
 -8.0208747e-06
  1.1675472e-06
  1.0569738e-05
 -2.0392235e-06
  2.6898490e-05
  1.9555023e-06
 -2.5009153e-06
  2.8161978e-06
 -3.3236274e-06
  3.7633981e-06
 -9.9413819e-06
  1.5768277e-05
  1.2630769e-05
 -5.6158028e-06
  2.5608861e-05
 -5.6394890e-07
  4.0744453e-05
  1.8995497e-05
  2.0345162e-07
  2.7782460e-06
  2.1452086e-05
 -3.7509359e-05
 -1.1776668e-05
  1.5264312e-06
  1.1576893e-05
 -6.4854653e-06
 -5.4418933e-06
 -9.1164816e-07
  9.0194735e-06
 -1.6546961e-06
 -2.3382945e-05
 -3.4659693e-05
  1.5126903e-05
 -4.6930014e-05
 -4.0483541e-05
  1.7081584e-05
  1.0969141e-05
  5.3350350e-06
 -8.9001487e-06
  8.2266215e-06
 -1.8238694e-05
  4.4489974e-05
  7.6575736e-07
  6.1819637e-06
  9.0622052e-06
  1.7970466e-06
 -3.7435675e-05
  4.1272608e-05
 -2.1923463e-05
  1.4755701e-05
 -4.5749312e-05
 -1.6453638e-05
 -3.4344425e-06
 -1.6487656e-05
  5.3954634e-05
  1.0128738e-02
 -7.7672675e-02
  1.3973985e-03
 -1.1138127e-02
  2.8678017e-02
  4.3125588e-02
  1.5658729e-02
 -2.1411583e-05
 -2.3711162e-05
 -1.1682173e-02
  2.5773315e-02
  3.1439614e-04
 -5.8974269e-06
 -2.5319026e-04
 -8.0740676e-05
  1.5764983e-04
 -2.2165246e-02
 -3.1288143e-02
  2.2977830e-03
  9.5144259e-03
 -5.5563019e-04
  6.0139498e-04
 -3.1114145e-05
  3.9434097e-05
  4.5053121e-02
 -7.9270236e-02
 -2.2532267e-05
  8.6059589e-03
  4.2183179e-02
 -3.3799579e-06
 -1.6694676e-02
 -3.7368778e-02
  2.4882240e-05
  4.8104551e-02
 -2.3518307e-05
 -1.7859229e-03
 -2.1141063e-02
  2.4190796e-05
 -2.2044501e-06
  3.7029806e-06
 -1.7923026e-01
 -2.5198685e-03
 -3.0186677e-05
 -1.8363994e-02
 -1.6028418e-06
 -4.2888531e-03
 -1.3770533e-04
 -2.1306854e-05
 -3.8634712e-06
 -1.2242419e-04
  5.9456175e-05
 -5.3216070e-07
 -5.0876145e-03
  7.1673423e-02
  2.5647625e-01
  4.8031798e-03
 -1.6735966e+00
 -2.5871775e-01
 -6.1523616e-01
 -4.2403331e-01
  1.2963424e+00
  1.0278384e-01
 -1.6911529e-03
  5.0205326e-01
  1.4294228e-04
  4.5454036e-04
 -5.9255397e-01
 -1.7029408e-05
  1.1699368e-03
  1.1709614e-05
 -9.6135645e-06
  2.9605033e-06
 -2.9858854e-03
 -8.5388965e-06
  1.5123935e-05
 -1.1194024e-02
  1.2732468e-05
 -2.5244842e-06
 -1.6648048e-01
  9.9533117e-06
 -1.2913505e-06
  2.0552871e-01
 -3.9682081e-06
  3.3931522e-06
 -4.4947187e-06
  1.7129620e-05
  2.5766687e-05
  1.0983170e-05
  7.5252816e-02
  1.4477754e-05
  2.6134300e-01
  1.4034699e-05
 -5.6631474e-05
 -7.8678668e-06
  4.6666741e-05
  1.0970814e-05
  1.3929539e-04
  1.5686215e-05
  1.0948081e-05
  7.6461039e-02
  1.8204165e-01
 -1.2089434e-05
 -5.2932119e-06
  2.3204731e-05
 -1.1254525e-05
  1.4664340e-07
 -3.1722866e-06
  6.8950158e-06
  1.4548117e-05
  5.2575642e-06
  2.8273067e-05
 -3.6605513e-06
  4.1501171e-05
  1.4903094e-05
 -6.9381340e-06
 -4.9024629e-06
  1.1286557e-05
 -1.9991130e-06
 -1.1133627e-05
 -1.8228166e-05
 -3.8018847e-05
 -1.4066786e-06
 -1.2495506e-05
 -3.5208127e-06
 -1.1954571e-05
 -1.2623062e-05
  8.6651107e-06
  1.5765248e-05
 -1.0153896e-05
  1.4926119e-06
  2.9702360e-06
  1.1004887e-05
 -1.7373623e-05
  1.6204145e-06
  1.3138081e-05
  1.0215417e-06
  2.2305992e-05
 -3.7201946e-05
 -5.6624981e-07
  1.0403849e-05
 -3.4140681e-05
  3.7646646e-06
 -8.6487071e-06
  1.5827671e-05
  4.9893797e-06
  1.1365396e-05
  9.4189327e-06
 -2.5783003e-05
 -1.4642244e-05
 -7.8136409e-06
 -2.2314293e-06
  9.3748358e-06
  3.0012263e-05
 -4.2945605e-05
 -1.8329140e-06
 -1.5215856e-05
 -3.2915232e-06
  3.9379438e-06
  2.3393313e-05
 -7.3064411e-06
  9.3242545e-07
 -5.1820816e-06
  1.6645472e-05
  1.0428990e-05
  1.8523346e-05
  3.3370359e-06
 -1.9491443e-05
  1.4475631e-05
  6.3587891e-06
  9.6770364e-06
 -2.9514467e-05
  3.8616006e-05
  3.1015079e-05
 -8.9566138e-06
 -5.1841816e-06
  7.4935310e-06
  1.8069992e-05
 -3.7642685e-06
  1.0774887e-05
  3.1918520e-05
 -1.3101642e-05
 -1.0291878e-06
  3.6883372e-05
 -1.7542563e-05
  2.0473970e-05
  2.9247243e-05
  5.6779106e-07
  5.9435689e-07
  1.6738310e-05
  5.3895119e-06
 -9.8549053e-06
  8.2351435e-06
 -2.2435801e-05
  6.5537442e-06
 -2.1030855e-05
 -2.7437363e-06
  1.4789148e-04
 -9.3149374e-06
  1.7336188e-05
 -2.9318287e-05
 -1.0822496e-05
 -1.6573391e-05
 -3.3250606e-06
  2.2687050e-07
  1.3288489e-05
  3.9559486e-06
 -2.7721897e-05
  2.8433547e-06
  6.9482594e-06
 -2.9039853e-05
  4.0384111e-06
  2.9379647e-05
 -4.9481878e-07
  4.8465386e-05
  3.4617609e-05
  3.0749903e-05
 -4.0295231e-06
  2.8961622e-06
 -7.4809781e-05
  3.6001602e-06
  1.1982399e-06
 -3.5456051e-06
  5.4630113e-06
 -1.5419207e-06
 -2.5084887e-06
 -2.1460437e-08
 -2.5163286e-05
  2.4048288e-05
  1.1561472e-05
 -7.0201850e-07
  1.8822378e-05
  7.8740140e-06
  3.6922008e-06
  1.0250924e-05
 -4.6700106e-06
 -8.6734030e-07
  4.0701235e-07
 -1.2606983e-05
 -1.4892208e-05
  3.2675383e-05
 -1.4619731e-05
 -1.5129147e-06
  1.1927395e-05
 -3.0472715e-06
  1.1735297e-05
 -5.9612707e-06
  2.1286989e-05
 -2.9848447e-05
  4.6058161e-05
 -4.6002660e-06
 -1.6570431e-05
 -4.7760136e-06
  1.9437906e-05
 -3.7026097e-05
  1.9521433e-06
  2.5976251e-04
  1.7614568e-04
  2.7064807e-06
  6.6865127e-08
  1.3083926e-05
 -1.4940180e-06
 -2.9422174e-05
 -1.8201288e-05
 -6.2752861e-06
  2.5963747e-05
 -1.0371714e-06
 -5.2074656e-06
  8.7398348e-06
 -2.6561598e-05
  5.5932540e-01
  5.6725770e-01
 -1.1713932e-01
 -2.9473752e-01
 -1.2215292e-01
  2.2847423e-01
  5.6005639e-01
  1.1117885e+00
  3.3248436e-01
  7.9035544e-06
  3.5077968e-01
 -1.2470520e-01
 -9.7078927e-02
  8.5808419e-02
 -1.3191581e-01
 -1.4080639e-01
 -1.4992782e-01
 -4.8964080e-01
 -1.0066989e-05
  2.0348050e-02
 -6.0640991e-04
 -2.8991136e-01
  6.8451399e-03
 -4.6520159e-01
  1.7800862e-01
  5.8827353e-01
 -6.3257623e-03
 -1.0044709e-05
 -3.2759288e-01
  2.0410594e-02
 -2.3921086e-03
 -6.2194526e-01
 -1.1874509e-01
 -3.2223362e-04
  7.0005089e-02
 -1.2982531e-03
 -7.0911110e-04
 -3.0795400e-05
  1.9014037e-01
 -2.4907415e-06
 -1.6398661e-06
 -1.2589975e-01
  2.5313086e-06
 -3.3957808e-06
  4.0769690e-05
  4.9864233e-05
 -5.2042586e-01
 -3.0259189e-01
 -8.9006453e-06
  2.7894342e-01
 -2.9811365e-06
  1.4959973e-01
 -4.6245526e-03
 -1.5509909e-01
 -1.6144388e-06
 -2.9045655e-06
  5.4434015e-05
  8.4423209e-06
  7.1694835e-06
  2.3090242e-06
  1.5077943e-05
 -2.9987143e-06
 -1.1049649e-05
 -1.5876307e-05
  1.3558928e-05
  5.2002506e-05
 -3.1243521e-06
  2.1575570e-05
 -2.1027040e-06
  8.1337739e-06
  6.4811939e-06
  2.3911882e-05
 -2.0816969e-05
  2.4300292e-05
  1.4037462e-05
 -2.1689644e-05
 -5.2396272e-06
 -2.1847525e-06
 -1.0551058e-05
  3.3420476e-06
 -2.4269061e-04
  1.2816926e-06
 -8.4127460e-06
  1.1174790e-05
 -9.6764361e-06
 -7.3859023e-06
 -3.3017153e-07
  1.4269817e-05
 -6.2475870e-06
 -1.0681970e-07
 -7.7490563e-07
  8.0642176e-06
  5.8103360e-06
  5.7258057e-07
  2.4725964e-06
  2.7651378e-05
 -9.6077483e-06
  1.1136851e-05
  9.0319472e-06
  1.8682189e-05
 -1.0599574e-06
  1.7228890e-06
 -1.4910264e-05
  7.8893081e-06
  8.1203234e-06
  5.2966298e-05
 -1.0539701e-04
  3.4871500e-05
  1.9897874e-05
 -8.2258939e-06
 -1.2183679e-06
 -1.6948641e-05
 -1.0972394e-04
 -2.3383565e-05
  9.0802987e-06
  1.7571223e-05
  1.0662200e-05
 -1.9019442e-05
  4.9504260e-06
  4.2636049e-05
  3.3789854e-06
 -2.5220843e-05
 -8.2326342e-06
 -3.4984547e-05
 -1.0302318e-05
  1.6613027e-05
 -2.3307011e-06
  1.4212997e-06
 -1.1513218e-05
  9.4789366e-06
  5.1260840e-06
  1.7312916e-05
 -1.0198961e-04
 -1.3301346e-05
  7.1820577e-06
  3.6321076e-06
  3.5100740e-05
 -1.1261750e-05
  1.8270272e-05
 -1.4530658e-05
 -3.5643032e-05
  1.0347352e-05
 -8.5389393e-06
 -1.1973427e-05
 -2.0618709e-06
 -1.1103592e-05
  1.2023883e-06
 -1.2144435e-05
 -1.1552104e-05
 -1.5493845e-04
 -1.6627386e-05
 -9.6606427e-06
 -3.9159121e-07
 -9.1846978e-06
  1.1199500e-05
  2.6593339e-06
 -1.6647623e-06
  2.1528649e-06
 -7.1736335e-06
  4.5964516e-06
 -1.8658111e-05
  3.8932753e-06
 -3.1736347e-06
 -1.4976245e-06
 -2.1055221e-05
 -4.8094525e-06
  7.1479844e-06
  1.1098913e-05
 -3.4687200e-05
  1.1180568e-05
 -7.3924575e-06
  2.1778383e-06
  2.0778223e-06
  1.0801397e-06
  5.1339703e-06
  7.7790264e-06
 -8.1332826e-07
 -5.4290367e-06
 -5.3199958e-05
 -2.9957291e-06
  1.5377514e-06
  1.5505620e-06
 -2.6525493e-06
 -1.9439453e-06
  1.6308501e-06
 -3.4501842e-05
 -1.5461160e-07
 -3.1880775e-06
 -8.1703178e-07
  3.5434111e-06
 -7.4574826e-05
  4.2026554e-06
  1.9693112e-05
 -6.9781738e-05
 -1.2404938e-05
  1.7299187e-06
 -1.7968258e-04
  2.5197467e-05
 -2.4476420e-05
 -2.1851005e-05
 -2.6693771e-05
 -2.5629779e-05
  3.5837136e-06
  2.9163875e-06
 -1.6653343e-05
  5.1233123e-06
  3.4329827e-05
  3.1610401e-05
 -1.9299116e-06
 -1.8155741e-05
 -3.8310959e-06
  2.8773507e-06
 -3.3552890e-06
 -1.8950403e-05
  9.5974683e-06
 -4.1676234e-05
  1.1441405e-06
 -4.1123144e-06
  2.3571285e-05
  8.2038832e-06
 -4.3247278e-06
 -5.2941491e-06
 -2.3887158e-05
 -1.7709895e-05
  2.8029390e-05
  7.1385606e-05
  2.8737746e-05
 -8.1785729e-06
 -2.9486778e-06
 -3.0443678e-06
  9.4967572e-07
  1.9957213e-05
  3.2865188e-07
 -1.1989254e-06
 -2.1426607e-05
 -2.2440136e-06
  2.9186509e-05
  3.4282464e-06
  1.7875132e-06
  2.5082667e-05
  5.8737314e-06
 -2.1573171e-05
  1.5415852e-05
  1.4875282e-05
 -5.0062044e-05
  2.2157010e-05
 -1.7685649e-06
 -3.0917365e-06
 -1.9984962e-05
 -7.3589981e-06
 -7.0605197e-06
  2.1133428e-06
  1.7165617e-05
 -1.1333400e-05
 -1.3131150e-06
 -1.8296929e-05
 -2.6911386e-05
  9.1928259e-06
  4.1664121e-06
  6.1888650e-06
  5.1804418e-06
 -4.4810433e-05
  5.5830347e-05
 -4.4399603e-05
 -1.9318933e-05
 -7.0004353e-07
  3.3210713e-06
  1.0880862e-05
 -1.9970382e-06
  6.5120444e-06
  1.7197875e-05
 -1.4490209e-05
 -1.0386249e-05
 -7.4752625e-06
  8.8088418e-06
 -6.7225492e-06
  1.9676854e-05
  1.4152467e-05
 -1.8740756e-06
 -3.0214695e-05
 -2.4717967e-05
 -2.3539462e-05
  8.1839871e-06
 -6.2993393e-05
  9.6049489e-06
 -7.6150445e-07
  2.1119571e-05
 -1.7085023e-06
  2.7136848e-06
  6.0283124e-05
  1.5680507e-05
  6.6520311e-06
  3.0750860e-05
 -2.7680997e-05
 -2.1204991e-05
  2.4660521e-06
  2.3128447e-05
 -1.4131915e-05
 -3.3916324e-06
 -3.3963373e-05
 -7.0605383e-06
 -7.7622863e-06
  1.0034119e-05
  1.6961878e-05
 -2.0503885e-05
  5.4556267e-06
 -1.8342167e-06
 -7.9248875e-06
  4.2311722e-06
  5.8437081e-06
  5.2132173e-06
  1.8749437e-05
  4.5968350e-06
  2.3040040e-05
 -2.3368899e-05
  1.5772148e-06
  1.6680262e-05
 -1.0823625e-05
 -1.9209432e-05
 -2.1344818e-05
 -1.3676699e-06
 -1.9801153e-05
  1.4764194e-05
 -2.9197114e-05
  5.5086547e-01
  8.8335983e-02
 -7.5121239e-02
  5.2719233e-06
 -1.1948019e-01
  2.0478375e-01
  6.7029112e-05
  8.4105082e-02
 -1.0507643e-02
  1.4399048e-05
 -9.8592148e-04
 -1.7840739e-06
 -4.7692742e-05
  5.9355165e-07
 -3.1290638e-05
  6.9026646e-07
 -4.0553100e-06
  5.4364051e-09
  3.6264146e-06
  3.9226126e-02
 -2.3822180e-05
  3.4677714e-07
 -1.8821360e-05
 -5.8978883e-05
 -3.9885450e-08
  3.3116230e-06
  3.7722718e-06
 -2.7873348e-05
  3.3671404e-03
  3.6068286e-06
 -6.1864725e-05
 -6.3795407e-05
  1.2909551e-05
 -1.3109694e-05
  1.2455421e-05
 -2.4872459e-05
 -2.9756548e-05
 -1.0090141e-03
 -8.7748158e-06
 -1.9077220e-06
  1.5979236e-05
 -3.1806005e-05
  5.0715021e-06
  7.1389600e-06
 -1.0979898e-05
 -4.1348126e-06
  2.1074735e-05
 -5.2028536e-05
  2.9804730e-06
  8.8456488e-07
 -1.1885980e-05
  2.3057566e-05
  9.9631197e-06
 -3.8511902e-05
  1.1058634e-05
 -1.6692942e-06
  3.3301556e-06
  8.4669828e-06
 -2.5641284e-05
  2.3737832e-05
  6.7559762e-07
 -3.4348527e-06
 -7.1941809e-05
 -1.4655507e-05
 -6.8509230e-06
 -2.1927717e-05
  1.0813849e-06
  1.9214378e-06
 -2.2713486e-06
 -3.3268236e-05
  8.4067788e-06
 -1.5913944e-06
 -1.1165287e-05
 -9.9017348e-07
  2.3616298e-05
  4.5225406e-06
 -3.2494470e-05
 -5.2342144e-05
 -8.3386176e-06
 -3.9149741e-06
 -2.7237743e-06
 -8.4736166e-06
 -1.3421165e-05
 -2.5921052e-05
  3.7486734e-05
  1.8137027e-05
  9.2536902e-06
  4.1828171e-05
  5.2220457e-06
 -9.3123926e-06
  9.5500116e-07
  1.4790332e-05
 -3.9098127e-06
 -1.5387077e-05
 -1.8376157e-07
 -9.9466597e-06
 -9.7673665e-06
 -3.1486383e-05
 -8.8906609e-06
  1.2568429e-05
 -4.1955086e-06
  9.1694135e-05
 -1.5928348e-05
  3.2128933e-06
 -8.9225341e-06
 -6.9136331e-06
  6.5822256e-05
  6.1830915e-06
 -1.0585049e+00
 -2.1090007e+00
  2.6006933e-06
  1.6225493e-01
 -1.3238433e-01
  3.3138767e-01
 -3.0829129e-01
 -7.1444601e-02
 -6.7062461e-01
 -1.0510006e-05
 -3.1762756e-02
 -2.5539807e-06
 -2.6940384e-06
 -2.2263187e-06
  1.7615989e-02
  4.1324132e-05
 -7.3901057e-04
  4.0165949e-01
  1.4953082e-05
  6.9302917e-02
 -8.2238672e-05
 -1.8651855e-05
  3.7387040e-02
  8.7250874e-06
 -3.6808265e-06
  8.6287111e-02
 -1.5220349e-02
 -1.2425376e-06
  3.6622015e-01
  2.4589087e-01
  4.1818926e-06
  1.5306273e-01
  2.1691233e-06
  3.4746317e-05
  3.6144075e-01
  2.1339740e-01
 -1.3542230e-05
  3.3843594e-06
  1.1820132e-05
 -1.4530432e-05
 -2.5495992e-05
 -1.9448021e-06
 -2.8639392e-06
 -3.1339521e-06
 -3.7467346e-06
 -6.8343174e-06
 -6.6406453e-01
  3.6098176e-05
 -1.4407347e-05
  2.3885399e-05
 -1.4983127e-05
 -1.7296785e-05
 -3.4204763e-01
  1.4154896e-05
  1.0074973e-05
  5.8512724e-05
 -5.8795436e-06
 -1.8371011e-06
  1.7729508e-05
 -1.5366411e-06
  1.3423111e-05
  9.5974947e-06
 -2.0858697e-05
 -8.1708771e-07
  8.0675381e-06
  2.2575603e-06
  6.5192745e-07
 -9.4414708e-07
 -5.7381149e-06
 -6.3302841e-06
  4.3792998e-06
 -4.5696124e-05
  7.5027651e-06
 -1.9526811e-05
  1.1679017e-05
 -1.6627633e-05
 -1.8566315e-06
 -4.2132647e-06
  3.1162183e-06
  2.3713977e-05
 -1.2717072e-05
  1.6864798e-05
  1.1596829e-04
  8.7579965e-06
 -4.5893448e-05
 -6.0950761e-06
 -4.6607988e-06
 -1.2671130e-06
  2.1423855e-05
 -9.7112992e-05
  4.9824816e-06
 -3.2394320e-05
  1.3113468e-05
  9.0558278e-06
 -3.3051049e-06
  6.2077115e-06
 -1.2446164e-06
  6.6469192e-06
  2.5233783e-05
 -2.1767999e-05
 -1.5875740e-06
 -9.4103171e-07
 -2.4068617e-05
  1.4232191e-05
 -6.3972129e-06
 -7.1129307e-09
  1.7908827e-05
 -5.6939675e-06
 -4.5666734e-06
 -1.1229349e-06
  1.4651050e-05
 -4.0808377e-06
 -1.8896598e-06
  5.4238872e-06
 -1.4871949e-06
 -7.6535371e-06
  3.1917896e-06
  2.4064160e-05
 -1.0594120e-05
 -2.1585922e-05
 -7.5671349e-05
  3.3439233e-06
 -1.6726954e-05
 -1.4208099e-06
  9.4623392e-06
  2.0783414e-06
  2.0230326e-04
 -3.4026421e-06
 -2.4171882e-06
  3.2273205e-05
  8.4950614e-07
 -2.4091019e-05
  7.7511759e-06
 -4.7377594e-06
 -4.7118316e-05
 -1.0461144e-05
  1.1848258e-07
 -1.5635892e-06
 -8.5493939e-06
 -9.8554915e-07
  1.5418957e-05
 -4.4758463e-06
  1.9797788e-05
  1.1758803e-05
  1.3294175e-05
  1.9440227e-05
 -2.1277256e-05
  1.4302215e-06
 -6.1295634e-07
  6.1910036e-06
 -1.0737314e-05
 -1.0857872e-05
 -1.5737958e-05
  2.7459730e-05
  2.5433271e-06
  5.2312107e-06
 -1.9743386e-05
 -7.5654930e-06
  1.2453896e-05
 -2.1031177e-05
 -7.7688956e-06
 -3.9161841e-06
 -1.3171177e-06
 -3.5326109e-05
  1.2556246e-05
 -1.5676783e-06
 -5.5406908e-05
 -2.6059693e-05
 -1.0369584e-04
  2.0278967e-05
 -8.1586977e-06
  8.2405768e-06
  4.6068275e-05
 -1.0922196e-05
 -1.6773954e-05
 -1.6763912e-05
 -1.1864478e-05
 -1.2813869e-05
 -1.2517348e-05
 -1.6006714e-05
  1.1773053e-05
 -2.3318335e-05
 -2.4250750e-05
  5.4415541e-06
 -2.8152422e-06
 -2.2091388e-05
 -1.5610429e-05
 -1.1451531e-05
 -3.4766229e-06
  5.4595239e-06
 -1.7826871e-05
 -3.1315041e-05
 -1.9264455e-06
 -9.1509837e-06
  6.1412402e-07
  8.0823720e-06
 -8.0015794e-05
 -5.8683909e-06
  3.4137731e-05
 -2.5180239e-05
 -4.7803405e-07
  1.1464259e-05
 -3.0259607e-06
 -1.5154019e-05
  1.0516684e-06
 -1.3613479e-05
  2.2538919e-05
 -4.7907438e-06
 -1.3035105e-06
  2.4128958e-05
 -3.1359392e-05
 -1.5196615e-06
 -7.0689345e-07
  1.6384287e-05
  1.4879639e-05
  1.8921570e-05
  5.1423341e-01
 -1.0454779e+00
  2.3356597e-06
 -3.4503999e-01
 -1.3413608e-01
  6.6007733e-01
  9.0600139e-01
  4.9336606e-01
 -1.2527626e+00
  5.5865467e-02
  1.6895243e+00
  8.3133548e-01
  4.3948764e-01
  8.4389621e-01
  9.9243028e-03
 -8.2325411e-01
  8.2928419e-01
 -1.1936207e+00
  1.3980426e-02
  1.4187329e+00
  9.0903765e-01
 -3.0762970e-01
 -8.3598681e-02
 -2.5540207e-02
  3.1001503e-07
 -4.3736669e-01
 -6.1575764e-01
 -2.4357165e-01
  4.0259033e-02
  5.3233065e-02
 -3.4347505e-04
 -6.0959220e-01
 -7.0627028e-01
  3.4540138e-01
  2.0776594e+00
  7.4891102e-01
 -3.0464516e-04
 -9.8479384e-01
 -7.6163911e-07
  2.0378597e-05
 -5.9195654e-06
 -1.0602645e-05
 -1.0238691e-01
  9.0973363e-06
  1.4327789e-05
  7.8828389e-06
  2.2186255e-01
 -9.7374007e-02
  8.4731050e-07
 -4.5449593e-05
 -1.8271616e-02
  3.7542048e-01
 -1.6066160e-02
 -6.6164613e-01
  5.4525465e-01
 -1.2763617e+00
 -5.9887886e-01
 -4.7546598e-01
  7.6491255e-01
 -6.7909145e-01
  1.4140551e+00
  2.4560983e+00
 -2.2279110e+00
  3.5166714e-02
  3.2325245e-02
 -9.1932009e-07
  2.8129140e-04
 -2.6573068e-01
  2.3115490e-06
  1.7238770e-07
 -1.9989661e-06
  1.6379252e-05
  1.8428034e-01
 -1.0220634e+00
 -3.0823213e-03
 -4.4046140e-01
 -1.7828451e-01
  3.4053000e-06
 -3.8984022e-06
 -2.8509927e-05
  1.4851824e-04
 -3.6120317e-05
 -2.5658056e-02
  1.1206849e-04
 -7.0548913e-06
  3.8652374e-08
 -5.1777068e-05
 -8.5984837e-05
 -3.2915173e-06
  1.2078304e-05
 -3.3123663e-01
  8.5183629e-04
  5.1532006e-06
 -6.4861015e-06
 -2.5246831e-05
  3.2973570e-01
  4.0287554e-01
  4.8553557e-06
  1.1098330e-01
  1.1193598e-05
  2.2909588e-01
 -9.2463102e-05
  4.8506157e-05
  7.9670463e-06
 -5.3105625e-05
 -4.0989820e-05
  3.0064778e-04
  3.3124043e-06
 -2.3743801e+00
 -5.1060516e-01
 -6.3828272e-01
  1.5350019e+00
 -3.6844026e-02
 -3.8805008e-01
 -7.0712268e-01
 -8.6890459e-01
  2.1915668e-01
  5.0289061e-02
 -7.6665813e-01
  1.9020163e-05
  7.0786893e-01
 -7.3054384e-06
  2.2871458e-05
  5.4428951e-05
  1.0715049e-05
 -5.4450221e-02
  1.8189149e-02
  3.4876667e-02
  2.2938555e-05
  4.3652412e-06
  5.3186172e-01
 -5.4191969e-06
 -1.0410780e-05
 -2.2003762e-01
 -1.3388880e-05
 -1.7911899e-04
 -1.8661819e-01
  8.4777548e-06
 -5.7875386e-06
  6.7699474e-01
  1.2872476e-05
  2.2650363e-01
 -4.8560757e-02
  6.7278866e-06
  1.7949037e-02
  2.0634313e-01
 -1.7127148e-06
  5.6226540e-06
 -2.5658521e-06
  8.1591461e-06
 -7.9573874e-06
  2.3562433e-04
 -5.6040210e-01
  5.3893826e-05
  2.9906696e-01
  3.9375744e-05
 -1.6485927e-05
  3.4197082e-04
  6.8100577e-05
  6.7462233e-06
 -6.2584813e-06
  8.9935253e-05
 -1.4822329e-02
  2.5654414e-03
 -2.0730264e-02
  6.7651008e-06
 -3.7607800e-03
 -2.0792604e-05
  3.3846648e-06
  4.3935362e-02
  3.0125523e-07
 -2.3073977e-05
 -3.8317521e-03
  8.0429827e-06
 -6.9184071e-06
 -2.9732488e-05
 -1.9774325e-06
 -9.6255712e-07
  1.8101746e-06
 -1.4112260e-05
 -5.3952585e-06
  5.1680207e-05
  4.0513225e-07
  2.5564868e-06
  1.2623910e-06
 -7.1786185e-06
  3.5377149e-04
 -3.0677647e-06
 -7.3721390e-06
 -5.9047761e-06
  1.8022924e-05
  3.0063751e-05
 -9.5139676e-06
 -2.1917542e-05
  5.4762643e-07
  4.9941769e-05
  1.5552278e-05
 -4.6152862e-05
  5.6998620e-06
 -6.5589466e-06
  1.3415080e-05
  2.3052619e-06
 -1.0839716e-04
  4.5119750e-06
 -3.6427009e-05
 -6.1246801e-06
  1.2806500e-05
 -1.4783799e-05
 -4.7199014e-06
 -5.7400021e-06
 -5.9477679e-07
 -1.9790334e-06
  7.1919771e-06
 -8.6079690e-06
  1.2757566e-06
 -2.1076721e-05
  8.8879418e-01
 -4.8534340e-01
 -1.1115259e-01
 -1.0206956e+00
  1.0264276e+00
 -1.3134209e+00
 -1.6524080e-02
  1.9986804e-01
  4.0564764e-01
 -1.3819256e-01
  7.5578111e-01
 -5.6738245e-06
  4.7922148e-03
  1.0831754e+00
  5.2785540e-01
 -2.9267639e-02
 -1.7093882e-04
 -1.3540600e-01
  8.1927574e-01
  3.5174468e-01
  5.7160503e-07
 -1.7855120e-05
  9.5353410e-02
 -1.0181717e-01
 -3.6314788e-04
  4.9850489e-05
  6.3293695e-02
 -1.3039446e-01
  4.5921168e-01
 -1.6038273e-05
  1.5653772e-05
  2.3194220e-02
  4.9874079e-06
  8.3530605e-02
  4.3677616e-01
  7.8134316e-01
  1.7818797e-05
 -1.2631577e+00
  1.3997087e-04
  6.2025783e-06
  1.2968720e-01
  2.0090160e-01
  1.0412818e-01
  2.0142977e+00
  2.3078074e-01
  2.7963308e-06
  5.3870339e-02
 -2.2414812e-05
  3.2792598e-06
  4.1511857e-06
 -2.6739070e-07
  3.2639268e-06
 -2.5647301e-05
  9.4762698e-02
 -5.4787707e-01
  2.3670856e-02
 -1.2510951e+00
 -4.0213287e-01
  1.3440606e-01
  2.5158172e-02
  8.6158568e-01
  5.3433144e-01
 -5.4553843e-01
  5.2166539e-01
 -2.1858181e-01
  3.5126144e-01
  4.6496872e-02
  8.8004142e-02
  3.5211474e-01
  2.0548289e-03
 -3.4248375e-04
 -9.3215309e-02
  1.1907769e-01
  5.9561078e-03
 -9.4959764e-03
 -1.6778540e-05
  1.6108135e-02
  7.3090705e-06
  1.9990678e-01
 -3.3071854e-03
  7.4705176e-02
 -2.1375040e-06
  5.7939613e-01
  2.7361983e-01
 -1.4210111e-05
 -5.0235137e-02
 -5.5950313e-06
 -3.6433544e-02
  7.1385458e-02
 -2.7012613e-01
 -4.0173804e-06
  5.4083575e-02
  1.8806468e-05
  2.0796375e-02
 -3.6103190e-06
 -3.2923056e-06
 -1.3908053e-05
 -7.5841972e-06
 -4.9471959e-02
 -1.4401829e-05
 -2.9370269e-01
  5.8436031e-05
  4.9302926e-06
  9.7084500e-02
 -1.2203383e-05
  2.3685601e-03
 -3.4685826e-01
 -1.7422507e-02
 -1.7810937e-05
 -1.8353538e-05
 -1.8314740e-05
  5.9157164e-06
 -9.7446718e-06
  8.2018732e-06
 -7.4433474e-06
 -2.0659534e-06
 -5.6176032e-07
 -5.6846107e-05
 -3.6106624e-06
  5.6717222e-06
 -7.1896475e-06
  2.7843494e-06
  2.3033977e-05
  3.6586782e-05
 -3.6825431e-06
 -4.2477545e-06
 -3.0463343e-06
 -2.1847160e-04
 -1.0085070e-05
  4.9101236e-06
  6.8835443e-06
  1.6498821e-06
  4.8909919e-06
 -2.9497644e-06
  8.0802987e-05
 -3.9999581e-05
 -2.3623625e-05
 -3.6054822e-05
 -3.3256256e-06
 -2.1293634e-05
  1.1754797e-05
 -4.3825858e-06
  1.3422091e-05
  1.6248737e-06
  1.5903752e-05
 -1.3729492e-05
  7.5388079e-06
 -7.5261582e-05
  3.5791702e-05
 -5.0874773e-06
 -2.9066055e-06
  1.1826337e-05
  7.3886895e-06
 -3.1945558e-06
  3.5369335e-06
  2.6339910e-06
 -4.2887550e-05
  7.4914210e-06
 -3.1056694e-05
  5.5802716e-06
  1.9788838e-05
 -8.9618870e-06
  8.4974508e-06
 -2.8934596e-06
 -1.5240681e-05
  2.4610865e-06
  2.7273862e-05
 -2.0281479e-05
 -1.7090455e-05
 -5.3053714e-06
 -1.1441234e-05
 -1.2276832e-05
  1.8137820e-05
 -3.1241387e-05
 -4.0022051e-06
  1.2531315e-05
  7.5840944e-06
 -1.8572870e-05
 -1.0414667e-06
 -3.4640343e-06
  1.4937741e-06
  6.3494117e-06
 -2.1599610e-06
  1.1312858e-06
 -4.3647713e-05
 -1.2715970e-05
  3.0451893e-05
 -5.4050211e-06
  8.0166064e-06
  3.6655454e-06
  1.4259076e-05
 -1.9181487e-05
 -5.3871008e-07
 -1.3672548e-05
  4.3680461e-06
 -1.9980580e-05
 -1.2625476e-05
  7.0794185e-06
 -6.9012654e-06
 -2.1574762e-05
  4.1366652e-06
 -2.9150089e-05
 -4.2165630e-06
 -5.2863961e-06
 -5.4200045e-06
  3.7350433e-06
  1.0747272e-05
 -5.4866337e-07
  3.4970733e-06
 -2.4599614e-05
 -9.9939398e-06
  5.1258357e-06
 -1.0062712e-05
 -1.1865386e-06
  1.2853095e-06
  7.1497511e-06
 -6.8949111e-02
 -1.0571352e-01
  1.1169814e+00
  1.3134399e-01
 -3.2163620e-01
 -1.7798695e-01
 -2.6347354e-01
  3.4006220e-01
  1.9112764e-01
  7.1262312e-01
  3.0906746e-01
  1.8154641e-03
 -4.4163871e-01
 -6.0362929e-01
  6.1581813e-06
  6.4024371e-01
 -3.3558881e-05
  4.0465104e-03
  5.6414187e-01
 -8.9857318e-02
 -5.3186458e-01
 -1.5433732e-05
  1.2260341e-01
 -1.5714933e-04
 -7.8285462e-01
 -3.9296684e-01
 -1.0732218e-01
  5.9459599e-06
  2.8003407e-01
 -6.1670053e-03
  6.3112884e-07
  1.2176083e-01
  1.1681106e-01
  4.9675829e-05
 -2.1275038e-01
  3.2971594e-01
  3.1880370e-01
 -4.3927982e-01
 -4.6449964e-05
  3.9881226e-05
  1.6544482e-03
  5.0558239e-05
  2.4890465e-05
 -3.2660705e-06
 -2.8150204e-01
 -9.8607637e-02
 -8.5770279e-02
  1.5372329e-05
 -2.0825381e-03
 -1.7550403e-03
 -1.0525080e-05
  3.2978685e-06
 -3.5999715e-02
  3.3019736e-01
 -5.6864727e-01
 -3.4503672e-01
 -3.0026224e-01
  7.2210923e-02
 -9.2113105e-04
  1.4744632e-01
  7.8716654e-01
  6.7422527e-01
  1.8491024e+00
 -2.4429961e-01
  1.2941589e+00
 -2.0923635e-01
  5.4174948e-01
 -3.3115101e-01
  2.3261149e-01
  3.9721394e-01
 -4.1110370e-01
  1.6975395e-03
  1.0575086e-02
 -6.7126364e-02
 -1.3513683e-03
 -1.0555649e-01
 -6.4601868e-01
  1.5322983e-01
 -9.3029601e-05
 -7.8330719e-01
  2.8907827e-01
 -9.3535355e-06
 -1.6417906e-01
  2.0359694e-05
  3.9374395e-06
 -7.9967499e-01
  1.6372941e-01
 -1.1709930e-02
 -1.3288184e-01
  8.7255079e-01
  2.8892431e-05
 -3.2343596e-01
 -3.6296180e-01
  8.8223477e-04
 -2.0091961e-01
  3.2656305e-06
  4.9783325e-06
 -5.8501631e-02
  5.9874099e-01
 -7.9368983e-06
  3.5473369e-02
  3.4815714e-01
 -1.4626567e-05
 -1.0071142e-05
 -2.1966835e-05
  3.5046491e-05
  1.9253351e-01
  5.3930007e-02
 -2.5109380e-01
 -1.0934631e+00
 -3.4003538e-01
 -1.1811285e+00
 -3.2570140e+00
  1.7809580e-01
  2.9791368e-02
  2.6827106e-01
 -2.0964530e-01
  1.1201428e-01
 -1.5493996e-01
  2.8635129e-01
  2.5486663e-01
  3.3921683e-01
  2.3199242e-01
 -4.7541407e-01
  3.8820826e-02
  2.2075231e-01
  6.8107367e-02
 -6.3685960e-01
  4.9698648e-01
 -2.0445356e-01
  5.9436351e-01
 -5.3194994e-01
  1.1127088e+00
  6.8359220e-01
  1.8456244e-01
  1.3046185e+00
 -5.4081225e-01
  6.7054227e-02
  6.8755513e-01
 -8.9694947e-01
  1.4820989e-02
  5.2617514e-01
  1.9476738e-02
  1.0047987e+00
  4.4696513e-01
  2.6036209e-01
 -1.8821730e-01
  7.8165847e-01
 -2.7765292e-01
  1.1649327e-05
  3.7541327e-01
  2.2368620e-01
  1.8987842e-01
 -6.3352939e-04
 -4.1377550e-01
 -5.5954474e-01
 -3.6105764e-01
  1.7577735e-01
  3.1797969e-01
 -2.7135170e-01
 -3.5403341e-02
  1.3331211e-02
  4.1788280e-01
 -8.2391083e-01
  1.2822817e-01
  7.0945121e-06
  2.0999835e-01
  1.5405695e+00
  1.5167430e-03
 -5.7949758e-01
  1.3373984e-01
  3.5819281e-05
 -6.9375194e-05
  1.1115778e-05
  5.5061013e-01
 -5.9734625e-06
 -1.5654285e-05
  3.2476702e-05
 -3.5101962e-06
 -6.7925353e-06
 -2.6276337e-05
 -6.2491465e-01
 -6.1253905e-01
  1.9703155e-06
 -1.2354740e-06
 -8.6307773e-05
  7.9934507e-05
 -3.5830879e-01
  2.0609423e-05
  4.9542396e-06
  8.6678302e-01
 -1.4077590e-04
  1.0270208e-05
  5.6502358e-06
  2.3185041e-05
  6.5602362e-06
  6.8114086e-06
  1.4890359e-04
  7.9830052e-06
  2.5546109e-02
  6.7916728e-05
  1.5104041e-05
 -3.1859943e-06
 -1.1440384e-04
  7.5455769e-06
  1.7666522e-05
  6.4311153e-06
  1.3672550e-05
  1.6950350e-02
 -2.2011963e-04
  2.1148298e-05
 -2.7117812e-06
  8.8344832e-06
 -2.1954231e-06
 -2.5147137e-06
  3.4993859e-06
 -8.9164712e-02
  3.0783093e-01
  2.8394672e-01
  2.3442353e-01
  2.4483777e-03
  4.4449773e-01
  2.8483284e-01
  1.5976425e-01
 -2.3876955e-03
  2.8235722e-01
  1.1444859e-03
 -5.3064114e-01
  1.2970124e-01
  6.7071423e-02
  3.7826470e-01
  3.4391946e-05
  1.9170228e-01
  3.4030783e-04
  1.6850708e-02
  1.1237323e-02
 -2.0716161e-01
  7.2009466e-03
 -9.3730137e-02
 -5.8431868e-02
 -3.8906292e-05
  2.9311446e-03
  3.1523991e-02
 -2.2635432e-02
 -8.8823356e-02
  2.0010622e-02
 -1.6135210e-02
  1.0044616e-01
 -7.2132550e-02
  1.8820270e-03
  8.2041615e-06
  3.5275355e-01
  8.1252838e-03
  7.7309527e-02
 -3.5784539e-02
  1.2261743e-01
  1.8784142e-01
  1.1648600e-01
  1.4881538e-01
  3.5067774e-02
  1.5366061e-02
  1.6285267e-01
  6.8313951e-05
 -1.6352110e-01
 -3.1735239e-05
  2.1110056e-02
 -4.1397234e-06
  1.4605877e-04
 -6.7760319e-02
  1.0181959e-01
  2.3817549e-02
  1.5328228e-01
 -3.4923577e-01
 -6.8291433e-02
 -3.0893383e-03
  2.1735976e-02
  3.6422061e-06
  1.5158407e-01
 -4.5156088e-01
  4.0483370e-05
 -3.9554438e-06
  5.5598881e-05
  1.4119495e-05
 -9.1962263e-02
  3.2319551e-06
  1.4302877e-05
  3.5200082e-06
 -9.8581068e-06
 -9.5260832e-03
  7.8970073e-03
 -5.0593590e-05
  3.1988084e-06
  3.6209155e-02
 -6.6982844e-05
  1.0979480e-05
  7.6242600e-04
  1.1581028e-05
 -4.6205391e-06
  2.2392062e-06
  5.0427941e-05
  2.4494002e-05
 -3.0111838e-05
  2.7541769e-06
  3.8933271e-07
 -1.8367509e-05
 -1.5068198e-04
 -7.4877278e-07
 -1.1147973e-03
  2.1545329e-05
 -7.0629132e-05
  7.0688625e-06
 -3.7571608e-05
 -1.0535618e-05
  2.0845564e-05
 -3.0548892e-06
 -1.2021361e-05
  2.0933790e-02
  4.0880136e-06
  9.0449239e-06
  1.4690859e-05
 -9.5466530e-06
 -1.4818482e-06
  2.9511925e-06
 -1.6079886e-05
  8.7729484e-01
  2.8629670e-01
 -3.8437769e-01
 -4.4055262e-01
  1.5954757e-01
  6.8941170e-01
  6.7315169e-02
  4.3027893e-01
 -1.7686418e-01
  2.4226516e-01
  5.7627082e-01
 -8.5145754e-01
 -2.5710130e-01
  3.4322268e-01
 -1.8652424e-01
  6.9554377e-01
 -8.0541342e-02
 -4.6060607e-01
 -1.2363373e+00
  2.1984395e-01
  4.6583524e-01
 -1.1681258e-01
  2.0017074e-01
 -8.5149664e-01
 -1.5112546e-01
  4.4140324e-01
 -1.1988978e+00
 -1.5153565e+00
  1.3122182e+00
  1.0893898e-01
 -4.9820378e-01
 -1.2152631e+00
 -3.9786786e-01
 -7.5274956e-01
 -4.6635434e-01
  1.8316025e-01
 -1.3106171e+00
  6.9659561e-01
  8.2675457e-01
 -1.0793246e+00
 -2.7899286e-01
 -1.4105791e-01
 -5.1017284e-01
  3.7157950e-01
 -2.7386248e-01
 -2.3713059e-04
 -2.1855569e-01
 -3.3656143e-02
  1.4950781e-01
  4.3783578e-01
 -3.5992607e-01
  4.8381382e-01
 -2.1282050e-01
  4.2455658e-01
  5.3538120e-01
  1.8423349e-01
 -6.6566497e-02
  1.4977694e-03
 -1.0358652e-02
 -2.7734873e-01
  1.4322314e-02
  1.0517482e-01
 -6.7387290e-02
  8.8413826e-06
  1.4896664e-05
 -8.2199649e-06
  1.2789362e-05
  6.5875161e-06
  1.3228592e-05
  4.0463816e-05
  1.2290279e-05
  6.7873730e-04
 -2.5701481e-03
  4.3166314e-05
  2.7875889e-05
 -2.0529462e-05
  8.8723964e-06
 -1.3262430e-05
 -1.4746701e-05
 -1.4263696e-05
 -2.1609874e-04
 -1.0486626e-05
  1.6047847e-03
  1.2189241e-05
 -1.2627578e-05
 -1.3416214e-05
  6.6817606e-06
 -1.1683557e-05
  1.0065837e-07
 -1.5198617e-04
 -7.0564194e-05
 -3.0532235e-03
  9.2174866e-07
 -1.4634135e-05
 -1.0358256e-04
 -1.2749423e-04
 -3.8801325e-05
 -3.7910092e-06
  1.0736788e-05
  8.2973156e-06
 -1.0333715e-05
 -4.4126395e-05
  3.0925679e-05
  1.4116794e-05
 -1.0084184e-05
  5.5790142e-06
  4.3807282e-05
 -2.4581279e-06
 -1.8553495e+00
 -1.4392231e+00
  3.5095026e+00
  5.5860037e-01
 -1.2797524e+00
 -5.5955198e-02
 -2.2196283e+00
  5.3059459e-01
 -1.1667752e-01
 -9.9934381e-01
 -5.5713558e-01
  9.0065187e-01
 -1.5819678e-02
 -3.8458571e-02
 -2.4983075e-01
  2.5738376e-01
 -5.2860397e-01
 -6.7610663e-01
 -1.0733105e+00
 -5.9123856e-01
  1.1490891e+00
  1.1776210e-01
 -9.4379139e-01
 -4.0939914e-05
 -3.2290876e-01
 -2.1887484e-01
 -6.2467945e-01
  8.6595789e-02
 -2.0043151e+00
  1.1807276e+00
 -1.6194130e-01
 -8.1344777e-01
 -6.6001534e-01
 -1.0464710e+00
 -7.9524972e-02
  4.1827708e-01
  1.3657868e-01
 -1.8922784e+00
 -2.4610086e-04
  6.2007070e-06
  8.7125611e-01
 -1.3093503e-01
  1.6032316e-01
 -3.4673613e-02
 -3.9489788e-01
 -8.2183678e-06
  8.7836504e-02
  4.3926746e-02
 -1.7431248e-05
  3.5409594e-05
  1.4961189e-05
 -2.7592152e-01
 -4.2220280e-01
 -3.2519093e-01
 -6.1019819e-02
  3.9985022e-01
  9.6706497e-03
  6.9208077e-06
  2.3280254e-01
 -2.2341299e-01
 -7.5637649e-06
 -1.0655750e-04
  4.2477202e-01
 -4.2737673e-05
  1.7577231e-02
 -3.2360669e-05
 -4.1614976e-03
  4.2450192e-06
  9.8657365e-06
  6.6285320e-05
 -3.8720424e-05
 -1.0128031e-06
  5.7108264e-06
  4.3855482e-05
 -3.1232883e-03
 -1.1222545e-05
 -3.9037976e-05
  1.0622327e-05
 -8.0878635e-06
 -1.8349978e-01
  6.5429463e-06
  1.4893855e-05
 -4.1502426e-05
 -2.7286924e-02
 -1.1681844e-06
  1.1037605e-05
  1.1385474e-05
  2.4252399e-06
 -3.8671102e-02
  3.6207325e-07
 -1.1757355e-06
  4.8800404e-05
 -9.5686155e-06
  1.1766617e-05
  1.2353880e-05
  9.1890497e-06
  4.4786211e-05
 -4.7468484e-06
 -6.6615512e-06
  3.5783025e-05
  3.0099429e-02
  4.5624507e-05
 -5.4855614e-06
 -8.8619263e-06
  3.2865988e-05
 -1.1599701e-04
  1.1775321e-05
  5.4003203e-06
  1.1918183e-01
 -3.6411777e-01
 -2.2810294e-01
 -7.4237651e-01
  6.0937781e-02
  4.0278375e-01
  1.0231407e+00
 -3.2355672e-01
 -9.2592794e-01
  1.4493713e-01
 -4.3665746e-01
 -1.1590031e-01
 -1.3708849e-01
 -8.7754762e-01
  3.8993520e-01
  5.3470331e-01
 -6.7930445e-02
  1.7744333e-01
  3.1874122e-03
 -2.1216527e-02
  3.4550324e-01
  6.8319999e-02
 -9.2277229e-01
  1.0274991e-01
  4.9573073e-06
 -1.8655755e-02
  2.0349126e-01
 -3.8670199e-03
 -2.8844616e-01
 -3.8262748e-05
 -1.2233633e-05
 -3.3455911e-01
 -1.3780065e-05
 -1.3406642e-04
 -1.5266021e-01
  7.6063508e-01
 -5.9497688e-04
 -2.8915135e-02
 -2.8020286e-03
  6.8038564e-05
 -5.5847268e-06
  6.7656733e-06
 -8.3744600e-03
 -1.5412289e-01
  5.8883132e-05
 -7.3911679e-06
  1.0643054e-04
 -2.9797757e-01
  9.5393007e-06
 -1.9083792e-01
 -8.4163376e-06
  4.4109047e-04
  3.1217468e-01
  3.5811640e-02
 -1.2094638e-05
  6.1844598e-06
  1.3393221e-05
 -9.1152569e-06
 -1.3686190e-05
 -1.0852063e-05
 -6.0561895e-05
  1.6315224e-05
  1.4619220e-05
  9.3072904e-06
  4.5303361e-05
  5.3916192e-06
  6.8315609e-07
  8.1876988e-06
  1.0146158e-05
  1.0581651e-05
 -1.4442724e-05
 -1.0023249e-05
 -7.0803540e-06
  4.9632381e-06
 -3.0910549e-06
  1.5494876e-05
 -6.1012488e-06
 -1.2884402e-05
  1.4834629e-05
 -7.9525125e-06
  1.0066699e-04
  1.0659005e-07
 -7.5522844e-06
  6.7226487e-05
 -1.3297388e-05
  9.8228793e-06
  1.9890563e-06
  1.4230249e-05
  1.2466403e-05
 -7.2851544e-05
  1.4358656e-05
 -2.1094716e-06
 -6.6688008e-06
 -1.4803564e-05
  9.1386655e-06
  3.8484654e-06
 -1.0423505e-05
 -3.2735170e-06
 -3.3978399e-06
  7.6188451e-07
 -3.2300051e-07
  9.1489630e-07
 -1.0882753e-06
  1.1007637e-05
 -1.3218897e-05
 -1.4002629e-05
  1.3895901e-05
  4.5470628e-05
 -2.3146111e-01
 -7.4902618e-01
  6.0797548e-01
  9.5460767e-01
 -4.4112402e-01
 -8.8817209e-02
 -6.7564082e-01
  1.5438414e+00
  4.3128374e-01
  5.0927502e-01
  3.7723306e-01
  7.5413346e-02
  3.4113973e-01
 -1.7944941e-01
  5.6882489e-01
  6.3932785e-03
 -1.0801384e-01
  1.1286643e-01
  3.0735332e-01
 -4.3931675e-01
  3.2198250e-01
  5.1478511e-01
  1.1878018e-02
  8.7233961e-02
 -2.0339967e-01
 -2.7961257e-01
 -3.6127499e-01
  2.5823998e-01
  1.4299718e-01
 -3.0763721e-01
  1.5957668e-01
  7.8913879e-01
  1.0166779e+00
  8.5040316e-02
  2.5596571e-01
  7.3666327e-02
  1.1686204e-01
  1.6645051e-04
  2.0770951e-01
  8.3968998e-06
  6.7089144e-07
  5.0048852e-01
 -2.8303045e-01
  2.2167376e-01
 -4.8118460e-01
 -1.2131649e-01
  1.6137332e-01
 -1.9878804e-04
 -6.1816099e-06
  3.1488848e-01
  4.8874381e-01
 -1.2290659e-01
 -6.8190601e-03
  1.3227340e-06
  2.4648783e-05
 -2.7936733e-01
  6.9981812e-05
  1.1011628e-05
 -2.8473275e+00
  1.5019557e-05
  1.8331718e-01
  6.9846588e-01
  1.7226454e-05
 -1.0137502e+00
  1.2834716e-05
  2.5236170e-06
  4.5339482e-05
  7.3202914e-01
  1.3698690e-05
 -1.6127402e-07
  7.8301346e-06
  2.2392898e+00
  1.3459750e-05
 -4.2035512e-07
  9.6201202e-06
 -1.5126540e-05
 -3.6268966e-06
 -5.3688514e-06
  1.1368153e-05
 -5.5613750e-01
 -3.9201277e-06
 -8.7427297e-06
 -4.3520402e-05
 -1.0452829e-01
  9.2947900e-01
  1.6512367e-01
  3.9443439e-06
  1.6415353e+00
  1.2524554e+00
  3.6245619e-05
  7.1129466e-07
  7.3063178e-03
 -3.1469703e-01
  1.1640856e-01
  5.2597493e-01
 -3.6766943e-02
  4.7390568e-01
  1.5196416e+00
 -1.1748643e-05
 -1.2914464e-01
  1.6167640e-05
  5.9665543e-01
  4.4595559e-05
 -2.6389912e-01
  2.2739946e-06
  9.5713657e-01
 -2.3591627e-01
 -1.9234567e-06
  7.5637853e-01
 -5.2788679e-02
 -2.5887579e-01
  2.6676822e-01
 -2.4908122e-05
 -4.1089278e-01
 -2.7647269e-01
  3.6279795e-07
 -2.9170576e-01
  2.2957467e-01
 -2.7924464e-06
 -7.2004505e-06
  1.1554287e-05
 -3.8095450e-01
  1.1761741e-02
 -2.5069404e-02
  7.6493561e-06
 -6.3367452e-06
 -9.2848325e-03
 -9.9410541e-02
  2.1267194e-06
 -8.0423117e-01
 -2.6376892e-02
 -2.9696757e-06
 -1.3770065e-05
 -3.7140810e-01
  3.9497331e-01
  3.2096404e-01
 -9.7030014e-02
  5.0428587e-01
 -6.4217079e-01
 -9.8938954e-06
 -5.0770221e-03
  3.5590246e-01
 -7.0752740e-01
  1.2416104e+00
  1.1057156e-01
  8.1791866e-01
 -1.6649604e-01
 -8.6537093e-01
 -1.7372131e-01
  1.0615331e+00
  1.4807817e-01
 -3.5789376e-01
 -6.1193546e-06
  5.9052336e-01
  3.1647043e+00
 -2.7500772e+00
 -1.9265647e-01
 -6.4567435e-01
  1.7401619e-01
 -8.0773741e-01
  2.7310827e+00
 -1.0000420e-01
 -4.3528118e+00
 -5.5134207e-01
  6.0933435e-01
 -1.6425983e+00
  8.9386433e-01
 -1.1390103e+00
 -8.1246758e-01
 -2.8217757e-01
 -1.8109827e+00
 -3.0321324e+00
 -8.9071125e-01
  1.9020591e+00
 -2.6436856e-01
  3.7358460e-01
  1.4596692e+00
  1.7574861e+00
 -1.4119344e+00
  3.3899066e+00
  1.0000037e-01
 -1.0324230e+00
 -8.6179745e-01
  1.6265217e+00
 -3.2468852e-01
 -1.0949936e+00
  5.8004135e-01
 -9.6506459e-01
 -5.8188719e-01
 -4.3923995e-01
  3.1490985e-01
  7.0278823e-01
  6.0380131e-01
  1.0000568e-01
  1.2307377e+00
  1.6169563e-01
  1.9539771e+00
  2.0684931e+00
  1.2177961e-01
  1.1837586e+00
 -9.0556163e-01
  7.9803485e-01
  2.1096201e+00
 -3.8133471e+00
  1.7826127e+00
  1.0008233e-01
 -2.4259314e-01
 -1.7153006e+00
  2.6096731e-01
  1.8261694e+00
  4.2481038e-01
 -1.0000589e-01
  1.7171068e+00
  3.6980655e+00
  3.3763319e-01
  6.7342746e-01
  1.3739665e+00
 -1.0000000e-01
  1.0000438e-01
 -1.0552378e+00
 -1.0000034e-01
 -4.7429442e-01
  9.6328664e-01
  1.6016138e+00
  1.3033970e-01
 -3.6632259e+00
  1.4064075e+00
 -2.1264862e-01
  1.0429246e-01
  1.5727229e-01
  3.3983451e-01
 -1.0001374e-01
  1.0000280e-01
 -1.4528279e+00
  4.5519081e-01
 -1.0000446e-01
 -2.6072526e-01
 -1.0000017e-01
 -1.6706685e+00
 -1.3833996e+00
 -8.1518030e-01
 -7.6941639e-01
 -1.3187364e+00
  1.8177557e-01
 -1.0645399e-01
 -1.7154366e+00
  2.3356781e+00
 -1.0000002e-01
 -2.4965856e+00
  2.1345341e-01
  3.2917891e+00
  1.3481523e+00
  5.7645977e-01
  2.5234878e-01
 -8.4246087e-01
 -1.2467829e+00
  2.7522776e-01
  9.0218210e-01
 -2.2281981e-01
 -2.1511950e+00
  9.1131824e-01
 -8.3836508e-01
 -2.5846273e-01
 -1.6419932e-01
 -8.5006177e-01
 -9.4428509e-01
  4.5804688e-01
  5.1235557e-01
  6.8131834e-01
 -1.1554534e+00
  3.8602111e-01
 -1.8510895e+00
  1.3343179e+00
  1.0000010e-01
  3.4610476e+00
  1.1642953e-01
 -3.1815982e-01
 -1.8356550e+00
  1.3010068e+00
  4.8324960e-01
 -1.9404632e+00
  1.0000355e-01
 -1.0001669e-01
  1.6240486e+00
 -1.1562088e+00
 -2.2445331e+00
 -1.0000434e-01
  1.9808249e+00
 -4.7043297e-01
 -1.6525873e+00
  2.0239716e+00
 -1.2280668e+00
 -1.0000815e-01
  6.6373140e-01
 -3.0392966e-01
  2.0031424e-01
  5.6910706e-01
  9.5985907e-01
 -4.6207938e-01
 -4.3481140e+00
  1.7303654e+00
 -1.9405414e+00
  2.3435891e+00
  1.0000530e-01
  1.0000440e-01
  1.7762885e+00
 -8.9790869e-01
 -8.1396359e-01
 -1.2807463e-01
 -2.2875469e+00
  5.3666329e-01
 -1.0693961e+00
  2.0791190e+00
  7.9603159e-01
 -1.5146337e-01
 -1.1977729e-01
  1.0000017e-01
  1.5637504e+00
 -1.4694389e+00
 -1.0000068e-01
  2.6383588e-01
  1.0000022e-01
 -1.0002816e-01
 -6.9290775e-01
 -1.0271649e+00
 -1.3683586e+00
  1.0000018e-01
 -9.1737723e-01
 -2.0674005e+00
 -2.7066154e+00
 -1.0000263e-01
  1.0000107e-01
  7.8566951e-01
 -1.1302187e-01
 -4.7867590e-01
  2.0490091e+00
 -1.3307940e+00
  1.0247965e-01
  2.2387948e+00
 -1.0000478e-01
  3.9293736e-01
  4.2886350e-01
 -1.7488748e-01
  1.0217204e+00
  2.4109061e+00
 -3.1649721e-01
  9.5241112e-01
  1.7906708e+00
 -1.7629524e+00
  2.7795857e-01
  2.9882020e-01
  7.5378537e-01
  4.0005362e-01
  2.1320896e+00
  1.4342940e+00
 -3.9114013e-01
 -1.0000061e-01
 -2.3812175e+00
 -3.8882728e+00
  1.6217955e+00
 -1.8302838e+00
 -2.5150726e+00
  1.6895299e+00
  5.1074106e-01
 -1.7505724e+00
 -1.0109512e+00
  3.2062850e+00
 -8.9427787e-01
 -5.7882291e-01
  2.1959727e+00
  2.9226291e-01
  1.4297179e+00
  2.9226285e-01
  1.1706843e+00
 -1.4300683e+00
 -1.0003290e-01
  5.0094140e-01
 -1.0000077e-01
  7.7732801e-01
 -1.4568504e+00
  5.3829390e-01
 -1.1159954e+00
 -2.2257738e+00
  1.1497023e+00
 -1.3706695e+00
 -7.2872663e-01
  1.3183011e+00
 -2.4685163e+00
  2.0623379e+00
  2.2804227e+00
 -6.0436100e-01
  4.9694970e-01
  1.0367280e+00
  1.3010780e+00
  1.2418035e+00
 -2.5911829e-01
  9.4770092e-01
  8.6394584e-01
 -1.5739261e+00
 -1.5391688e+00
 -2.9595790e+00
  1.4824482e+00
 -9.7647130e-01
  2.9426980e-01
 -1.5631526e+00
  1.0000203e-01
 -3.5915539e-01
 -7.8005266e-01
  2.9671817e+00
 -1.0664971e-01
 -6.4722598e-01
 -3.3614367e-01
  1.2305468e+00
 -1.0391135e-01
  3.2039240e-01
 -1.0001060e-01
  1.8820482e-01
 -1.4591950e-01
  3.6244291e-01
  1.9036965e-01
 -9.1783243e-01
  3.2246587e-01
  8.0041277e-01
 -2.6666741e+00
  1.1745361e+00
  1.9572774e-01
  1.3814949e+00
  1.1009542e+00
  2.6565897e+00
 -2.1253369e+00
  4.5607847e-01
  1.0650103e-01
  1.8650913e-01
  7.6207405e-01
  3.9724609e-01
 -6.2845725e-01
  3.9595821e-01
 -1.5464009e-01
 -8.9252108e-01
 -1.0115540e+00
  2.2268394e-01
 -1.0000006e-01
  2.1419134e+00
  3.7463439e+00
 -1.6208360e-01
 -1.2121322e+00
  3.5653636e-01
  7.6937574e-01
 -5.7223457e-01
 -1.0001215e-01
 -5.7863963e-01
 -9.4445050e-01
  2.5894578e+00
 -6.9363391e-01
 -7.9377055e-01
  3.8397019e+00
 -1.0078164e-01
 -1.6268396e+00
 -1.0000006e-01
 -1.0000578e-01
 -5.1428413e+00
  6.6346669e-01
  1.4144492e+00
  1.1391853e+00
 -1.5315737e+00
  6.4319468e-01
  3.7355939e-01
  1.0183102e+00
  4.2811140e-01
  4.2665794e-01
  2.1330452e-01
  5.9768647e-01
 -1.5342052e-01
  1.8031673e+00
 -7.5123382e-01
  1.2234609e+00
  1.8484232e-01
  2.1810195e-01
 -2.7373300e+00
 -1.3750304e+00
  5.9108078e-01
 -5.2914041e-01
  2.8453335e-01
 -1.0000112e-01
 -1.0000257e-01
  2.3409419e+00
 -1.0012602e-01
  1.0001315e-01
 -1.7732538e+00
 -2.6618333e+00
  1.2301624e-01
 -7.8243989e-01
  5.4751474e-01
  1.1306734e-01
 -2.7356696e+00
  1.0000113e-01
  9.4621551e-01
  1.1166686e+00
  1.0000050e-01
 -1.0704978e+00
 -1.5111773e+00
  1.0000001e-01
  3.3950600e-01
  1.0000055e-01
 -1.0000005e-01
 -8.9109236e-01
 -1.6935729e+00
 -1.7439525e-01
  7.0353943e-01
  2.7547991e-01
 -2.8530714e-01
  1.0037607e-01
  2.8089735e-01
  1.7711987e+00
  6.6523254e-01
  1.9321567e+00
  8.1936318e-01
 -2.2755611e+00
  6.9929945e-01
 -1.0000396e-01
 -1.0000018e-01
  5.0267535e-01
 -6.0515040e-01
  2.0747924e+00
  1.0000151e-01
  1.0051574e+00
 -7.8477293e-01
 -5.0490218e-01
  2.4947202e+00
 -1.1691374e+00
  2.7868152e-01
  2.2519586e+00
  4.3954465e-01
  1.4540042e+00
 -1.0000462e-01
  1.0004476e-01
  1.0000005e-01
  4.5902795e-01
  4.1156751e-01
  1.6549895e+00
 -1.0000007e-01
 -1.2460471e+00
 -1.5181938e-01
 -1.0000106e-01
 -3.1835684e-01
 -1.2799376e+00
  6.0023928e-01
  5.3139728e-01
 -3.5103515e-01
  1.2951365e-01
  4.2739859e-01
  1.0000280e-01
  1.0000317e-01
  3.0532684e+00
  1.5730147e+00
 -1.0011701e-01
 -1.5007111e-01
  1.2744747e+00
 -1.0000039e-01
  1.0000245e-01
  1.0000001e-01
  1.4159504e+00
 -8.8295043e-01
  1.0000454e-01
  1.0000062e-01
 -1.0005954e-01
  1.1012014e+00
  1.0066854e-01
 -1.1241431e+00
 -1.0000226e-01
  1.0000006e-01
 -8.8680315e-01
 -1.3286395e+00
 -4.9527797e-01
  8.5848588e-01
  3.3095914e-01
 -1.6049496e+00
 -1.0000386e-01
  6.1141545e-01
  1.0000025e-01
  4.6421897e-01
 -1.1984241e+00
 -1.8425412e+00
 -1.2605973e-01
  4.5582685e-01
 -2.0969973e+00
 -1.7794073e+00
 -1.0000004e-01
 -3.9852831e-01
  1.0000012e-01
  7.5722492e-01
  1.0011441e-01
  3.2435834e-01
 -1.0002396e-01
  1.0012282e-01
  1.0102843e+00
 -3.5957143e-01
 -7.7931678e-01
 -3.9674702e-01
  7.6510334e-01
  1.5614742e-01
 -6.5945059e-01
  1.0494661e+00
 -1.0000019e-01
  7.2692156e-01
  2.5596194e+00
 -1.0000299e-01
  1.9528816e+00
  5.0404763e-01
 -1.3763088e+00
 -5.8746541e-01
  9.6833652e-01
  5.0015092e-01
  1.0000143e-01
  1.0765669e+00
 -1.3893864e-01
  6.3326097e-01
 -1.3962972e+00
  1.4522671e+00
  1.0181575e+00
 -4.3715104e-01
  9.8903912e-01
  1.4289240e+00
  1.0000072e-01
  2.7029142e-01
  1.0000002e-01
  1.0000565e-01
 -1.0005578e-01
 -1.0000139e-01
 -1.2653991e+00
  1.0024754e-01
 -1.0257844e+00
  5.7826030e-01
 -7.7743256e-01
 -6.0802060e-01
 -1.3520067e+00
 -1.0147803e+00
 -1.9446847e+00
 -1.0000047e-01
  1.0000005e-01
 -4.7011447e-01
 -2.8751802e+00
 -2.0495121e+00
 -2.0499570e+00
 -1.0000033e-01
 -1.0238637e-01
  1.0717913e+00
 -1.0000393e-01
  1.8734767e+00
  9.9938077e-01
  6.3173831e-01
 -1.1782378e+00
 -1.8791497e-01
  1.0000107e-01
 -1.0568234e-01
 -7.2512382e-01
 -1.4332436e-01
  6.5403223e-01
 -4.0033069e-01
 -1.5716722e+00
 -1.0000027e-01
 -1.1585965e+00
 -1.0000223e-01
 -1.0000004e-01
  2.0403130e-01
  1.0000018e-01
 -1.0000309e-01
  2.7697453e-01
  1.0287516e+00
 -1.0000170e-01
  5.4084378e-01
 -7.4349612e-01
 -1.0000074e-01
  1.3303720e+00
  1.0000036e-01
 -1.0000084e-01
 -6.9460988e-01
 -2.4182501e+00
  5.3256088e-01
  1.0000085e-01
  1.4579681e+00
 -8.9339453e-01
  1.0007115e-01
 -1.0001669e-01
  1.1058204e+00
  7.6390898e-01
  1.0000060e-01
 -1.0000422e-01
 -1.0000213e-01
 -9.4743687e-01
  3.9626992e-01
  1.0000003e-01
  1.0000089e-01
 -2.2835362e+00
 -4.1317591e-01
 -9.1176659e-01
  8.3724970e-01
  1.1040093e+00
 -1.8707471e+00
 -1.0006031e-01
 -1.0000192e-01
  1.0000041e-01
 -1.0000468e-01
 -5.6837499e-01
  1.1259340e+00
  1.6589930e+00
 -1.0000224e-01
 -1.0000039e-01
  1.8526942e-01
 -4.5709687e-01
 -3.1319684e-01
 -2.0741537e-01
  1.0000003e-01
  4.3903676e-01
  3.2221177e-01
  1.0000001e-01
  6.5610617e-01
 -3.8641870e-01
 -6.5461397e-01
 -1.0393845e-01
 -1.0000028e-01
  9.6480411e-01
  1.0000199e-01
 -1.4754160e-01
  1.0000005e-01
 -4.3482274e-01
  5.2308625e-01
 -4.1405848e-01
  1.0724698e+00
  3.6046657e-01
  1.0039599e-01
 -6.0396248e-01
  2.4316378e+00
 -2.0675688e+00
  1.0000053e-01
  1.0000009e-01
  4.5630240e-01
 -4.1933548e-01
 -1.0000156e-01
 -4.0796545e-01
 -1.0000004e-01
  1.0000340e-01
  1.0000080e-01
  1.0024642e-01
  6.9932538e-01
  1.0000069e-01
  1.0000215e-01
 -3.5323924e-01
 -1.0647217e+00
  1.0000028e-01
  4.4790506e-01
 -1.4128226e-01
 -9.9691284e-01
  1.9453998e-01
  1.0000002e-01
 -2.9031077e-01
 -1.0454361e-01
 -1.1475308e+00
  1.0000019e-01
 -2.7248532e-01
  5.8313721e-01
  1.0000025e-01
 -7.7792186e-01
  1.0000467e-01
  2.1373300e-01
  1.0000078e-01
 -2.8085285e-01
 -6.2952250e-01
  1.6863601e+00
 -2.2277641e+00
 -3.3308265e-01
 -1.0000013e-01
 -1.0000019e-01
  3.6780509e-01
  1.0006693e-01
 -1.6462514e+00
  1.0005365e-01
 -3.8766429e-01
  1.1428746e+00
 -1.0000002e-01
  8.5213494e-01
  2.2401419e-01
 -1.0700851e-01
 -4.5507392e-01
  1.0000175e-01
  1.1457211e+00
  1.0000086e-01
  1.0000002e-01
  1.0214971e+00
 -1.2889522e+00
  9.3832392e-01
 -4.9477828e-01
  9.9722391e-01
 -1.1332433e+00
  1.0000453e-01
 -2.4715307e-01
 -3.2858244e-01
  5.8048171e-01
  8.7649113e-01
 -9.5781571e-01
 -5.0529873e-01
  4.2778486e-01
  8.6054963e-01
  3.1482641e-02
  3.1482641e-02
  3.1482641e-02
  3.1482641e-02
  3.1482641e-02
  3.1482641e-02
  3.1482641e-02
  3.1482641e-02
  3.1482641e-02
  2.9385358e-01
  2.9385358e-01
  2.9385358e-01
  2.9385358e-01
  2.9385358e-01
  2.9385358e-01
  2.9385358e-01
  2.9385358e-01
  2.9385358e-01
  1.0960069e-01
  1.0960069e-01
  1.0960069e-01
  1.0960069e-01
  1.0960069e-01
  1.0960069e-01
  1.0960069e-01
  1.0960069e-01
  1.0960069e-01
  3.0371672e-02
  3.0371672e-02
  3.0371672e-02
  3.0371672e-02
  3.0371672e-02
  3.0371672e-02
  3.0371672e-02
  3.0371672e-02
  3.0371672e-02
  1.4208608e-02
  1.4208608e-02
  1.4208608e-02
  1.4208608e-02
  1.4208608e-02
  1.4208608e-02
  1.4208608e-02
  1.4208608e-02
  1.4208608e-02
  1.5726162e-01
  1.5726162e-01
  1.5726162e-01
  1.5726162e-01
  1.5726162e-01
  1.5726162e-01
  1.5726162e-01
  1.5726162e-01
  1.5726162e-01
