nep4 2 B As 
cutoff 5 5 41 41
n_max 4 4
basis_size 10 8
l_max 4 2 0
ANN 30 0
  3.9931975e-04
  3.1116206e-04
  9.8877776e-05
  3.1385018e-04
  5.3364158e-05
  2.2617570e-04
 -3.4321632e-04
 -2.4382118e-04
  1.4211728e-04
 -3.6771416e-05
 -3.0440514e-04
 -8.8038051e-04
 -4.7222964e-04
  2.0776634e-04
 -3.7869479e-04
  2.6578843e-04
  4.9860694e-04
  3.6455970e-04
  2.7316337e-04
 -9.9506571e-05
 -3.7869375e-04
 -3.9786708e-05
 -8.1919995e-04
  7.3233008e-05
  4.3338950e-04
 -8.0572104e-04
 -2.2875302e-04
 -4.6276345e-04
  1.4754261e-04
 -3.4985677e-04
  1.2316913e-04
  1.2886562e-04
  1.2517010e-03
  5.0553237e-04
 -2.2816527e-04
  6.4425037e-04
 -1.6867802e-04
 -1.5175961e-04
 -1.0098782e-05
  4.8897564e-05
 -1.2825514e-04
 -5.9272279e-06
 -4.8821000e-04
 -1.7132032e-04
  1.5460790e-04
 -5.4847926e-04
  2.9693180e-04
 -2.7637757e-04
 -2.4080549e-04
 -4.9589780e-05
 -6.1873157e-05
  6.2089099e-04
 -1.6877675e-04
 -2.4994186e-04
 -6.9690243e-05
 -4.8679247e-04
 -6.3447148e-04
  1.1429364e-04
 -3.3995346e-04
 -4.6236120e-05
  1.1264865e-04
 -2.9255966e-02
  7.2779031e-03
  1.2719838e-04
  5.1503471e-04
 -2.0690696e-04
 -2.6828893e-03
  4.7503374e-04
  2.1686703e-03
 -7.6137047e-05
  3.7113100e-04
  4.2838574e-04
 -1.4926528e-04
 -7.5675038e-05
 -2.2325262e-03
  1.7561484e-04
 -8.7932371e-05
  5.4448727e-04
 -7.4261948e-02
  5.4650579e-04
 -1.9924515e-03
  6.9477945e-03
  7.6332772e-03
 -1.5566970e-04
 -1.5617277e-03
 -1.7313028e-04
 -3.1954935e-06
  1.0377084e-03
  4.0008425e-04
  5.4153008e-04
  5.5321353e-04
 -1.5792029e-04
  8.2477607e-05
  5.0596270e-04
  1.3264667e-04
  1.1876266e-04
 -3.1066575e-04
 -5.4972013e-05
  4.8573067e-05
  2.2827773e-04
 -7.2212645e-04
 -3.0149001e-04
  2.9885885e-04
  1.6418337e-04
  3.2605926e-04
 -1.0195898e-05
 -1.0009331e-04
  9.8523204e-05
  3.3232657e-04
 -3.3123815e-04
 -1.3177167e-04
  6.9733174e-04
 -2.9975222e-04
  3.2394574e-04
 -8.5445754e-07
 -3.1427611e-04
  1.2773451e-04
  3.3956458e-05
 -6.6821129e-05
 -8.5279215e-05
  3.6359433e-04
 -6.5523968e-04
  5.6383375e-04
  4.6169740e-04
 -5.5903049e-05
  9.4326984e-05
  5.6848209e-03
  2.2178265e-04
 -1.6773496e-04
  4.6293816e-04
 -1.1470208e-03
 -5.1126740e-04
 -2.8709590e-04
  1.9655738e-05
 -4.9605587e-04
  3.3371869e-04
 -1.5265286e-05
  5.1767891e-04
 -8.3160434e-05
 -2.3931444e-04
  1.5694081e-05
  1.7374818e-04
 -1.6221355e-04
  2.4696012e-04
 -3.6373784e-04
 -1.6299337e-04
  1.8940376e-04
  8.7929700e-05
 -2.2998278e-04
 -2.2722743e-04
 -6.1809301e-04
  6.7997910e-04
  1.1061766e-04
  1.2312357e-04
  1.2512688e-04
  2.0904146e-04
 -3.5671119e-04
 -3.6269717e-04
 -2.6394567e-04
  1.9801788e-05
 -3.2015212e-04
 -3.6909015e-04
  4.5585362e-04
 -7.6587137e-05
 -1.7844318e-04
  9.5201693e-05
  6.0612685e-04
  1.1392272e-05
  1.2684404e-04
 -7.0414360e-05
 -1.4140364e-04
 -7.3215771e-05
 -2.0805746e-05
 -1.3115308e-04
  1.5526061e-04
  2.8675876e-04
  8.0219426e-05
 -1.0605170e-04
 -2.1365796e-04
  8.3089137e-05
 -8.6980712e-05
 -1.9812743e-04
  2.1718599e-01
 -2.6608596e-04
  7.2441885e-04
 -2.9590917e-03
  3.2977805e-01
  1.7985798e-04
  3.2413958e-04
 -2.1705298e-04
  7.5373866e-02
  4.8196834e-04
  8.4286687e-05
 -3.5869723e-04
 -5.0402386e-04
  2.5161615e-04
 -1.3382319e-01
  8.7981811e-04
 -6.0123395e-02
  3.7120839e-04
 -1.4990842e-03
 -8.6004985e-03
  8.3459847e-02
 -8.1329764e-04
 -1.1744698e-03
 -8.5107793e-05
  1.6101182e-03
  3.4388577e-04
  1.0367971e-03
  8.8482659e-04
  9.0800051e-05
  1.8752016e-01
  8.9579204e-04
 -3.1511267e-04
 -6.6196331e-04
  2.7855628e-04
 -2.4018256e-01
 -9.1019290e-05
  9.7703002e-04
 -6.9367357e-05
  1.7329266e-04
  2.9542181e-04
 -3.1466033e-02
  4.5227286e-04
 -2.7131793e-04
 -1.2432104e-04
  4.2085421e-01
  2.4402985e-02
 -5.0300616e-05
  5.1163608e-04
  2.9258357e-05
  1.6366626e-04
  4.8028040e-04
 -2.2328856e-04
 -3.1287351e-04
 -1.2695858e-04
 -2.1525950e-04
  3.4566841e-04
  1.1597236e-04
 -2.5716977e-04
 -1.6112409e-04
 -3.1726595e-05
  2.6952507e-04
  2.8026424e-04
 -3.9712130e-04
 -4.2374006e-05
 -3.5760988e-04
 -7.6649740e-05
 -3.4027037e-04
 -1.9644841e-04
  5.6689489e-04
 -1.4027153e-04
 -8.1990511e-05
 -1.3304951e-04
 -4.9821765e-04
 -3.2799877e-04
 -2.9293945e-04
 -1.5908162e-04
 -6.3465661e-05
  3.3725362e-04
 -4.2433949e-04
  8.1439721e-05
 -2.3388941e-04
  2.4883324e-04
  3.8362452e-04
 -1.2685960e-04
  3.2524217e-04
 -4.3752181e-05
 -7.1231369e-04
 -9.1712893e-05
  2.8583169e-04
 -1.7480379e-04
  1.1578131e-02
  1.4145512e-04
 -5.9930753e-05
  1.6604149e-04
 -3.2582306e-04
  4.7206559e-04
  7.3223270e-04
  9.9078185e-05
 -7.0645903e-05
 -4.4574402e-04
  1.9672027e-04
 -1.3417283e-03
  6.6668459e-04
 -3.3166187e-04
 -1.7536240e-05
  3.4997886e-04
  4.6867342e-04
 -5.2990777e-05
  1.6069351e-04
  7.7977702e-02
  2.7363611e-04
 -3.2690272e-04
  6.9865107e-04
 -8.5782282e-05
 -3.1049649e-04
 -2.0963307e-04
  4.7642647e-04
 -4.2986148e-04
 -1.4944659e-05
  6.6310808e-04
 -1.5445198e-02
 -8.9263672e-04
  6.8967533e-01
  2.0121913e-03
  7.5276971e-02
 -1.0781767e-01
 -8.1401726e-04
 -7.2005717e-04
 -4.7706699e-04
 -6.9523638e-05
  4.0443715e-02
 -2.2804023e-05
  8.3654083e-02
 -4.1809562e-03
  6.1329780e-03
 -1.0565755e-02
  1.8061851e-01
 -1.2335081e-01
  9.2754520e-02
 -2.4106288e-03
 -9.5494585e-03
  4.1529260e-04
  6.0522333e-02
  7.3843065e-04
 -3.0937005e-04
  8.4889136e-05
 -1.1747514e-03
 -6.2638498e-04
 -3.6320853e-06
  4.5279324e-02
  1.1037377e-01
  9.9252240e-05
  1.1725223e-04
 -8.4267533e-04
  2.0515015e-03
  1.0433183e-01
  1.8983060e-02
  2.8332560e-03
  4.0847808e-02
  3.4685516e-05
 -9.4011120e-06
 -5.2164186e-04
 -8.1610419e-02
  8.3620355e-02
 -6.9704168e-02
 -3.4216601e-02
 -3.2146582e-01
  7.0666358e-02
 -8.1946611e-02
  2.6781918e-02
  7.1836352e-02
  1.8051644e-04
 -1.1858220e-01
 -2.2555870e-04
  3.7416857e-02
  6.2383746e-04
  9.0864557e-04
  5.7292910e-04
  4.2510795e-04
  1.0343664e-04
 -8.1180588e-07
 -9.3464449e-05
  2.1385241e-04
 -1.1929999e-04
 -6.9497401e-05
 -5.0085550e-04
 -3.6231405e-04
 -2.7444097e-05
 -3.7136854e-04
  4.3334490e-05
  3.5640833e-04
 -1.2605949e-04
 -2.0480319e-04
  4.6656840e-04
  4.3195617e-04
  9.4583171e-05
  3.2480105e-04
 -4.2532160e-05
  4.8956496e-04
 -1.3668752e-05
 -4.8691581e-04
 -5.1058043e-04
  9.6586737e-06
 -4.5464718e-04
 -5.8116973e-04
  5.8225050e-06
  1.1490010e-04
 -2.3540364e-05
 -3.8158003e-05
 -5.6055718e-04
  2.2155119e-04
  2.1035070e-04
  2.3561728e-04
  3.9957577e-04
 -3.2560262e-04
 -7.8406563e-04
 -7.5809825e-05
  9.9392433e-05
 -3.1361738e-04
  4.1102910e-05
 -2.2155044e-04
  4.4330049e-04
 -5.4289168e-05
 -2.9766047e-04
  4.3367079e-05
 -5.0293515e-05
  2.0669242e-05
 -1.6417354e-04
  4.2004819e-04
  2.8167310e-04
  3.3012251e-04
  1.7330470e-04
 -3.4305954e-04
  5.4389163e-04
 -4.6744975e-04
  1.0155800e-04
 -1.5762533e-05
  7.1828981e-04
 -1.1097117e-04
 -7.0009832e-05
 -1.4010500e-04
 -2.4598741e-04
 -1.9285348e-04
  4.2023850e-04
  1.2952650e-04
 -3.7190842e-04
  5.7329441e-04
  7.5940756e-05
  2.9090684e-04
  3.2916362e-04
  1.5423645e-04
 -7.5223827e-05
  4.4600551e-05
 -7.0091878e-04
 -2.9195528e-04
  2.7788224e-04
 -2.6352148e-04
 -1.4304470e-03
 -1.7923268e-04
  1.7155062e-04
  6.7278551e-04
 -1.2537601e-04
  9.1585462e-06
 -2.3873850e-05
 -2.2208819e-04
  1.4620170e-04
 -8.9081383e-05
 -2.4201872e-04
  1.2138994e-04
  1.5544516e-04
  1.7570205e-04
  2.1591956e-04
  2.8828537e-04
 -1.6301367e-04
  5.4200020e-05
  2.5135698e-04
  2.3742328e-05
 -2.2161787e-04
  5.0764845e-04
  2.0065407e-04
  3.4649743e-04
 -8.3714462e-04
 -6.1891398e-05
  2.9868406e-04
 -4.0768759e-04
  2.3216371e-04
 -5.0086703e-05
 -4.2395556e-04
  1.8740032e-04
  1.4950304e-04
 -1.8025348e-04
  6.3024333e-04
 -3.4812212e-05
 -9.3966245e-04
 -2.8318458e-04
  1.9671126e-05
  6.9781102e-04
  1.6965183e-05
  3.1461290e-04
  2.1880903e-04
 -2.7097046e-04
  1.3550167e-05
  7.1058457e-04
  9.8458305e-04
  2.9018903e-04
 -1.0722304e-04
 -2.1438347e-04
  3.2285094e-04
  8.1481470e-05
  8.1323386e-05
  9.9293643e-04
  4.7823247e-05
 -5.8886129e-04
  1.7686673e-04
  6.1628432e-04
  2.4694702e-05
 -2.7553100e-04
  2.6713085e-04
 -5.9417048e-06
  1.4075535e-04
  6.9321970e-05
  4.1762344e-04
 -2.4677278e-04
 -1.1666561e-04
  2.1743227e-04
  9.9316472e-05
  8.8107532e-05
 -1.1811418e-03
 -1.0610258e-04
 -4.4481535e-04
 -3.9166760e-05
 -3.2112654e-04
 -4.4477917e-04
  3.0188891e-04
  4.2356330e-04
  7.5480631e-05
  1.1673082e-04
  4.2163063e-04
 -1.6343879e-04
 -1.0009970e-04
 -7.1410177e-06
 -5.5435271e-04
 -7.4116513e-04
 -4.0491973e-04
 -3.3041931e-04
  1.2800710e-05
  3.1370000e-04
 -6.1073480e-04
  2.4082435e-04
 -2.9510062e-04
 -2.0730856e-04
 -5.0026417e-04
 -1.0284478e-04
  5.9882106e-05
 -1.4901694e-04
  1.4909156e-04
 -2.9216890e-04
  3.9696920e-04
  2.7381259e-04
 -3.4694129e-04
 -2.4778271e-04
 -2.7504159e-04
 -1.6413080e-04
 -6.1559887e-04
 -1.3676587e-05
 -2.5550896e-04
 -2.7568894e-06
  3.8914382e-04
  3.5637902e-05
 -4.6525925e-04
 -5.6834106e-06
 -2.8120331e-04
 -2.8540424e-04
  1.2170788e-04
  5.7412738e-01
  2.2668442e-04
  3.7642699e-04
  2.1015025e-05
 -8.6307322e-04
  8.0002903e-04
 -3.0357309e-04
 -4.7528003e-05
 -6.2429070e-05
 -9.8199496e-05
 -2.8279200e-04
  1.8975520e-04
 -1.9706573e-04
 -3.3781459e-04
 -7.0658827e-04
  6.0220602e-05
  4.2317712e-05
  2.0195925e-04
 -1.0766817e-06
  4.3544697e-04
  6.2197651e-04
 -3.4309174e-05
 -3.8970131e-04
  2.3628553e-04
  2.3271691e-04
  5.9314322e-04
  3.5577398e-04
 -9.0701506e-05
  5.1694579e-04
 -4.3896231e-05
  5.5650686e-05
 -8.6144579e-04
 -3.3874813e-04
  5.5388856e-04
  3.6302285e-05
  1.6691236e-04
  4.4610054e-04
  1.3627540e-03
 -1.1117484e-03
 -1.5472115e-06
 -7.7094817e-05
  7.8387020e-06
  1.1194383e-04
  1.5311016e-05
  2.1613324e-04
  4.2404080e-04
 -2.3483625e-04
 -4.8057718e-04
 -8.2371735e-05
 -1.1580416e-04
  5.1568978e-04
 -1.3969275e-04
  5.5292567e-05
 -2.8731767e-04
  1.5706179e-05
  4.3182739e-04
  3.9263410e-04
  1.8316417e-04
 -1.6049390e-04
  2.9808798e-06
  2.4698576e-04
 -5.9488998e-04
  5.4343429e-04
 -6.3131051e-04
  3.6583016e-05
 -2.4486837e-04
  1.6104415e-04
  6.0857995e-04
  4.7434150e-07
 -2.3255521e-04
  2.6220974e-04
 -5.7737561e-05
 -5.6376873e-04
  1.9292127e-04
 -2.2865112e-03
  9.3817407e-01
  1.1430587e-02
  1.8708422e-05
 -2.3313327e-01
  4.2895079e-01
  3.2035310e-02
  6.3652313e-01
 -7.1104527e-02
  8.0026045e-02
  6.0880832e-02
 -2.0273754e-02
  5.1420563e-01
  5.3147089e-01
  2.4526906e-01
 -2.4795684e-01
 -1.4650542e-01
  5.1857304e-02
  2.5676656e-01
  1.3992935e-01
  8.6965337e-02
  4.0075563e-02
 -5.8540869e-01
 -4.5662131e-02
  4.4732106e-01
  7.3033497e-02
  6.0833275e-02
  2.0697663e-02
 -1.7885537e-01
 -1.8911503e-01
  2.5358697e-04
  1.6324292e-04
  6.5303884e-02
  5.3011707e-04
 -2.1051510e-01
 -2.0646949e-03
 -9.1798440e-02
  1.7362504e-01
  1.2155651e-01
  2.6752124e-02
 -2.1089492e-03
 -1.3495683e-03
 -2.8627899e-01
 -2.3973805e-01
 -7.5573647e-01
  3.4117636e-03
 -1.3851470e-01
  6.0767732e-03
 -3.5483161e-01
  5.1799232e-01
 -4.8506048e-01
 -2.7803710e-01
  1.3127332e-02
 -1.2195063e-01
 -1.3694799e-01
 -2.7374650e-04
  4.1716862e-02
  1.6623701e-01
  4.3793344e-03
  2.8248079e-02
  1.2703079e-02
  5.0478405e-01
 -2.9133987e-03
 -1.5786503e-04
  2.5063692e-02
 -3.1115982e-04
  8.5129648e-01
 -4.6411641e-02
 -8.2596562e-05
 -1.5292548e-01
  3.1913599e-01
  3.2585663e-01
  1.0309228e-01
 -4.2361018e-05
  3.0785499e-02
 -2.4394756e-04
 -1.1749785e+00
 -4.1683137e-01
  1.1190123e-04
 -7.4200854e-02
  8.3665021e-02
  2.1529059e-01
 -5.4111826e-04
  7.3034771e-02
 -1.4826436e-01
 -1.7717502e-01
 -1.3670536e-04
  4.5775611e-02
  1.5776516e-03
 -1.5476142e-04
 -3.0364585e-04
  1.6615435e-02
  3.4398946e-04
 -3.3066259e-04
 -3.5236329e-02
  4.3171916e-05
 -4.2862177e-01
  6.2433824e-02
 -2.6864200e-04
  1.1172423e-03
 -2.5265247e-01
 -1.4657483e-03
 -1.5970376e-01
  6.2729603e-05
 -2.2528018e-04
  1.7036973e-04
  1.0613273e+00
  5.9789377e-01
 -5.4015743e-04
  1.2627376e-02
 -1.2405759e-05
 -2.0183483e-01
  1.2218763e-05
 -6.8968226e-04
  2.6189099e-04
  7.7096111e-04
  2.3890482e-04
  1.8812461e-05
 -1.7845505e-04
 -7.8579754e-04
  1.2414312e-04
 -5.9587311e-04
  3.3640928e-04
 -9.0592221e-05
  2.5381349e-04
 -1.5995356e-04
 -1.9466611e-04
  1.6052577e-04
  2.7055538e-04
 -2.2297274e-04
 -4.8820977e-05
  2.1473526e-04
  1.0813458e-04
  5.7781384e-05
  2.4260694e-04
  1.9452591e-04
  6.2446416e-06
 -7.7595201e-04
 -1.4926962e-04
  4.3752271e-04
  4.0919975e-05
 -4.7627524e-05
  2.4888630e-04
 -3.1739568e-05
  8.0563050e-06
 -6.1708197e-05
 -8.0072197e-05
  1.4022477e-04
 -7.9930629e-05
  5.4257043e-04
  2.7203179e-05
  3.6168081e-04
 -4.5379918e-05
  6.6725007e-04
 -4.0205603e-05
  4.6479232e-05
  1.0040822e-07
 -2.9252606e-04
 -4.8066151e-05
  6.1212515e-04
  6.4070096e-05
  2.7877750e-04
 -1.6690785e-04
  1.0202956e-04
 -8.1266073e-05
  4.8811478e-04
 -1.3748498e-04
  1.9947320e-04
 -1.4224544e-04
 -7.0696609e-05
 -1.8996747e-04
  4.8928923e-06
 -6.8267160e-05
 -1.2282828e-04
  7.3562333e-06
 -6.5753273e-05
 -9.6626522e-05
  6.4262969e-04
 -1.7016196e-04
 -4.0182465e-04
  6.9016975e-04
  8.5564924e-04
 -1.4541771e-04
 -4.8138456e-05
  8.6757616e-04
 -3.6459038e-05
 -4.8768794e-05
 -3.7868303e-04
  3.7414909e-04
  6.7160628e-04
 -7.3142175e-05
 -8.6621571e-05
  1.7653457e-04
 -5.9009361e-04
  1.2850291e-04
  9.7544937e-05
  6.0822844e-05
 -8.6196502e-05
  7.2023169e-05
 -9.1023474e-05
 -4.2405567e-04
 -2.6569914e-04
  2.0979054e-04
 -4.7778923e-04
  1.0701462e-03
 -4.0236278e-05
 -2.0961951e-04
  1.9563666e-04
 -2.0086968e-04
 -2.6768705e-04
 -7.3347695e-04
 -3.1304094e-01
  3.4473434e-01
 -2.9933226e-04
 -2.3026180e-03
 -2.9131418e-01
  3.4812152e-01
  6.7207634e-01
  1.4207564e-01
  9.9697584e-01
  1.5332395e+00
  9.2777336e-01
  1.8783495e-01
  3.2774982e-01
 -8.7709749e-01
  1.0886294e-01
 -1.1734902e+00
  4.4083077e-01
 -1.9020148e-01
  9.1071022e-01
 -5.2127427e-01
  8.5409367e-01
  5.7437319e-01
 -2.6970905e-01
 -4.8282915e-01
  2.3655061e-01
  4.4261217e-01
 -1.9939718e-01
  2.9394051e-04
  8.7856606e-02
  5.9767346e-05
  4.9018313e-04
 -1.1887443e-01
 -1.9314695e-05
  1.0572908e-01
  4.4197863e-04
  7.0995628e-03
 -5.4795371e-04
 -3.3652897e-05
 -5.3506330e-05
 -9.6621166e-04
  6.0404185e-05
 -6.0427183e-04
  7.8001503e-05
  1.2825031e-04
 -4.7428781e-04
  5.9945676e-02
  1.9869294e-04
  1.0060652e-01
  9.0560188e-06
  5.7051970e-05
 -4.0808967e-03
 -3.9104249e-02
 -7.8674915e-05
  6.4994796e-04
 -9.9692406e-05
 -4.2295706e-04
 -2.9172102e-04
  2.2308504e-04
 -1.6105075e-04
  6.3717196e-04
 -5.0400300e-05
  1.8609290e-04
  2.7570545e-04
  2.5070031e-04
 -4.8053500e-04
 -2.8882280e-04
  1.2534763e-01
 -7.3453801e-04
 -5.5690340e-05
 -6.2394702e-06
 -9.6770906e-05
 -1.0125755e-04
  4.0493054e-05
 -4.9449882e-04
 -4.6897714e-04
 -7.8412372e-04
  2.4051566e-05
  6.7846588e-05
  6.1173603e-05
  3.3959455e-05
  5.4387715e-02
 -1.0282864e-01
 -6.2054023e-02
 -1.0103400e-01
  1.2028339e-04
  2.3430324e-04
 -2.0439814e-04
 -2.6203036e-01
  3.9124908e-04
 -3.6069203e-02
  3.1613634e-04
  1.5164059e-01
  3.1701772e-04
  4.8060296e-04
 -1.6660310e-04
  2.3801401e-01
  8.5794345e-02
  1.4095849e-04
  6.0171265e-02
 -2.8459495e-01
  3.8269427e-01
 -9.5957151e-04
 -1.8136270e-04
 -4.9773450e-03
 -1.1216608e-03
  3.3413936e-04
 -1.2415061e-04
 -1.4994987e-03
  1.6259764e-04
 -2.0953310e-05
 -1.2714685e+00
  5.7380903e-01
  4.0965828e-01
 -2.4951197e-01
  1.4027875e-04
  1.0152545e-03
 -1.3333400e-04
  3.8839936e-01
 -2.2440656e-01
  7.4840017e-02
 -4.5422299e-04
  2.8468308e-04
 -1.1550266e-04
 -1.1369061e-04
  5.8476988e-04
  1.3432813e-04
 -2.4347720e-04
  1.1604342e-04
  4.1454393e-04
 -7.4709259e-04
  1.8676498e-04
  1.7566161e-04
  1.3335227e-04
  7.6852716e-04
 -1.7461856e-04
  7.9198868e-04
 -2.2982412e-04
 -7.1179587e-04
 -1.3326362e-03
 -1.2125285e-04
  2.8347725e-04
  4.2528837e-04
  2.1299990e-04
  1.4489815e-06
  1.9379781e-04
 -2.3981754e-04
 -9.2184506e-05
 -2.9154468e-04
  1.9360305e-06
 -6.0090262e-01
  1.0899814e+00
  1.2564174e+00
 -9.3810976e-01
  2.7014121e-01
  1.4110982e-01
 -5.8623576e-01
 -3.8586912e-01
 -6.8432707e-01
  6.5026474e-03
  5.6923889e-02
  1.3727349e-03
 -3.9515305e-01
  6.6319394e-01
 -4.1365267e-05
  3.5187912e-01
 -8.7961423e-01
 -1.3432431e+00
 -1.4747299e+00
  1.0954926e-01
 -3.1549308e-01
 -5.4705942e-01
  3.5274926e-01
 -4.7831184e-01
 -1.8170237e-04
  9.1140464e-05
  1.3820145e-01
  3.1054699e-01
 -2.5624461e-03
 -3.5311887e-01
 -1.0043873e-03
  5.5980869e-04
  4.2851207e-05
 -2.7332950e-04
 -3.4105469e-04
  2.3423755e-04
 -4.5616503e-05
  1.2347804e-04
 -9.9675774e-05
  3.9774102e-05
  5.8145597e-05
 -1.5998492e-04
 -6.3696309e-05
  3.7943821e-05
  1.2943175e-03
 -3.3228353e-05
 -4.1941693e-04
  1.4151132e-04
 -5.5597164e-04
 -3.8552139e-04
 -4.0910822e-05
  5.7682752e-05
  5.2706210e-04
 -8.1808720e-04
 -4.9475068e-04
 -4.8019452e-04
  6.1365822e-04
 -3.2752685e-04
 -2.9023067e-06
 -5.4870802e-04
 -4.7605031e-04
  5.1991025e-04
 -2.8118235e-04
  4.1338742e-01
  1.1637066e-04
  3.2831432e-04
 -9.8406235e-05
 -7.6758291e-04
 -5.2575371e-05
 -3.3130788e-04
  3.8855578e-06
  1.1277914e-03
  6.1935780e-04
 -2.8282331e-05
 -2.9377014e-05
 -2.2778695e-04
 -5.4084737e-04
  1.6578019e-04
 -3.2155491e-05
 -2.3765393e-04
 -2.3420202e-05
 -2.3866663e-04
  4.5101953e-04
 -8.3509920e-05
 -1.9962416e-04
  2.9351265e-04
  9.0754300e-05
 -2.2240104e-04
  1.0173823e-04
  1.3212692e-04
 -1.1280597e+00
 -1.9349414e-01
 -2.6504984e-01
  3.3197355e-01
  5.1760118e-02
  3.5760215e-01
 -1.6834536e+00
  9.9422298e-02
  2.8564641e-02
 -1.0334191e-01
  4.7352020e-02
 -1.7314056e+00
 -4.0968642e-01
 -1.5548941e-01
 -5.9383834e-04
 -1.6171436e-01
 -1.0884824e+00
 -6.5396446e-01
 -2.0173021e-01
 -8.1784196e-02
  1.9414299e-05
 -5.8557838e-01
  8.9131395e-04
 -5.5190820e-01
 -1.3853401e-01
 -2.6706271e-03
  1.8309839e-01
  3.0399856e-01
 -9.0716623e-02
 -1.9679207e-01
 -3.3908722e-04
 -2.5815098e-08
 -9.4222079e-05
 -2.6005000e-04
  1.3185476e-04
  5.5246241e-04
 -1.3536391e-04
 -1.1978119e-03
  1.7009801e-04
 -3.3231379e-04
 -3.5805471e-04
  2.5718353e-05
  1.3885138e-04
 -8.0936035e-05
 -6.3078135e-04
  2.4224143e-04
  9.4123936e-04
 -4.7780963e-05
 -1.3631779e-04
  9.0502333e-05
 -6.9464848e-05
 -5.9004792e-04
  6.2962348e-04
 -2.0008217e-04
  1.6796694e-04
  2.5860770e-04
 -2.2745277e-05
 -3.7213205e-05
 -9.2539158e-06
 -4.6094070e-04
 -3.6091602e-04
  3.1071415e-04
 -6.8360983e-05
 -3.0736130e-04
  1.6252605e-04
 -1.8335810e-04
 -4.0984448e-04
 -4.9242133e-04
  2.2053905e-04
 -4.5534347e-05
 -3.6981434e-04
  5.4139760e-04
  1.0233603e-03
 -2.3422058e-04
 -4.9867108e-04
  3.0753389e-04
 -1.3491054e-04
 -1.1634588e-04
  5.0031341e-04
  3.8399952e-04
  1.4049975e-04
 -1.1703803e-04
 -3.9362186e-04
 -1.3227736e-04
  4.0606636e-04
 -1.2440021e-04
  2.0491095e-04
 -2.9548886e-04
  5.3242926e-05
 -1.9562061e-04
  6.3753978e-04
  1.2246194e-01
  1.9340867e-01
 -3.1502289e-01
  4.5979192e-04
  1.3492715e-04
 -4.7985921e-04
 -8.8065028e-02
 -5.8814351e-02
 -6.6137393e-03
  5.5746641e-04
 -1.1479104e-01
 -4.1303895e-02
 -3.9064776e-02
 -2.6107598e-02
 -2.8402045e-01
 -6.2495512e-01
 -3.7478387e-01
 -1.7926866e-02
  6.6645269e-05
  7.1851735e-04
 -8.7855168e-02
 -1.3665824e-01
  4.7897946e-04
  1.7962823e-02
  1.3873530e-04
  8.0230638e-02
 -1.7588862e-04
  4.8323476e-04
  4.2853074e-04
 -2.3013773e+00
  2.1004546e-01
  3.1618476e-01
 -8.3575159e-01
 -4.5117147e-02
  9.8508867e-03
  4.2732018e-01
 -1.9104221e-01
  8.3615865e-05
  7.2121330e-02
  6.0407400e-01
 -3.6923483e-01
  1.1920725e-03
 -1.0801812e+00
 -2.6451486e-01
 -5.6511474e-01
 -2.5981873e-01
 -5.3279519e-02
  2.8442085e-04
  6.5417534e-01
  2.4724211e-01
  2.5987418e-04
 -4.7797992e-05
 -1.3551405e-01
 -2.3810764e-01
  4.8259109e-02
  2.4152324e-01
 -5.9623543e-02
  5.2662159e-04
  4.7226052e-04
  5.5301124e-01
  7.1051103e-01
 -5.2399505e-03
  1.5507216e+00
  8.0135487e-02
 -6.6055654e-06
 -1.5810376e-01
 -5.9588125e-04
  2.0282637e-04
 -4.7945995e-03
  1.8333006e-03
 -3.8415128e-01
 -2.2627129e-03
  1.2353243e-04
 -1.5666970e-03
 -9.9452430e-01
 -4.0279168e-01
 -8.8019021e-02
  4.2699324e-04
 -8.0416791e-02
  1.6833501e-02
 -1.8270680e-01
 -1.3624027e-01
  7.1697277e-01
  5.3997776e-03
 -1.5319858e-04
  1.2481842e-01
 -1.7037153e-01
  2.6852579e-04
  1.1149703e-01
  1.3867557e+00
  5.6307626e-01
 -3.5943124e-01
  1.6453428e-02
  8.3562952e-01
  6.8261886e-01
  6.6927487e-01
  5.8920926e-04
  5.2487880e-01
  1.4464531e-02
  7.5229271e-03
  1.2050879e+00
  2.8451341e-01
  1.2282378e-04
  1.5020503e-01
  3.0027354e-01
  6.4046139e-01
  4.2619696e-01
  1.0699088e-01
 -3.1007126e-01
 -1.4111103e-01
  8.0618179e-01
  4.8138121e-01
 -1.7650501e-01
 -3.9252806e-01
 -9.2400638e-05
 -1.9441405e-01
  5.3992623e-04
  3.1511334e-04
 -1.7335404e-01
  1.3922729e-01
  2.7934372e-04
  4.4098459e-04
  1.8777747e-02
 -2.8765750e-01
  7.4607466e-05
  1.8687879e-04
  2.2209092e-04
  6.1014458e-04
  4.3877517e-04
  3.4702799e-04
  5.2475918e-04
  1.0820261e-03
 -6.3611078e-06
 -2.5848576e-04
 -3.4692819e-04
  1.1124124e-03
  1.4818902e-03
  2.7580906e-04
 -2.2876353e-04
 -1.9980714e-04
  1.3431274e-04
  9.6088217e-05
 -8.1268176e-05
 -3.6543672e-04
  2.7681584e-05
 -1.2829126e-04
  9.9433970e-04
  1.0399104e-04
 -4.1265722e-04
  6.3463114e-04
  5.8419377e-05
 -4.4036778e-06
 -2.1827414e-04
 -1.8864163e-04
 -6.5746933e-04
  4.0011582e-06
  2.3010919e-04
 -4.8913900e-04
 -1.8775795e-04
 -2.0934074e-04
 -4.3586397e-04
  2.3035269e-04
  4.5914803e-06
  1.1078686e-04
  1.6042621e-04
  1.8088915e-05
 -1.5000303e-05
  2.8044812e-04
 -1.4792243e-03
  8.0690079e-05
  6.2308958e-05
 -7.3076494e-04
 -2.8312745e-04
  5.5649696e-04
  9.1013433e-05
 -8.9379807e-04
 -1.7492665e-04
 -3.0051998e-04
 -2.3669022e-04
 -4.4686045e-04
  8.5099680e-05
  3.7476365e-04
 -3.1856610e-04
 -3.5394292e-04
 -5.7039982e-05
 -2.3869141e-04
 -3.0971627e-05
 -3.0046748e-04
 -5.2492149e-05
 -7.6332566e-05
 -6.9619738e-04
 -4.0469068e-04
 -1.1529782e-03
 -9.2964663e-05
 -2.6953977e-04
  1.0121810e-04
  1.2423562e-04
 -4.1151771e-04
 -7.4617960e-04
 -2.3104064e-04
 -1.7410232e-05
 -6.1244486e-05
 -7.0383982e-04
 -2.7787612e-05
  8.5256802e-04
 -5.0249230e-04
  7.0840871e-04
  1.6120302e-04
 -2.2325316e-04
  2.8272398e-04
  7.0246600e-04
  6.2067626e-04
 -3.3437424e-05
  5.3341640e-04
  6.8078909e-05
  2.1068694e-04
  1.8440728e-04
 -2.0979375e-04
 -8.3304483e-05
  5.9153594e-04
 -3.0518783e-04
 -1.5006126e-04
  2.7292717e-04
  9.4291412e-05
  2.0866477e-04
  9.6887175e-05
 -2.2220712e-04
  1.1270420e-04
  4.5752968e-04
 -3.2397438e-04
  1.0500300e-04
 -3.2150821e-04
 -2.1628317e-04
 -1.1597288e-05
 -1.6290080e-04
 -4.1475199e-04
  8.4395841e-05
  3.6044203e-04
 -1.4842604e-03
 -2.2352104e+00
  3.6170027e-01
  1.3168664e-01
 -2.9216811e-02
  9.6053854e-02
 -1.4691954e-02
 -2.1585609e-01
 -3.8423277e-06
  2.1417609e-05
 -3.5509828e-01
 -7.2792245e-05
 -1.3319281e-03
 -1.2036961e-01
 -6.4256706e-04
 -5.0872654e-02
  6.3473010e-05
 -1.2266629e-01
 -5.8638776e-04
 -5.0931388e-01
 -1.0206106e-03
  1.3684768e-03
 -2.0627198e-01
 -1.2095580e-01
  1.8019846e-01
  1.3475612e-04
 -1.4218583e-04
  3.0395272e-04
 -4.6274072e-06
 -1.3816153e-04
  9.7757962e-05
 -3.5559735e-04
 -2.4127707e-04
  2.8084684e-04
 -1.4607301e-04
 -2.7265755e-04
 -4.0235423e-04
 -1.8404405e-04
 -1.5260368e-05
 -7.9085649e-04
  4.6221976e-05
  3.8497627e-04
 -7.5745658e-04
 -1.3851943e-04
 -7.5735537e-05
 -6.9613518e-05
  1.1986800e-04
 -8.8663254e-04
 -6.4141997e-05
  1.1999691e-04
  9.2255017e-05
  8.1208425e-05
 -8.8526715e-05
 -1.8892891e-04
 -9.7136879e-05
 -4.2690209e-04
  1.8331091e-05
  1.4365389e-03
  3.3859495e-04
  1.1956151e-04
  1.3210175e-04
 -2.6371497e-01
 -1.3228498e+00
  1.0167624e+00
 -3.1092271e-01
 -3.9413657e-02
 -1.4632191e-01
 -3.6569214e-01
 -4.9607769e-02
 -2.5265431e-01
 -7.5611323e-02
  4.0582567e-04
 -1.2888290e-01
 -7.9805195e-02
 -3.5185289e-02
 -1.3515549e-02
  2.0337733e-04
 -5.9976029e-01
 -5.5596095e-01
 -1.1003317e-01
  5.4653937e-01
  2.8760415e-02
 -2.8154230e-01
 -4.7369633e-02
 -4.9121439e-01
 -6.5423501e-01
  2.9907751e-04
  2.9607797e-01
 -4.4574081e-05
 -2.7152739e-04
 -2.8578767e-03
  7.6446595e-05
  1.2964830e-05
 -4.8792909e-04
 -1.7810415e-04
 -3.8696543e-04
 -3.5594054e-04
  2.2466188e-04
  2.9618398e-04
 -2.6070199e-04
  8.2242943e-05
  1.8271268e-04
  3.6628614e-04
 -7.2089882e-05
 -2.6936302e-04
 -2.5156004e-04
 -1.5403531e-04
  6.3510990e-04
  3.5645862e-05
  1.4108352e-04
  7.7081349e-05
 -2.3590862e-04
  7.8136756e-05
  4.0233144e-04
 -2.5689782e-05
  2.3381170e-04
  3.8802001e-04
 -1.8496133e-04
 -1.8595383e-05
  1.3036514e-04
 -2.0615903e-04
 -1.1604337e+00
 -9.7068566e-01
 -1.6607901e-01
 -8.7086797e-02
  3.9562106e-01
  8.6337721e-01
 -1.6126212e+00
 -5.6636083e-01
 -4.3832666e-01
 -3.3725239e-02
  9.5682178e-04
 -2.7965075e-01
  4.8987719e-01
 -2.1649186e-01
 -6.8672813e-02
 -1.2812775e+00
 -7.9340184e-01
 -5.8884984e-01
  9.4340241e-01
  3.5070929e-01
  1.0559153e-01
 -5.0703198e-01
 -4.7071692e-01
 -1.4564437e-01
 -7.1696460e-01
  3.9413440e-04
  4.2528453e-01
 -1.7677572e-01
  1.2359626e-05
  3.2648415e-05
  5.6570119e-01
 -4.9163975e-02
 -8.7199919e-02
 -8.7900180e-01
 -2.7932999e-01
  6.6667807e-01
 -3.8494843e-01
  4.2778051e-01
  8.2571566e-02
  9.7217369e-01
 -3.4548502e-02
  8.3134252e-01
  1.0078690e+00
  2.4112691e-01
  7.4160838e-01
  9.9942356e-01
  2.6578125e-01
  6.2717271e-01
  5.7854372e-01
 -1.1407771e+00
  3.9856470e-01
  1.4091941e-04
  2.4949692e-02
 -8.0270642e-01
 -7.9553969e-02
 -1.5878808e-01
 -2.1405981e-01
 -3.6249033e-04
  6.8080616e-03
  5.6830233e-01
  2.5054926e-04
 -3.8010776e-02
  5.3079339e-04
 -2.3802568e-07
  2.3445775e-04
  1.3874569e-04
  8.1551436e-05
  2.6952461e-04
  2.9538927e-04
 -1.2671370e-03
  2.0371404e-04
  4.4526276e-04
  1.0628150e-04
  1.6530810e-04
 -1.3748155e-04
  1.2157439e-04
 -1.3462816e-04
  2.1040246e-04
  1.6303342e-04
 -5.2588410e-04
 -3.6899022e-05
 -2.8862120e-04
  5.1615218e-04
 -8.1203812e-05
 -5.5001071e-04
 -4.1704663e-04
  5.0241644e-05
 -2.7617809e-04
  1.8556623e-04
 -4.7955592e-04
  2.2210303e-01
  4.8764359e-02
 -4.5398974e-05
  2.2465831e-01
  7.9633101e-05
 -6.6171102e-05
 -8.2496507e-04
  1.1074331e-04
  1.9137532e-04
  1.0423582e-05
 -1.0964618e-04
 -1.1251107e-04
  1.9120831e-04
  6.4865868e-05
  7.4773614e-04
  6.8163197e-04
  1.1159520e-03
  4.3887665e-04
 -6.1408064e-05
  1.5540642e-04
  1.7111671e-04
  1.2333330e-04
  9.9502227e-05
 -5.2213174e-04
 -6.4470584e-04
  3.3246924e-06
 -9.9947298e-05
 -2.5698452e-04
  2.3907094e-04
  4.8618129e-04
 -1.3023765e-03
  1.7508287e-04
  6.4829728e-05
  1.1847345e-04
 -2.6119058e-04
  3.3428762e-04
  6.8908441e-05
  3.5790828e-05
 -8.1609141e-05
  4.8037764e-06
 -6.7083025e-04
  5.6406039e-05
 -1.1012940e-04
 -2.0449152e-06
 -1.4006326e-04
 -2.8634316e-04
 -9.0452225e-04
 -1.3929832e-04
 -1.4899253e-04
  1.5365942e-04
 -5.7019794e-04
 -5.3329888e-05
 -2.3345383e-04
 -3.0863009e-04
 -4.4392183e-04
  5.7205398e-05
 -5.4533069e-04
 -6.4270789e-05
  2.4445576e-04
  1.3717693e-04
 -3.7373955e-04
 -1.1377520e-04
 -4.4350786e-04
  6.4851803e-04
  1.0525221e-04
 -2.2059618e-04
 -1.0917587e-04
 -2.6075993e-04
  3.7045908e-04
  1.4192938e-04
 -3.2928004e-04
 -4.2765110e-05
  9.3425464e-05
  2.6553188e-04
  2.3786613e-04
 -3.9554012e-04
 -2.3127338e-04
 -5.2262150e-04
 -1.1927645e-04
 -2.2768945e-04
 -2.4889843e-05
  6.2658364e-05
 -1.6478047e-04
  1.2295208e-03
  3.4578104e-04
 -3.3836605e-04
 -1.8279380e-04
 -2.2625070e-05
 -7.2725903e-04
 -1.3492623e-04
 -1.2966714e+00
  1.2153216e-03
  5.1669986e-04
 -1.1122841e+00
 -1.4989478e-04
 -1.1666772e-04
 -7.1130235e-05
 -6.0195522e-04
 -4.2198485e-04
 -1.1322793e-03
  6.2615238e-04
 -1.4033691e-03
  1.6993523e-05
 -3.9000256e-04
 -1.5849321e-03
  2.4796461e-04
 -4.5499496e-02
 -1.2220865e-03
 -1.4450698e-04
  2.2644695e-04
  2.8204068e-04
 -1.1298344e-03
 -7.1583213e-03
  6.4466038e-04
 -6.4331491e-04
 -2.3113802e-04
  3.0110672e-04
 -6.8301219e-05
 -8.0209880e-05
 -2.6903572e-04
 -1.0013295e-04
  1.8863469e-04
  3.7152780e-04
 -2.8407923e-04
  4.9766531e-06
 -1.4510279e-04
  2.9398198e-04
  3.8684704e-04
 -6.8784917e-05
  3.5964188e-04
 -3.1318437e-04
  1.7123301e-04
  4.9391191e-04
  7.7057804e-05
  3.3911836e-04
  5.4261723e-04
 -2.3837431e-04
  6.3845422e-04
 -3.8105913e-04
  1.2220620e-04
 -4.9445414e-05
  4.6332312e-05
 -5.4715474e-05
 -1.6504788e-04
 -1.5274980e-04
  3.3584645e-04
  1.1872704e-04
 -5.9974508e-04
 -3.5170175e-04
 -2.2363465e-04
  5.1261395e-01
 -1.2336764e+00
  1.0218291e+00
  1.7904544e-01
 -6.0573196e-01
  6.4929235e-01
 -4.8561862e-01
 -3.5116854e-01
  2.3921503e-01
 -3.6631477e-01
 -2.1015317e-03
  1.8679814e-01
 -3.5170802e-01
  1.2360287e+00
  1.0374779e-01
 -3.7731163e-03
  9.3413144e-01
  6.5432060e-01
  5.0148594e-01
 -1.7804396e+00
 -2.5492065e-02
  8.7047042e-03
  7.0035964e-01
 -2.3690113e-01
 -1.4061110e-01
 -1.6338205e-03
 -2.1873240e-01
  2.5356036e-01
 -1.8795155e-02
 -6.1773207e-02
 -1.7342709e-01
 -2.3718118e-05
 -3.0110910e-04
  1.1236893e-01
  1.6971966e-04
  1.6233446e-04
  7.2183786e-04
  2.1550695e-04
  3.5661372e-04
  2.2171914e-04
 -8.3252112e-04
  1.3094832e-04
 -1.2324652e-05
  9.8600518e-03
  1.7991423e-04
  6.4591377e-04
  1.8349541e-03
 -1.0131900e-04
 -1.8366205e-05
  5.6679361e-04
  1.5834697e-04
 -3.5322391e-04
  6.7317497e-04
 -2.1647416e-04
  2.5997116e-04
 -1.7792298e-04
 -1.2090466e-04
  1.4233416e-04
 -3.1344901e-04
  2.5302343e-04
 -1.3567380e+00
 -1.0456045e-01
 -6.0845083e-01
 -5.8411741e-01
  1.2726137e-01
  7.3881559e-02
  3.9992001e-02
 -2.7567714e-01
 -3.6684573e-02
  7.8238565e-01
  1.3646111e-02
 -1.3734393e-04
  6.8570120e-04
  3.1588998e-01
 -1.3393401e-05
  2.3416771e-02
 -1.0078690e-01
 -8.7258719e-02
 -8.3934762e-02
  5.5603456e-02
  6.0780156e-01
 -9.0862195e-06
 -1.9223480e-05
 -3.0292487e-01
  2.5012338e-01
  1.0609387e-01
  1.5330097e-01
  1.9119801e-04
 -1.6729147e-04
 -5.6436175e-04
 -6.1131519e-05
 -5.7406956e-01
  2.4697228e-04
  3.7975961e-04
 -1.4560350e+00
 -3.7527771e-04
 -1.2101807e-03
  3.3543824e-04
  1.1596600e+00
  5.4013103e-01
 -2.3145778e-01
 -1.2823823e-04
  3.0291625e-04
  5.9885337e-05
  1.0217515e-05
  9.2650980e-02
 -2.7287475e-04
 -1.2499670e+00
 -1.5643614e-04
 -5.3879470e-01
 -1.4457201e+00
  9.4699761e-05
  1.4817764e-04
  3.6805621e-04
  4.6719110e-04
 -3.1802478e-01
 -1.4496848e-04
  4.5774408e-02
  1.2538943e-04
  9.2845571e-01
  7.1681127e-02
 -1.2360713e+00
 -9.8622630e-05
  1.4962036e-02
 -2.5310030e+00
 -2.8644381e-05
  7.3616640e-05
 -7.2485471e-01
 -7.1653813e-01
 -8.2183594e-01
  6.9065958e-01
  2.0182870e-01
 -7.4274058e-04
  4.2837340e-02
  2.0378994e-04
 -4.4885346e-01
 -3.2000303e-02
 -8.2815456e-01
  9.4997951e-05
 -8.5881162e-01
  1.1260674e+00
 -2.1248634e-06
  2.3112345e-01
  6.9312067e-05
  4.5296867e-05
 -2.8375667e-01
 -6.2394014e-05
  1.4046354e+00
  1.9545576e-01
 -1.5473866e+00
  3.3646517e+00
  1.2495482e-01
 -1.9838408e-04
 -1.3065788e+00
  1.2881801e+00
 -2.4570129e-04
 -3.4881748e-05
 -2.2946492e-01
  5.6577146e-01
  9.2955059e-05
 -3.9659353e-04
  5.2707267e-01
 -5.0501460e-01
 -1.1838983e-04
 -2.1804753e-04
 -3.7360087e-01
 -5.7161397e-01
  2.3816210e-04
  5.8699748e-05
  1.3511568e+00
 -6.7597806e-01
 -2.8914970e-04
  2.8013129e-04
  2.4838078e+00
  1.9882284e-01
  1.5405007e-05
  2.0450744e-04
 -1.3787234e+00
 -6.4002298e-02
  1.5262392e-04
  3.5680077e-04
 -2.0681520e+00
 -1.0167332e+00
  9.5215233e-05
  2.1294609e-04
  5.9317511e-01
 -1.8536745e-01
 -9.9638841e-05
 -4.6852365e-05
  1.2144312e+00
  6.4380795e-01
 -4.8520663e-04
  2.0321013e-04
 -1.3075629e-02
  3.5196230e-01
 -3.3570975e-01
 -5.6161708e-01
 -9.0617323e-01
  3.0380051e+00
 -2.7018285e-04
 -9.1624694e-05
  7.3755465e-02
  2.5334940e-04
  2.5135756e-03
  3.0172714e-03
 -1.6465834e+00
 -1.2502293e-01
 -5.5401947e-02
  1.7400155e-03
  1.8738341e+00
  7.6050144e-01
  1.2839322e-03
 -2.7205160e-02
  3.0752236e-01
  2.8132601e-03
 -4.8812269e-03
  3.4272009e-01
 -1.0455865e+00
 -1.2355595e+00
 -1.6959812e-01
 -6.0031474e-01
  6.1576515e-02
  7.9918122e-01
  2.6142264e-02
 -1.8816257e-01
 -3.4002727e-01
  1.3905773e+00
 -1.2378191e-01
  1.2849931e-01
 -3.8312557e-01
  7.2978251e-03
 -1.1686424e-01
  3.3590578e-02
  2.3290880e-01
 -1.7381437e-01
  5.8550566e-02
 -4.8778436e-01
 -2.8447509e-02
 -8.9574995e-04
 -6.1801885e-04
 -3.7349848e-04
  1.1256889e-01
  3.2186165e-01
  3.4592947e-04
  4.7441536e-05
 -7.7368325e-01
  2.2975900e-04
  2.1663703e-04
 -6.9555436e-04
  1.8775855e+00
  7.6067334e-01
 -3.2588818e-05
 -1.8252168e-04
 -1.3844695e+00
  8.0184776e-01
  4.8923271e-04
  2.8664651e-04
 -1.0255601e+00
 -2.9545452e-04
 -1.9992042e-02
 -3.0983065e-04
 -1.0921244e-01
 -2.6131070e-01
 -6.6251770e-05
 -2.3019613e-01
  1.5585518e+00
  9.5307305e-02
  2.7349676e-04
  9.2093751e-02
 -1.4982746e-02
  1.4635976e-03
 -1.1205724e+00
 -8.9916901e-04
 -3.2785621e-01
  2.6582149e-01
  1.5783815e-01
  2.3259585e-05
 -1.7489272e-01
  4.3830073e-01
  2.6573258e-04
 -4.7359903e-05
  1.6223830e-01
  2.5066456e-01
 -3.2064721e-02
 -2.7222783e-04
  1.7719225e+00
  8.0299497e-02
 -1.9700897e-04
 -1.8904996e-04
  2.7360609e-01
  3.6657687e-02
 -1.0917171e-04
 -1.6660763e-04
  3.3210853e-01
 -2.8888864e-04
  1.4078332e-04
  5.0096351e-06
 -2.6883914e-03
  2.1408661e-01
  4.8093894e-04
 -2.5450328e-04
  1.5325843e+00
 -2.1115831e-01
  2.9319696e-04
  7.0277711e-05
 -2.1915302e+00
 -7.9176372e-01
  2.3113639e-04
 -2.4986395e-05
 -1.1373633e+00
  2.2405777e+00
  2.2444737e-04
  1.8700426e-04
 -4.4066215e-01
 -1.1407044e-01
 -1.0056496e-03
  7.9929660e-04
 -2.9839757e-01
 -2.4913156e+00
  2.9831816e-04
  8.3015847e-04
  9.9045718e-01
 -1.3328868e+00
  1.9392958e-04
  5.4560992e-04
  1.8554665e+00
  4.7210079e-01
  9.9741280e-02
 -1.5023410e-04
  5.0741136e-01
 -1.1599507e+00
  1.1260231e-04
  3.2721405e-04
  2.4076214e-01
 -6.2901818e-06
  1.4063093e-04
  1.2133218e-04
  1.0530546e+00
  2.6335707e-01
  1.3213222e-01
 -1.5278610e-04
  1.6679240e-02
  1.6148351e+00
  9.6045158e-05
 -4.2944488e-05
  2.9823384e-01
  3.1189147e-01
  2.3947386e-02
 -5.9760467e-04
  2.5263900e-01
 -9.8588115e-01
  1.7378201e-01
  9.3278970e-05
 -1.2674788e+00
  3.1727958e-02
 -5.0116470e-04
  4.2549258e-01
 -6.0960829e-01
 -9.1835803e-01
  1.4839998e-01
  4.7993264e-04
 -5.8517527e-02
 -1.0476761e+00
  9.3819246e-05
 -3.1202016e-02
  8.2647301e-02
 -3.3273065e-01
 -4.0467773e-04
  7.5978693e-05
 -6.7024148e-01
  4.2978054e-01
  8.0377847e-01
  1.1646549e-01
  7.0962852e-01
 -2.5926702e+00
  2.4122657e-04
  7.2056955e-01
  4.1293180e-01
 -1.7373968e-04
  5.2469474e-01
  2.5126204e-04
  1.1817404e+00
 -1.2373435e+00
 -1.5583126e-02
  5.2276647e-01
  9.9894948e-02
 -5.0193495e-01
  5.4381549e-02
  2.4171760e+00
  6.3342780e-02
 -5.7231313e-01
  6.5575414e-03
 -1.0937558e-03
 -4.9275696e-01
 -2.0750201e-01
 -3.0223095e-01
  9.4154769e-01
  5.2137440e-01
  4.8584762e-01
 -6.2693126e-02
 -1.9680360e-01
 -3.2700452e-01
 -5.5698675e-01
 -1.5675787e+00
  3.5722104e-01
 -5.8566420e-03
  1.0384291e-01
 -6.3403934e-01
  2.5932601e-01
  8.0158454e-01
 -4.5930356e-02
 -5.4530059e-03
  5.7262756e-02
  2.4916091e+00
 -1.0768793e-04
  8.8899158e-02
 -5.3260767e-01
 -6.1995322e-01
  1.2152098e-01
 -8.1004322e-01
  2.0564556e+00
 -9.9350184e-01
 -9.1182858e-02
  2.2631668e-01
  3.2644820e-01
  8.7869120e-01
 -6.6155213e-01
  3.4538922e-01
  3.4736004e-01
  1.4341030e+00
 -3.0711120e-01
  1.9840786e-01
  1.9529407e+00
 -2.6804128e-01
  1.3989389e-01
  2.7779514e-01
  1.8835391e-01
 -1.6214825e+00
  2.1755144e-01
 -2.1783984e-01
 -6.9142336e-01
 -1.4911920e-01
  2.0888144e-01
  2.2923312e+00
 -2.2139032e-01
 -2.6541691e+00
  1.1262085e+00
  2.1223664e-04
 -1.0176985e+00
 -9.7666934e-02
  1.1062095e-01
  2.0025073e-01
  8.9072156e-01
  2.6581941e+00
  1.8438148e-01
  1.0174413e-01
 -8.8152193e-02
  8.3831716e-03
 -2.0739941e-01
  1.2589106e-03
 -2.2405827e+00
 -4.1072789e-01
 -3.9123010e-04
  1.5998699e-01
  4.6285424e-01
 -8.1887555e-01
  4.2718253e-01
  1.0216697e-01
 -7.1043783e-01
  2.3828428e+00
  1.7968944e+00
  3.2391825e-01
 -2.5359303e-01
  1.2081902e+00
  2.4021928e-01
 -1.0614158e-01
 -1.5411681e-01
  8.0815756e-01
 -6.3549477e-01
 -1.8906394e-01
 -8.5515097e-02
  2.8149404e-02
  5.3321147e-01
 -5.1589101e-04
 -3.3102852e-01
  2.9909818e+00
 -2.8365152e-04
 -2.1607479e-02
  6.3898638e-02
 -1.0460435e+00
  3.8336128e-01
 -4.5810312e-01
 -4.6032676e-01
  1.8955675e-01
  6.1311454e-01
  1.0132693e-01
 -6.6327864e-01
  4.7049526e-02
 -1.4612019e-01
 -6.0059750e-01
  2.3936844e-01
  9.3114114e-01
  4.1619775e-01
  4.7941036e-03
 -8.2154816e-01
  8.1391442e-01
 -1.4651518e-02
 -1.4317539e-01
 -6.9296145e-01
  6.0102016e-01
 -6.3640213e-01
 -5.5839443e-01
 -6.8702126e-01
  3.3073977e-02
 -1.0908629e+00
 -1.1072228e+00
  6.6559285e-01
  1.1185367e+00
 -7.8011835e-01
  2.3822919e-04
 -1.0110060e-05
 -1.0190905e+00
 -2.5794040e-02
 -1.1164923e+00
  6.4588881e-01
 -6.7218536e-01
  3.5888371e-01
  4.6289986e-04
  6.1624962e-01
  1.9632889e-01
 -1.8496646e+00
 -5.4488730e-01
 -1.0130094e+00
  1.4400192e+00
 -3.8892715e-04
 -5.3597701e-01
 -1.3379966e-02
 -7.9838984e-02
 -1.0202757e-01
 -4.1927779e-01
  9.4355226e-01
  8.3733433e-01
 -4.4892840e-02
 -1.3209859e+00
 -1.9981530e-01
 -3.5001078e-01
 -4.5493335e-01
  9.1617477e-01
 -5.4996353e-01
 -7.4146450e-02
  4.1342977e-02
  1.0612378e-01
  1.0612378e-01
  1.0612378e-01
  1.0612378e-01
  1.0612378e-01
  2.0581867e-01
  2.0581867e-01
  2.0581867e-01
  2.0581867e-01
  2.0581867e-01
  1.3098323e-01
  1.3098323e-01
  1.3098323e-01
  1.3098323e-01
  1.3098323e-01
  2.4586383e-02
  2.4586383e-02
  2.4586383e-02
  2.4586383e-02
  2.4586383e-02
  2.9509349e-02
  2.9509349e-02
  2.9509349e-02
  2.9509349e-02
  2.9509349e-02
  1.9532055e-01
  1.9532055e-01
  1.9532055e-01
  1.9532055e-01
  1.9532055e-01
