nep3 2 Ga O 
cutoff 8 4 206 27
n_max 8 8
basis_size 12 12
l_max 4 2 0
ANN 50 0
 -2.5659579e-01
  3.5060856e-01
  4.8789322e-02
  1.1548271e-01
 -4.0873191e-01
 -2.9410705e-01
  3.7282223e-01
 -5.8535838e-01
  2.7534840e-01
  5.8314228e-01
 -9.7728968e-03
 -6.1608529e-01
  4.3362388e-01
  2.9548401e-01
  3.5231900e-01
  3.2172373e-01
 -3.3608055e-01
  7.1583845e-02
 -9.6745804e-02
 -3.8137656e-01
 -2.8935069e-01
  6.2492472e-01
  1.5768877e-01
  2.1193761e-01
  7.5662658e-03
  2.1158315e-01
 -4.8207676e-01
 -6.1922741e-01
  1.3001186e-01
  3.6029869e-01
 -1.6997693e-01
  9.8600164e-02
 -7.5204760e-02
 -1.0305759e-01
 -2.0899998e-01
 -9.5173955e-02
 -1.9617637e-01
 -3.2915848e-01
  4.9908316e-01
 -4.4225246e-01
  3.0358322e-02
 -6.6325283e-01
 -2.5645944e-01
 -7.4243408e-01
 -4.1082561e-02
 -2.0947453e-01
  1.0562551e-01
 -3.6632401e-01
 -8.3220583e-01
  6.5044910e-02
 -3.6565441e-01
 -1.0343023e-01
 -8.9691103e-02
 -6.3983001e-02
 -2.0290756e-01
  2.1716909e-01
  5.7569504e-02
  1.1559883e-01
  1.8307570e-01
 -7.0033774e-02
  3.8633490e-01
 -1.7875582e-01
  2.3285581e-01
 -4.6711102e-01
 -4.6884140e-01
  2.5511518e-02
  2.7148424e-02
 -2.8720924e-01
 -3.3637828e-01
  7.6848578e-01
  5.4282814e-01
  7.0593607e-01
 -4.3972030e-01
 -4.5984112e-02
 -6.6713229e-02
  1.0840755e-01
  2.9667631e-02
 -4.8516557e-01
 -2.2740066e-01
 -2.2472969e-01
 -3.0286916e-02
  4.3028376e-01
 -3.0780315e-02
 -7.5550899e-02
 -3.9326313e-01
  4.6672875e-01
 -3.6526895e-01
  1.5318549e-01
  5.2242005e-01
 -3.0157733e-01
  2.9033750e-01
  5.7701790e-01
  5.4909635e-01
  3.1870928e-01
  3.2768941e-01
  7.2524399e-01
  1.6852591e-02
  2.7496737e-01
 -5.6551850e-01
 -9.1384038e-02
  7.2151983e-01
 -3.8992018e-01
  1.0513775e-01
 -3.2438385e-01
  3.6413348e-01
  3.1556633e-01
  5.3678817e-01
 -6.8046801e-02
  4.3191966e-01
  2.4036579e-01
  7.1741778e-01
 -5.4758275e-01
 -5.8955234e-01
  4.2095724e-01
  2.5447845e-01
  4.6214297e-01
 -2.7513888e-01
  5.2129096e-01
  6.5991551e-02
  2.6903230e-01
 -1.7777224e-01
  4.5826286e-01
 -1.7826092e-01
 -1.1551376e-01
 -4.6760967e-01
  2.4108595e-01
 -2.9368934e-01
 -5.9010118e-01
  4.0780815e-01
  1.0094532e-01
 -3.2257310e-01
  4.7313020e-01
  1.6411240e-01
 -1.0541493e-01
 -5.8706462e-01
  1.5701514e-01
 -5.0846076e-01
 -4.3164891e-01
 -1.8404034e-01
  1.1019232e-01
  7.1753755e-02
  2.4638239e-01
  6.1112624e-01
 -3.8153720e-01
  5.0055611e-01
 -2.3552105e-01
 -8.6693779e-02
 -3.5589027e-01
  6.4336732e-02
  1.3274944e-01
 -3.6544360e-02
  5.3081018e-01
 -4.5669955e-01
 -2.1331653e-01
 -1.1175567e-01
 -6.0039747e-01
 -1.7647484e-01
  1.1759700e-01
  4.7702897e-01
  4.9822864e-01
  1.5414213e-01
 -3.9006296e-01
  7.5213444e-01
 -2.6418650e-01
  3.5590571e-01
  2.4188069e-01
  4.3473843e-01
 -1.0422137e-01
  6.1319554e-01
  4.1037202e-02
 -2.5956589e-01
  3.7012571e-01
 -1.2074977e-02
 -1.6416371e-02
 -2.4764417e-01
  5.3518534e-01
  1.2598859e-01
 -4.6388727e-01
 -4.0371197e-01
 -4.6663126e-01
  6.0591072e-01
 -2.4234948e-01
 -3.2959986e-01
 -4.9937606e-01
  2.9632294e-01
  3.4089705e-01
  7.7668005e-01
 -2.6560593e-01
  5.0857073e-01
 -1.0147631e-01
  6.3521767e-01
 -3.6190432e-01
  7.9507791e-02
 -5.9692723e-01
  2.5687239e-01
 -1.2561882e-01
 -3.8584912e-01
 -4.2446858e-01
 -6.9119990e-02
  4.7114682e-01
 -2.5247389e-01
  4.8492441e-01
 -1.4318040e-01
 -2.5762260e-01
  4.4697690e-01
 -2.2483359e-01
  1.5086301e-01
 -6.5598607e-01
  2.4180274e-01
  1.9806406e-01
 -4.4904327e-01
  9.1020739e-01
 -2.8901330e-01
 -3.4807611e-01
 -5.6173664e-01
 -8.7891996e-02
 -8.4934145e-02
  2.0433353e-01
  5.8754754e-01
  2.6645362e-01
  8.2806915e-01
 -4.3001652e-02
 -8.7534800e-02
 -6.6842580e-01
  3.5788998e-01
 -1.4180528e-01
 -1.2203169e-01
 -1.4618446e-01
  1.2938365e-01
 -2.1369916e-01
  1.7778157e-01
 -2.8487372e-01
 -6.2599742e-01
  3.4553051e-01
  2.9374239e-01
 -5.1895916e-01
 -1.6698280e-01
 -3.9450926e-01
 -5.8562863e-01
 -4.7944176e-01
  4.4180462e-01
  2.5690335e-01
  3.5801312e-01
  2.4298675e-01
 -4.8230346e-02
 -1.7209974e-01
 -3.9406443e-01
 -5.9080368e-01
 -1.6995567e-01
 -6.2337983e-01
 -1.0710844e-01
 -1.1193183e-01
  5.5224699e-01
 -3.3639771e-01
 -6.0868615e-01
 -2.3085144e-01
  3.5972901e-02
 -2.0033446e-01
 -5.1367486e-01
  3.3416837e-01
  4.3698296e-01
 -5.9757376e-01
 -6.0468006e-01
  6.4698923e-01
 -7.2493315e-02
  2.3773083e-01
  2.2736274e-01
 -2.0256847e-01
 -9.3386188e-02
 -6.9607472e-01
 -2.4548584e-01
  1.4800149e-01
 -5.1963991e-01
  2.8447473e-01
  3.2617530e-01
  6.2724513e-01
 -9.3461253e-02
 -2.7902427e-01
 -5.1306796e-01
 -1.6796130e-01
 -4.1847995e-01
  6.0806113e-01
 -6.5154415e-01
 -6.1786838e-02
 -4.0347028e-01
  6.2685579e-01
  2.2475822e-01
 -3.4199450e-02
 -9.3612212e-01
 -8.5097305e-02
 -6.7356360e-01
  5.1338680e-02
  2.3268321e-01
 -5.0603163e-01
 -2.4574491e-01
 -1.2731291e-01
  1.5175711e-02
  7.3850155e-02
 -3.4051734e-01
 -3.9848727e-01
  2.4337773e-01
 -5.0537872e-01
 -1.1436933e-01
  1.6563295e-01
  6.7843932e-01
  2.7213001e-01
  3.9294687e-01
 -2.7340311e-01
  3.4893990e-02
  7.6018316e-01
  2.5952792e-01
 -1.2916592e-01
 -2.1208072e-01
 -1.8259025e-01
  1.9883652e-01
 -6.8717206e-01
  1.3379899e-01
 -7.1702534e-01
  2.1820743e-02
 -3.5575056e-01
  7.1156788e-01
  5.3186285e-01
  3.0014819e-01
  5.9057271e-01
 -1.7497993e-01
  2.3268513e-01
  1.3229920e-01
  5.1627362e-01
 -5.3115243e-01
  4.2429373e-02
 -2.7673897e-01
 -3.3359540e-01
 -3.4647265e-01
  4.4226915e-01
 -8.0270246e-03
  1.6449746e-01
  8.2078241e-02
 -2.4774796e-01
  6.2600702e-01
  3.1592759e-01
  5.0406635e-01
  4.2010534e-01
  3.5954377e-01
 -2.7296215e-01
 -5.8728415e-01
 -3.7877613e-01
  1.2201562e-01
  3.1096250e-01
 -6.8751431e-01
 -2.5758621e-01
  2.3027939e-01
 -3.8492942e-01
  3.8135356e-01
 -4.6311909e-01
  9.0232566e-02
  7.1231700e-02
  6.9064833e-02
  1.4677441e-01
  4.0999272e-01
  2.6813513e-01
  8.3756894e-02
  2.8524831e-01
 -3.2738757e-01
 -4.7934914e-01
  4.5710048e-01
 -4.8366416e-01
  3.7916395e-01
 -5.6295192e-01
  3.4145051e-01
 -1.5792182e-01
  2.3883119e-01
 -2.0951700e-01
 -1.9355468e-01
 -2.3705643e-01
  1.4426115e-01
 -1.9040808e-01
  5.3010941e-02
 -8.8560330e-03
  4.7351044e-01
 -1.3370016e-01
  6.7254549e-01
  1.1394410e-01
  5.1768887e-01
  8.1887312e-02
 -3.9245546e-01
  6.0408354e-01
 -3.2808296e-02
 -3.9781833e-01
 -2.5409749e-01
  1.2263184e-01
 -1.5674838e-01
 -1.1082084e-01
 -1.6118214e-01
 -4.0831259e-01
  1.1487035e-01
  2.1750942e-02
 -4.4006985e-01
  7.6038200e-01
  2.1586123e-01
  4.1185161e-01
  4.1358358e-01
  1.8528293e-01
  4.9718410e-02
  2.1850322e-01
  2.6787239e-01
  2.2900112e-01
 -2.0493406e-01
  6.2569600e-01
 -1.1987276e-03
  3.9848059e-01
 -2.1702051e-02
  4.4905481e-01
  4.8108771e-01
 -3.1434718e-01
 -1.1324601e-01
  1.0329793e-01
 -5.3130001e-01
  9.0507060e-01
  5.4338276e-01
  1.1800785e-01
  1.6464186e-01
  3.6069697e-01
 -7.8604199e-02
 -4.4308189e-01
 -2.8923845e-01
 -2.4458155e-01
 -1.6551372e-01
  1.5085871e-02
  9.4883844e-02
  4.2295855e-01
 -6.6387534e-02
  3.1707540e-01
 -2.8111547e-01
 -1.0650270e+00
  1.8839523e-02
  9.0037987e-02
  3.4560627e-01
 -2.4049890e-01
  3.8811427e-01
 -1.3638696e-01
 -1.6610305e-01
  1.5851483e-01
  3.0559510e-01
  3.2094815e-01
 -5.4137516e-01
  1.4548768e-01
  6.0742372e-01
  2.9634032e-03
  1.1523449e-01
 -4.6611354e-01
  4.7865294e-02
 -4.1114855e-01
 -2.0788148e-01
 -3.5538611e-01
 -3.4713928e-02
  3.6058158e-02
 -3.4891707e-01
  2.7895490e-02
 -2.3701796e-01
 -4.9301967e-01
 -5.5643111e-01
 -5.9176683e-02
 -6.2627172e-01
 -1.6609541e-01
 -2.1393490e-01
  1.4228284e-01
 -5.0604954e-02
 -4.5205536e-01
 -2.1134286e-01
 -3.1621951e-01
 -2.4884976e-01
  7.4004924e-01
  2.1654439e-01
 -5.7493097e-01
  2.7431101e-01
 -5.4895258e-01
 -1.4278576e-01
 -5.7727200e-01
 -2.4613288e-01
 -3.7944502e-01
 -1.1318052e-01
  1.9395858e-02
  4.4459879e-02
  3.2434320e-01
 -2.0563924e-01
 -2.7039477e-01
  2.1423101e-03
 -2.5308305e-01
 -7.2460137e-02
  5.4049306e-02
 -1.7594492e-01
 -5.3406346e-01
  1.1810900e-01
 -2.6145607e-01
  4.9837381e-02
  2.0504893e-01
  3.9437181e-01
  1.9333756e-01
 -1.8580920e-01
  1.4106941e-01
  5.9869313e-01
 -3.7612924e-01
  2.2902882e-01
  1.0623980e-01
  6.0482934e-02
  5.8077180e-01
  6.5278465e-01
  2.8116056e-01
 -2.7348667e-02
  9.1113672e-02
  3.3395049e-01
 -6.7183924e-01
  5.2775395e-01
 -1.3296247e-01
 -5.0422585e-01
  1.2925048e-01
 -1.7350046e-01
  6.9593281e-01
 -3.9194211e-01
  3.4504786e-02
  1.1527680e-01
  2.0004898e-01
 -9.0212062e-02
  1.2097270e-01
 -3.3558881e-01
  2.3810534e-01
 -3.0917841e-01
  2.6956272e-01
  2.8266120e-01
 -4.2106682e-01
 -2.6009500e-01
  2.0909043e-01
  1.5139444e-01
  1.2746991e-01
 -2.2382447e-01
 -1.8541120e-01
  1.8725325e-01
 -2.3422940e-01
 -7.1116519e-01
  4.3894374e-01
 -5.2486217e-01
  2.0371796e-01
 -2.4482608e-05
  3.2313019e-02
 -4.4895259e-01
  2.7029604e-01
  2.7234209e-01
 -7.2711512e-02
 -1.2694302e-01
  2.5124782e-01
  4.2611939e-01
 -2.7716470e-01
  7.7116776e-01
  5.3957695e-01
  6.5206724e-01
  4.0418309e-01
 -1.5553547e-01
  9.4754562e-02
 -2.0556554e-01
  7.7678725e-02
  9.6249305e-02
  5.4646827e-02
  3.4433848e-01
  1.0845080e-01
  5.6355977e-01
 -2.5925806e-01
  1.1512277e-01
 -2.0329726e-01
  3.7121332e-01
 -1.9669059e-01
  3.3214760e-01
 -8.3064690e-02
 -2.5579730e-01
 -2.4504066e-02
  4.9156520e-01
  1.4909959e-01
  2.1931866e-01
  6.6055387e-02
 -4.6512562e-01
 -5.0845850e-01
  3.1515040e-02
  4.9867016e-01
 -5.2350754e-01
 -1.4763999e-01
 -6.4772725e-01
 -2.0021227e-01
  1.8994112e-02
 -1.4347404e-01
  2.2440229e-01
  2.0369743e-01
 -2.8888616e-01
  8.7026488e-03
 -2.6769465e-01
  4.0454119e-01
 -1.9208527e-01
  7.4661724e-02
  2.7446285e-01
 -7.8984693e-02
 -2.2964102e-01
 -1.2705210e-01
 -4.2067277e-01
 -4.1442630e-01
  5.3432900e-01
 -4.4360480e-01
 -6.9884723e-01
  2.9745856e-01
  3.2973069e-01
  5.9202361e-01
 -3.0707046e-01
 -3.1587151e-01
  2.1314080e-01
  3.4978119e-01
  1.2757649e-01
 -4.5284975e-01
  7.1490981e-02
 -2.1670042e-01
  2.5186610e-01
  6.3269734e-02
  4.3696415e-01
  5.0159574e-02
 -6.0364032e-01
  1.1753635e-01
  3.7311089e-01
 -1.2030492e-01
  7.8385212e-03
 -5.8974659e-01
 -2.3544756e-01
 -1.9212407e-01
  5.5000550e-01
  1.9823842e-01
 -2.8345340e-01
 -1.9715425e-01
  5.7857579e-01
  3.9018273e-01
 -5.2716696e-01
  2.1068519e-01
 -2.0712364e-02
  2.3618154e-02
 -1.9400404e-01
 -5.0911039e-01
 -8.5313700e-02
  2.4344474e-02
  1.9134241e-01
  4.4911703e-01
  5.0717479e-01
 -2.5734133e-01
  1.4188558e-01
 -2.8461790e-01
 -6.3294250e-01
  1.5178093e-01
 -3.5800794e-01
  6.4855516e-03
  3.6326095e-01
 -2.7774915e-01
 -1.8256481e-01
  1.1224697e-01
 -1.1419972e-01
 -1.4372461e-01
 -1.0849163e-01
 -1.0975303e-01
  1.2691391e-01
 -1.3642474e-01
 -2.5655651e-01
  6.4593986e-02
  2.8742373e-01
 -3.6867556e-01
 -2.9004428e-01
 -1.7433488e-01
 -3.2173181e-01
  3.8070241e-01
 -3.0942261e-01
  5.8473450e-01
 -4.8779970e-01
  2.3165536e-01
 -1.7616719e-01
  4.0586716e-01
  3.4473458e-01
 -2.5964090e-01
  1.0029747e-01
 -9.0471256e-01
 -1.9344316e-01
  7.7002490e-01
 -4.4577754e-01
  3.1319806e-01
  4.9441627e-01
 -4.5311755e-01
  4.2365000e-01
  4.0451473e-01
 -4.2490357e-01
  5.2337807e-01
 -1.5241355e-01
  5.3428417e-01
 -7.6337352e-02
 -7.6551810e-02
  1.0940076e-01
  3.1085086e-01
 -8.0673116e-01
 -2.5570557e-01
 -6.0652566e-01
 -6.3373709e-01
 -3.2972744e-01
  3.8180801e-01
  1.3019830e-01
  1.1253434e+00
 -2.8708726e-02
 -4.4695106e-01
 -5.3040379e-01
  1.7729810e-01
  1.0860570e-02
  4.1112792e-01
 -7.6685145e-02
 -1.3492700e-01
  1.8186054e-01
 -5.7426587e-02
 -5.6645322e-01
  5.1882786e-01
  2.9116166e-01
  5.0358951e-01
  4.8365183e-02
  2.1384127e-01
 -1.8254007e-01
  1.3045579e-01
  4.4416860e-02
 -4.1614711e-02
 -2.7470551e-02
  9.2228666e-02
  4.0785456e-01
 -9.4960369e-02
  3.6305413e-02
 -2.4762748e-01
  1.0577181e-01
  1.0474900e-01
  2.6472294e-01
 -2.6614037e-01
  3.7858593e-01
  5.7155315e-02
  1.8217692e-01
  7.3255859e-02
 -6.7524910e-01
 -2.3328632e-01
  1.0722904e-01
  8.2964689e-02
  7.5584911e-02
 -2.7087438e-01
  4.3178692e-02
  8.6181015e-02
 -6.7680627e-03
  2.3338190e-01
  3.3340281e-01
  1.7994761e-01
  7.1683156e-01
 -7.3494568e-02
  9.6294630e-01
  3.3141293e-02
 -7.5917393e-01
 -3.8604799e-01
  3.6844797e-02
  3.2513422e-01
  3.0673072e-01
 -1.6779639e-05
 -3.8678986e-01
 -1.7734656e-01
 -8.4756881e-02
 -1.1373351e-01
 -3.2581672e-01
 -3.6168733e-01
 -4.4956666e-01
 -6.7612958e-01
 -8.6802024e-01
  2.4364425e-01
 -1.5639201e-02
  3.9541590e-01
  2.3376592e-02
  6.4261210e-01
  5.6686237e-02
 -2.1161033e-01
  5.3134048e-01
  4.4639331e-01
  2.1413083e-01
  3.6829868e-01
  1.0554940e-02
  6.0518295e-01
  2.5642699e-01
  2.8196150e-01
  4.6639410e-01
 -1.4688800e-01
  1.8858135e-02
 -3.1387958e-01
  3.9616671e-01
  3.8533452e-01
  5.8328676e-01
 -2.7184612e-01
 -6.0158305e-02
 -6.3181423e-02
  2.7724639e-01
  7.2699869e-01
 -2.4714024e-01
 -1.2420063e-01
 -1.4505818e-02
 -1.7469528e-01
  2.5326604e-01
  1.8036500e-01
  4.4703788e-01
  4.6329239e-01
 -3.3858919e-01
  1.7621237e-01
  8.1581511e-02
  4.6308237e-01
 -9.7291179e-02
 -2.9436734e-01
 -4.2740222e-02
 -3.3432722e-01
 -3.1952217e-01
  4.9507320e-01
 -4.1920015e-01
 -6.8242598e-01
  1.0381611e-01
 -4.1657552e-02
  2.8260696e-01
 -3.7441558e-01
  1.7112720e-01
 -1.6071907e-01
 -2.3000877e-01
  3.1916407e-01
  1.8781580e-02
 -1.5824330e-01
  4.4520676e-02
  7.2549865e-02
 -5.9122741e-01
 -9.6286431e-02
 -1.1818198e-01
 -1.2298043e-01
  3.9822811e-01
 -1.7508094e-01
 -2.8427380e-01
  7.2338009e-01
 -4.7497445e-01
  7.4395031e-02
 -6.1759782e-01
  5.5826586e-01
  2.7241960e-01
 -1.1215015e-01
  6.8697196e-01
 -1.2548631e-01
  2.2924532e-01
 -9.5986053e-02
  4.1504279e-01
 -1.4395455e-01
  4.6122098e-01
  7.7584326e-01
  1.3002309e-01
  1.1074297e-01
  2.9925370e-01
  1.3376281e-01
 -1.8279195e-01
  3.5246995e-01
  7.4033305e-02
  3.5088503e-01
  5.3662252e-01
  6.8081582e-01
  6.4844601e-03
  3.1399786e-01
  2.6576698e-01
  1.5685812e-01
  5.9051931e-01
 -2.7643108e-01
  1.9838327e-01
 -2.4344060e-01
 -8.2192048e-03
  1.5818729e-01
  9.3753777e-02
 -6.6274488e-01
 -1.7205009e-01
  8.0501668e-02
 -5.6147379e-01
 -1.3763808e-01
 -3.0762732e-02
  4.5944956e-01
  3.2159695e-01
  2.1317452e-02
  2.3314832e-01
 -3.9281195e-01
 -2.2436717e-01
  6.7796540e-01
  1.7055120e-01
  2.9550016e-01
 -4.1535586e-01
 -9.2814523e-01
 -1.8181168e-02
  2.4533495e-02
  4.0252185e-01
 -1.2856980e-01
 -1.3446510e-03
  5.3781927e-01
  1.3220276e-01
 -1.3086465e-01
  3.8160908e-01
 -2.1736842e-01
 -7.9153247e-02
 -4.2422840e-01
 -2.0677328e-01
  2.2010434e-01
 -2.1252775e-01
 -3.4984109e-01
 -1.9363435e-01
 -3.7558180e-01
 -3.3715239e-01
  2.4868572e-01
 -2.4890670e-01
 -1.1627659e-02
  3.0228451e-01
  5.4606760e-01
 -7.3579863e-02
  4.3880647e-01
  1.3623634e-01
 -3.4524205e-01
  8.3780426e-01
  2.0678258e-01
 -2.6147225e-01
  2.5311589e-01
  4.8976612e-01
 -7.4291408e-01
 -4.0945426e-01
 -1.4310971e-01
  5.9466976e-01
  3.6946230e-02
 -8.7804377e-02
 -4.4745412e-01
 -4.9884036e-01
  8.5937604e-02
  2.1689793e-01
  2.9928714e-02
 -4.5336848e-01
  1.2257846e-01
 -8.1184095e-01
  2.3476666e-01
  6.9172066e-01
  3.5493281e-01
  5.6449866e-01
  2.7646446e-01
 -1.2571470e-01
  9.7465366e-03
 -8.2042217e-01
 -4.1426986e-01
  7.4735150e-02
  4.0428242e-01
  1.2797868e-01
  3.3881024e-01
  1.8384787e-01
 -9.7039700e-02
 -4.0280303e-01
 -1.1235781e-02
  1.1000372e-02
  4.7751540e-01
 -6.2533116e-01
  2.3983294e-01
  4.8979580e-02
  3.4876350e-01
  2.5199053e-01
  2.0815137e-01
  3.6908157e-02
 -1.9247407e-01
  1.0928363e-03
 -2.3698215e-01
  2.1029332e-01
  4.1219670e-01
  1.4426801e-01
  2.6007497e-01
  4.2953858e-01
 -2.2203098e-01
 -6.7473227e-01
 -3.8898391e-01
 -1.0339530e-01
 -4.8769173e-01
  5.2181983e-01
  4.5871076e-01
  9.2481241e-02
  3.1089127e-01
  1.4251107e-01
 -3.4881845e-02
  7.9273313e-02
  2.3709556e-01
 -1.1800621e-01
 -3.4806350e-01
  5.8889252e-01
  4.3994030e-01
  5.6380671e-01
  1.2165165e-01
 -1.8701624e-02
 -2.3223883e-01
 -5.3317803e-01
  7.4150306e-01
  1.7707840e-01
 -7.6694244e-01
  4.3752575e-01
 -6.4976156e-01
 -7.3027819e-02
 -1.5098116e-01
 -2.8670862e-01
  8.7363392e-02
 -3.7176529e-01
  5.7033688e-01
 -5.9545881e-01
  1.2765679e-01
  3.6667955e-01
  1.2479426e-01
 -4.7135940e-01
  2.8927588e-01
  1.4318928e-01
  2.8652444e-02
 -8.1175387e-01
  4.2284346e-01
  4.7265403e-03
 -4.1687500e-01
  4.8080891e-01
 -2.0674013e-01
  2.3320487e-01
 -7.6807439e-03
 -5.8618146e-01
 -3.3842951e-01
  6.9382203e-01
 -1.7289695e-01
  3.6255330e-02
  1.4582346e-01
  3.3163482e-01
  5.5262811e-02
 -1.6702607e-01
 -1.9086945e-01
 -2.8612572e-01
  2.2955231e-02
 -6.5813941e-01
  1.1471808e-01
  4.6223944e-01
  2.7689862e-01
  1.7638052e-01
 -2.0513007e-01
  8.1831497e-01
  4.6974668e-01
  3.2692474e-01
 -2.8504640e-01
 -9.5598862e-02
  1.8104900e-01
  2.4056159e-01
 -4.9050190e-02
 -3.1523876e-02
  4.1338271e-01
 -1.0656940e+00
  5.4856551e-01
  3.7434846e-01
 -1.3373891e-01
  2.0804535e-01
 -3.3429775e-01
 -1.8891197e-01
 -3.7386712e-01
 -1.7147541e-02
 -3.0636277e-02
  2.4368954e-01
 -2.2385412e-01
  6.6922784e-01
  3.6339700e-01
 -5.8214877e-02
  6.6254658e-01
 -2.2470754e-01
 -3.6858097e-01
  4.2575994e-01
 -3.6381844e-01
  1.2441730e-01
 -2.2251062e-01
  2.6576027e-02
 -2.5915556e-02
 -2.3548137e-01
 -5.1636165e-01
  2.6168776e-01
 -1.4061508e-01
 -2.0429766e-01
  3.7922077e-02
 -2.1391121e-01
 -4.3259054e-01
 -3.9615208e-01
  1.6025704e-01
  4.7958943e-01
  1.3334851e-01
 -3.4618080e-03
  1.5078774e-01
 -5.3209788e-01
 -2.0505892e-01
 -5.2716658e-02
 -7.2016042e-01
  4.3094391e-01
 -6.9220714e-02
 -4.1949743e-01
 -4.3026823e-01
 -4.8601884e-01
  4.1396052e-01
  1.1889113e-01
  9.7827315e-03
 -1.1694413e-01
  4.1737258e-02
  2.0259187e-01
 -3.6893040e-01
  1.9000590e-01
  6.1135441e-01
  6.9799644e-01
 -7.4023739e-02
  1.1728451e-01
  1.1541301e-01
  1.3914083e-01
  1.1044773e-01
  1.2485303e-02
 -3.2315165e-01
  5.1485503e-01
  3.7005207e-01
  1.0128504e-01
  2.4931242e-01
  1.2318179e-01
  1.4085376e-01
 -5.5875942e-02
 -5.0650817e-01
 -4.5169324e-01
  6.1209273e-01
  4.4930261e-01
 -5.2940112e-01
  2.8278071e-01
  3.7833530e-01
 -9.8988369e-02
  2.7156669e-01
  1.3019091e-01
  1.3340925e-01
 -5.0459528e-01
  2.3925562e-01
 -1.6878444e-01
 -5.8810437e-01
  6.7195159e-01
 -3.1461179e-01
  3.4618074e-01
 -6.7186147e-02
  2.8742802e-01
 -4.5400479e-01
 -3.5820821e-01
 -3.6526284e-01
  4.1356909e-01
 -1.8512991e-01
  2.7284947e-01
 -1.1856660e-02
  6.5432805e-01
 -9.3374453e-02
 -4.7034800e-01
 -7.5404274e-01
 -3.4549341e-02
 -3.2161021e-01
 -1.5112519e-02
  2.2388557e-01
  2.1471602e-01
 -2.3326349e-01
 -1.1839119e-01
  2.6125962e-01
  1.2231474e-01
  3.3687577e-01
  6.6503453e-01
  8.0770862e-01
  6.4510357e-01
 -2.3312718e-03
  7.5867051e-01
 -8.3182377e-01
 -1.5787199e-01
  1.9633955e-01
 -4.3810722e-01
  2.7499425e-01
  6.9094020e-01
 -2.4466804e-01
  2.7837732e-01
 -1.8469961e-01
 -7.2115755e-01
 -1.0001861e-01
 -3.1264344e-01
  2.6626840e-02
  1.8811035e-01
 -1.1521178e-01
 -4.7361037e-01
  4.4068700e-01
  5.7739049e-01
 -7.6901540e-02
 -5.8307487e-01
  3.6219299e-01
 -2.2917655e-01
 -3.2294974e-01
  4.6326479e-01
  4.3146677e-02
  6.9518101e-01
 -1.2328006e-01
 -1.1708314e-01
  8.7819397e-02
 -3.1105414e-01
  2.0133281e-01
 -2.9894567e-01
  6.4840609e-01
  8.3199777e-03
 -3.8897294e-01
 -7.5801444e-01
 -1.0113651e-01
 -3.0414799e-01
 -3.7536210e-01
 -2.5120851e-01
 -3.1359144e-02
 -4.4960308e-01
  2.8009951e-01
  3.6745635e-01
  2.6355183e-01
 -5.8865249e-03
 -5.1929399e-02
 -5.3670657e-01
  2.6814669e-01
 -1.0599189e-02
 -1.0072573e-01
 -1.2748584e-01
  1.0932250e-01
  2.1812804e-03
  1.1240987e-01
 -4.9650189e-01
 -6.7349845e-01
 -4.7628798e-02
  3.3966221e-02
  5.9910464e-01
 -5.5675238e-01
 -3.5192105e-01
  3.2112515e-01
 -4.1475022e-01
 -5.7213727e-02
  3.5106984e-01
  2.2499843e-01
  2.1044624e-01
 -2.5947934e-01
 -2.8453000e-02
  1.8015008e-01
 -8.7297186e-02
  5.5433375e-01
 -1.6195931e-02
  7.1103507e-01
 -1.2226774e-01
 -6.8297163e-02
  6.3677210e-01
 -3.1241030e-01
 -3.3077276e-01
 -4.5685142e-01
 -3.3562389e-01
 -4.5445867e-02
  3.4114218e-01
 -8.6908221e-02
  1.0677449e-01
 -1.1158034e-01
 -1.2055997e-01
 -5.1194265e-02
 -9.4519570e-02
  2.0275941e-01
  4.0775460e-01
  3.5300246e-01
 -4.3416226e-01
  9.7171813e-02
 -6.4094567e-01
  3.8438246e-01
 -1.2819080e-01
  1.8403104e-01
  4.3693256e-01
  1.2501821e-01
 -5.7570040e-01
 -7.7934110e-01
  6.8748522e-01
  1.0957871e-01
  2.2482882e-01
 -7.7982205e-01
 -2.3844993e-01
  4.5103404e-01
 -4.5758605e-01
  2.4658847e-01
 -7.2838795e-01
 -5.8911341e-01
 -5.3814358e-01
 -4.4967017e-01
 -2.0469211e-01
 -2.9918191e-01
  2.4591024e-01
 -4.5970865e-02
  4.4903994e-02
 -7.8361773e-01
 -6.4757091e-01
 -2.8133029e-01
  3.6635377e-02
 -1.4332032e-01
  4.9229252e-01
  2.4369368e-01
  2.9014310e-01
 -2.5563958e-01
 -6.0280949e-02
 -5.2020812e-01
  7.7475294e-02
 -2.5251430e-01
  1.5568191e-02
 -2.2929916e-01
  1.8295927e-01
 -4.1074991e-01
  4.3673408e-01
 -3.2751292e-01
 -4.1359740e-01
  1.4527246e-01
  2.9695325e-02
 -1.0767177e-02
 -4.7209030e-01
  1.0841456e-01
 -1.0221371e-01
  9.0424120e-02
  1.3008587e-01
  7.7431135e-02
 -1.8048652e-01
 -2.7319166e-01
  5.2623522e-01
 -2.1197464e-01
  1.9361569e-02
  3.0908546e-01
 -2.3680940e-02
  3.1827226e-02
  1.1595845e-01
  9.2266977e-02
 -1.1504053e-01
 -5.1396775e-01
 -2.1934216e-01
 -3.7687719e-02
 -1.7795613e-01
 -1.1447585e-01
 -4.5563009e-01
 -2.6192921e-01
 -2.5474992e-02
  3.6100272e-02
  4.6655977e-01
 -8.3362646e-02
  3.7299815e-01
  1.3014925e-01
 -2.0277959e-01
 -1.4444057e-02
 -6.3383108e-01
 -1.5236267e-01
 -5.0520045e-01
 -3.7814599e-01
  4.0229890e-01
  1.6191480e-01
  1.7764346e-01
  3.9763403e-01
 -2.9661119e-01
 -2.1391195e-01
  8.0551192e-02
  5.2714145e-01
  5.8051491e-01
  4.2637628e-01
 -5.5794144e-01
  3.0626959e-01
  4.6047759e-01
 -1.1406343e-01
  1.6534214e-01
 -5.1123834e-01
  5.1790524e-01
 -6.7323291e-01
 -8.3470380e-01
  5.7772994e-01
 -1.6014412e-01
 -1.2042998e-01
  5.8612454e-01
  2.2330149e-01
  4.8876661e-01
  2.6131546e-01
 -1.4768180e-01
 -5.9166336e-01
  4.9802738e-01
 -2.2376418e-01
 -3.8215575e-01
 -2.5095123e-01
  5.2435207e-01
 -2.1996981e-01
 -4.5541173e-01
 -1.2000972e-01
 -2.2973588e-01
 -6.2018692e-01
 -3.9547104e-01
  9.4291098e-02
 -1.7566320e-01
  3.2083012e-02
 -9.6716011e-01
  4.3059295e-01
  1.9157617e-01
  3.8135463e-01
 -5.0128293e-01
  9.7791657e-02
 -2.1276797e-01
 -7.3600721e-01
 -1.5028864e-01
 -2.4756210e-01
  8.0160439e-02
 -5.1462775e-01
 -3.8920604e-03
 -2.3489149e-01
  1.0028785e-01
 -7.3808777e-01
 -1.9430368e-01
  4.8881836e-02
 -1.4360045e-01
 -4.1298309e-01
 -8.0653824e-02
 -5.4603541e-01
 -6.5301156e-01
  1.0684568e-01
 -6.9177514e-01
 -1.0624407e-01
  3.9212003e-01
 -5.0917512e-01
  3.0335844e-01
 -2.1392402e-01
 -1.5576604e-01
  1.1635342e-01
 -4.4328392e-01
 -5.4685152e-01
 -3.5899925e-01
  4.8936188e-01
  5.3397512e-01
 -7.2724707e-02
 -4.5431724e-01
 -1.4135391e-01
 -7.6801997e-01
  8.4499568e-03
 -2.6685777e-01
  1.5711337e-01
 -1.6497144e-01
  2.8240234e-01
 -6.2014604e-01
  3.6924821e-01
  4.8027349e-01
  3.9965561e-01
  3.6342326e-01
  3.9739020e-02
 -1.0971172e-01
 -5.6026506e-01
  3.4598446e-01
 -6.0419455e-02
 -4.7255829e-03
 -1.2022272e-01
  7.7057831e-02
 -7.5272590e-01
  6.4670354e-01
 -2.2857924e-01
  1.6409525e-01
 -3.5335064e-01
 -4.0782684e-01
 -2.8451300e-01
  2.4720088e-02
  1.8154034e-01
 -2.7573740e-01
 -4.6104556e-01
  5.2175663e-02
  2.3132002e-01
  2.0453987e-01
  1.7206466e-01
  7.2869253e-01
  1.4423466e-01
 -4.2071676e-01
 -1.4281341e-01
 -2.6519144e-01
 -3.1692792e-02
 -9.6462466e-02
  7.7991146e-01
  2.6269749e-01
  1.4010315e-01
  9.3543142e-02
  4.9971071e-01
 -3.6904082e-01
 -4.3632579e-01
  1.1485279e-01
 -2.3972578e-01
  5.3245431e-01
 -6.5898013e-01
 -7.2162199e-01
  9.1001719e-01
  1.2203854e-02
  3.7337765e-01
 -2.0356275e-01
 -4.3285298e-01
  2.5632799e-01
  6.9554187e-02
 -8.1233335e-01
 -1.0813445e-02
  5.6672525e-01
  2.8481102e-01
 -7.5862831e-01
 -2.1734357e-01
 -5.6219918e-01
 -3.3393753e-01
  2.3570018e-01
 -1.5756103e-01
  5.6341487e-01
  7.1652997e-01
 -3.4997344e-01
  3.7604338e-01
 -1.2836407e-01
 -2.8088433e-01
 -5.7778925e-01
  4.3023014e-01
  2.5387455e-02
 -5.5230725e-01
 -4.6979547e-01
 -1.3227114e-01
 -1.8692181e-01
 -1.1761042e-01
  1.9643236e-02
 -3.1153280e-01
  1.2765098e-01
 -5.4206800e-01
  5.1263499e-01
  5.8818340e-01
 -4.4603419e-01
  3.9253678e-02
 -3.1014606e-03
  4.7034669e-01
  2.9274917e-01
  6.2601304e-01
  9.3890265e-02
  4.5879030e-01
  4.8745021e-01
 -3.8712192e-01
  1.0342094e-01
 -1.7518856e-01
 -1.0497616e-01
 -5.2283347e-02
 -6.3819170e-02
  4.6848565e-01
 -2.9189774e-01
  6.2876552e-01
 -7.3877275e-02
  2.6221317e-01
  1.9671723e-01
  1.3064025e-01
  8.0254354e-02
 -2.4619026e-01
  2.6063257e-01
  1.7748989e-02
 -6.3311440e-01
  2.8551689e-01
  2.0104849e-01
  1.4580272e-01
  2.1549292e-01
 -3.5366845e-01
  8.1512205e-02
 -3.0610323e-01
  1.7084412e-01
  1.6369246e-01
 -9.6625619e-02
 -7.1331966e-01
 -5.1484382e-01
 -1.2153302e-01
  5.9070158e-01
  3.8258132e-02
  4.0046483e-01
  1.0706327e-01
 -1.2780696e-01
  1.9928001e-01
 -1.8960766e-01
 -6.0447353e-01
  9.9358857e-02
 -1.9277194e-01
  5.0167285e-02
  2.6810026e-01
 -2.4940492e-01
 -4.8193070e-01
  3.7300873e-01
 -1.9571275e-01
  7.9466909e-01
 -7.7658349e-01
 -7.0203930e-01
 -4.0872061e-01
 -6.9181812e-01
 -4.8989758e-01
 -6.3541245e-01
  9.0559885e-02
  4.1830361e-02
  1.3173135e-01
  9.3145537e-01
 -3.4521127e-01
  3.7010559e-01
  3.7514520e-01
 -5.3528041e-01
  2.7335545e-01
  7.3277421e-02
  8.9378163e-02
  3.8322777e-01
  5.3344494e-01
 -7.8682071e-01
 -5.9329057e-01
 -5.1704776e-01
 -2.0975286e-01
  2.4344891e-02
  4.1280621e-01
 -2.1916182e-01
 -9.3718261e-02
  1.4254142e-01
 -2.3970170e-01
  5.3413582e-01
 -1.8640377e-01
  4.9893069e-01
  6.2365168e-01
 -2.4163058e-01
  2.0228991e-01
 -1.7291521e-01
  5.9893256e-01
 -3.3872357e-01
  2.0883802e-01
  6.3581377e-01
  7.1592307e-01
 -1.5991190e-01
 -3.6429510e-01
 -1.5567924e-01
  3.1691915e-01
 -6.6616249e-01
 -6.5234542e-01
  4.1534013e-01
  2.7641341e-02
 -5.2235997e-01
  9.6388660e-02
 -2.7087468e-01
  3.5275900e-01
  4.2538834e-01
  1.2457699e-02
  4.2782933e-01
 -5.7789892e-02
 -2.5595915e-01
 -1.3884214e-01
 -2.6522800e-01
  3.2170272e-01
  8.4503658e-02
  5.1817751e-01
 -1.8270785e-01
  4.7275639e-01
  6.4277327e-01
 -5.0191629e-01
 -6.7245990e-01
  2.1128264e-01
  5.3739166e-01
  1.5954711e-02
 -1.5351862e-02
  3.4443986e-01
 -3.7563801e-02
  2.5676224e-01
  1.5546808e-01
 -2.5683302e-01
  3.7427378e-01
  3.6597922e-01
 -1.4883424e-01
  1.0888497e-01
 -9.3508184e-01
  5.9223312e-01
 -4.8900153e-02
  1.1053110e-01
 -6.7376810e-01
 -4.4359052e-01
  7.4648678e-01
 -7.2249539e-02
 -2.2569431e-01
 -3.7018770e-01
 -6.3203037e-01
  3.1032562e-03
 -5.0778847e-02
  1.4126749e-01
 -2.8721657e-01
  4.1112116e-01
 -1.6419877e-01
 -5.9281224e-01
  3.8566113e-01
  7.3291466e-02
 -3.3247524e-01
  4.4598138e-01
 -5.2187949e-01
  1.1731704e-01
 -2.9328063e-01
 -2.2495697e-01
 -1.0207156e+00
  5.5181060e-02
 -4.4653237e-01
  9.2689574e-02
  3.9201468e-01
 -4.6561185e-01
  1.9664413e-01
 -4.7328901e-02
  3.3741769e-01
  4.4900578e-02
  5.9374350e-01
 -2.9691529e-01
 -4.1247877e-01
 -6.7549795e-01
 -5.1939493e-01
  6.5845019e-01
 -4.5320755e-01
 -3.5149887e-01
 -2.1863364e-02
 -4.7410196e-01
  5.3368139e-01
 -5.4927510e-01
 -2.4884579e-01
 -4.5228836e-01
  8.6661093e-02
 -7.0194066e-01
  2.2023115e-01
 -1.9985805e-01
  2.3992981e-01
  2.7966779e-01
  3.3089846e-01
 -7.0460036e-02
  4.5174170e-01
 -2.1430582e-01
 -7.3392403e-01
 -3.0847877e-01
  7.9963997e-02
  2.1311569e-01
  3.7037772e-01
 -2.8609014e-01
  4.6570283e-01
 -2.4518141e-01
  1.1465907e-01
 -9.5357522e-02
  3.5562387e-01
 -6.4145142e-01
 -1.6700555e-01
  1.0198112e-01
 -2.0853215e-01
 -1.9533810e-01
  8.5758924e-01
  1.2518638e-01
 -7.3855776e-01
  3.6288390e-01
  2.0663318e-01
  4.3189222e-01
  3.2083151e-01
 -6.9721955e-01
 -6.9817998e-02
  1.2406733e-01
 -4.9344620e-01
  1.9702734e-01
  4.1686442e-01
  1.4196321e-01
 -5.9332603e-01
  5.7509416e-01
 -8.7101184e-02
  3.7930503e-02
  9.1662571e-02
  1.9349259e-01
  5.5032641e-01
 -2.0926204e-01
 -7.5909078e-01
 -2.3392998e-02
 -4.0431563e-02
 -1.0425455e-01
 -3.1843528e-01
  3.4142572e-01
 -5.0804740e-01
 -2.8071666e-01
 -5.2464020e-01
 -2.7764213e-01
  4.2024773e-01
 -1.2980954e-01
  5.7413042e-01
 -4.9081492e-01
 -2.2469136e-01
  4.5784956e-01
  8.7825280e-01
 -4.2376965e-01
  2.4900162e-01
  4.0840036e-01
 -8.7155975e-02
 -2.5353706e-01
 -1.0681600e-01
 -3.5423687e-01
  9.4160080e-02
 -3.0135351e-01
  8.9004293e-02
 -5.0108379e-01
 -7.5839782e-01
  2.0422539e-01
 -1.5723260e-01
  1.0457230e+00
 -9.9260025e-02
  6.3649619e-01
 -3.5656029e-01
 -3.1224781e-01
 -2.2750545e-01
 -1.4735472e-01
  1.4122227e-01
  2.9474762e-01
 -8.1878936e-01
  1.0212553e-01
  8.3319330e-01
  2.8452262e-02
 -6.9639295e-01
 -1.2789097e-01
  3.0882704e-01
  5.0781763e-01
 -7.4211907e-01
 -1.7724498e-01
  2.1901533e-01
 -5.4448450e-01
 -1.7941348e-01
 -7.8378624e-01
  1.1780559e-01
 -5.4236859e-01
  1.0137285e-01
 -6.0881495e-01
  5.7690787e-01
  1.2167242e-01
  1.4606407e-01
  5.2003235e-01
  2.2895813e-01
  4.8164198e-01
  2.6004288e-01
 -4.4226632e-02
  5.0045645e-01
  1.7032325e-03
 -2.1876130e-01
 -2.7356662e-02
 -3.1508306e-01
 -4.0165973e-01
 -2.6787633e-01
 -4.3079042e-01
 -3.7977752e-01
 -3.1008953e-01
 -7.0267493e-01
 -1.2231331e-01
  5.5805713e-01
  3.9261776e-01
 -1.0222554e-02
 -5.6692940e-01
  4.8542964e-01
 -5.1673633e-01
  6.7021215e-01
  7.7716950e-03
 -8.1168450e-02
  5.7494551e-01
  3.3550256e-01
  4.6321398e-01
 -3.0295318e-01
 -7.2604254e-02
  5.3830087e-01
 -1.0608490e-01
  5.0137866e-01
  9.6527092e-02
  1.5740713e-01
  4.3790478e-01
 -3.9710522e-01
 -6.3821685e-01
 -4.4850424e-01
 -1.6101718e-01
 -1.1111901e-01
  3.0468386e-01
  1.4976153e-01
  1.4644718e-01
  4.4622162e-01
  2.4879280e-01
  4.7791746e-01
  9.1859865e-01
 -4.1466394e-01
  2.2269003e-01
 -2.6280046e-02
 -1.1667395e-01
  4.5900041e-01
  2.8311905e-01
  4.8484865e-01
 -2.0032528e-01
 -6.6701424e-01
  1.3852078e-01
  1.4878894e-01
  1.9684458e-01
  1.8857938e-01
 -6.7293918e-01
 -4.0268943e-01
 -2.3046987e-01
  1.8902646e-01
 -5.5016267e-01
  1.1222027e-01
 -1.7613752e-01
  2.4779412e-01
  6.8196672e-01
  4.5941511e-01
 -3.6783639e-01
 -1.9588673e-01
  1.9974340e-01
 -1.2624938e-02
 -5.9067924e-02
  3.9277494e-01
  3.8036332e-02
  1.3722493e-01
  2.1009356e-01
  3.7476298e-01
  3.9405867e-01
  6.7508101e-01
 -3.6523640e-03
 -8.8689327e-02
 -1.7136699e-01
  2.7868438e-01
 -3.6827677e-01
 -4.3679550e-01
 -8.0578637e-01
 -9.3346335e-02
 -4.7643551e-01
 -4.9212620e-01
 -3.6323497e-01
 -3.6784214e-01
 -1.3702993e-01
  5.7210529e-01
 -2.2169265e-01
  2.9684559e-01
 -9.7341500e-02
 -5.4972365e-02
 -3.2381439e-01
  6.9176191e-01
 -2.6440370e-01
 -4.9826729e-01
  1.7360611e-01
 -6.7398262e-01
  1.0123675e-01
 -1.1262130e-03
  1.6276178e-01
  3.2050991e-01
  3.5226753e-01
 -5.1236081e-01
  4.1288206e-01
  2.9788983e-01
  1.1353056e-01
 -1.3357383e-01
 -2.4255165e-01
 -4.9613651e-02
 -4.2376080e-01
 -4.4209146e-01
  5.2547336e-01
  1.1376428e-01
 -8.1743890e-01
  7.2155088e-01
 -2.6565135e-02
  5.7432038e-01
 -1.6332719e-01
  3.3476967e-01
  9.3222964e-01
  8.5236035e-02
  4.6906349e-01
 -9.4892129e-02
  8.1985682e-02
 -6.2938374e-01
 -2.8483102e-01
 -3.2334179e-01
 -2.1914645e-01
 -5.6025559e-01
  4.6544540e-01
 -3.7411159e-01
  1.7563936e-01
 -9.5432505e-02
  5.9420019e-01
 -3.2332978e-01
 -1.3409393e-01
 -1.6949718e-01
 -2.0651019e-01
  3.3930832e-01
 -5.0853992e-01
 -2.0486152e-01
  2.8087270e-01
  1.6944185e-01
 -1.9738868e-02
 -3.5417250e-01
  3.6221236e-01
 -8.4649302e-02
 -8.9889951e-02
 -6.4152187e-01
  1.5180653e-01
  2.5269037e-01
 -5.6681305e-02
  4.9545529e-01
  4.2397052e-01
  3.2254145e-01
  2.9147592e-01
  8.4949665e-02
 -3.0983111e-01
 -3.8639432e-01
  2.9186985e-01
  1.0385459e-01
  6.8984234e-01
  3.0687717e-01
  5.5408400e-01
 -2.3963314e-01
  3.9275602e-01
  1.6430923e-01
  5.6328374e-01
  4.3460298e-03
 -5.0648922e-01
  7.5333863e-02
 -6.8814808e-01
  1.3070874e-01
  1.1291213e-01
  3.3104396e-01
 -4.0741950e-02
 -8.4131084e-02
  1.3992166e-02
 -8.6561292e-03
 -6.2695706e-01
 -8.5864025e-01
  2.7956584e-02
 -1.5409529e-01
 -4.4677275e-01
  2.8889468e-01
  5.6042083e-02
 -3.1507838e-01
  6.2285376e-01
 -4.5524979e-01
  1.4133799e-01
 -6.9419071e-02
  3.8584867e-01
  1.8766299e-01
  5.5894899e-01
  3.8540167e-01
  5.4022920e-01
  2.6181379e-01
  9.0396267e-01
 -4.7590399e-01
  6.0899064e-02
  2.8190020e-01
 -4.9029443e-01
  4.4923824e-01
  5.6184822e-01
  3.7314162e-01
  3.8770211e-01
 -1.6412207e-01
  6.3278222e-01
 -1.8340451e-01
  3.9338535e-01
 -5.1165587e-01
  2.7895698e-01
  3.4962875e-01
 -1.5805954e-01
  1.6939759e-01
 -6.1616376e-03
  4.1262634e-02
  6.2201065e-01
 -6.1659670e-01
  4.6889934e-01
 -5.1187044e-01
  2.4022450e-01
  4.7801769e-01
  5.8404028e-02
 -6.3747162e-01
 -1.8300222e-01
 -2.3480910e-01
  3.8382077e-01
  3.8221616e-01
  3.1023264e-01
 -3.4685582e-01
  1.3579057e-01
  1.2968919e-01
  6.3710356e-01
 -5.0936002e-02
  4.5735776e-01
  1.6876146e-02
  5.8167976e-01
  1.9035879e-01
 -7.0766485e-01
 -3.9587253e-01
  1.8146881e-01
 -7.1013844e-01
  1.0913371e-01
 -5.6153141e-02
 -1.6320100e-01
 -6.6085768e-01
 -6.2606072e-01
  6.2016392e-01
 -5.1429373e-01
  1.2138560e-01
  8.1164144e-02
  3.7619424e-01
 -3.7259898e-01
 -5.5513996e-01
  2.0363741e-01
 -2.9825151e-01
 -4.7022316e-01
  4.6716899e-01
  7.4251038e-01
  3.4444019e-01
  1.8867227e-01
 -3.7443489e-01
  7.2270930e-01
  2.2100252e-01
  8.3311743e-01
  9.0426016e-01
  1.1159363e-01
 -3.3735085e-01
 -5.7166106e-01
 -7.3879814e-01
  5.2071512e-01
 -1.0841152e-01
  1.4942694e-01
 -1.2648602e-01
  6.6543450e-03
 -6.3897240e-01
  1.0178912e-02
 -8.1132984e-01
  4.4756937e-01
 -3.4024197e-01
 -9.5579050e-02
  1.7266318e-01
 -9.4456941e-02
 -4.3359369e-01
  5.1177186e-01
  2.4253821e-01
  2.1955949e-01
  1.4318550e-01
 -9.8143801e-02
  5.4163146e-01
  1.5582289e-01
  1.4322941e-02
  1.3567203e-01
  7.1089137e-01
 -4.6528891e-02
 -3.2782498e-01
  4.3689683e-02
  8.9318007e-02
  3.7279990e-01
 -7.2971098e-02
 -9.6343033e-02
 -2.2140965e-01
  4.6485060e-01
  6.0790980e-01
  5.3102240e-02
 -2.1469581e-01
 -2.7538234e-01
  3.1162810e-01
 -5.3743547e-01
 -1.2057355e-01
  1.4136331e-02
 -5.0421250e-01
  3.1867826e-01
  4.0635803e-01
  2.0121068e-01
 -7.4154802e-02
  4.3060458e-01
  2.5865239e-01
  5.8466494e-02
 -2.2071549e-01
 -2.0997208e-01
  6.6313297e-01
 -3.7194467e-01
  7.0249552e-01
  5.7941920e-01
 -2.3065117e-01
  3.1567645e-01
 -2.5347233e-01
  5.5957347e-01
  3.2611161e-01
 -4.4454443e-01
 -5.2469480e-01
  3.2350627e-01
  1.2719528e-01
 -1.9817448e-01
 -5.0746426e-03
 -2.2905092e-01
  9.2897907e-02
  1.0457447e+00
  1.0695082e-01
  1.6861060e-01
 -9.3979746e-02
  1.0884623e-01
 -1.9213581e-01
  2.9911691e-01
  3.7465770e-02
  3.9175361e-01
  1.6959983e-01
 -3.2676145e-01
  4.0672490e-01
  3.1417567e-01
 -2.9406172e-01
  2.1197668e-01
 -6.5152965e-02
  2.2665933e-01
  1.2896550e-01
  6.2866652e-01
 -3.4065247e-03
  3.3209622e-01
  9.4126359e-02
  1.6368558e-01
  6.7424190e-01
  3.6392856e-01
  2.7860815e-02
  4.1812710e-02
  4.4567145e-02
 -4.2423123e-01
  1.8937372e-01
  8.7342903e-02
  6.8299484e-01
 -3.9541298e-01
  4.3976471e-02
 -5.0050926e-01
 -1.0680742e-01
  2.8186157e-01
  6.4550959e-02
 -1.8459126e-01
 -7.2520226e-03
 -4.3677050e-01
 -4.1846552e-01
  3.1997192e-01
  6.1328012e-01
  4.0749878e-01
  3.6583921e-01
  8.2587510e-02
  4.0255937e-01
  4.5339748e-01
 -6.1790890e-01
  3.1221795e-01
  3.7721437e-01
 -5.9118766e-01
  6.1896652e-02
  9.9961787e-02
 -3.9436775e-01
  4.0098748e-01
  3.9543185e-01
 -2.4346824e-01
  1.1811379e-01
  1.5511046e-01
 -2.3922661e-01
  5.3542051e-03
  2.0098239e-03
 -3.2827425e-01
  6.0114974e-01
 -4.6824682e-01
  4.4610869e-02
  2.0521080e-01
 -5.9747761e-01
 -2.2151229e-01
 -3.6290139e-02
 -3.6121833e-01
  3.3223171e-02
  2.4673505e-01
  5.8747125e-01
  2.2129205e-01
  4.2486340e-01
 -7.0891753e-02
  4.9065304e-01
 -1.9172321e-01
 -3.5719162e-01
 -1.0440841e-01
 -2.1815311e-02
  1.3458936e-01
  9.0053684e-01
  2.5022066e-01
  3.4290835e-01
 -5.8017135e-01
  2.9605317e-01
 -4.6973732e-01
 -4.8256308e-01
 -2.1880403e-01
 -3.0394763e-01
 -1.5259111e-01
 -4.0840033e-01
  4.5468938e-01
  2.7861330e-01
  4.4567204e-01
 -2.0368163e-02
  4.9253482e-01
  9.4504339e-01
 -7.6553822e-01
  3.8061202e-01
 -4.5173422e-02
  4.7441107e-01
  3.6960936e-01
  6.3488120e-01
 -7.0599610e-01
  3.2760808e-03
 -2.9230045e-02
 -4.8912436e-01
 -7.2000998e-01
  3.0220136e-01
 -1.5750930e-02
 -2.3467311e-01
  1.7446667e-01
 -2.1408595e-02
 -1.4801637e-02
 -1.4022616e-01
 -3.9053920e-01
 -7.7063546e-02
 -2.6640680e-01
 -2.1706979e-01
  1.0402548e-01
  3.3635265e-01
  1.2387440e-01
  1.2494643e-01
 -3.1107941e-01
 -1.0426147e-01
 -4.9778903e-01
  7.1224672e-01
 -1.4218989e-01
 -6.3695049e-01
 -2.3914108e-01
  3.3416116e-01
  3.8989887e-02
 -1.0037923e-01
  4.6223801e-01
 -1.0280979e-01
  6.9050145e-01
 -2.1738914e-01
  4.3204868e-01
  4.8490551e-01
 -6.7305648e-01
  6.4091444e-01
 -4.4868511e-01
 -8.3902812e-01
 -5.1287991e-01
  4.2096347e-01
 -3.0154973e-01
  5.9893519e-02
  3.0318239e-01
 -1.1147877e-01
 -1.1960417e-01
 -3.5784781e-02
  7.1552640e-01
  4.9642646e-01
  3.9685631e-01
  6.4641273e-01
 -5.2503252e-01
 -9.0712443e-02
  2.4789362e-01
  3.7654221e-01
 -1.9910038e-03
  1.1494212e-01
  4.1560149e-01
  6.7052466e-01
  5.0139260e-01
  2.1340990e-01
  3.7098399e-01
  4.6515489e-01
  2.9436326e-01
  4.7356591e-01
 -4.0962636e-02
  5.6948835e-01
 -3.2756841e-01
 -2.6974002e-01
  1.2266360e-02
 -1.2390958e-01
 -4.2494479e-01
 -3.7312090e-01
  2.3355521e-02
 -6.6254042e-02
  1.5378682e-01
 -9.9562079e-02
 -2.5259173e-01
  5.9949023e-01
 -2.1326156e-01
  1.1223807e-01
  2.6800019e-01
 -4.6369183e-01
 -4.5447940e-01
  6.0556865e-01
  5.5264986e-01
  1.2239582e-01
 -2.8353989e-02
 -1.5573990e-02
  1.7658067e-01
 -3.1047493e-01
  4.0182844e-01
  2.8971666e-01
 -2.9786026e-01
  2.9402590e-01
 -7.5967950e-01
  2.3869523e-01
 -6.1824244e-01
  1.0633384e-01
  5.6927437e-01
  3.3325884e-01
  4.5715126e-01
 -3.5985166e-01
 -3.3034912e-01
 -2.5207901e-01
 -2.3561847e-01
  3.6941227e-01
 -5.2949160e-01
 -1.9228816e-01
  2.1051043e-01
  4.5599359e-01
 -5.7321060e-02
 -1.0979582e-01
  1.7799117e-02
 -4.1453522e-01
  3.8411885e-01
 -1.8553823e-01
 -1.8167101e-01
 -5.1230246e-01
 -4.4674098e-01
  6.7878896e-01
 -4.4246793e-02
  2.9086131e-01
  4.3597227e-01
  5.6636870e-01
  1.1972073e-01
 -5.8835840e-01
 -9.7697422e-02
 -7.2800064e-01
  6.6549361e-01
 -3.2756910e-01
 -5.2257925e-03
  2.9230148e-01
  4.0332082e-01
  6.6053283e-01
 -2.2251137e-02
  2.4883485e-01
  1.0874210e-01
  3.7398195e-01
 -4.7889262e-02
 -5.7955950e-01
 -2.8304720e-01
 -7.7474636e-01
  2.0650673e-01
 -1.8943526e-01
 -9.4961012e-03
  2.9995512e-02
 -1.9301701e-01
 -9.1228271e-01
 -2.8098476e-01
  4.7669154e-01
  1.4419009e-02
 -2.5568265e-01
  2.6255092e-01
 -3.9514673e-01
  2.7448776e-01
 -2.2102727e-01
 -2.8772524e-01
 -2.8046554e-01
 -1.1009613e-01
 -3.5106286e-01
  1.0057005e-01
  2.5900835e-01
  5.8771801e-01
 -4.3020791e-01
 -5.9143966e-01
  9.9540234e-02
  3.0433998e-01
 -1.1275804e-01
  1.0901418e-02
  1.4064236e-01
  4.7553760e-01
  1.6847390e-01
 -3.7173384e-01
 -5.1922321e-02
  9.4768906e-01
  1.2543353e-01
 -5.7813388e-01
  3.0076241e-01
 -7.7675059e-03
 -3.6531776e-01
  3.5917333e-01
 -7.0408732e-04
 -1.2855725e-01
  1.4927447e-01
 -4.6501017e-01
  4.8638269e-01
 -1.8468514e-02
  5.5030495e-01
  4.7663450e-03
  1.9648904e-01
 -4.5551610e-01
  2.6711178e-01
  1.4300404e-01
 -6.8699098e-01
  6.6948760e-01
 -1.9737902e-01
  2.5502428e-01
  3.0794713e-01
 -2.6970083e-01
  3.4629479e-01
 -5.3488992e-02
  5.3825796e-02
  4.9095219e-01
 -2.3287910e-01
 -1.0260349e-01
 -7.6447681e-02
  9.7420621e-01
  2.6308468e-01
  2.4359329e-01
 -2.6131880e-01
 -5.5602264e-01
  1.8982023e-02
 -3.4917596e-01
  1.5890592e-01
  6.4180768e-01
  1.3933273e-01
  3.3476301e-02
  2.3278140e-02
  4.6336982e-01
 -8.9802206e-02
  3.7852356e-01
  2.1597062e-01
 -4.2647162e-01
 -7.9150420e-01
 -1.5860988e-01
  4.1524085e-01
  4.8311794e-01
 -5.3361160e-01
  6.3105637e-01
 -1.4289822e-01
  1.8017928e-01
  9.3886532e-02
  3.4234565e-01
  1.6162494e-01
  3.4493110e-01
  1.9728467e-01
  1.4268601e-01
  4.9404028e-01
 -1.7805433e-01
 -1.0771474e-01
  9.0206414e-02
  3.2145897e-01
  2.0585117e-01
 -8.1777930e-02
 -1.6990511e-01
  4.4088832e-01
  4.3491837e-01
  6.8827009e-01
  5.4467726e-01
 -3.0225354e-01
  4.4155338e-01
  2.9003567e-01
 -1.9486123e-01
  2.3020069e-01
  4.5096025e-02
 -3.7149718e-01
  3.9174443e-01
 -2.6494873e-01
 -5.4886770e-01
  1.4379874e-01
  1.1138341e-01
 -6.1642230e-01
  1.1029795e-02
 -4.4083387e-01
  2.2292759e-01
  2.4658868e-01
 -1.4907390e-02
 -4.0584260e-01
 -9.7098246e-02
 -1.9922209e-01
 -1.4054444e-02
 -2.0129260e-01
  1.0206184e+00
 -1.5052968e-01
  6.7389309e-01
 -9.8755211e-03
 -2.3281349e-01
 -4.1093585e-01
  5.4115396e-02
 -5.0477587e-02
 -1.7678599e-01
  1.0209795e+00
  4.5580754e-01
 -2.4296066e-01
  4.6938702e-02
  4.0941715e-01
  6.0478017e-02
  1.0523801e-01
 -3.1178507e-01
 -2.0856693e-01
  3.7371546e-01
  7.8993255e-01
  1.0571332e-01
  7.2348535e-01
 -9.0297419e-01
 -1.7160842e-01
  3.2901263e-01
  1.7976616e-02
 -2.5481960e-01
  4.7450733e-01
  5.8871858e-02
  4.0086406e-01
  4.9562111e-02
  4.4261420e-01
  9.9973962e-02
  1.9067311e-01
 -8.6148344e-02
  5.2893949e-01
 -5.0039154e-01
 -5.5994546e-01
 -6.0797888e-01
  1.7446068e-01
 -1.2864220e-01
  5.4453831e-02
  7.4031758e-01
 -1.9666505e-01
  9.6793734e-03
  3.2741740e-02
  2.0303494e-01
 -6.2126231e-01
 -2.0935982e-01
 -1.1703119e-01
  4.1861758e-01
  4.1756925e-01
  4.2139554e-01
 -4.2278779e-01
  2.8171110e-01
  3.6725032e-01
  3.5142156e-01
  5.6908011e-02
  4.6834260e-01
 -6.2911332e-02
 -2.6136902e-01
 -6.5844558e-02
  6.8408954e-01
 -2.0216957e-01
 -1.9967321e-01
 -2.3094100e-01
  3.4560061e-01
 -4.2128362e-02
  7.2775626e-01
 -5.2166331e-01
  6.7798138e-01
 -5.2653849e-01
 -4.3761361e-01
  7.5966609e-01
  1.6042817e-01
 -6.8572152e-01
  2.7176219e-01
 -5.3896129e-01
 -5.1143497e-01
  2.5816050e-01
 -3.8721681e-02
  1.5742229e-01
  2.4770236e-01
 -2.7974188e-01
 -1.2256384e-01
 -8.5089463e-01
 -1.9882613e-01
  3.1293312e-01
 -1.1224799e-02
  2.2731261e-01
  2.0293584e-01
  6.1568117e-01
 -2.3236923e-01
 -8.2292385e-02
  1.9123763e-01
  5.7269561e-01
 -2.1691981e-01
 -2.7527115e-01
 -9.2585169e-02
 -3.7470028e-01
  4.0245458e-02
  3.2793048e-01
  5.0786346e-01
 -4.8401043e-02
 -2.0537689e-01
 -4.2851418e-01
  7.4021026e-02
  6.0795888e-02
  1.6794878e-01
  2.2221488e-01
 -3.6837861e-01
  6.1350358e-01
  1.6309142e-02
  5.5449522e-01
  4.7635268e-02
  3.2331276e-01
  3.1511879e-01
 -3.0696335e-01
  3.6538491e-01
  6.8433173e-02
  1.4038567e-01
 -3.3973438e-01
  3.6119729e-01
  3.7959874e-01
  4.8252961e-01
  1.0469505e-01
 -1.1340448e+00
  3.6593938e-01
  8.4506124e-01
  5.9049629e-02
 -1.1172633e-01
  1.7026427e-01
  1.8825740e-01
  4.8733452e-01
  2.3619896e-01
 -2.9923779e-01
 -5.9555912e-01
 -5.7788551e-01
 -8.3696526e-01
 -2.0659646e-01
 -1.4781515e-01
  1.7841740e-01
  2.0576362e-01
  3.7708151e-01
  5.2731907e-01
  1.7947964e-01
 -9.3754776e-02
 -5.7367116e-01
 -1.9012079e-01
  1.4572352e-02
 -2.2496043e-01
 -1.6855451e-01
 -1.8396918e-01
 -4.1636211e-01
  6.6606534e-01
  6.8230933e-01
 -2.0231682e-01
 -3.4255230e-01
 -6.6957664e-01
 -3.1415203e-01
 -9.8935120e-02
  5.0190377e-01
  5.6034261e-01
 -2.4203388e-01
  9.4104074e-03
 -7.8964747e-02
  3.0297637e-02
 -1.4263904e-01
 -8.3333993e-01
  2.4387500e-01
  2.7795058e-01
 -1.4862044e-01
  4.5777202e-01
 -3.8276720e-01
 -3.4633562e-01
 -1.6845009e-01
  3.5779044e-01
 -6.0150039e-01
 -9.8863728e-02
 -1.0961192e+00
  2.6340944e-01
  8.3251834e-02
 -2.0378193e-01
  6.8908983e-01
  2.5720364e-01
 -2.4508007e-01
 -1.8852377e-01
  3.5527390e-01
  1.7342642e-03
  3.0929655e-01
 -1.9579738e-01
  2.1667221e-01
  3.0877244e-01
 -2.6766956e-04
  4.2098698e-01
  2.9996961e-01
 -1.0264137e-01
  1.0811329e-01
  9.5567115e-02
 -4.7224852e-01
  1.9062857e-01
  3.3469373e-01
  6.1467403e-01
  1.4418642e-01
 -3.9883798e-01
  4.7911274e-01
 -9.1896325e-02
  9.7125560e-02
  3.3194125e-01
  2.8278500e-02
 -3.3463899e-02
  1.6085279e-01
 -1.4952308e-01
  1.7382543e-01
 -1.3116232e-01
 -3.7622806e-01
 -1.5330574e-01
  4.8882180e-01
 -1.2802903e-01
 -4.5447415e-01
  1.4189535e-01
  5.2111381e-01
  2.9456697e-02
  5.9291309e-01
 -4.6892470e-01
 -6.1221570e-03
  2.6266193e-01
 -8.5673973e-02
 -3.1581962e-01
 -1.7578186e-01
  3.8982147e-01
 -9.5842004e-02
  3.9608635e-02
  3.5765076e-01
 -9.6744569e-03
  3.7046748e-01
 -1.6363536e-01
  2.2944775e-01
  2.1119915e-01
  1.2845792e-01
  3.6223635e-01
  9.0640180e-02
 -5.8885425e-01
 -6.0469586e-01
 -4.3690825e-01
  6.5194301e-02
  3.4654292e-01
  2.8070819e-01
 -3.0500099e-01
 -8.3360535e-01
 -3.5051990e-01
 -3.3382919e-01
  8.0169475e-01
 -5.6872677e-02
  1.8981561e-01
  2.4817695e-01
  3.9007688e-01
  3.7148929e+00
 -4.4851685e-01
 -9.2745966e-01
  6.2914491e-03
  9.0418410e-01
 -1.3461259e-01
 -2.0506284e-01
  4.8150089e-01
  2.6242793e-02
  2.6848078e-01
  6.2715894e-01
  6.3592768e-01
 -1.1629980e-01
  2.7985495e-01
  4.2805590e-02
  1.3570082e-01
 -5.3364903e-01
  5.9752613e-01
  1.8058436e-01
 -2.6424608e-01
 -5.4929638e-01
  4.3307617e-02
  5.5108005e-01
 -5.3575808e-01
 -5.5995863e-02
  6.2375820e-01
 -4.4554266e-01
 -2.0168822e-01
 -3.4215060e-01
 -3.5294729e-01
 -6.5376896e-01
 -3.4122550e-01
 -3.3550897e-01
 -2.5003576e-01
  1.0789274e-01
 -4.2196083e-01
 -4.1121262e-01
 -1.4305744e-01
  3.6968175e-01
 -7.6451644e-02
  1.4302653e-01
  7.2641402e-01
 -6.0727465e-01
 -3.2341525e-01
 -5.5750692e-01
  9.6787289e-02
  7.1971826e-02
 -7.2377264e-01
 -7.7906460e-02
 -2.6116881e-01
 -7.8056782e-01
  2.9637516e-01
  3.8477165e-01
  1.5209979e-01
  4.9314776e-01
  5.2440149e-01
 -3.0338019e-01
  5.5497080e-01
 -2.5461990e-01
  4.7883429e-02
 -2.2522402e-01
  5.1103616e-01
  9.2840202e-02
  1.9372131e-01
 -3.2346532e-01
  1.9254297e-01
 -1.6011426e-01
 -2.6584938e-01
 -1.7961587e-01
 -3.8801178e-01
 -3.1608075e-01
 -4.1835493e-01
 -2.6078129e-01
 -2.1412854e-01
 -1.1888835e-01
  6.3937262e-02
 -2.0989794e-01
 -6.2970060e-01
  3.4319809e-01
  3.5843521e-01
  3.7351599e-01
 -7.7565950e-01
  1.6162613e-01
  4.2031437e-02
 -4.0230441e-01
  8.8801749e-02
 -3.3054799e-01
 -1.7232740e-01
  3.6047143e-01
 -5.5073086e-02
 -5.4716992e-01
 -6.0837531e-01
  4.9061099e-01
 -4.5734379e-01
 -4.3416339e-01
  1.5534535e-01
 -1.4410754e-01
 -2.3839062e-01
 -5.3610783e-02
  2.3122002e-01
 -7.0603371e-01
 -2.3806818e-02
  1.3846782e-01
  4.0320437e-02
  2.0394772e-01
 -1.8929395e-01
  8.9940079e-02
 -2.1631292e-01
 -5.9860474e-01
 -4.6260700e-02
  3.7522882e-01
  3.5402309e-02
 -1.2555355e-02
 -2.9484409e-01
 -2.8450349e-01
 -6.4928311e-01
 -7.0600754e-01
  9.1590784e-02
  1.5770793e-01
  6.3518425e-03
  1.1922608e-01
 -5.9603924e-01
 -2.6522166e-01
  5.0218627e-02
 -5.5719323e-02
  4.2731878e-01
 -1.7465641e-01
  2.5429666e-01
 -3.5301107e-01
 -2.8121075e-01
 -1.0067315e-01
  2.1659133e-01
  7.8385818e-01
  6.5761018e-01
 -4.4278383e-01
  7.5497665e-02
  6.4648938e-01
 -7.5126904e-01
 -6.8793014e-02
 -2.8689674e-01
 -1.8117152e-02
  3.3313671e-01
  1.8020235e-01
 -4.1708454e-01
  7.6516196e-02
 -1.8843183e-01
  1.6818979e-01
 -2.7444214e-02
 -7.2130293e-01
 -3.8137157e-02
 -1.1335192e-01
  3.3152759e-01
  5.5334337e-02
 -6.3811168e-02
  6.3138449e-01
  9.7265318e-02
 -1.4072537e-01
 -2.9998350e-01
  1.8067589e-01
 -4.8270273e-01
  6.2752448e-02
  1.8784189e-01
 -1.6594103e-02
 -6.7353547e-01
  1.4493021e-01
  1.6199461e-01
 -3.6188030e-01
 -3.7409961e-03
  1.3310199e-03
 -4.0570441e-01
  4.2492712e-01
  3.0516940e-01
 -7.4610308e-02
 -3.9817661e-01
  9.5769122e-02
 -2.8607231e-01
 -2.1967825e-01
 -4.5677719e-01
  3.5818374e-01
  8.4228873e-01
 -1.1788862e-01
  1.5126157e-01
  4.5433611e-01
 -6.2417638e-01
  7.3937811e-03
  6.2269434e-02
 -8.0758005e-02
  4.5000115e-01
 -3.6091581e-01
  1.3924056e-01
 -1.6968188e-01
  7.1777351e-02
  1.0804269e-01
  1.5317456e-01
  5.1108144e-02
 -4.5674470e-01
  5.5236012e-01
 -5.9559184e-01
 -2.0442528e-01
 -3.5659525e-01
 -3.2959339e-01
 -3.8635623e-01
  8.5555874e-03
  1.2835028e-02
 -2.8434411e-01
  8.5462332e-02
 -4.0343586e-01
  5.4116893e-01
 -5.1124763e-01
 -4.6946444e-02
  3.0975419e-01
  4.7091496e-01
  2.4977459e-01
  1.1328207e-01
  3.1152087e-01
 -1.1718462e-01
 -4.6300271e-01
 -3.4675944e-01
  1.0539104e+00
  1.6019252e-01
 -1.1530167e-01
  3.0644870e-01
  6.0340811e-02
 -3.5943139e-01
 -5.2603304e-01
  1.9060984e-01
 -9.4172105e-02
 -2.6134482e-01
  2.9036094e-02
 -5.8906734e-01
 -7.5719647e-02
 -4.6526006e-01
 -4.4801354e-02
  8.2625449e-01
 -3.9474791e-01
  3.3810782e-01
 -3.8557455e-01
  6.5019238e-01
 -4.0184674e-01
  6.5240160e-02
 -2.6326603e-01
  1.9079119e-02
  3.6673838e-01
 -5.5076802e-01
 -2.0932253e-01
  3.9569432e-01
  2.6662892e-01
 -1.9254175e-01
  2.7001598e-01
 -4.2511803e-01
 -4.2885363e-01
 -5.3098524e-01
  9.7944513e-03
  5.9751928e-01
 -6.1321747e-01
 -2.6276523e-01
 -7.3703930e-02
  1.4903334e-01
 -3.2572845e-01
  2.4154633e-03
 -9.2818812e-02
 -2.5627694e-01
 -4.2604783e-01
 -2.8959480e-01
 -7.5452939e-02
  3.5924482e-01
 -1.4475811e-02
  5.6228584e-01
 -6.2234581e-01
  3.0196303e-01
  1.4170372e-01
  1.3200074e-02
  9.8415321e-01
 -1.7485140e-01
 -2.0347376e-01
  4.9290076e-01
  7.9635584e-01
  2.7854449e-01
  1.8912344e-01
  4.4568750e-01
 -1.5228850e-01
  9.3542904e-02
  2.1076779e-01
 -8.0383703e-02
 -5.4902631e-01
 -5.0819123e-01
 -1.2421809e-01
  2.4129204e-01
  1.2824383e-01
 -9.6552990e-02
  4.9646795e-02
  4.1602239e-01
  1.6449562e-01
 -2.3415814e-01
  6.2974340e-01
  1.8432523e-01
  7.5174117e-01
  6.9627166e-03
  3.0795002e-01
 -3.8108274e-01
 -4.8863003e-01
  8.9888167e-01
  4.3748549e-01
 -2.8889710e-01
 -5.7953757e-01
 -2.3092705e-01
 -3.7586924e-01
  5.5675220e-01
 -3.3950514e-01
  7.6393455e-02
  3.1898700e-02
 -2.1522664e-02
 -3.7580770e-01
  1.8706897e-01
  3.3298597e-01
 -2.9461810e-01
  2.0514777e-01
  3.7502253e-01
 -9.0985559e-02
  8.9121497e-01
 -2.2914797e-01
 -4.6389183e-01
  3.8945091e-01
 -1.0341564e-01
  1.2654200e-02
 -7.9078662e-01
 -1.4462084e-01
 -1.9707531e-01
  1.5148805e-01
 -2.0470345e-01
 -1.2647381e-01
 -2.1652395e-01
 -5.3787839e-01
  1.3469152e-01
 -2.0017758e-01
  1.6928699e-02
  7.0377402e-02
 -6.8252879e-01
  1.7984882e-02
 -2.6730794e-01
 -9.2179433e-02
 -6.3393438e-01
 -7.7021372e-01
 -3.2317394e-01
 -9.0334184e-02
 -4.1583708e-01
  2.4824739e-01
  1.0660799e-01
  5.4497376e-02
 -2.6238129e-01
 -2.8293055e-01
  3.0696732e-01
 -5.0188369e-01
  1.6037689e-01
  6.8402126e-02
  4.1097376e-01
 -6.7152256e-01
 -1.3603267e-01
  3.4777156e-01
 -6.5052336e-01
  1.5870582e-01
 -5.9388369e-01
  5.9397745e-01
 -3.6773565e-01
  3.0825657e-01
 -5.7344830e-01
  5.7312477e-01
  2.4723165e-01
  1.3596797e-01
  2.8151584e-01
 -4.8246335e-02
  5.1404190e-01
 -2.4972260e-03
  4.9665534e-01
 -1.2195884e-01
 -2.8193456e-01
 -1.6255720e-01
  2.6697242e-01
 -3.4714594e-01
 -2.7972466e-01
 -2.8208172e-01
  7.2960389e-01
 -4.0150154e-01
 -4.0691179e-01
 -2.0805544e-01
  2.9348111e-01
  3.4132239e-01
 -2.2629663e-01
 -5.1541024e-01
  2.6679370e-01
 -7.8722790e-02
  4.5524639e-01
 -8.3263880e-01
  3.6128312e-01
 -2.7337107e-01
  6.2476486e-01
 -2.4273483e-01
 -2.4603398e-01
 -1.8844441e-01
 -8.5667378e-01
  9.7259931e-02
  6.4944613e-01
  5.2541232e-01
  6.8883911e-02
  4.5200294e-01
  3.8403413e-01
  6.1112916e-01
 -2.7801927e-02
  2.9269618e-01
 -2.3514852e-02
  3.8920826e-01
  1.3265061e-01
 -1.1542508e-01
  1.3627452e-01
  6.1929452e-01
  1.2514289e-01
  2.1222994e-01
 -3.5551569e-01
 -4.7762731e-01
 -5.5211097e-01
  2.7895370e-01
 -4.3199297e-02
  6.2194091e-01
  1.3280568e-01
 -1.5202213e-02
  9.8763919e-03
  6.1029784e-02
 -2.6280743e-01
 -9.2205256e-02
  2.7317175e-01
  3.9714310e-01
  2.9951444e-01
  5.5963308e-01
 -2.9474324e-01
  4.5875746e-01
 -2.2984740e-01
  1.8988113e-01
 -1.6977531e-01
 -3.1986034e-01
  5.6910819e-01
  6.0424648e-02
  3.0731866e-01
 -4.4984052e-01
  2.4012181e-01
  2.1732187e-01
 -1.7593332e-02
  5.8779502e-01
  3.0649330e-02
 -2.3888269e-01
  4.6666306e-01
  1.3588420e-01
 -2.0701015e-01
  5.0468557e-04
  8.1772983e-01
 -1.7871115e-01
 -4.3244821e-01
  2.3962206e-01
 -1.4294846e-01
  9.4316907e-02
  8.8636547e-02
 -1.5611696e-01
  5.1986647e-01
  2.0395318e-01
 -4.1221276e-01
 -1.5237835e-01
 -8.4792368e-02
 -2.9225492e-01
 -1.2569166e-02
  4.0501031e-01
 -3.4875473e-01
 -4.4928318e-01
 -3.7755884e-02
  7.4796385e-01
 -4.4919819e-01
  3.0527708e-01
 -5.8490753e-01
 -5.1593691e-01
 -5.3874105e-01
  4.8915187e-01
 -3.8243484e-01
 -2.8413600e-01
 -2.3007052e-01
 -1.5790723e-01
  6.2469102e-02
 -3.5757068e-01
 -7.2412121e-01
 -4.8351669e-01
 -2.8444156e-01
  5.0507102e-02
  3.1305340e-01
 -2.1822019e-01
 -2.1163287e-02
 -9.8951951e-02
 -9.0886943e-02
 -2.3010015e-01
 -2.4035059e-01
  1.9715655e-01
  3.2860205e-01
  4.8363882e-01
 -1.0612315e-01
  5.0708562e-01
 -2.5313160e-01
  4.1291970e-01
  6.1667781e-02
 -7.0529884e-01
 -4.9230656e-01
 -2.7055625e-02
  3.0435717e-01
  3.0832368e-01
  4.0256989e-01
  1.1931643e-02
 -3.2342415e-02
 -2.6663154e-01
  4.8037803e-01
  1.3160869e-01
  5.6336635e-01
 -1.7191883e-02
 -2.0950910e-01
 -4.9525648e-01
 -4.0595117e-01
 -1.3311699e-02
  1.8603701e-02
 -4.3861024e-02
  1.8171325e-01
  4.3113911e-01
  3.6948524e-02
 -1.6216904e-01
  2.1367681e-01
 -2.2047542e-01
 -3.3785951e-01
 -4.8608524e-01
 -3.5024068e-01
 -2.8480881e-01
  7.6444760e-02
 -3.6560249e-01
 -8.2612562e-01
 -2.1404321e-01
 -4.6423924e-01
  2.6480544e-01
 -9.9847376e-02
 -1.9292149e-01
  5.1235890e-01
  2.2322266e-01
  1.0836448e-01
 -1.2888773e-01
 -1.4677946e-02
 -2.8284559e-01
 -4.6533900e-01
  1.2317310e-01
  4.1788581e-01
 -8.1983054e-01
  6.0371619e-01
  3.7371537e-01
 -1.5790184e-01
  1.6533288e-01
  2.0302556e-01
 -3.2864285e-01
 -4.5258445e-01
  1.0363908e-01
  1.6167679e-01
  1.7166725e-01
 -4.9778953e-01
 -8.8145447e-01
  1.7064026e-01
  4.5827958e-01
 -4.9277461e-01
 -3.0878443e-01
  1.0315576e-01
 -6.4221978e-02
 -1.0775384e-01
  7.6036584e-01
 -1.5325774e-01
 -2.5555456e-01
 -4.4749327e-02
 -3.1489298e-01
  5.4151095e-02
 -3.7240925e-01
  8.7323003e-02
 -7.3765445e-01
  1.1131142e-01
  1.1274039e-01
  3.9900571e-01
 -2.2506511e-01
  7.8308606e-01
  1.0883844e-01
  4.3561891e-01
 -4.0186939e-01
  5.1206481e-01
  1.3720009e-01
  5.2234158e-03
 -2.1204887e-01
 -1.8663929e-01
  2.5552577e-01
  3.0500135e-01
 -2.2356014e-01
  7.3577482e-01
  1.3384148e-02
  4.3382302e-01
  5.1864552e-01
  2.1909040e-01
 -2.1565595e-01
  2.8246867e-02
  4.7861111e-01
  7.9029649e-01
 -8.8385127e-02
 -4.8668766e-01
  1.9097823e-01
  1.1941619e-02
 -3.8330019e-01
  1.3038814e-03
  5.4524869e-01
 -4.2187059e-01
 -3.8833451e-01
  6.1775196e-01
 -2.1657813e-01
  2.1140618e-02
 -2.0284057e-01
  1.8733546e-02
  4.0798441e-01
 -1.6853553e-01
 -4.0603888e-01
  1.9402340e-01
  3.5995284e-01
  5.8152509e-01
  3.3315179e-01
 -2.7266309e-01
 -3.7577328e-01
 -4.7519654e-02
  5.1014215e-01
 -8.5443191e-02
 -8.1508881e-01
 -5.4416165e-02
  4.6444440e-01
  1.5795577e-01
 -5.9787810e-01
  3.2165051e-01
 -2.9764402e-01
  5.5738207e-02
 -2.7413592e-01
  4.6813112e-01
  2.2839305e-01
 -2.7350432e-01
 -7.0920587e-01
  1.9334875e-01
  1.5755555e-01
  1.3282418e-01
 -5.0211036e-01
  3.3073255e-01
  1.9166496e-01
  7.8011230e-03
 -2.2518805e-01
  1.4293399e-01
  5.4024917e-01
  7.1905869e-01
 -2.0142017e-01
 -2.4550346e-01
 -1.6122384e-01
  2.1760878e-01
 -2.4245520e-01
  9.4377972e-02
  4.4034126e-01
  5.7796913e-01
  1.1771241e-01
  1.8483937e-02
 -4.5533895e-01
 -3.7379831e-02
 -1.3728638e-01
 -6.8832392e-01
  6.8886483e-01
 -1.0439086e-01
 -7.5572915e-02
  1.2668465e-01
 -1.1986017e-02
  2.6243147e-01
  4.2808354e-01
 -4.2465940e-01
 -4.1727343e-01
 -1.2280821e-01
 -2.1097131e-01
 -6.5101349e-01
  4.1028541e-01
  4.9527159e-01
  1.3171047e-01
  8.0301464e-01
 -2.3771667e-01
  7.2177395e-02
  4.5643753e-01
  5.0218600e-01
  2.7199274e-01
  1.5261784e-01
 -1.0717626e-01
  2.0625215e-02
  4.6206474e-01
 -3.6660263e-01
  1.7868149e-01
  3.1241107e-01
  7.1067974e-02
  5.8828694e-01
 -6.8431115e-01
  7.0476639e-01
 -6.1001297e-02
 -5.5958015e-01
 -2.0331094e-01
 -8.6362697e-03
 -1.9625771e-01
 -3.1274605e-01
 -2.0423661e-01
  1.9644642e-01
 -2.6418827e-02
  2.9446650e-01
 -1.0662860e-01
 -2.4684286e-01
  2.8109795e-01
 -5.9815526e-01
  5.0057757e-01
 -1.6383776e-01
  2.7643999e-01
  2.1805778e-01
  2.4329551e-01
  3.5472089e-01
  2.7186903e-01
  1.6662191e-01
  7.2766232e-01
 -6.0257763e-01
  1.4501269e-01
  8.7515330e-01
 -9.0449467e-02
  2.1152547e-01
 -3.0571523e-01
 -3.0208759e-02
  1.6562130e-02
 -2.4290588e-01
  1.1240184e-01
  7.5247997e-01
 -1.8384650e-01
  6.3427019e-01
  5.0752944e-01
 -7.1916699e-02
 -2.7885979e-01
 -2.7522030e-01
  2.7164406e-01
 -4.6735033e-01
 -4.8428267e-01
  1.7672265e-01
  9.1426000e-02
 -5.5637854e-01
  1.1129515e-01
 -4.9792975e-02
  1.1817192e-01
  5.9937823e-01
  2.5840315e-01
  5.2672315e-01
  4.3617064e-01
  3.2937750e-02
 -4.4606364e-01
 -7.1268296e-01
  4.8863086e-01
 -1.7511246e-01
 -6.9059208e-02
 -2.8895891e-01
  5.9029526e-01
 -4.4029179e-01
 -4.5958501e-01
 -4.4661170e-01
  2.3811409e-01
  2.7773130e-01
 -7.1675509e-02
 -2.9107589e-01
 -3.9190166e-02
 -2.3238730e-01
 -6.7597365e-01
  6.9259778e-02
  1.2973787e-01
  1.1171713e-01
 -3.7152979e-01
  7.4187934e-01
 -1.9447033e-01
 -2.1912488e-01
 -2.8503555e-01
 -5.0769120e-01
  7.2283524e-01
 -1.8250576e-01
  3.3442134e-01
 -5.3948778e-01
 -2.5167695e-01
  3.9537433e-01
  5.2301443e-01
 -3.1271651e-01
  4.1869394e-02
 -1.8072693e-01
  3.9206156e-01
 -1.9788471e-01
  3.5372689e-02
  1.9769159e-01
 -2.2641720e-02
  9.3628794e-02
 -5.5002153e-02
 -4.3172511e-01
  2.4416308e-01
 -6.8947949e-02
  2.8455037e-01
  3.8109019e-01
  1.6694212e-01
  5.1991308e-01
 -3.3861426e-01
 -5.1682949e-01
  3.7142612e-02
 -2.9478028e-02
  2.1828540e-02
 -2.2155517e-01
  1.0906668e+00
  3.6973529e-02
 -7.5136584e-01
  5.9226835e-01
 -4.7107720e-01
 -2.8380111e-02
 -2.5989810e-01
 -8.9421272e-02
  3.6172301e-01
 -4.6071845e-01
  4.4277698e-02
  3.0989966e-01
  1.3498340e+00
  2.8138643e-02
  5.4032624e-02
  1.1523813e-02
 -5.4968633e-02
  1.8383597e-01
 -3.2022190e-01
 -4.3089259e-01
 -4.3314382e-01
  9.4197375e-01
 -4.5264658e-01
  5.1174527e-01
 -5.6078309e-01
  2.9775468e-01
 -1.6761082e-01
 -5.1476918e-02
  1.3116942e-01
  2.2385769e-02
  2.2477621e-01
 -1.5168220e-01
 -3.5726917e-01
  4.1665405e-01
  2.4325129e-01
  4.4502795e-01
 -6.9048727e-01
  8.8106640e-02
  3.3281964e-01
 -6.1407995e-01
 -2.8615636e-01
 -1.7920130e-01
 -4.4541380e-01
 -4.2217398e-01
  4.5282397e-02
 -4.2160928e-02
  8.7124079e-02
  5.3998172e-01
 -1.2674817e-01
 -4.5536304e-01
  9.6834794e-02
  2.9986137e-01
 -3.3618668e-01
 -2.7876958e-01
  3.7582675e-01
 -3.4013101e-01
 -3.4677976e-01
  3.5403597e-01
 -5.3845847e-01
  1.3186231e-02
  6.4396650e-02
  2.6854101e-01
 -2.1385381e-01
  3.1632149e-01
 -6.8857867e-01
 -9.6124612e-02
  2.1871397e-01
  9.5713146e-02
 -2.1252844e-01
 -6.7870015e-01
 -5.2696884e-01
 -8.8560432e-03
  9.1519905e-05
  3.2564783e-01
 -9.5670693e-02
  2.2222477e-01
 -2.3644137e-01
 -4.7315203e-02
  1.2091972e+00
  4.1698498e-01
 -3.2221529e-01
 -3.9897552e-01
  2.3047358e-01
  8.3871216e-02
  1.3668294e-01
  3.5908264e-01
  1.8066669e-01
  2.9723516e-01
 -2.8291899e-01
 -1.7535700e-01
  4.6144614e-01
  1.3689068e-01
  4.5152193e-01
 -3.4962600e-01
  4.3887682e-03
  3.5638285e-01
 -3.4583247e-01
 -5.6424320e-01
  7.4051939e-02
 -2.7840075e-01
 -2.6169476e-01
 -4.1172221e-01
  7.5839823e-01
  2.0408129e-02
  2.6674592e-01
  5.1709837e-01
 -1.0695222e-01
  2.1091308e-02
 -3.0115613e-01
 -3.2699350e-01
 -1.9447035e-01
  1.6132766e-01
 -2.9268208e-01
 -4.0922290e-01
 -4.2352718e-01
  4.5907634e-01
 -1.7307007e-01
 -3.2675764e-01
 -4.3655685e-01
  4.7427198e-01
  1.6737835e-01
 -7.3110300e-01
 -4.8240304e-01
 -9.1517121e-02
 -1.6627364e-01
  5.5653876e-01
  2.2686127e-01
  1.5789486e-01
  1.5789486e-01
  1.5789486e-01
  1.5789486e-01
  1.5789486e-01
  1.5789486e-01
  1.5789486e-01
  1.5789486e-01
  1.5789486e-01
  2.5381011e-01
  2.5381011e-01
  2.5381011e-01
  2.5381011e-01
  2.5381011e-01
  2.5381011e-01
  2.5381011e-01
  2.5381011e-01
  2.5381011e-01
  7.9450436e-02
  7.9450436e-02
  7.9450436e-02
  7.9450436e-02
  7.9450436e-02
  7.9450436e-02
  7.9450436e-02
  7.9450436e-02
  7.9450436e-02
  1.5214906e-02
  1.5214906e-02
  1.5214906e-02
  1.5214906e-02
  1.5214906e-02
  1.5214906e-02
  1.5214906e-02
  1.5214906e-02
  1.5214906e-02
  6.3803475e-03
  6.3803475e-03
  6.3803475e-03
  6.3803475e-03
  6.3803475e-03
  6.3803475e-03
  6.3803475e-03
  6.3803475e-03
  6.3803475e-03
  1.1243812e-01
  1.1243812e-01
  1.1243812e-01
  1.1243812e-01
  1.1243812e-01
  1.1243812e-01
  1.1243812e-01
  1.1243812e-01
  1.1243812e-01
