nep4 4 B As Ga O 
cutoff 5 5 57 57
n_max 4 4
basis_size 10 8
l_max 4 2 0
ANN 40 0
 -2.2608802e+00
  2.8157336e-01
 -3.6739153e-01
 -2.5949436e-01
  7.9186869e-01
  1.0354027e-01
  4.5216620e-02
  4.2465562e-01
  2.0692462e-01
 -1.9916409e-01
 -1.4176799e-01
 -5.9591204e-01
  1.1245371e+00
  1.3582943e-01
 -2.3478681e-01
 -2.7418694e-02
 -2.0684871e-01
 -7.6130792e-02
 -1.7994456e-02
 -1.3546880e-01
 -2.6525342e-01
  6.8699098e-03
  2.2919767e-01
  1.8950240e-01
 -8.6259305e-01
 -2.2078599e-01
  2.1430156e-01
 -3.0571046e-01
 -2.2977331e-01
  5.3317553e-01
 -1.3713303e-01
 -7.3983067e-01
 -2.4072047e-01
 -1.1119648e-01
  1.3044032e-01
  8.6894244e-01
 -4.2958617e-01
 -2.4995136e-01
  1.7105658e+00
  2.8558081e-02
 -6.7035936e-02
  7.9678822e-01
 -3.7417808e-01
  5.8153874e-01
  7.0944089e-01
  5.8150951e-02
  7.7146000e-01
 -3.4837535e-01
 -3.5278392e-01
 -3.6954384e-02
 -2.2634003e-01
  1.1916693e-01
 -1.1576218e-01
 -4.2264286e-02
  1.2825750e-01
 -9.3672621e-01
 -1.6258389e-01
 -2.4003530e-02
 -5.6414831e-01
 -3.1233436e-01
 -8.2885695e-01
  2.6077719e-02
 -3.3518088e-01
  1.8435111e+00
 -6.3350213e-01
 -4.6446551e-02
  6.1911225e-01
 -1.7368126e+00
 -1.6844946e-01
  1.3358960e-01
  7.8039950e-01
 -7.9665911e-01
  7.4858195e-01
 -2.6957223e-01
  1.8745923e+00
  1.6166091e+00
  2.4211167e-01
 -3.1690962e+00
 -2.7257559e-01
 -6.9236094e-01
 -4.6652722e-01
  4.4456948e-02
 -2.2098143e+00
  4.2866215e-01
 -2.6429133e+00
 -8.5316938e-01
  2.7803662e-01
  1.1748925e+00
 -7.1269178e-01
 -5.3443652e-01
 -3.3960795e-01
  6.2956804e-01
  1.1635658e-01
  1.0092845e+00
 -2.9498932e-01
 -3.8359139e+00
 -4.0190169e-01
 -3.5427311e-01
 -2.8938107e+00
  5.1663703e-01
  2.6960231e-02
  2.4824254e-01
 -5.3278601e-01
 -1.1189622e+00
  3.4162078e+00
  1.2229311e+00
  2.8057249e+00
 -4.4749069e-01
 -7.8525847e-01
  1.4016770e+00
  9.3545192e-01
  2.8400386e-02
 -1.4653685e+00
  2.3120941e-01
  1.3821275e+00
  8.3938964e-02
 -4.3538222e-01
  8.3615869e-01
 -5.8033254e-02
 -1.1081804e+00
  1.8787153e-01
  3.6516145e-01
  2.7665460e-01
  5.3316802e-01
  2.8683171e-01
  4.5424527e-03
  8.1230205e-01
  2.9594362e-01
 -2.7420448e-02
 -9.8316324e-01
  1.0697759e+00
 -2.4219577e-01
 -8.3254166e-02
 -9.5849954e-02
  6.5399331e-01
  2.1796820e+00
 -1.6730085e-01
 -5.0162036e-02
  1.0708985e-01
 -4.0526971e-01
  1.0017452e+00
 -5.4293936e-03
  6.8255097e-01
  1.4163604e+00
  5.1736182e-01
  2.2327302e-02
  7.8947522e-02
  4.3390432e-01
 -8.9828140e-01
 -6.5058899e-01
 -8.6867237e-01
  8.4139413e-01
 -9.2675877e-01
  2.3591495e+00
 -3.6971877e+00
  3.7128556e-01
 -6.5742075e-02
  3.1925845e-01
  6.0822722e-02
  1.0543247e+00
 -5.7646722e-01
 -2.3715261e-02
  1.5107667e-02
  3.6806402e-01
  1.5878770e-01
  2.2409666e-01
  4.5427439e-01
 -8.6673789e-02
  1.8994379e+00
 -4.0025213e-01
 -2.7495939e-01
  4.4432166e-01
  6.3710356e-01
 -6.3846236e-01
 -8.3396530e-01
 -7.6801544e-01
  4.9775783e-02
 -1.5344292e-01
  9.4212733e-02
 -1.3687533e-01
 -2.2225211e+00
  2.3140737e-01
  8.0923408e-01
  7.5150263e-01
 -3.0127680e-01
 -4.2650229e-01
 -3.2457730e-01
  1.1698806e-01
 -2.4274375e-01
 -9.8194197e-02
 -6.4998555e-01
  3.4632468e-01
 -3.1804264e-01
  8.4910251e-02
 -5.3154122e-02
 -6.8816799e-01
 -4.7808051e-02
  2.7556436e+00
 -1.8183441e-01
 -1.7526664e-01
  1.8839777e-01
  5.6012761e-02
  8.4026396e-02
 -1.3109991e-01
  2.9686323e-01
  7.0335901e-01
  9.8519278e-01
  1.5004810e-02
  4.1059408e-01
 -9.8606303e-02
  6.5584153e-01
 -5.2679515e-01
 -9.0929395e-01
 -1.3236994e+00
  1.1586690e+00
 -1.7468960e+00
 -1.4291247e+00
  2.5206892e+00
 -1.9244800e+00
  6.1069064e+00
  1.0087223e+00
  8.8071001e-01
  7.1397395e+00
  3.3095613e+00
 -3.8916522e-01
  5.0078607e-01
 -2.5326231e+00
  1.8203471e+00
  5.4872227e-01
 -1.0898975e+00
  4.2490858e-01
  3.5896279e-02
  1.2534502e-01
  1.0332221e+00
 -6.6002524e-01
 -1.1431861e+00
  1.0207244e-01
  4.1902294e+00
 -9.5720492e-02
  7.2756672e-01
  1.7013851e-01
 -3.2011625e-01
 -3.0998453e-01
  1.0705614e+00
  9.3360645e-01
  1.7806709e+00
  1.4210420e+00
  3.9244099e+00
  2.7279386e-01
  2.2414212e-01
  7.1411192e-01
 -6.5214097e-02
 -2.6383631e+00
 -3.8038287e-01
 -3.9906795e+00
 -2.2208576e+00
 -3.3320931e-01
 -7.3130190e-01
  2.0871388e-02
  6.3074698e+00
 -6.0791099e-01
  2.2462690e-01
  1.4447522e-01
 -8.2105219e-02
  1.1476477e+00
  1.2434613e-01
 -2.0016240e-01
 -7.6677960e-01
  1.5221183e-01
  1.0188273e-01
 -6.9064826e-01
  3.8185501e-01
 -9.7139698e-01
 -2.9167779e-02
  3.1597590e-01
  8.6186486e-01
 -1.0761816e-01
  4.3612212e-01
 -1.9303507e-01
 -9.9097051e-02
  4.0085271e-01
 -7.8521562e-01
  2.7925444e-01
 -1.0360773e+00
 -3.1271699e-01
 -3.3931017e-01
  4.0597922e-01
 -4.6612248e-02
 -5.2675283e-01
  1.8238457e-01
  5.9346691e-02
 -6.0215157e-02
  1.3488030e-01
 -2.9791594e-01
  2.6572555e-01
  3.7283688e-03
 -8.3491728e-02
 -1.2759683e-01
 -1.1031868e-01
  6.2642014e-01
  2.0342448e-01
  5.6786889e-01
 -4.2942056e-01
 -2.2063746e+00
 -2.8781769e+00
  5.8670032e-01
  1.8257484e-01
  2.3227019e+00
  2.2025359e-01
  1.9585371e+00
 -6.4832324e-01
 -3.3165634e-02
  1.9307832e-01
  5.6530398e-01
 -1.0795678e+00
 -2.3595993e-01
  1.9329995e+00
 -2.2513849e-01
 -1.1299235e+00
  3.0197783e+00
 -1.5284179e-01
  2.3472217e-01
  1.2444077e+00
  5.2762464e-02
  3.3901086e+00
 -2.2437081e-01
 -2.2571541e-01
 -3.0300611e-01
  8.2455814e-01
  1.2309232e+00
  4.4911402e-01
 -1.0278733e+00
  8.3628237e-01
  7.9733014e-02
  1.6701768e-01
  3.6827770e-01
 -4.5264223e-01
 -2.1674594e-02
 -2.7467659e-01
 -4.4201282e-01
 -2.0493247e-01
  4.2223030e-01
  2.4854814e-01
 -3.3986249e+00
  3.7737384e-01
 -2.0140572e-01
 -1.4103076e+00
  2.7562937e-01
 -5.8313962e-02
 -6.5891035e-02
 -5.6347138e-01
 -7.7915311e-02
  3.3215448e-01
  3.5957804e-01
  6.4189613e-02
 -1.5627238e-01
  2.1106036e-01
  2.5668484e-01
  1.4217980e-01
  1.5437886e-01
 -1.0696711e-01
  8.2205892e-02
 -1.6027417e-02
 -2.6982313e-02
  3.9812344e-01
  2.7866864e-01
 -7.5501494e-02
  2.3656845e-01
 -2.8839579e-02
  4.0957727e-02
  7.0339851e-02
  4.6801940e-02
 -6.7330384e-01
 -1.7527835e-01
 -2.9534978e-01
 -1.6431579e-01
  7.4357039e-01
 -3.0136362e-01
  4.1883651e-02
 -1.1900762e+00
 -4.0605154e-02
  1.7011850e-01
 -9.1333169e-01
 -6.6009611e-01
  1.3793895e-01
 -6.1523993e-03
  7.6258153e-01
  9.1675766e-02
 -5.5821128e-02
  9.6761733e-03
 -1.0497715e+00
  2.2355108e+00
  1.2417556e+00
  1.1512243e+00
  2.2987886e-01
 -4.3237596e+00
  5.7517546e-01
  3.3251530e-01
 -1.0284188e-01
  2.2499590e-01
  1.5500906e+00
 -2.4521613e+00
  1.0649843e+00
 -2.3754098e+00
  1.7510777e+00
 -2.8019142e-01
  6.8061286e-01
  1.8952312e+00
  5.3297627e-01
 -1.0905212e+00
  7.2088681e-02
 -1.2247907e+00
  1.8644346e+00
 -1.1992663e+00
  4.2377256e-02
  1.3549081e+00
  1.2125274e-01
 -1.3783361e+00
  1.5074422e+00
 -1.8811832e-01
  4.7465026e-01
 -2.4358214e-01
 -1.8748906e-01
  5.7532531e-01
 -1.2561880e-01
  1.1306231e-01
 -2.2240447e-01
  2.6618639e-01
 -5.8844615e-02
 -1.5434647e-01
  2.2769269e-01
 -3.0308846e-02
  1.9290058e-01
 -4.6621528e-02
  1.1822925e-01
 -1.1972951e-01
  3.9734121e-02
  4.5661193e-01
  8.7914839e-02
  5.8776188e-01
  8.5702904e-02
 -1.0272990e-01
 -2.3864382e-03
  2.0860316e-01
  7.5309381e-02
  1.1356118e-01
 -2.2524925e-01
  4.7954983e-01
 -9.8242372e-01
  3.5522777e-01
  2.2283241e-01
  2.1084467e-01
  2.4294159e-01
 -3.6201704e-01
 -3.0037636e-01
  3.8895738e-01
  8.2566559e-02
  2.3574075e-01
  1.1099600e-01
  2.3340756e-01
 -4.8971525e-01
  5.2146289e-02
  2.5358552e-01
  2.7069086e-01
 -1.7095458e-02
 -1.8049312e-01
  1.4465936e-02
  1.1773369e-01
  2.0179202e-01
 -7.0164555e-01
  5.9110839e-02
 -4.3770779e-02
  3.1411886e-01
 -1.1352592e-01
 -2.5482240e-01
 -4.9487323e-01
 -2.4938203e-02
  4.1611724e-02
  4.8335809e-02
 -3.7430650e-01
  8.6536187e-01
 -3.0840585e-01
  4.2128608e-02
 -3.7405632e-02
 -1.7728359e-01
  3.2744965e-01
  3.2041669e-02
  1.8898053e-01
 -3.8140610e-02
 -1.4416629e-01
 -2.0312653e-01
  1.8310013e-03
 -2.1058643e-01
  3.0519664e-01
  9.5830387e-01
 -3.5405145e-03
 -8.9070335e-02
  4.0657979e-01
  1.0532793e+00
 -8.6553085e-01
 -1.8833814e+00
 -5.4909387e-03
  6.7874116e-01
  1.2363794e-01
  1.6845405e-01
 -6.3107193e-02
 -8.5177451e-02
  8.4124988e-01
 -3.4857586e-01
 -5.5792117e-01
  1.3194879e+00
 -1.3013638e+00
 -2.1548636e+00
  3.2975027e-01
 -1.3107896e+00
 -2.7838888e-02
  2.7841794e-01
  3.4617605e+00
 -2.4427042e+00
  1.6430836e+00
  1.0521116e+00
 -7.8986174e-01
  2.1331658e+00
 -3.1722534e+00
 -8.9268781e-02
  3.1508257e+00
  6.4361906e-01
 -4.0480742e-01
 -5.2592020e+00
  2.5941744e-01
  1.8363824e+00
 -1.8419716e+00
 -2.5533843e-01
 -2.6852505e+00
 -4.2044394e-02
 -7.2341514e-01
  2.9817531e-01
 -1.1320883e+00
  1.3152887e-01
  3.9580007e+00
  8.3062762e-01
  1.6565647e+00
 -2.6231737e+00
  4.3871655e+00
 -2.3345077e+00
  6.5538383e-01
  3.3140585e-01
 -3.1909622e-02
 -1.1874458e+00
  6.6793817e-01
  1.4115225e+00
  5.0028451e-02
  3.5560983e-01
  7.6050937e-02
  1.6832812e-01
 -1.3702978e+00
  1.2318453e+00
 -4.2823339e+00
 -9.9275649e-01
 -7.1040761e-01
  5.2539122e-01
 -1.1266969e-02
  5.7251471e-01
  1.8393056e-01
  6.7218935e-01
 -2.9374731e-01
 -2.6051493e+00
  3.2736501e-01
  2.8954959e-01
 -3.8790656e-03
  1.1112186e-01
  1.5918205e+00
 -3.8827515e-01
  8.6674131e-02
 -6.0580619e-02
  7.9760253e-01
 -1.7880339e-02
  6.6725403e-01
 -9.3794191e-01
  1.9048899e-01
 -5.8756703e-01
 -7.1745682e-01
 -3.3382466e-01
 -1.2166942e+00
  3.4375930e-01
  1.6530804e-01
  9.4881803e-01
 -9.1955876e-01
  2.0289750e+00
  9.1417655e-02
  1.7070683e+00
 -4.4194293e-01
  5.9019512e-01
  7.9384452e-01
 -2.8107333e-01
 -2.2115834e-01
  5.1649141e-01
  5.3866750e-01
  4.9862504e-02
 -6.0564959e-01
  8.6657172e-01
  5.7768799e-02
  2.7349976e-01
 -3.4018126e+00
 -1.1441311e+00
 -8.3342001e-02
 -4.0730649e-01
 -1.0904342e+00
 -1.4771297e+00
 -2.2457097e-02
 -6.4455450e-02
  6.6432290e-02
 -1.8293527e-01
  8.8562548e-02
  1.7264365e+00
  2.3807430e-01
 -2.5326389e-01
  3.4095493e-01
 -9.3346842e-02
  5.9719849e-01
 -7.4320471e-01
  7.0603050e-02
 -4.8775333e-01
 -1.4288308e-01
  1.0142223e+00
 -3.3897895e-01
  6.6375770e-03
  1.6794688e-01
  5.7347542e-01
  1.7582522e-01
  1.3392711e-01
 -2.2641537e-01
 -2.8207707e-01
  6.8345733e-02
 -3.3453181e-01
 -5.3227955e-01
 -9.4809997e-01
  1.1382394e+00
  5.5277151e-01
  8.9613074e-01
  4.6057281e-01
 -4.1618586e-02
 -9.5528908e-02
  7.4063861e-01
  4.4201756e-01
  5.1777312e-03
  1.1356339e+00
  3.1742746e-01
  1.0818225e-01
 -2.0229670e-01
 -7.8984426e-04
 -2.4641548e-01
  4.2138377e-01
  4.0363571e-01
 -9.4433016e-01
  6.9748616e-01
  3.6328265e-01
 -4.4264948e-01
 -3.8885571e-02
  6.5276158e-01
 -3.1411266e-01
  1.2046413e+00
 -2.7599297e+00
 -3.4957558e-01
  2.0167749e+00
  2.6276821e-01
 -1.4667358e+00
  1.6735952e-01
  3.2105330e-02
 -5.1656359e-01
 -4.1889295e-01
  8.6249888e-01
  7.8790987e-01
  2.2491732e-01
  3.5202067e-02
  3.3370117e-03
  1.6698976e-01
 -3.8541529e-01
  1.2362070e-02
  1.0185274e+00
  6.9409400e-01
  4.9551448e-01
  4.5945919e-01
 -3.4387565e-01
 -1.0127512e-01
  4.3631345e-02
  8.5422873e-02
 -1.0906780e+00
  2.5087532e-01
 -2.5892730e+00
  4.4414768e+00
 -6.9674134e-01
 -3.3337793e+00
 -8.7743890e-01
  2.1235853e-01
 -9.5394897e-01
 -5.0382364e-01
 -1.8021997e-02
  6.4291641e-02
 -1.1714394e+00
 -8.6056155e-01
  1.6527776e-01
 -1.1930969e+00
 -2.2839476e-01
  1.8748169e+00
  8.6638576e-01
  5.7526535e-01
  3.1355370e-02
 -7.7617985e-01
  9.8671448e-01
  3.6102423e-01
  2.2827484e-01
 -1.9812745e-01
  1.0740496e+00
 -6.6551471e-01
 -3.8852524e-02
 -2.6883528e-01
  1.8237559e-01
 -3.3650318e-01
 -6.4231700e-01
  8.7628707e-02
  1.4061491e-01
 -1.7071556e-01
 -3.1991589e-01
  2.0754565e-02
 -1.0146523e+00
 -2.1891060e-01
 -5.0815201e-01
  1.9745956e-01
 -4.8103306e-01
  3.9555663e-01
 -1.0326019e-01
 -1.2399835e-01
 -6.2724173e-01
 -3.9188007e-01
  1.7565954e-04
  1.3343272e-01
 -1.4262097e-01
  2.6453972e-01
 -1.6805993e-01
 -8.5924631e-01
  8.0750614e-02
  4.6099421e-01
  1.1631205e-01
 -2.7248770e-01
 -5.7713217e-01
  6.4631438e-01
  1.0410453e-02
 -3.8150109e-02
  2.1877915e-02
 -6.5068054e-01
 -1.1802383e-02
 -5.8700943e-01
 -3.1525755e-01
 -3.2326210e+00
  4.1981667e-01
 -1.3842624e-01
  1.9286312e-02
 -6.7717689e-01
  2.5876039e-01
 -3.5025567e-01
 -3.4447813e-01
  3.8257204e-02
  1.1044496e+00
 -1.0533359e+00
 -2.7709755e-01
 -2.0591824e-01
 -7.5058050e-02
 -2.8626853e-01
 -2.1906955e+00
  4.4074129e-02
 -1.0685030e-01
 -7.5519806e-01
  1.0066106e-02
 -6.2013935e-02
  4.4979490e-02
  3.3123413e-01
  5.5913341e-01
 -6.9241464e-01
  2.2268321e-02
 -2.1672490e+00
  1.1898619e+00
  5.1237793e+00
  1.2200493e+00
 -1.6604449e+00
 -9.6738356e-01
  1.8468064e-01
 -3.1277742e+00
  3.9404739e-02
 -3.0217953e+00
 -3.3168902e+00
 -1.7719107e+00
 -1.9936839e-01
 -3.3596644e-01
  6.8140519e-01
  7.2011817e-03
 -8.3301824e-01
  8.9705366e-01
 -2.0939039e-01
 -2.4236347e-01
  2.5045788e-01
 -7.5701880e-01
 -2.0097673e+00
 -7.7698827e-02
  1.7454661e-01
 -1.7181641e-01
  2.4020825e-01
  9.3130577e-01
 -6.4406127e-02
 -2.1258490e+00
  1.6823144e-01
  6.1050266e-01
  1.7567556e-02
 -1.2793130e-01
  1.8909894e-01
  8.8254339e-01
  7.3592708e-02
 -6.6183075e-02
 -5.4585236e-01
 -1.0182439e+00
  7.4075621e-01
 -5.2460927e-01
  1.3212286e-01
 -1.5414131e+00
 -1.3810010e-01
 -6.0480226e-02
  8.4688798e-02
 -7.5826764e-01
  5.5413395e-02
 -4.4251598e-02
  2.5270361e-01
  2.3521530e-02
  4.8130375e-01
 -4.3134174e-01
  2.6567629e-01
  1.6575357e-02
 -7.0951492e-01
  3.0599695e-01
  8.0080681e-02
 -6.8935347e-01
 -1.9283462e+00
 -4.0756363e-01
  2.3644209e+00
  1.0254333e+00
  3.3520103e+00
  1.0229412e+00
 -2.9157627e-01
 -1.0274477e-01
  7.0492637e-01
 -1.0338590e-01
 -2.6633871e-01
 -1.3275098e+00
  4.1711083e-01
 -2.4496603e-01
  2.0859115e-01
 -9.0921223e-01
  3.1378829e-01
  1.7126249e-01
 -4.6376761e-02
 -2.1683433e+00
  3.5237163e-01
 -4.4812688e-01
  2.2232063e-01
  3.5333166e-01
 -2.7416538e-02
 -1.1013665e+00
  3.6181194e-01
 -1.6304010e-01
 -5.1075864e-01
  1.2282635e-01
 -7.3901242e-01
 -7.7648111e-02
 -8.4507048e-02
 -9.0929377e-01
  2.6243351e+00
 -2.0319898e-01
 -3.1056372e-02
 -1.0937326e+00
  3.1965438e-01
 -8.1447607e-01
  6.1594588e-01
  4.2045836e+00
 -9.3423285e-02
 -3.1761470e-01
  1.1257476e+00
  2.1613529e-01
  7.6440048e-01
  1.8932356e+00
  7.7751869e-01
 -1.6574634e+00
  1.8572648e-01
 -3.4829506e-03
 -3.2405174e-01
  1.2950289e-01
 -3.4877864e-01
  1.3569930e-01
  6.0417250e-02
  9.9639729e-02
 -1.6196454e-01
  9.3433268e-02
  1.5014143e-01
 -3.4470278e-01
  9.6979690e-01
  1.7814125e-01
 -2.1750231e-01
  1.4330406e-01
  1.6971432e-01
  6.1034071e-01
 -3.9217940e-01
  3.1187147e-01
  1.5267669e-01
 -4.4230893e-02
  2.5977433e-01
  9.2610195e-02
  8.2511699e-01
  2.4298269e-01
 -5.6417865e-01
  3.4356233e-02
  1.4864144e-01
  6.6691583e-01
  4.3319291e-01
 -4.3851653e-01
  4.0980357e-01
 -2.3405547e+00
 -8.7633338e-03
  2.6092428e-01
  4.5520318e-01
  3.3606479e-01
 -3.1060802e-02
  4.9357483e-01
  8.3750419e-02
  1.8616611e+00
  2.6617975e+00
 -1.8294208e+00
 -2.7859604e-01
 -1.1226681e+00
 -3.7869692e+00
 -2.9589751e-01
  4.4218600e-01
 -1.9171962e-01
  3.7598842e-01
 -2.1113308e-01
 -9.7506946e-01
 -1.1910538e-01
  2.6978273e+00
 -1.6453153e-01
 -1.4774047e-01
  1.2627451e+00
 -1.8420312e+00
 -2.2964344e+00
 -1.2673146e-01
  8.0004269e-03
  5.0905004e-02
 -6.0086119e-01
 -5.1398787e+00
  4.4178177e-02
  9.2166811e-01
  4.0453643e-01
 -2.8206346e+00
 -5.8437532e-01
  1.9963877e+00
  3.7812352e-01
 -1.1696750e+00
 -6.6347349e-01
 -4.1715944e-01
  1.2268016e+00
 -5.5211860e-01
  3.4784868e+00
  2.2441576e-01
  3.3447793e-01
  4.1337234e-01
 -3.6437497e-01
  2.5771430e+00
 -1.7237602e+00
 -3.5663650e+00
  8.4720904e-01
 -1.2725246e+00
 -1.2203532e+00
  1.1546247e+00
 -2.5788596e+00
 -1.5399115e-01
 -2.7839918e+00
 -2.3730445e+00
  2.2036338e+00
 -1.5280551e+00
 -2.0238681e+00
 -5.8180209e-02
  1.1730218e+00
  1.2293028e+00
  5.7539377e+00
 -2.4725676e-01
  5.0289309e-01
 -2.3026441e-01
 -7.6674891e-01
  1.6456932e+00
 -3.1351147e+00
  1.5494404e+00
 -2.9570431e-02
 -1.1733181e+00
  8.6983418e-01
 -6.7440528e-01
 -7.3008560e-02
 -1.8467765e+00
  9.6964054e-02
 -5.7933038e-01
  1.2225178e+00
 -2.5662389e-01
 -8.1227487e-01
  1.4460930e+00
  8.4417737e-01
  1.6115996e+00
 -6.2215406e-01
 -5.7005513e-01
  2.7091923e+00
  2.2309461e+00
 -6.1774310e-02
 -1.1418623e+00
 -1.5827999e-02
  1.0398856e-01
  1.7514246e+00
  1.1669531e+00
 -6.9450535e-02
 -1.0414417e-01
  2.9492098e-01
 -1.3255222e-01
  3.2094398e-01
 -3.7888967e-02
  5.3830467e-02
  9.3519819e-01
 -1.8331552e-03
 -1.3646781e-01
  1.6688586e-03
 -1.5903351e-01
 -6.5390811e+00
  3.0562347e-01
 -3.1546302e-02
  2.2371891e-01
  6.0731757e-02
  4.0578750e-01
  5.0891978e-01
 -5.9863128e-02
 -1.7349464e-01
 -4.1583526e-01
 -3.6257960e-02
 -5.3712968e-02
 -7.0747536e-01
  3.7668366e-02
  1.8353949e-01
  6.2983853e-01
 -3.2764816e-01
 -2.2431017e-01
 -2.8688544e-01
 -2.6566321e-01
  6.0730159e-02
  1.2203974e-01
  1.2558664e-01
 -1.1491548e-01
 -2.1475346e-01
  6.4423375e-02
  1.0578787e-01
 -7.5731933e-01
  5.1662210e-02
 -4.7163790e-01
  1.6286367e-01
 -3.9148882e-01
  2.1499036e-01
 -2.2249896e-02
  5.0471701e-02
  4.7167633e-02
 -6.2180974e-02
 -6.1472106e-01
 -3.7148711e-01
 -2.8590101e-01
 -1.2719919e-01
 -4.4907752e-01
  3.3869702e-02
  1.3894989e-01
  3.7510780e-01
  1.7530184e-02
  1.4762326e-01
 -7.7318177e-02
  1.0402526e+00
 -8.1915236e-01
 -7.6596040e-01
 -3.1544569e-01
  2.1701662e-01
 -2.8043070e-01
  7.4171156e-02
  3.1564690e-02
  2.7167073e-02
 -2.6401427e-01
 -6.3415733e-03
 -1.2486170e-02
  7.5686556e-01
 -3.6437467e-01
 -2.3772626e+00
 -9.9037319e-02
 -3.3571798e-01
  1.9678505e-01
  6.5087532e-03
 -6.6907865e-01
  2.4052372e-02
 -5.6620055e-01
  1.2730095e-01
  2.9641920e-01
 -1.3397108e-01
  6.2089998e-01
  4.2387187e-01
  1.2414317e-01
  2.2482949e-01
  2.1647903e-04
 -2.8759745e-01
  1.0701090e+00
 -6.5552533e-01
  6.0567713e-01
  1.7493155e+00
  9.6127623e-01
 -1.5652953e+00
  8.9284694e-03
 -2.0153950e-01
  1.1081402e-01
  2.0338520e-01
  1.9041792e-01
  5.5621155e-02
  2.6533165e+00
 -9.9336401e-02
 -3.2432771e-01
 -3.2739785e-01
 -3.5846930e-02
 -2.4445355e+00
  7.5898170e-01
  1.1058136e+00
  2.8493834e+00
 -2.7027148e-01
  1.0672288e+00
 -1.6332248e-01
  4.1010365e-01
  2.2414615e+00
 -2.3375712e-01
 -1.4926008e+00
  3.4556651e-01
 -8.4919155e-01
  1.3815798e+00
  3.8121873e-01
 -4.8472106e-01
 -4.7645634e-03
 -6.7260903e-01
  2.7346361e-01
 -2.0743161e-01
 -1.4222017e-01
 -2.1137980e-01
 -2.7694580e-01
  2.9000559e-01
  5.1077443e-01
  7.5891304e-01
 -4.0703458e-01
  4.5173714e-01
 -1.8947309e-02
 -3.0221769e-01
  8.6546892e-01
  3.5535440e-01
 -1.8329112e-02
  9.8290735e-01
  9.3554743e-02
  1.0937078e+00
 -3.2111397e-01
  2.4855511e-01
 -1.8650307e-01
  5.7411450e-01
 -1.9816995e-01
  1.1303891e+00
 -1.0099912e+00
 -7.9060632e-01
  2.2179725e+00
  2.3552051e-01
 -1.9408414e-02
 -5.8744699e-01
 -3.9928120e-01
 -2.2039214e-01
 -2.4642608e-01
 -2.4649990e+00
 -2.1705844e-01
 -1.2465738e+00
 -1.5902215e+00
 -1.2407588e+00
  2.3504227e-01
  9.7940063e-01
 -1.4930105e-01
 -9.8994104e-03
 -1.4049634e+00
 -1.1946879e-01
 -2.0898461e+00
  5.8832747e-01
  9.6044336e-03
  4.7677660e-01
 -3.4131542e-01
 -6.5994360e-02
 -1.8300392e-01
  4.2880613e-01
 -7.8635082e-02
  1.1567194e+00
  6.6445684e-01
 -1.5463524e+00
  1.6676148e+00
  2.7569773e+00
 -4.4848418e+00
 -1.7430835e+00
  4.0094346e-02
  1.1531211e+00
  7.6234740e-01
  1.9247991e+00
 -2.0331459e+00
 -4.8740783e+00
  1.3942638e-01
 -1.7427855e+00
 -1.2355670e+00
 -1.7116978e+00
 -1.8469845e+00
 -3.7368534e+00
  1.2657021e+00
 -2.1630275e+00
  1.3171592e+00
 -1.3983561e+00
  2.6309819e+00
  2.1524637e+00
  2.4599867e+00
  2.7904792e+00
 -1.9926045e+00
  4.1407362e-01
 -2.1793387e+00
 -1.4793031e+00
  7.0095307e-01
  1.3010640e+00
 -1.2076330e+00
 -1.7698141e+00
  2.2302918e-01
  1.6425470e+00
  1.4006763e-02
 -9.7883272e-01
  1.0742388e+00
  2.5353372e+00
  8.2669204e-01
  1.8529133e-01
 -9.7360080e-01
  2.7525558e+00
 -2.3738101e+00
 -1.6360652e-01
  5.5976623e-01
 -3.3215329e-01
  2.1374037e+00
 -3.0244702e-01
 -2.7595944e+00
 -1.5385067e+00
 -4.0579990e-01
 -2.8715794e+00
 -1.8414054e+00
 -2.5760851e+00
 -1.2509404e+00
 -1.3460237e-01
  3.8347943e+00
 -3.0122135e+00
  2.2387338e+00
  6.1477280e-01
  2.6919398e+00
  5.0566397e+00
  2.9912870e+00
 -3.1373590e-01
 -4.6598144e+00
  1.7026229e-01
  1.7685655e-01
 -4.0677080e+00
 -5.7376045e-01
  5.5086122e+00
  6.2249142e-01
 -1.8233609e-01
  1.3828777e-02
  1.3685369e+00
 -3.7699357e-01
 -3.6922853e+00
 -1.8239670e-01
  6.6997565e-02
  1.1355574e+00
  1.1831149e+00
  7.1043921e-01
  5.8590347e-01
  3.3074060e-01
  1.1571593e+00
  2.5143358e-01
 -1.1138436e-02
  2.7231309e+00
  3.7736806e-01
  3.1512523e-01
 -5.9420878e-01
 -1.5106969e-01
  1.5928631e-01
  2.1096190e-02
  3.7032861e-01
  3.4191886e-01
  5.5170846e-01
  2.8694239e-02
  1.1742961e-01
  5.1722896e-01
  1.3582612e+00
 -2.8606004e-01
 -3.7315153e-02
  1.0411871e-01
 -4.2733002e-01
 -5.0434130e-01
 -1.3099395e-01
  3.2409459e-01
 -2.4093506e-01
 -6.3881241e-02
  7.4892946e-02
  1.3531382e-01
 -1.0299460e-02
 -1.2944917e-01
 -4.9778778e-02
 -7.9603374e-02
  1.4807096e-01
  1.7768990e-01
 -3.4301537e-03
 -1.3990381e-02
 -3.8402703e-02
 -1.4801002e-01
 -1.8754713e-02
  1.1579095e-02
  3.3639739e-03
 -2.2463176e-01
  4.1013938e-01
 -1.7122227e-01
  1.1831870e-01
 -4.9803054e-01
 -8.4812647e-01
  4.7571963e-01
 -5.3507072e-01
 -3.2766539e-01
 -2.2279203e-01
  3.8461238e-01
 -2.5531915e-01
  4.3712988e-01
 -2.9943818e-01
 -7.6021492e-01
 -4.2695122e+00
 -6.6395986e-01
 -1.7258211e+00
 -3.5647607e+00
  4.4747332e-01
  7.8783059e-01
  3.7808359e-02
 -7.0747316e-02
 -2.3525518e-01
 -1.4757941e+00
 -3.8822320e-01
  8.5663790e-01
  4.6065176e-01
 -7.5743043e-01
  1.1509244e+00
 -1.8813354e+00
  4.9599833e+00
  1.8610485e+00
  9.6515547e-03
 -2.6285294e-01
 -1.3381445e+00
  3.5553691e+00
  2.7225652e+00
  6.8623060e-01
 -2.4921671e-02
  1.7435181e+00
 -2.2995064e-02
  6.2807047e-01
  2.6015906e+00
 -1.3628114e+00
 -6.1350954e-01
  1.8265180e-01
 -1.6861668e+00
 -9.6403080e-01
  6.0577232e-01
  1.5175136e+00
 -3.3201125e-01
  9.9761719e-01
 -1.6179268e+00
  7.7391511e-01
  2.4544890e+00
  1.0907513e+00
 -1.1336083e+00
  8.2638359e-01
  4.5217028e+00
  1.8023108e+00
 -4.2646456e+00
 -9.5679736e-01
  2.3174201e-01
 -5.4984695e-01
 -2.8784904e+00
 -4.0205139e-01
  9.3433201e-01
  4.7751912e-01
 -2.0583220e-01
  1.5071963e+00
 -1.8893456e-01
  3.0479460e+00
 -5.7242475e-03
  4.1906521e-01
 -1.1372055e+00
  3.6858704e+00
  1.8438408e-01
 -3.7732658e-01
 -1.0996773e-01
 -5.9111255e-01
  3.8373244e-01
  8.8840181e-01
  3.0076435e-01
  3.0126816e-01
 -4.1102681e-01
  7.4708819e-02
 -1.0886120e+00
  5.6964993e-01
  1.1715555e-01
  5.0572813e-01
  8.4359789e-01
 -9.5085001e-01
  6.2141722e-01
  4.7019187e-01
 -2.3493262e-01
  5.8032089e-01
  4.7609791e-01
  2.7373293e-01
 -1.1825409e+00
 -1.9187037e+00
 -9.9902496e-02
 -3.4993441e+00
 -4.8164141e-01
 -6.1410642e-01
  5.6521881e-01
  2.5437379e-01
  9.4896132e-01
  9.5304638e-01
  2.7655053e-01
  1.8759122e-01
 -1.6588196e-01
 -7.4351095e-02
 -5.1519889e-01
 -2.4548864e+00
  7.0114398e-01
 -1.0486963e+00
  5.1184100e-01
 -4.8209083e-01
  1.0226578e-01
 -4.0792805e-01
 -3.9878854e-01
  4.6841443e-02
 -2.7407953e-01
 -2.1828617e-01
 -1.1906982e-01
  1.1637073e-01
  1.1465068e-01
  9.3686745e-02
  4.0677920e-01
 -1.1249480e-01
 -1.7195381e-01
 -5.0235957e-01
 -2.4642966e+00
 -4.8303860e-01
 -5.6448114e-01
  3.3647876e+00
  2.2619448e+00
 -3.6934641e-01
 -3.9129984e-01
  3.6209981e+00
  6.0804635e-01
 -1.9778811e+00
  3.1517923e-01
 -2.8745210e+00
 -1.2605082e+00
 -6.9592088e-01
 -1.4304707e+00
  9.2017490e-01
  4.2209085e-02
 -6.5773642e-01
 -2.8973022e-01
  6.4345026e-01
 -8.0472219e-01
 -5.8016497e-01
  1.6144875e+00
 -6.4646229e-02
 -1.4473168e+00
 -1.4950097e+00
 -7.8693801e-01
 -2.3004842e-01
  3.4589535e-01
 -2.1692013e-02
 -8.5515815e-01
  1.8083345e+00
  6.2387079e-01
 -1.6118603e+00
  8.8404620e-01
 -2.9241133e+00
  2.8595090e-02
 -9.5602846e-01
 -3.7356043e-01
  1.8950720e+00
  3.1708246e-01
 -1.0111609e+00
  2.6857632e-01
 -3.7279621e-01
 -1.0224224e+00
 -8.1825808e-02
 -1.0622848e+00
 -8.1068414e-01
 -2.1567371e-01
 -3.1767857e-01
  4.9498105e+00
  4.5867566e-02
 -1.2233329e+00
  1.1928667e-01
 -8.6086673e-01
 -1.3256688e+00
  2.1667171e-01
 -1.3502488e+00
  4.1614351e-01
 -1.1635921e-01
  6.0464734e-01
  7.1146089e-01
 -5.0695091e-01
 -2.3207419e+00
 -7.4933507e-02
 -7.9257143e-01
  3.2151061e-01
 -1.2878853e-01
 -8.1992930e-01
 -3.3106735e-01
 -3.8369700e-01
 -2.2964416e-01
 -3.9083335e-01
 -5.0633613e-02
 -2.3455136e-01
  1.2949969e-01
  2.1148588e-01
 -7.3898107e-01
  1.6059791e+00
 -8.0761778e-01
 -4.1464469e-01
 -1.6525768e-01
  4.8771524e-01
  2.1583092e+00
 -3.6566988e-01
 -8.1554031e-01
 -1.0169989e+00
  3.3271241e-01
 -3.1505469e-02
  1.7338276e-01
 -2.0835257e-01
 -1.2778338e+00
  1.6169907e+00
 -1.0362412e+00
 -1.3354887e-01
 -2.1495192e+00
 -3.8822702e-01
 -1.0703567e-01
  1.5291896e+00
 -5.0224179e-01
 -1.9538476e+00
  3.7992278e-01
 -1.0205493e-01
 -1.4738818e+00
 -2.6880610e-01
  7.7052422e-02
 -1.5401884e+00
  9.7006917e-01
 -2.1362719e-03
 -8.9298345e-02
  2.4283922e+00
  2.4568509e-01
  1.5542221e+00
 -1.8036394e-01
  2.8932278e+00
  1.2052648e+00
 -3.3626530e-02
 -4.8714519e-01
  2.1933117e+00
  5.0142872e-01
  6.6263694e-01
 -3.5326729e+00
  1.1101375e+00
  2.5425425e+00
  1.1957871e+00
  1.1794083e+00
  9.6092010e-01
 -9.3894589e-01
  2.0013812e+00
  4.0727105e-02
 -9.0955161e-02
  2.6523796e-01
 -7.0911062e-01
 -1.5254292e-01
 -1.2516342e+00
 -1.9892833e-01
 -3.2542214e-02
  9.5788556e-01
  2.3915975e-01
  7.9133600e-01
 -8.8974439e-02
  6.1118799e-01
  3.0562714e-01
 -9.1379106e-02
  3.2795328e-01
  6.1960864e-01
  2.3621203e-01
 -7.5111501e-02
 -5.0513119e-02
  2.6144484e-01
  1.3011419e+00
  9.5260538e-02
  5.5003431e-02
 -5.7732427e-01
 -1.6838900e+00
 -1.0656620e+00
  1.8066218e+00
  2.8870161e+00
 -1.5019433e-01
  4.9815848e-01
  8.1127584e-01
 -2.3308563e-01
  1.6370091e-01
 -5.2942502e-01
  4.4789585e-01
 -3.7104201e-01
  2.1516053e-01
 -1.5266509e-01
 -1.0133855e+00
  2.6503105e+00
 -7.7461737e-01
  3.9502555e-01
 -9.8453069e-01
 -7.4111229e-01
 -1.5148268e+00
  6.7914200e-01
 -6.6549867e-01
 -3.1282812e-01
 -9.0381128e-01
 -1.1367016e-01
 -8.7518342e-02
  2.9587686e-01
  4.7984427e-01
 -4.8828077e-02
  6.1808743e-02
  1.4992955e-01
 -1.2244128e-01
 -4.2877746e-01
  2.8854130e-02
 -3.0617088e-01
 -9.0023404e-01
  2.9984984e-01
 -6.1642104e-01
 -1.5336612e-01
 -1.3033366e+00
  1.1806082e+00
 -5.3570945e-02
 -3.9521097e-03
  2.1115832e-01
  2.9004721e-03
  7.3816341e-01
  5.5281531e-02
  2.1066356e-01
  4.1933167e-01
 -1.8012807e-01
 -3.1100683e-02
 -1.5441050e-01
  1.8012321e-01
  9.3490648e-01
 -6.5268800e-02
  1.0310999e-01
 -4.9650114e-02
 -6.0815150e-01
  2.9802623e+00
 -1.4679953e+00
  1.3040881e+00
 -1.7689070e-01
 -9.7561198e-01
 -6.9221562e-01
 -5.4744339e-01
 -2.4944697e-02
 -3.3280525e+00
 -8.7911910e-01
  9.2347920e-02
  2.5501623e+00
 -1.3080589e+00
  3.6131960e-01
  3.4607512e-01
  5.0366002e-01
  1.7058116e+00
  4.2018961e-02
 -1.5769620e+00
  1.2751037e-01
  1.4687315e-01
  7.3444769e-02
  6.2270891e-03
 -1.8762937e-02
 -1.4006342e+00
  1.8268126e-01
  1.3398628e-01
 -2.5297747e+00
 -9.2149544e-01
  3.1515884e+00
 -2.8318791e+00
 -1.2779230e-01
  1.4267540e+00
 -1.1424986e+00
 -1.2942411e+00
 -1.3052393e+00
 -2.0360491e+00
  3.0861619e+00
 -1.1122071e+00
 -2.0844181e-01
 -1.1918213e+00
 -5.1765175e+00
  1.1842397e+00
 -3.3650103e-01
  2.0238633e+00
 -3.1432896e+00
 -6.2954021e-01
  1.0874193e-01
 -3.0718105e+00
  9.4474983e-01
  2.2870362e+00
  6.2663341e-01
 -6.0919142e-01
 -1.2035522e+00
 -1.9564817e+00
  3.7091236e+00
 -6.4465725e-01
  5.9974545e-01
  1.0391392e+00
 -1.2812841e+00
 -3.9255133e-01
  1.9008523e+00
 -1.0773156e+00
 -3.9385247e-01
 -2.9639866e+00
  4.8283297e-01
 -4.3179292e-02
 -2.6142156e+00
 -4.2229196e-01
  5.6245011e-01
  3.2260379e-01
  3.7607723e-03
 -2.4513467e-01
  7.1963243e-02
  1.7044997e+00
  2.7746489e+00
  2.0407748e+00
 -6.7593254e-02
  1.3792917e+00
 -1.4251279e+00
  3.9326776e-02
 -2.6074579e-02
  3.0414164e+00
  3.7958801e-01
  1.4294025e-01
  4.2111868e-01
 -1.2844867e-01
  5.3403270e-01
  1.0365896e+00
 -4.3679786e+00
 -3.1004639e+00
  1.9437650e+00
 -1.9010583e-01
  9.8259807e-01
  3.5252745e+00
 -2.5033727e+00
 -1.5974464e+00
 -1.2789133e+00
 -1.8957081e+00
  2.7752821e+00
  2.8338036e-04
 -8.2562768e-01
 -1.2330598e+00
  4.7899035e-01
 -8.5648037e-02
  2.4458556e+00
  9.1410208e-01
 -1.4094459e+00
  7.4454838e-01
 -3.2998204e-01
  1.5353878e-01
 -5.8283303e-02
  8.8547802e-01
  5.5091999e-02
  3.2833564e+00
  7.0069736e-01
  2.0133052e+00
 -3.8954835e+00
 -1.4789315e+00
  2.8236493e-01
  5.9900904e-01
 -1.7276782e+00
  7.0689529e-02
  9.6644148e-02
 -3.6301687e-01
  1.2992077e-01
 -1.4716181e+00
 -1.2248213e+00
 -5.7985294e-01
  1.1034997e+00
 -1.1359757e-01
 -9.2038846e-01
  6.0704654e-01
  1.3565855e+00
  5.4874927e-01
 -4.9026506e-03
  2.0533791e-01
 -6.3169979e-02
 -3.2955864e-01
  3.6711079e-01
  2.9052184e+00
  1.2177333e-02
 -3.7521893e-01
 -7.7066772e-02
 -1.3896648e+00
 -5.3576499e-01
  3.4868082e-01
  6.6723394e-01
 -2.9133468e+00
 -1.7611670e-01
 -2.2806644e-01
 -6.7613649e-01
  1.0368539e+00
 -5.0586700e-01
 -3.3822989e-01
 -6.7718428e-01
  5.2395874e-01
 -1.7796049e-01
 -1.3651853e+00
 -2.1796191e+00
 -1.8711165e-01
  1.8747725e+00
  1.7430795e+00
  2.9951476e-02
  4.5854688e-01
  3.1525090e-01
 -4.9341917e-01
  1.0112779e+00
  1.0000160e-01
 -6.8541802e-02
 -7.1039045e-01
 -2.8081602e-01
  9.0370834e-02
 -9.8050356e-01
 -2.4435186e-01
  6.2352794e-01
  6.8202868e-02
  1.4628175e-01
  7.9579055e-01
  2.4130359e+00
 -1.9293007e+00
 -1.4816493e+00
  1.2876903e+00
  3.4240526e-01
 -1.7000339e+00
 -6.6735011e-01
  1.6626655e-01
  4.9386391e-01
 -1.4905071e-01
 -2.6248202e-01
 -1.2994097e-01
 -6.7766392e-01
  5.5289155e-01
 -1.1029934e+00
 -3.6191106e-01
  4.0518105e-01
 -6.1960804e-01
  1.2231210e+00
  9.4679630e-01
 -4.1122621e-01
 -2.4689882e-01
 -1.5491018e+00
 -2.0772217e-01
 -2.3372982e-02
  5.5324507e-01
  3.4290037e+00
 -6.2144703e-01
 -4.3820529e+00
  1.7897147e+00
  3.3713463e-01
 -5.8898771e-01
  6.0084261e-02
 -1.1729240e+00
  1.2341359e+00
 -2.7651684e-02
  5.6081861e-02
  6.1221346e-02
 -1.0557541e+00
 -6.9788045e-01
 -4.9918458e-01
 -1.4692250e-01
 -1.7826048e+00
 -5.1986533e-01
 -3.1769621e-01
 -2.4621084e+00
  6.4972773e+00
 -5.4600084e-01
  7.8206056e-01
 -5.9707677e-01
 -3.4242048e+00
  4.0928245e-01
 -3.4295741e-02
 -2.9947498e-01
  8.7244943e-02
 -1.3547283e-01
 -2.2252479e-01
 -7.9549812e-02
 -3.9377153e-02
  1.1864220e+00
  2.1528646e-01
 -1.6722286e+00
  2.4730210e-01
 -6.4724255e-01
  3.6746901e-01
  5.8245361e-01
 -3.4429139e-01
 -5.6604814e-02
  5.0107628e-01
  8.2558207e-02
 -2.2346349e-01
  3.1563810e-01
 -1.0419754e+00
 -3.2367274e-01
 -7.4287452e-02
 -1.2207223e-02
 -2.4750146e-01
 -7.8741051e-02
  7.9326034e-01
 -6.2332630e-01
 -9.6055162e-01
  4.0291256e-01
 -2.1574335e-01
  1.4666360e-02
 -2.5171751e-01
 -4.6789137e-01
 -7.1387422e-01
 -6.4759225e-01
 -1.0424498e+00
  1.8239737e-01
 -2.0931654e-01
 -1.1217900e-01
 -2.6246437e-01
  6.2791497e-02
  1.5820295e-01
 -6.9174252e-02
  4.5845166e-01
 -3.3057075e-02
 -7.0899814e-02
  5.7302471e-02
  2.3354804e-02
 -1.4402181e-01
 -5.9713930e-02
  3.5001341e-01
 -4.4992343e-01
 -1.0190955e-01
 -9.8266840e-02
  8.2734846e-02
  8.4586427e-02
  6.0362946e-03
 -1.0508966e+00
  5.1637053e-02
 -1.2928835e-01
  9.6317746e-02
 -1.9215006e-01
  9.3571097e-01
  1.5222480e+00
  5.8433193e-01
  1.3736153e-01
 -5.3348494e-01
  1.6655248e-01
  1.6458243e+00
 -1.0205065e+00
  2.7349877e+00
 -3.4114063e-01
  6.6126794e-01
 -1.6136704e-01
  1.4882834e+00
  1.6544569e+00
 -6.6382897e-01
 -9.9881703e-01
  1.4650348e-01
 -1.2373275e+00
 -1.8419939e+00
 -8.3828270e-01
 -2.2183342e-01
  1.6601294e-01
 -1.5027642e+00
  6.8031855e-02
  1.1816792e+00
  1.1425253e+00
 -9.0980582e-02
 -2.0030813e+00
 -1.8794223e+00
 -9.7916579e-01
 -1.7628956e+00
 -5.6324112e-01
  5.9117430e-01
 -3.3985227e-01
  5.4268044e-01
 -4.0909103e-01
  6.7189002e-01
 -6.5459394e-01
  4.6854209e-02
 -1.0477349e+00
 -1.5776020e-01
 -1.0219125e-01
 -4.7009027e-01
  2.1770611e-01
 -1.7229417e-01
  1.0273281e+00
  8.2090953e-03
 -3.7736130e-01
 -1.2573324e+00
 -6.8108225e-03
  1.5501006e-02
 -2.4005945e-01
  1.3180521e-01
  6.5088220e-02
  9.7009234e-02
 -2.8425131e-03
  5.1187296e+00
  1.2164066e-01
  1.5178088e+00
  1.3726822e-01
  6.8984443e-01
 -1.8827504e-01
 -1.0485636e-01
 -3.2015574e-01
 -1.1011289e+00
 -1.0139849e+00
 -3.0363086e-01
 -4.6003985e-01
 -3.6494073e-01
 -1.4620129e-02
 -2.0093934e-01
  8.4023088e-02
  1.8193056e-01
  4.2407889e-02
  1.8830732e-02
  1.2260995e+00
 -3.3395284e-01
  2.5603411e-01
 -5.0084460e-01
 -4.4329170e-02
  9.0932995e-02
 -1.7598145e-01
 -2.0931722e-01
 -4.2526716e-01
 -1.0403303e+00
 -1.5502684e-01
 -9.1999590e-02
  8.7638950e-01
 -9.0596758e-02
 -1.0649019e-01
  1.2391318e+00
  1.1325302e+00
  3.3911222e-01
  4.4539967e-01
  1.1883407e-02
  8.3915722e-01
  1.5100465e+00
 -3.5625212e-02
  1.4773177e-01
  8.3798671e-01
  6.2633479e-01
 -2.0500395e+00
  4.5043340e-01
 -7.2112155e-01
 -5.8291614e-01
  6.1712509e-01
  1.2448498e+00
 -7.5482088e-01
 -7.7694166e-01
  5.9196353e-01
 -8.1614393e-01
 -1.5097447e-01
  7.1561074e-01
 -2.1318187e-01
  5.4204780e-01
 -1.7884165e+00
 -1.7087521e-02
  2.1799989e-01
  6.6713119e-01
  3.8144150e-01
  1.7323859e+00
 -5.2148217e-01
  1.6231425e+00
 -7.7089407e-02
  1.3009487e+00
 -1.3389776e+00
  6.0405999e-01
  1.2990548e-02
  2.2555865e-01
 -5.3971402e-02
 -5.7560325e-01
  3.6353222e-01
 -5.5467981e-01
 -2.5134262e-01
  2.5794810e-01
  1.7359966e-01
 -1.8806928e-01
  3.2596841e-01
 -3.2075921e-01
 -8.0188435e-01
 -1.1226277e+00
 -3.4644139e-01
  7.1928434e+00
 -2.2533110e-01
 -2.6145536e-01
 -7.6478623e-02
 -2.6449548e-02
  8.1854150e-02
 -1.4080547e+00
 -4.7278273e-01
 -4.4674405e-01
 -1.4994884e-01
  1.6044481e-01
  9.8752552e-01
  6.6000216e-02
 -2.7849159e-01
  1.4102948e-01
  1.1579740e+00
  1.5377195e+00
 -1.6420266e-01
  1.5179540e+00
 -1.5521355e+00
 -1.4955690e+00
  1.3652281e-01
 -7.9729509e-01
  2.3903794e+00
 -3.3274040e-01
  1.0306654e-01
 -3.1974813e-01
 -1.0819173e+00
  5.5054283e-01
  1.0584792e+00
 -7.2725439e-01
 -4.0366933e-01
 -5.8519475e-02
  1.5595057e+00
  1.8684863e+00
  1.0225733e-01
 -2.1795116e-01
  4.5983613e-01
  5.0336868e-01
  4.3165165e-01
 -1.9603717e+00
  2.1182084e+00
 -1.6782281e+00
 -1.8613954e+00
 -4.5074245e-01
  8.8513738e-01
  1.9621862e+00
 -1.1672480e-02
 -2.7140923e+00
 -7.9991162e-01
 -4.4329402e-01
 -1.5939721e-01
 -1.0997773e+00
 -1.5671968e+00
 -1.5227719e-01
  1.8883250e+00
  3.9992583e-01
  1.0471076e+00
  1.2022357e-01
  3.1039629e+00
 -4.4460019e-01
  5.5764371e-01
  1.5072938e+00
  8.6419022e-01
 -3.7911153e-01
 -2.0771825e+00
  1.7742249e-01
  6.4696360e-01
 -4.5785192e-01
  1.1145017e-01
  3.2104138e-01
 -5.2834511e-01
  3.1366831e-01
 -6.1647648e-01
 -3.7409985e+00
 -2.9838127e-01
 -5.5265885e-02
 -1.6688727e+00
 -1.6056694e-01
 -4.2496064e-01
  5.5996305e-01
  7.2129834e-01
 -9.3440801e-02
  1.2370237e+00
  2.1956879e-01
 -8.6921863e-02
  2.3412248e-01
 -3.9179187e-02
 -2.4812624e+00
 -3.6215135e-01
 -3.9075434e-01
  2.6553023e-01
 -5.1527357e-01
  4.4225857e-01
 -4.3796840e-01
  4.0526211e-02
 -5.8033678e-04
 -3.1440490e-01
 -1.8261749e-01
 -2.7515396e-01
 -1.2164427e+00
  2.5043721e+00
  1.6036688e+00
 -1.1491728e+00
  1.3386151e+00
  8.2134187e-01
 -1.0958192e+00
  1.5016656e+00
  2.0720403e+00
 -1.5285756e-01
  8.1700510e-01
 -1.6402746e-02
  6.4877987e-01
  4.5672633e-02
  9.1133751e-02
  1.3416373e+00
 -4.1677284e-01
  1.4352947e+00
  1.8804451e+00
  4.2380509e-01
 -3.1607544e-01
 -4.9080434e-01
  8.9331560e-02
  1.5162351e+00
  9.0467101e-01
  5.1846296e-01
  1.8523446e-01
  1.2550583e+00
 -3.0731562e-01
 -1.4166363e+00
  1.5461844e-01
  1.5166512e+00
 -1.7116790e+00
  1.8054264e+00
  7.7872467e-01
 -3.0198972e+00
 -5.4908985e-01
  1.2943540e+00
  2.9031157e-01
  1.1563093e-01
  9.5156908e-01
  5.7860780e-01
  1.7453115e+00
 -1.6443261e+00
 -5.6149755e-02
  1.7774465e+00
  1.6722397e+00
  1.5274379e+00
  3.7173024e-01
 -4.0599074e+00
 -2.5394750e+00
  3.7565595e-01
  3.2154276e+00
 -4.1142046e-01
 -3.6841457e+00
 -1.8377368e-01
 -2.7322730e-01
 -1.0617374e-01
  3.9091498e-02
 -2.9154286e-02
 -1.1103071e+00
 -2.9049017e+00
 -1.0012459e+00
 -5.5966940e-02
  5.0814781e-02
  1.3558085e-01
  5.5880433e-01
  1.1311973e-01
  8.4524117e-02
 -4.8952270e-01
  9.4205612e-01
  5.4273758e-02
  7.6123416e-01
  2.0687883e-01
  4.4348216e-01
  1.2270349e+00
  1.1948803e-01
 -5.2989143e-01
 -8.0042768e-01
 -4.0711132e-01
  2.0168993e-01
  8.8625091e-01
 -6.4450258e-01
  8.8365786e-02
  5.8397198e-01
 -3.6735341e-01
  1.4969842e-01
  2.1573626e-01
  3.7826923e-01
 -6.0044862e-02
 -3.8756244e-02
 -8.7649786e-01
  1.7802171e+00
 -5.6037986e-01
  1.0787476e+00
 -1.3223289e-01
  3.2324543e+00
 -1.5181519e-01
  6.3068902e-01
  3.0107579e-01
 -2.5453951e+00
  1.8724780e-01
 -6.2975436e-01
  2.7607685e-01
 -4.6444380e-01
  1.8463939e+00
 -3.0617309e-01
 -8.2702883e-02
 -1.7557304e+00
 -2.6685292e-01
 -1.6879188e+00
 -5.1773947e-02
  6.6561073e-01
  7.3692816e-01
 -4.8524365e-01
  4.3792941e-02
 -3.6737938e+00
  1.8574846e-01
  5.7515484e-01
  1.3942254e+00
 -1.6337950e+00
 -1.5199369e+00
 -2.2347002e+00
  3.3945519e-01
  1.7206295e+00
  6.8409204e-02
  9.7100675e-01
 -7.5772756e-01
 -1.0933272e+00
  9.1231871e-01
 -2.0177591e+00
 -3.8840461e-01
  4.0786731e-01
 -1.1133815e+00
  2.6907362e-02
 -2.7409563e-02
 -6.2620533e-01
 -1.4104961e+00
 -4.7339806e-01
  3.4438446e+00
  3.7031746e-01
  1.8907455e-01
 -4.9608874e-01
 -3.2224241e-01
  3.0439505e-01
  1.1065993e+00
 -2.4930355e-01
  5.0468165e-01
 -4.7248119e-01
 -2.7730269e+00
  1.2819454e-01
 -7.0974991e-02
  1.4435482e+00
  4.2675769e-01
  2.2184286e+00
  1.2889228e+00
  2.1180750e-01
 -6.1503935e-01
  7.2784626e-01
 -1.0022156e-02
  4.4054312e-01
  5.8370229e-02
 -8.6401835e-02
 -2.4963263e-01
  1.6215973e-01
 -1.0195032e+00
 -7.9625800e-02
  5.3770933e-02
 -1.1963737e+00
  2.3524886e-01
  5.1408452e-01
 -3.7491199e-01
 -6.6805482e-02
  5.4043178e-02
  1.4204816e+00
 -4.7247836e-01
  1.0670181e-01
 -4.7249046e-01
 -2.9604089e-01
  1.3280051e+00
  2.1043125e-01
 -3.5883393e+00
  1.3757540e+00
 -2.4568372e+00
  2.8448446e+00
  1.3318698e+00
 -3.0765054e+00
 -4.7679740e-01
  2.1022530e+00
 -1.5962681e-01
  4.1376114e+00
 -1.8955144e+00
 -8.8964822e-03
  9.6751678e-01
  1.0619322e+00
  5.5511117e-01
 -2.8570093e-02
  1.7485373e-02
 -5.6353372e-01
  1.6998948e+00
 -1.5411021e+00
 -6.9974959e-01
  1.7024683e+00
 -1.2506757e-02
 -7.4906576e-01
 -1.6941924e+00
 -1.9601640e-01
  2.0851670e-01
  1.1274122e-01
  1.3760859e-02
  8.4205933e-02
  2.1072712e+00
 -5.8311927e-01
 -2.2497420e+00
 -1.5841575e+00
  4.1771954e-01
  3.8732428e-02
  6.4746815e-01
  1.2169000e+00
  1.2136600e+00
 -3.1917280e-01
 -1.8555903e-01
 -3.4943637e-02
  6.2758106e-01
  4.9164945e-01
 -4.9150635e-02
 -8.8879079e-01
  1.2167460e-01
  1.4511693e+00
  6.7266309e-01
  1.9303519e-01
 -1.1974269e+00
 -9.2967644e-02
  4.9196291e-01
 -1.0390470e+00
  9.2045721e-03
 -2.2549649e-01
  1.0175610e+00
 -2.7493561e-02
  1.0967444e+00
 -4.5524046e-01
  3.3008024e-01
 -1.2888546e+00
 -9.2049468e-01
 -4.6341965e-01
 -3.4991655e-02
 -1.4954831e-02
 -4.6848071e-01
  5.4392618e-01
 -7.6054600e-03
 -4.3340874e-01
  5.0746781e-01
 -4.4778815e-01
  1.5179142e+00
 -4.1730556e-01
  3.2316780e+00
  3.7269715e-02
  7.1423572e-01
 -3.9636582e-02
  3.8594741e-01
 -2.4342331e-01
 -2.4122791e-01
  6.6923583e-01
 -3.6290595e-01
  4.6031332e-01
 -2.2399059e-01
  3.1664452e-01
 -2.4084991e-01
  2.3153739e-02
  3.4149138e-03
 -6.5513435e-03
  4.8659120e+00
  3.0571213e+00
 -3.0346699e+00
 -2.6599864e-02
  1.8481679e+00
 -2.5788486e+00
  1.3010832e+00
 -3.1298575e+00
  2.2999756e+00
  1.0577626e+00
  4.5005560e-01
  2.0724926e+00
 -1.7660636e+00
 -7.1788698e-01
  6.9797385e-01
  1.1098804e+00
  7.4451655e-01
 -1.1372404e+00
 -5.6260616e-01
  3.0006104e+00
 -3.2319250e+00
  1.6439930e+00
 -2.6803725e+00
 -1.8396254e-01
  2.2048805e+00
 -2.3238971e+00
  1.6169454e+00
  3.8198776e+00
 -7.8607148e-01
  1.3298861e+00
 -1.7891001e+00
  2.0885134e+00
 -1.2668480e+00
 -2.8375235e-01
  2.0009179e-01
  7.7551037e-02
 -3.2778134e+00
 -4.6256447e+00
 -1.9571819e+00
 -2.0398574e+00
  5.0032508e-01
  9.4382548e-01
 -1.6380921e-01
  4.3203270e-01
  2.2314446e+00
 -8.1424218e-01
 -3.0885375e-01
 -5.4625863e-01
  2.7265317e+00
  2.5694394e-01
 -5.0132833e+00
  2.2038057e+00
 -7.6174056e-03
 -7.9932071e-02
  3.1103262e-01
 -1.2526953e-01
  2.0905542e+00
 -1.2553263e+00
 -1.5659907e+00
  2.8488739e+00
 -1.5903273e-01
  1.8578026e+00
 -2.9538119e+00
 -1.8332429e-01
  2.6955788e+00
 -4.0826721e+00
  3.7029672e+00
  1.9072027e+00
  1.5487745e+00
 -2.1253711e-01
 -1.3799919e-01
 -6.7707133e-01
  3.5994121e-01
 -1.4980908e-01
  3.8087070e-01
 -6.1710948e-01
 -1.8158072e+00
 -1.5095718e-01
 -4.0375657e+00
 -9.6369570e-01
  1.0266324e+00
 -9.9292547e-01
 -8.2509674e-02
 -7.9157287e-01
 -3.3033872e-01
 -1.0684429e+00
 -4.3873218e-01
 -1.0889916e+00
 -5.7406444e-02
 -1.0919007e+00
 -4.8367661e-01
 -2.5949994e-01
 -2.5103870e-01
  1.9618052e-01
 -7.4649662e-01
  3.1658750e-02
  2.6736584e-01
 -8.8001645e-01
  5.6810528e-01
 -1.0421706e+00
  7.7553493e-01
 -1.7732388e+00
 -6.0035056e-01
  9.2160410e-01
 -1.4401424e+00
 -4.1927201e-01
  2.6635799e-01
  3.4935961e-03
 -2.0754969e-02
 -2.2191061e-01
 -1.2560672e+00
 -1.4796336e+00
  1.4312468e+00
  1.6631548e+00
 -6.1300639e-02
  2.8432798e-01
  3.1110499e-02
 -7.5173032e-01
  3.1672730e+00
 -2.8373687e-02
 -4.7473186e-01
  2.5560124e-02
 -5.7813036e-01
 -4.2337578e-02
  3.7443403e-02
  5.2131331e-03
  9.9262100e-01
 -1.9424706e+00
 -1.1130270e+00
 -1.6427262e+00
 -1.2842585e+00
 -3.8261077e-01
 -1.2307338e+00
 -3.9179274e-01
 -2.2377838e-01
  7.4937230e-01
  1.1456615e+00
  5.4740208e-01
  1.2821200e-01
  3.9707628e-01
  5.4287404e-01
  1.1311851e+00
 -1.0538720e+00
  8.4078544e-01
 -2.4836318e+00
 -6.5823185e-01
  7.1849637e-02
  3.1635621e-01
 -1.3787671e+00
 -1.3954245e+00
  2.8420231e-01
  1.8915914e+00
 -6.9986679e-02
  2.8536379e-01
 -1.4861815e-01
  1.8049875e+00
  6.7184411e-02
  5.1435560e-02
  1.2153227e+00
  2.7121013e-02
  2.3904624e+00
  2.3991995e+00
 -2.5289041e-01
 -5.6600790e-03
 -1.6121568e-01
 -5.5794221e-01
  6.0197096e-02
  1.4295311e-02
  1.0965999e-01
 -4.3031398e-02
 -9.3596756e-01
 -2.4403770e-01
  4.0009910e-01
 -3.7922520e-02
 -1.1201245e+00
 -3.1262049e-01
 -1.4945635e-02
  2.2385457e+00
 -1.2367631e+00
  3.5832682e-01
 -1.4205252e-01
  1.0167050e-01
  5.7038873e-01
 -1.1697906e+00
  7.6837349e-01
  5.4192692e-01
 -3.6373106e-01
  1.1379917e+00
  9.3825959e-02
  5.8595896e-02
  5.6988025e-01
 -7.9102919e-02
 -4.4019818e-01
 -9.2784464e-01
 -6.8667054e-01
 -1.7253207e-01
  2.5361103e-01
  4.4252284e-02
  1.3270476e-01
  9.0938061e-01
 -1.1252586e-01
 -3.5043877e-01
  2.8790511e-02
  6.0784978e-01
 -7.3808640e-01
  2.0411124e+00
  8.2585305e-01
 -3.7358281e-01
  5.7057488e-01
 -6.1868811e-01
 -1.4554648e-01
  7.8525096e-01
  1.9459186e-02
  5.4972905e-01
 -1.1494050e+00
  6.4692974e-01
  6.8950522e-01
  1.1403431e+00
  7.0761949e-01
 -7.7792710e-01
 -1.5675493e-01
 -1.8691977e-02
 -2.8160784e-02
  1.8796581e+00
 -4.6572775e-01
 -2.4151962e-01
  5.1883215e-01
 -4.2527878e-01
  3.0709532e-01
  1.8285783e-01
  1.7739612e+00
  2.5798733e+00
 -4.3865085e+00
  1.9444976e+00
 -7.3715484e-01
 -7.9229245e+00
  1.0173893e+00
  1.0284896e-01
 -8.5545892e-01
 -3.2569030e-01
 -1.2391379e+00
 -5.1831102e-01
  4.9679136e-01
 -5.0961131e-01
  9.9951786e-01
 -3.5963982e-01
 -5.6356043e-02
  1.1745973e+00
 -2.7968354e+00
  1.6604662e+00
 -4.6817264e-01
  2.0853879e-01
  2.2121178e-01
 -3.0326338e+00
  1.5668796e+00
  1.7641751e-01
  2.5638252e-01
  1.4971678e+00
 -1.3189824e-01
 -9.2870152e-01
 -7.3415941e-01
  2.0904603e+00
  1.3384824e+00
 -2.8428650e+00
 -1.2364377e+00
 -2.3676248e+00
  1.4146554e-01
  5.4649033e-02
 -1.2218291e+00
  2.7869496e+00
 -6.0309324e-02
  8.8039204e-02
  7.1604174e-01
  6.8296336e-02
  1.0072922e+00
 -3.1934097e-01
  3.4786066e-01
  2.0167947e+00
 -1.4727192e+00
  1.0756297e+00
 -4.7762254e-01
  1.4846773e+00
  1.9406593e+00
 -3.5724500e-01
 -7.0792343e-03
 -4.9272992e-02
  4.4429168e-02
  1.2087464e-01
  1.4851098e-01
  1.3612021e-02
 -2.9292968e-01
 -5.7992929e-01
 -3.1761882e+00
  9.8530076e-02
  2.5640240e-01
 -4.2450210e-01
 -6.7062691e-02
  7.4544728e-02
 -2.5027573e-01
 -8.6341375e-01
 -1.3220876e+00
 -1.8238986e+00
  1.9956422e-01
  7.1098465e-01
 -4.7227210e-01
 -6.3328087e-01
  2.8110138e-01
  1.3595366e-01
  2.4814212e-01
  1.6304223e-01
 -1.1667390e-01
 -2.9102285e+00
 -2.0024100e-01
 -4.2025924e-01
  9.3212686e-03
  1.2259560e-01
  2.3077914e-02
  6.6882610e-02
  1.7819244e-01
 -1.6307434e-01
  1.7294807e-02
  5.2286035e-01
 -7.4379814e-01
 -9.8690525e-02
  2.5588495e-01
 -3.0095094e-01
 -2.1942464e-01
 -3.7105057e-01
 -8.5844167e-02
  5.8885612e-02
 -1.7388646e-01
 -2.5647354e-01
 -1.1738778e-01
 -1.0767873e-01
  2.2603297e-01
 -6.9725746e-01
  1.9382444e-01
  2.7906016e-01
 -2.4760596e-01
  1.7417751e-01
 -6.6976881e-01
  2.3609595e-01
 -1.8938795e-01
 -9.9550433e-02
  3.2884398e-01
  3.9460161e+00
  3.8390689e-02
  1.1148924e-01
  1.9895233e-01
  6.2259972e-01
 -2.4384776e-01
  2.3567691e-02
  3.4004977e-01
  3.3970430e-01
 -1.3246949e-01
  2.6537263e+00
  6.5961249e-02
 -1.2780042e-01
 -2.1645185e-02
  2.7819180e-01
 -1.6711888e-01
  1.7712021e-01
  1.8385215e-01
 -1.3405098e-01
 -7.4699394e-02
  2.4545839e-01
  3.8404605e-01
 -2.1763086e+00
  2.4018772e-01
  2.4326930e-02
  8.9777738e-02
  3.8043171e-01
 -2.3570494e-01
 -6.8868659e-02
  1.2529388e-01
 -2.1240529e-01
 -4.6546364e-01
  1.8910758e-02
 -3.2171831e-01
  2.8272024e-01
 -1.8561940e+00
 -7.4360502e-01
  1.5393503e+00
 -4.5374614e-01
 -2.9295518e+00
 -1.8364772e-01
 -4.2008910e-02
 -8.0978799e-01
  7.3938727e-02
 -7.7195799e-01
  3.6653496e-02
 -6.1565489e-01
 -6.0987890e-01
  2.9114255e-01
 -3.8838428e-01
  2.8381257e+00
 -1.1768406e-01
  2.7988774e-01
 -7.2738779e-01
 -9.5366591e-01
  1.1056286e+00
 -2.1124768e-01
 -1.8299069e+00
  1.4277407e+00
 -4.9350715e-01
  1.2647802e+00
 -2.8768283e-01
 -2.6756132e-01
  1.1197416e-02
 -1.4815217e-01
  3.1022230e-01
 -1.1942911e+00
 -2.2985791e-01
  2.6940152e-01
 -4.5110327e-01
  4.6653718e-01
  1.0714323e-02
 -1.9149220e-02
  1.7372940e-03
 -4.5639988e-02
 -2.4769510e-01
  7.1627629e-01
  1.8429948e+00
  8.1298433e-02
 -2.1836728e-02
  7.0754379e-02
 -7.7117693e-01
  1.5127194e-01
 -6.1972640e-02
  4.7959113e-01
  9.9869126e-01
 -5.7433301e-01
  1.7883949e-01
  3.8342196e-01
 -1.1380027e-01
 -1.9552944e-02
 -4.4166721e-02
  1.6708603e-02
  1.9294681e-01
  4.9668461e-02
 -1.6536757e+00
  8.6622882e-01
  1.4625522e-01
 -1.6900131e+00
  8.3133656e-01
 -1.5160279e+00
  4.1190437e-03
  7.6347232e-01
 -1.3474429e+00
  5.4303367e-02
 -9.8103505e-01
  1.7505898e+00
  1.1851628e+00
  4.6469221e-01
 -1.7875779e+00
 -1.0035561e+00
 -1.1798853e-01
  1.5465482e-01
  5.7349175e-01
 -8.3495224e-01
  7.8416327e-03
 -2.0348628e+00
  3.7762406e-01
 -8.5322022e-01
  1.5714459e+00
  1.7673911e-01
  1.3327114e-01
 -6.3577570e-02
 -3.4011129e-02
 -5.3883457e-01
  1.8054007e+00
  1.9594994e+00
 -7.2224855e-01
 -1.4353216e+00
  7.3982537e-01
  6.4462978e-01
 -2.8249371e+00
 -4.7385186e-01
 -1.5444026e+00
  1.4138007e+00
 -3.1386569e-01
 -1.1339705e+00
 -2.3838077e+00
 -3.6394972e-01
  1.0720425e+00
 -1.5089124e-01
  1.3190467e+00
 -1.1044065e+00
 -1.5301028e+00
  1.4318448e+00
 -4.5364201e-01
  2.0235996e+00
  4.7373787e-01
 -5.4063022e-01
 -8.0677456e-01
 -4.2707171e-02
  3.1957808e-01
 -2.9362822e-01
  1.1119630e-02
  4.8967251e-01
 -3.1203117e+00
  3.6822479e+00
  1.3804216e+00
 -1.2185500e+00
  1.4479009e+00
  5.8125758e-01
 -2.9066242e-02
 -7.8828126e-01
 -6.1910802e-01
 -2.1634634e+00
 -3.2168588e-01
 -3.6548670e-02
 -3.1615692e-01
 -1.1349809e+00
 -1.9355557e+00
 -1.4585346e+00
  1.5581739e-01
  1.3925391e-02
 -2.1420082e-01
 -3.8625859e-02
  1.7372280e-01
  1.2710607e-01
 -4.0551561e-01
  3.0200051e-03
  1.1427977e+00
  2.8911097e-02
  2.5671590e-04
 -9.1510616e-02
 -6.7352884e-02
 -6.7423165e-02
  4.1156486e-01
  2.4565215e+00
  3.0443323e-01
 -3.2888097e-01
 -1.2442569e+00
  1.3946661e-02
  8.7497503e-01
 -7.4532640e-01
 -1.0775074e+00
  8.3971870e-01
  1.0360248e+00
  8.6738363e-02
  8.4791529e-01
 -1.9712819e+00
  1.1484704e+00
 -2.2346550e-01
  1.2168036e+00
  2.7426751e+00
 -1.8149980e+00
  1.9261189e+00
 -1.1947759e+00
  2.3905580e+00
  3.3613870e+00
 -5.7394385e-01
  8.4257269e-01
  5.5465437e-03
  1.7618060e-02
 -6.9403458e-01
 -7.4740015e-02
  1.4987145e-01
  1.2755397e-01
  6.2480760e-01
  2.1838936e-01
 -2.0329283e-01
  1.5419021e+00
 -2.9557964e-01
 -5.6865718e-02
  6.9534034e-02
  4.0472922e-01
  5.2749580e-01
  2.6274782e-01
  2.1859449e-01
 -2.0595299e-01
 -5.4332066e-01
  2.0841017e+00
  3.8075127e-02
  1.8590666e+00
 -5.6456697e-01
  1.0971473e-01
 -1.1715853e-01
 -2.0017275e-01
  4.7079287e-02
  3.3862317e-01
  2.9859462e-01
  6.3658573e-02
  1.6200705e-02
 -7.1464553e-02
  1.1729675e-01
 -1.6860552e-01
 -8.6257905e-02
  2.9532146e+00
 -1.9375321e+00
  2.0744333e-01
  1.9601699e+00
 -4.1237926e-01
  4.2458886e-01
 -4.2840652e+00
  1.1824372e+00
 -2.4059193e+00
 -1.0873309e+00
 -1.6073077e+00
 -2.7108636e+00
  2.8457069e+00
 -6.7007673e-01
 -6.1878973e-01
  1.8400321e-02
  2.3395619e+00
  4.8902450e+00
 -3.1279659e+00
 -2.0461347e+00
 -3.0608600e-01
  1.3626924e+00
  6.2358360e+00
 -6.4344257e-02
 -3.1872003e+00
  8.8527662e-01
 -5.4191679e-02
 -2.6806960e+00
  4.3036398e-02
 -4.2672332e-02
  1.3536321e-01
 -9.4100639e-02
  1.5510899e-01
 -1.6642395e-01
 -7.1109082e-03
  9.4037298e-03
 -1.8805100e-03
 -1.4307469e+00
  3.0993601e-02
 -1.0056052e-02
 -3.7187594e-01
 -2.0241573e-02
  5.6790012e-01
  2.4398398e-01
 -7.5055189e-02
  3.8669612e-02
 -3.6373702e-01
 -5.3360868e-02
 -6.5597546e-01
  1.5841410e-02
  1.4114049e-01
 -3.1420670e-02
  8.9324437e-02
 -2.6663633e-02
 -1.9855070e-01
 -3.1894243e-01
 -1.2927240e-01
  2.1970779e-01
 -6.1080176e-01
  1.4906958e-01
  1.1759124e+00
  5.0120715e-02
 -2.3103498e-01
 -1.2254318e+00
 -1.4169818e+00
 -1.1388399e-01
  9.1509908e-01
  7.3015952e-01
  6.6500753e-01
 -7.0485514e-01
  3.9583582e-01
 -8.4411412e-02
  2.2993274e+00
 -2.8698888e-01
  2.6330984e-01
  1.3338153e+00
  5.9075516e-01
  2.5251617e+00
  1.3674476e+00
  4.1522443e-01
  2.9904363e-01
  4.8237121e-01
  2.2855723e+00
  2.2277439e+00
 -4.6081099e-01
 -3.1093082e-01
 -5.7072591e-02
 -1.4264698e-01
 -8.8427402e-02
 -9.7912727e-03
 -3.1729487e-01
  4.8470941e+00
  4.2962396e-01
 -5.6688724e+00
  1.1425785e-01
 -2.3991148e+00
 -2.7063296e+00
 -2.1442652e+00
 -3.7825358e+00
  3.7486372e+00
 -8.6748976e-01
  6.0011595e-01
  1.6902924e+00
 -1.6645522e+00
  1.2128174e+00
 -1.6112105e+00
  6.3400906e-01
  9.4078058e-01
  1.3075177e-02
  1.3706741e+00
 -1.6183819e-01
  8.1587392e-01
  1.7411779e+00
 -3.6764321e+00
  1.7326792e+00
  2.3883186e-01
 -1.6524830e-01
  1.3744952e-01
 -5.8508080e-01
 -4.7565064e-01
 -1.6047500e-02
 -8.8962734e-01
 -4.2622310e-01
  1.3384716e-01
  1.0590925e-01
 -1.1401929e+00
  1.3526587e-01
  1.3986077e+00
  4.1000974e-01
 -1.0672697e+00
 -1.6354637e-01
  1.8326147e-01
  1.3139917e+00
  5.3561479e-01
 -7.6810765e-01
  4.5644578e-01
  1.4697287e+00
 -4.3613109e-01
  9.4518054e-01
 -5.2117932e-01
  4.1746986e-01
 -1.5317776e-02
 -1.2002068e+00
  2.8619754e-01
  4.3628567e-01
  1.1177754e-01
  3.6727440e-01
 -1.1262908e+00
 -4.6854474e-02
 -1.6393961e+00
 -2.4649568e-01
 -1.6249390e+00
  9.6051246e-01
  5.1283009e-02
 -8.2433742e-01
 -3.9501107e-01
  8.2261854e-01
  1.6845492e-01
 -9.8842448e-01
  9.9054039e-01
 -3.1197172e-01
  7.2137791e-01
  2.4806909e-01
 -1.6464847e+00
  1.8550956e-01
 -1.6138390e-01
  9.6913010e-02
  1.0868990e-01
  6.4553654e-01
  4.0611157e-01
  1.1993273e+00
  1.6944001e+00
  5.0010556e-01
  8.7253761e-01
  1.5497578e+00
 -2.2964562e-01
 -1.4257456e+00
 -7.3518008e-02
  3.3016533e-02
  6.5526444e-01
  4.5586783e-01
 -1.7794966e+00
 -3.3012167e-01
  2.7304125e+00
 -1.2954909e+00
 -3.6955476e+00
 -9.0450186e-01
  1.5800471e+00
  2.4019544e+00
 -9.9744362e-01
  2.5709102e-01
 -1.0173197e+00
 -7.6393589e-02
  5.5688280e-01
  1.6363102e-01
  5.0806314e-01
  8.7651116e-01
 -9.6906245e-02
 -4.0678763e-01
 -4.1170976e-01
 -1.0567455e-01
  1.3043352e+00
 -1.3367326e+00
  1.6906532e-02
 -1.6526495e+00
 -2.2976781e-01
  3.9679512e-02
  1.6873078e-01
  4.2912543e-01
  1.4006084e-02
  2.2266726e+00
 -1.7220463e+00
 -2.1656330e+00
  1.8333828e+00
 -2.5444820e+00
  8.8815504e-01
 -1.4069192e+00
 -1.2570671e+00
  3.8837039e-01
 -8.6531240e-01
 -3.0967563e-02
 -2.0072232e-01
 -2.4637435e-01
  2.0052782e-01
 -1.7703770e-01
  1.8685081e+00
 -4.0670317e-01
 -1.0294346e+00
  4.2699680e-01
 -1.6477317e+00
 -3.5663441e-02
 -1.0723829e+00
 -1.4839182e+00
 -9.3176109e-01
  4.8857591e-01
 -2.2590837e-02
 -2.6758811e-02
  2.2233987e-01
 -1.6804138e-01
 -6.5944560e-02
  5.8161461e-01
  1.1022578e+00
 -3.5830123e+00
 -8.6461872e-02
 -1.3307053e+00
 -1.0776721e+00
  2.2729507e-01
 -9.7577408e-02
  8.9767760e-01
 -8.8179797e-01
  1.3552713e-01
 -3.0143144e+00
  3.1189643e-02
 -4.4829103e-01
  2.9557559e-01
 -4.1613764e-01
 -4.0765697e-01
 -2.3357345e-01
 -4.9069595e-01
  1.9522642e+00
  8.5963428e-01
  3.6461896e-01
 -6.5798843e-01
 -1.2180245e+00
 -2.8485301e-01
 -4.3588960e-01
 -2.7843562e-01
 -1.9685339e+00
 -6.7099951e-02
  1.2636068e-01
 -6.4229739e-01
  6.7659020e-01
  1.9366029e-01
  4.0197557e-01
 -2.4218203e-01
 -3.3288207e-02
  2.6579616e-03
 -7.5201327e-01
  5.4661755e-02
  5.1938725e-01
 -1.5052852e-01
  2.2662316e-02
 -4.5669717e-01
  8.9371368e-02
 -1.1077941e-01
 -2.9278835e-03
  4.0531688e+00
 -9.8187119e-02
 -1.5138246e-01
 -3.4008679e-01
 -3.4617400e-01
  1.6970009e-02
  6.7037016e-02
 -3.4084535e-01
  7.3458868e-01
 -3.1592911e-01
  1.6629264e-01
 -2.8987604e-01
  6.0042727e-01
 -4.7017056e-02
  8.2605159e-01
 -3.0319482e-01
 -1.1316173e+00
 -8.6269045e-01
  1.1242491e+00
  3.7830405e-02
  1.6862363e-01
 -7.3734915e-01
 -4.2095207e-02
 -8.2116413e-01
  1.7463669e-01
  5.0442126e-02
 -1.9523962e+00
  1.0834175e+00
 -2.9197866e-01
 -1.9791447e+00
 -6.8904245e-01
 -8.8751279e-02
  1.6005689e+00
  1.0868008e+00
 -2.3632402e+00
 -1.1169000e-01
  8.6379188e-01
  1.0732280e+00
  2.8160360e+00
  1.2697798e+00
  3.3756886e-02
  9.1418363e-02
 -9.1061018e-02
 -4.0688437e-01
  1.4281327e+00
  1.0441709e+00
 -8.2156074e-01
 -4.6694344e-01
  2.0133567e+00
  7.7276260e-01
 -5.8387136e-01
 -2.2208223e-01
 -6.6730934e-01
  1.1153946e+00
  9.1428041e-01
 -1.2017356e+00
 -4.2975891e-01
 -1.6985694e+00
  1.5925539e+00
  1.0121882e+00
 -7.7954161e-01
 -3.2989488e+00
  2.6381550e-02
  3.6380103e-01
  4.9554974e-01
  6.2155074e-01
 -3.5675397e+00
 -4.2475146e-01
  6.4643478e-01
 -4.3592680e-01
 -7.9119146e-02
 -8.6017601e-02
 -3.5392955e-02
  5.4061018e-02
  2.9993969e-01
 -3.6300412e-01
  3.9602527e-01
 -1.3010198e-01
  1.5636549e-03
 -3.8697797e-01
  4.9295682e-02
 -8.6025172e-01
  8.5926041e-02
 -1.2218737e-01
  2.9311487e-01
 -6.4714307e-01
  7.6289862e-02
  6.5440351e-01
 -1.8132660e-01
 -5.3825997e-02
  2.5557104e-01
 -8.9060947e-02
  5.3356707e-01
 -2.1742263e-03
 -1.4646223e-02
  1.4550676e+00
 -1.8145894e-01
  5.0109690e-01
  2.3563817e-01
 -3.3212537e-01
 -2.5044283e-01
 -9.9760070e-02
  2.7235898e-01
 -4.8287997e-01
 -9.0580732e-03
  1.2702000e-01
  1.1566877e+00
  1.1180015e+00
  1.6822264e+00
  1.4981479e-02
  1.2185457e+00
 -1.8116005e-01
  5.6279365e-02
 -6.6499424e-01
  9.1235280e-02
  2.0460591e-01
 -1.3619598e-03
 -7.8269637e-01
  2.5673285e-01
 -2.9933499e-02
 -3.2868946e-01
  3.8285665e-02
 -1.6566665e-01
 -1.9895427e-01
 -5.0277388e-01
 -3.0942042e-03
 -4.4373724e-01
 -7.9654679e-02
 -5.8494118e-04
  1.3589162e-01
 -1.3732964e-02
 -4.7399886e-02
 -1.7363679e-01
 -2.0861891e-01
  2.3198570e-03
 -4.2538519e+00
  3.1575074e+00
 -1.4715298e+00
  3.5690360e+00
 -2.1100931e+00
  1.2215233e-01
  5.4974324e-01
  1.3303745e+00
  3.8440186e-01
  2.1999326e+00
 -5.7736903e-02
  3.6467108e-01
 -1.6019556e-01
  1.3136898e-01
 -1.0154209e+00
 -3.9531991e-01
 -1.2148626e-02
 -9.0942931e-01
  4.1718403e-01
  1.4577699e+00
 -1.2857635e-02
  7.9523819e-04
  1.4057344e-01
 -1.4788562e+00
 -2.4377665e-02
 -2.0958346e-01
  5.2521241e-01
  7.3117897e-02
 -1.5810354e-01
 -2.2025697e-02
  2.6509333e-01
  1.8718457e-01
  1.3623279e-02
 -3.4357011e+00
 -3.8193163e-02
 -1.2440987e-01
  1.8435594e-01
  2.3293735e-01
  1.6408533e-01
 -4.2003179e-01
 -4.7935531e-02
 -1.2165058e-01
  3.4338248e-01
  4.8387983e-01
  7.1491367e-01
 -2.2679761e-01
  3.6726627e-02
  1.8241823e-01
 -3.0419922e-01
 -2.0928875e-02
  5.1747408e-02
  9.2951417e-02
  1.2741798e-01
  9.6067950e-02
 -5.5175398e-02
  6.7819022e-02
 -4.3986756e-01
 -5.2558064e-02
  1.3825221e-02
 -2.5701484e-01
  6.4710438e-01
  8.3508533e-01
 -1.1970897e-02
  1.8973545e-03
  4.2523038e-01
 -7.6580174e-02
 -6.7860329e-01
 -6.4405143e-01
  1.5811886e+00
  2.6328075e-01
  1.0315085e-01
 -3.4360579e-01
  9.5622367e-01
  9.8135310e-01
  6.7397708e-01
  2.2373860e-01
  7.5864289e-03
 -3.5231578e-01
  3.9683318e-01
 -2.0558199e-01
  2.2742894e-01
  1.1237476e-03
  2.5445500e-01
  2.0121367e-01
  2.7951422e-01
  9.2370331e-02
  1.1190808e-02
  6.8919353e-02
  3.5480386e-01
 -1.2217827e+00
  7.4534905e-01
 -2.1289351e+00
 -8.9149559e-01
 -2.6867577e-01
  3.8938141e-01
 -1.2537287e-01
 -4.7456780e-01
 -1.1842209e+00
 -2.7222237e-01
  3.2919899e-01
 -1.2162702e+00
  1.0132426e-01
 -1.3416409e+00
  2.7721202e-01
  1.8316534e-01
  5.3398502e-01
 -6.2808096e-03
 -6.9938377e-02
  7.9991125e-02
  2.4278980e-01
 -5.3205991e-01
  6.7716473e-01
 -6.7486727e-01
 -4.5553422e-01
 -1.1836191e-01
 -1.8822637e-01
 -1.0863982e-01
  1.6809218e-01
  8.2738459e-02
  7.0362911e+00
 -4.5262012e+00
 -8.1978869e-01
  3.3135018e+00
 -2.0034276e-01
  5.8109071e-02
 -1.5461806e+00
  1.1239471e-01
 -3.5046983e-01
 -2.3541918e+00
 -1.4627130e-01
 -1.7405325e+00
  1.9725606e-01
  7.3791988e-02
 -9.7909606e-01
  3.1426988e+00
 -2.3008652e+00
  1.3674569e-01
  1.8369837e-01
 -4.7273488e+00
  3.7214339e+00
 -1.9083741e+00
  4.2466417e-01
  7.1079981e-01
 -4.2489467e+00
  6.7747104e-01
 -3.2328591e-02
 -4.2012054e-01
 -1.3398078e-01
 -1.0138301e+00
 -6.6949952e-01
  3.3528160e-02
  1.2821873e-01
  1.5360105e-01
  7.5567144e-01
 -1.1860818e-01
 -3.9500839e-04
 -3.5984299e-01
  3.2762530e-01
 -3.5436928e-01
  8.1403337e-02
  2.3741093e-01
 -2.2882292e-01
  8.6196117e-02
  1.2780209e+00
  3.3568289e-02
  2.2363517e-01
 -1.8590607e-01
  5.1830399e-01
  1.2482490e-01
  3.1411722e-03
 -1.4145762e-01
 -5.6165397e-02
  3.6898148e-01
  6.2220776e-01
  2.0005366e-01
  1.9597188e-01
 -8.8708801e-03
  4.4530608e-02
 -4.1901112e-02
 -1.1444547e-01
 -2.1539235e-01
  2.9016557e-01
 -8.7570436e-02
  6.3333684e-01
 -5.5446482e-01
  5.3846765e-01
  2.0218143e-01
 -1.5322873e-02
 -2.0247948e-01
  3.5598430e-01
 -1.6623630e-01
  2.3094700e-01
  1.0706517e-01
  3.8370423e-03
 -6.2156010e-02
  2.1587354e-01
  6.5756015e-02
  1.2247047e+00
 -7.0250446e-01
  1.1441956e-01
  9.5001444e-02
  3.6905089e-01
  1.1525120e-01
  1.2727922e-01
  6.8131275e-02
  6.2423196e-02
  1.0423774e-01
  4.5041716e-01
 -1.2930942e-01
  1.0804514e+00
  3.1169975e-01
 -6.9077748e-01
  1.8683029e-02
  1.2083590e+00
  2.8834385e-01
 -1.4596891e-01
  4.6347088e-01
 -1.5139909e+00
  1.6040999e-01
  5.9580947e-03
  6.4635903e-01
  3.7826502e-01
 -6.9113225e-02
 -6.8722898e-01
 -8.1880683e-01
 -2.6604769e-01
  1.3806209e-01
 -7.5392318e-01
  1.0808796e+00
 -5.2183843e-01
 -5.9662962e-01
 -2.3017281e-01
 -1.0830192e-01
 -1.1351398e-01
 -1.2713487e+00
  1.4725673e-02
  2.3648697e-01
  2.5251120e-01
 -2.3385291e-01
  1.6847960e+00
  1.7363479e+00
 -2.4970302e-01
 -4.1111927e+00
  1.5884450e-01
 -5.9446824e-01
  5.1739328e-02
 -6.7187548e-01
  8.8682927e-02
 -7.0739216e-01
  9.0337376e-04
  6.4397186e-01
  1.3028801e-02
  4.2523754e-01
 -2.5568712e+00
  8.2620633e-01
  1.2211421e+00
 -1.9725873e-01
  1.2199800e+00
  1.8760927e-01
  2.5462803e-01
 -2.6645055e-01
 -1.4479028e+00
  1.9058913e+00
 -2.2828437e-01
  3.2019910e-01
  2.1216924e-01
 -5.8844727e-02
  1.2795083e-01
  9.8401213e-01
 -1.6872898e+00
  1.3935411e-01
 -1.0000411e+00
  7.7817178e-01
 -3.8117424e-01
  9.4353753e-01
  2.9602365e+00
 -5.0545585e-01
 -1.9938345e+00
  4.3055511e-01
  1.1974615e+00
  1.7116224e+00
 -1.6307056e+00
  1.4834269e+00
  1.1228203e+00
  2.5243082e+00
  1.9692155e+00
  1.6020073e-02
  1.7732803e+00
  5.4578915e+00
  1.7158983e+00
  1.5882415e+00
  3.8850000e+00
  2.0521457e+00
  4.0950686e-01
 -8.6812896e-01
 -1.8997338e+00
 -2.9099877e+00
 -3.9277225e+00
 -1.7606007e+00
  7.0641416e-01
  1.7335300e+00
 -1.4433551e+00
  1.7968403e+00
 -7.7204251e-01
 -1.7583667e-01
 -2.4330294e+00
  1.9549503e+00
 -3.6646795e+00
  3.9446070e+00
 -3.9691186e+00
 -5.6987298e-01
 -1.6705543e+00
  3.1220779e-01
 -1.4070246e+00
 -4.5667407e-01
  2.7373782e-01
  5.3962117e-01
 -1.5713272e+00
  1.1259115e-01
 -6.3486218e-01
  1.3197760e-01
  2.1467037e+00
  2.6690075e+00
  1.3057427e+00
  4.2172545e-01
  3.1512547e+00
 -8.1253833e-01
  9.0195119e-01
  1.5039574e+00
 -3.6536634e-01
  2.0451336e+00
 -6.2812287e-01
  3.7516155e+00
 -3.7248281e-01
 -5.7032299e+00
 -1.6619958e+00
 -5.2138700e+00
 -1.1311560e+00
 -4.1985788e+00
  2.4391713e+00
 -5.3543937e-01
 -1.3980714e+00
  1.5699365e+00
 -2.6554878e+00
  1.7834650e+00
 -2.5460660e-01
  1.9193376e+00
 -3.4565141e+00
 -1.4380844e+00
 -7.4631661e-01
 -1.6650233e-01
 -8.9598763e-01
  1.0119088e-01
  2.2840139e-02
  8.0077887e-01
 -2.1654227e+00
  6.2793809e-01
  1.4495492e+00
 -3.9040449e-01
  3.4243980e-01
 -1.5716294e+00
 -1.5007800e+00
  1.0503099e+00
  4.4511203e-02
 -4.4640419e-01
 -2.0277650e+00
 -6.5121573e-01
  1.9672978e-01
 -1.0084606e-01
 -3.7680972e-01
 -1.6701185e+00
 -1.2551404e+00
  5.9284729e-01
  8.9104438e-01
 -3.1034437e-01
 -6.3370204e-01
  1.2537727e-01
 -8.0494970e-01
  5.3909951e-01
 -1.4558810e+00
 -1.0519698e+00
  4.4701867e+00
 -4.4252026e-01
 -2.7415808e-02
 -3.2790264e-01
  2.5032705e-01
  3.2605333e+00
 -8.3217986e-02
  1.0309194e-01
 -3.9161319e-01
 -2.0611233e-01
 -6.2127329e-02
 -1.4601563e+00
  7.5241691e-01
  1.3562621e-01
 -7.2410345e-01
 -2.7018035e-02
 -2.3255925e-01
  4.7584161e-02
 -2.7564883e-01
 -4.8324171e-02
 -7.5500021e+00
  4.1688728e-01
  4.7957757e-01
 -1.3571543e+00
 -9.1942966e-02
 -2.2959380e-01
  5.2662987e-01
 -1.3031069e+00
 -1.1593475e-01
 -7.1637815e-01
  2.6043897e+00
 -1.8255569e+00
 -1.2578151e+00
 -5.4517823e-01
  9.6495920e-01
 -1.3441992e-01
 -3.7385398e-01
  1.6525185e+00
  1.1421021e-01
 -1.3560209e+00
 -3.6821295e-02
 -5.5452287e-01
 -6.2434798e-01
 -1.2545040e+00
 -5.0024748e-02
 -1.8015032e-01
 -4.0076828e-01
  2.1678372e-01
 -1.3820276e-01
 -3.4565800e-01
 -1.0070081e-01
 -1.0350372e-01
 -7.8368865e-02
 -7.7729434e-02
 -1.1109683e-01
  9.9375345e-02
  5.1912453e-02
 -3.0193356e-01
 -9.1597244e-02
 -2.6359543e-01
 -2.5334275e-01
  2.0451739e-01
 -2.4544327e-02
 -9.6744120e-02
 -3.2028908e-01
 -2.1442139e-01
  1.5125578e-02
  2.2299582e-01
  3.2433897e-02
 -4.5406923e-02
 -6.4293168e-02
 -6.7476198e-02
  5.5928558e-01
 -6.2124383e-02
  1.0175908e-01
 -1.4589974e-01
  1.2245590e-01
  2.9890218e-01
 -3.6638554e-02
 -6.8800613e-02
 -1.4216879e-01
 -4.4292919e-02
 -9.5024116e-02
  9.8721527e-02
  2.0726565e-01
  1.7201039e-01
  7.4719228e-02
 -3.8985319e-03
  7.4695319e-02
  1.5547340e+00
 -1.3453637e-01
 -1.1338321e+00
 -4.1552669e-01
  4.8629795e-03
 -2.4823807e-01
  7.6174284e-03
 -8.7780856e-02
  7.5517647e-02
  2.2455311e-01
 -1.3509689e-01
  1.0109298e-02
  1.1223330e-01
  2.6678342e-01
 -1.4188440e-01
  6.1551380e-01
  1.7909328e+00
  5.4136509e-01
  3.4720855e+00
 -3.3938508e-03
  2.4175744e-01
  6.4160764e-02
 -1.3775310e-01
 -4.7217835e-02
 -1.9576849e-01
  3.4301788e-01
  3.1358978e-01
 -2.3034753e-01
  4.9777657e-01
  1.4967008e-02
 -9.6665752e-01
 -3.8199093e-02
  2.1648474e+00
  5.6145412e-01
  6.9856420e-02
 -2.8089047e-03
 -5.5362407e-02
  8.4857777e-02
  1.1745614e-01
 -4.9994928e-03
 -6.6132755e-03
  7.8559101e-02
 -4.1149709e-01
 -2.3477472e-01
  2.3942378e-01
 -6.4062840e-01
 -2.6401255e-01
  4.0821597e-02
  6.4491659e-02
 -6.5057516e-02
 -4.5014676e-03
 -1.8073429e-01
  3.2135159e-01
  6.7170405e-01
 -2.3584421e-01
 -2.3522276e-01
  5.1481191e-02
  1.0837319e-01
 -2.0499320e-01
  6.0134822e-01
 -2.9491217e+00
 -3.4907025e-01
 -4.4785786e+00
  1.6450804e-02
 -8.4500360e-01
  1.1563990e+00
  1.9033626e-01
  4.8847307e-02
  2.5638888e-02
 -3.9648864e-01
  1.6112338e-01
 -1.9196365e+00
  2.1236871e-01
  3.5719240e+00
 -1.0846163e+00
  3.6241043e-02
  8.4941521e-02
 -2.2152218e-01
  1.5807183e+00
 -3.1943640e-01
  3.6491540e-01
 -6.7344189e-02
 -7.8709826e-02
  6.1093707e-02
 -2.8740048e-01
 -9.1022588e-02
  1.2001960e-05
  3.8617411e-01
  1.1274525e-01
 -1.0654972e-01
  8.9825422e-01
 -6.6710927e-02
 -1.2305880e+00
 -4.3891463e-01
 -1.3293110e+00
  4.1983709e-01
 -1.9596972e-01
 -3.3650434e-01
  3.3368668e-01
 -2.3192909e-02
 -1.4417063e-02
 -6.5546292e-01
  3.8683449e-03
 -3.6167166e-01
 -3.8488257e-01
  3.5532631e-02
 -3.3470288e-01
 -5.3228181e-02
 -4.9711880e-03
 -8.7606376e-01
 -4.0064737e-02
 -1.4369233e-01
 -7.1366221e-01
 -2.9465929e-01
 -2.8860450e-01
 -8.8038296e-02
  4.3846735e-01
 -9.2816137e-02
  1.4005196e-02
  4.1526639e-01
  1.2848116e-01
 -7.8566208e-02
 -1.8934189e+00
  1.1581492e+00
 -1.3627845e-01
 -9.3997225e-02
  1.6566439e+00
  1.9855550e-01
 -9.6068585e-01
 -3.0127713e-01
  8.8029772e-01
 -4.3511469e-02
 -1.5681306e-02
  3.2911118e-02
  2.6528196e+00
  1.2260798e-03
 -5.2930552e-01
  2.4968274e-01
 -1.4804105e+00
 -2.8239477e-01
 -1.0240995e+00
  2.7991772e-01
  1.1251768e-01
  5.8221447e-01
 -1.7898709e+00
 -3.0392317e-02
  5.8087189e-02
  4.0056428e-01
 -3.5981521e-02
  4.3855559e-02
 -3.0106239e+00
 -4.3408897e-02
  5.3143549e-01
  6.0859197e-01
 -1.4435986e-01
 -2.8303805e-01
  1.5450755e-01
  3.8394272e-01
  1.8670276e-01
 -8.4394209e-02
 -1.0785970e-01
  1.9703908e-01
 -1.5144919e-01
  5.1009697e-01
 -7.9041228e-02
 -2.0597774e-01
  2.7287060e-02
  1.1888497e-02
  1.1774292e-01
 -1.0732635e-01
  7.9862781e-02
  6.3112669e-02
 -4.0726256e-01
  1.4225279e-01
  7.2479695e-02
  8.5212421e-03
  1.5426894e-01
 -3.6921859e-01
  1.7083850e-03
  1.9242464e-01
  4.8792955e-01
  1.6993600e-01
  5.2290779e-02
  1.3747889e-01
 -4.2190376e-01
  2.8032308e-02
 -1.2027148e-01
  9.5454045e-02
 -9.4306506e-02
 -1.2329847e-01
  7.9178840e-02
  3.1665999e-01
  6.6819146e-02
 -3.6208332e-01
 -1.5662991e-01
  1.9902292e-01
  1.0156489e-01
  8.0221884e-02
  7.5562852e-03
 -3.4377802e-02
 -7.8586623e-02
  1.1977236e-03
 -1.1512477e-01
  2.6811886e-01
 -5.6601286e-02
  1.5428472e-01
  5.2475297e-01
 -3.9345649e-01
 -2.4689253e-01
 -1.1380895e-01
  2.1155176e+00
 -2.9608794e-02
 -4.8788232e-01
  6.3461974e-02
 -2.2361559e-01
 -8.8052846e-02
  1.4171173e-01
  1.5241680e-01
  2.7509058e-01
 -4.2213220e-02
 -1.3148578e-02
 -4.5347297e-01
 -1.9452013e-02
  1.1839976e-01
 -7.5480483e-02
 -5.3055577e-02
 -1.4426953e-01
 -3.5304242e-01
  1.2915553e-01
  4.2863865e+00
  2.5719249e-01
 -6.2613696e-02
 -3.0079659e-02
  1.0174727e-01
  3.3978537e-02
 -3.4258568e-01
  7.0231058e-02
  2.5472882e-01
 -2.2693560e+00
 -2.8536660e-03
 -1.9477130e+00
 -3.3828363e-01
 -1.6179327e+00
 -9.2198527e-01
 -6.4077023e-03
 -8.8480391e-02
 -3.7481710e-02
 -1.4247496e-01
 -2.9646763e-01
  1.7193149e+00
  4.7496763e-01
  4.9363354e-01
  5.0649071e+00
  1.8586195e+00
  1.0013987e-02
 -3.0878249e-01
 -2.0925887e-01
 -2.5060889e-01
  1.4891649e+00
 -2.5035152e+00
  3.7120852e-01
 -1.5759180e-01
  2.2889711e-01
 -4.4020757e-02
 -5.3329997e-02
  6.1707001e-02
  5.4608399e-01
 -7.3243153e-01
  9.9971108e-02
  1.7307281e-01
 -1.5161213e+00
 -1.7834482e+00
 -4.4005141e-01
 -3.0175123e-01
  1.9556770e-01
 -2.4878511e-01
  1.9018553e+00
  1.7732480e+00
 -1.1082053e-01
  4.5187092e-01
 -1.6610894e-01
  1.1781287e+00
 -8.1447884e-02
 -5.4531145e-01
  1.3814902e-02
 -1.3353246e-01
  1.3407031e+00
  1.3012514e+00
  1.4361604e+00
  1.8855466e+00
 -1.5108070e-01
  5.8860064e-01
  1.7579677e+00
 -1.7786785e+00
 -1.1335721e+00
  1.4298269e-01
 -2.1353910e-02
 -1.1802976e-02
 -9.8913324e-01
 -2.2899003e+00
  7.4016476e-01
 -3.2668059e+00
 -1.9379457e+00
  1.4842485e+00
 -1.0055237e+00
 -1.9082007e-01
  1.4703690e+00
  4.6960995e-01
 -1.2346017e-01
 -1.6358650e+00
 -3.3074203e-01
 -2.1763399e-01
  5.9799969e-02
 -1.2943476e+00
  5.3471529e-01
 -3.6092046e-01
  3.2556396e+00
 -1.1651311e+00
 -4.5318322e+00
  2.4684900e-01
 -1.1017854e-01
 -1.0900795e-01
 -2.0000432e-01
  2.0268118e-01
 -5.2178389e-01
 -3.6815396e-01
  2.5702119e-02
  6.0214710e-01
 -1.2419009e-02
  6.3753450e-01
 -1.2235456e+00
  5.7305805e-02
  2.0273893e-01
 -8.6481738e-01
  4.5071527e-01
  1.2656219e+00
  9.2428333e-01
  1.9348439e+00
 -2.0275970e-01
  4.5676017e-01
  1.4534227e+00
  7.7328950e-01
 -1.6110080e+00
 -4.8073623e-01
  3.0228752e-01
  2.5587964e+00
 -8.2206702e-01
 -1.1117591e+00
  7.4997246e-01
  9.6864736e-01
  2.9751847e+00
 -1.6306322e+00
  3.1836689e-01
  6.1288780e-01
 -4.0334530e-02
  2.5100130e-01
 -1.3375744e-01
 -5.2120317e-02
  9.3393230e-01
 -6.7448878e-01
 -7.8475541e-01
  4.1995156e-01
  6.9175583e-01
 -2.8661363e+00
  9.9953473e-01
  7.5702250e-02
  1.6219918e+00
 -1.3884108e+00
  4.0940571e+00
  1.2042211e+00
  4.8972030e+00
  1.2288728e+00
 -2.2806573e+00
 -3.5275811e-01
  4.0092719e-01
  9.5540452e-01
 -2.7740914e-01
 -8.9433485e-01
  1.6202483e+00
  8.7517470e-01
  4.9659020e-01
  4.4594157e-01
  3.9331502e-01
 -4.9048325e-01
 -8.1344590e-02
 -2.3261516e-01
  1.6558614e+00
 -1.3606080e+00
 -1.8866280e+00
  5.6814444e-01
  2.9110022e+00
  8.1686914e-01
  2.2745481e-01
  1.8585390e+00
 -2.6811285e+00
 -6.6110879e-01
  8.8328999e-01
  1.6484951e+00
 -1.6982832e+00
 -8.8896900e-01
  3.6274877e-01
 -4.4773787e-01
 -6.3923597e-01
  2.5111499e-01
 -1.2343950e+00
 -3.4324286e+00
 -1.3588222e+00
 -1.3156166e+00
  3.9935157e-01
 -1.4979053e-01
 -1.6164906e+00
 -2.3564508e+00
 -2.9061675e+00
  2.7628917e-01
  1.3193871e+00
  4.2926994e-01
  1.8057110e+00
  2.7053723e+00
 -6.9853729e-01
  2.5799096e-01
  5.1289082e-01
 -9.1288376e-01
  5.7119459e-01
 -5.2338558e-01
  2.2434254e+00
 -8.1555963e-01
 -2.1066844e-01
  1.4043908e+00
 -1.6580603e-01
  3.6797626e-03
 -7.0547754e-01
  3.9232785e-01
  5.6155473e-01
 -4.5452991e-01
 -2.4135493e-01
 -6.8961489e-01
  1.9891227e+00
  1.2281607e+00
  2.7426392e-01
 -2.0526944e-01
  1.3669008e-01
  9.2324369e-02
  3.0011764e+00
 -1.2203625e-01
 -1.4968322e-01
  1.1794685e-01
  2.1260351e-01
 -5.1666832e-01
 -1.7267281e-01
 -1.1206806e+00
  1.0290874e+00
 -9.9666350e-02
 -7.5382136e-02
 -6.6387218e-01
  6.5702879e-01
 -2.2678080e-01
 -3.5261154e-01
 -8.0533105e-01
  3.1219205e-01
 -2.8934270e-01
 -2.8640038e-01
 -1.7476659e-01
  1.5887569e-01
 -1.9334167e-02
  7.1106541e-01
 -2.5499015e+00
 -4.4600810e-03
 -1.1011100e+00
  7.1038485e-01
  7.4375808e-01
 -6.8892740e-02
  2.9838864e-02
 -6.9776364e-02
 -1.3771343e-01
  1.9507977e-01
 -8.4429055e-02
  9.0327603e-01
  2.7164316e-01
 -1.4479370e-01
 -2.6361045e-01
  4.9430037e-01
 -1.1820006e-01
  2.6061669e-01
 -3.3127463e-01
 -2.3266095e-01
  9.7533095e-01
  4.2749129e-02
  6.7185342e-01
 -6.7829806e-01
  1.9227516e-02
  5.0361037e-02
 -9.0123974e-03
  5.2139944e-01
  3.2982585e-01
 -1.4462443e-01
  2.9597273e-01
  6.7926504e-02
 -2.3941515e-01
 -1.6919063e-01
 -3.7164383e-02
  1.1503136e-01
  1.2714557e-01
 -5.9041336e-02
 -1.5903385e-01
  1.2453356e-01
  7.2365530e-02
  1.1819972e-01
  1.3690476e-03
  1.7720057e-01
 -1.3054495e-01
 -3.2393548e-01
  6.0555792e-01
 -3.2367449e-02
 -6.4577049e-01
 -5.6351699e-02
 -8.4893126e-03
 -1.2762706e-01
  3.4687232e-02
 -1.8855168e-01
 -7.9374716e-02
  3.1558621e-01
 -1.1775952e-01
 -5.2311349e-01
 -1.7614666e-01
  1.6795024e-01
  6.5002948e-01
 -1.2813239e-01
  1.3859534e-01
  1.9181125e-01
 -1.7499753e+00
 -5.0792117e-02
 -1.0667688e-01
  1.5514465e-01
 -5.0732765e-02
 -1.9450568e-01
 -3.6385953e-01
  2.4809020e-02
 -2.1350078e-01
 -5.1531833e-02
 -1.2826325e-01
 -1.7480138e-01
  3.5375271e-02
 -3.9228427e-01
 -4.5113459e-02
 -7.9600893e-02
  1.4699945e+00
  4.6807274e-01
  1.0667776e-01
  4.8432779e-01
  3.2161791e-02
 -1.1520676e-01
  2.1652727e-01
 -2.9466143e-03
  1.5632699e-01
  3.3344164e-02
  9.1485965e-01
 -5.4401517e-01
 -1.2469342e-01
 -7.7213980e-02
  1.1865917e-01
  2.9276931e-01
 -6.3771330e-02
 -3.7798069e-02
 -2.7962020e-01
  2.4038681e-01
 -1.5602647e-01
  4.7832545e-02
 -6.4551748e-02
 -4.5918536e-01
  1.6773866e-01
 -8.4547371e-01
  4.1893952e-02
  2.0649350e+00
  4.2216864e-01
  1.8319821e-02
 -8.1181258e-02
  1.5976289e-01
  6.8862662e-03
 -6.5351747e-02
 -2.2319178e-01
  2.8523414e-03
  1.2126136e-01
 -2.0359607e-01
 -2.2104029e-02
 -3.7535369e-01
  7.0053758e-04
 -3.3706030e-01
  7.6413505e-02
 -2.6194340e-01
 -1.3300586e-01
 -1.4653051e+00
 -1.3616274e-02
 -3.6677897e-01
  2.6544854e-01
 -4.9481136e-03
  8.8382244e-02
 -4.2136428e-01
 -1.5876358e-02
 -5.5737175e-02
 -2.9049687e+00
  2.2592510e-01
  4.3949419e-01
 -1.4817945e+00
 -1.5827603e+00
 -6.0589194e-01
  3.7332037e-01
  3.4303910e-01
  3.7163264e-01
 -3.3671569e-02
 -2.2103965e+00
  1.4048438e+00
  2.7622588e+00
  2.1267035e+00
 -2.9929376e+00
 -6.5847617e-01
  5.1503664e-01
  3.2704905e-02
  8.9330685e-01
 -2.0209134e+00
 -2.5977722e-01
  1.1689558e-01
 -6.1676543e-02
  1.1288730e+00
 -2.5367722e-01
 -8.1650242e-02
  6.4741992e-03
 -2.1853538e-01
  3.8160399e-01
  2.6077275e+00
 -7.8518456e-01
  1.4846251e+00
 -2.9854617e-01
  1.9556718e-01
 -4.5333046e-01
 -2.5056720e+00
 -1.2045796e+00
 -4.4428858e-01
  6.3667405e-01
 -9.4066167e-01
 -8.2930094e-01
  1.5373416e-01
 -4.9969450e-01
 -2.0380647e-01
 -5.2223706e-01
  3.0546638e-01
 -3.9870501e+00
 -2.6430018e+00
  1.4721696e+00
 -3.7615335e-01
  3.3125299e-01
 -2.1148551e+00
 -1.7706436e+00
 -2.7522737e-01
 -4.6950009e-01
  1.6738892e+00
 -6.4318776e-01
  1.7182335e+00
  1.3183309e+00
 -9.2203909e-01
  3.9168782e+00
 -2.1439180e+00
  2.6369183e+00
  6.9274014e-01
 -3.0658104e+00
  1.8037648e-01
 -5.7649761e-02
  4.2376316e-01
  1.1299261e-02
 -2.3135548e+00
 -2.3488107e-01
  9.5854834e-02
 -4.1802073e-01
 -5.5170590e-01
 -1.4014690e-01
  5.6676197e-01
 -8.8693060e-02
  1.8421581e+00
 -7.2620943e-02
  4.8246764e-02
  9.1154498e-01
  9.8349430e-02
  1.1115367e-01
 -2.2271819e-01
 -4.0612742e-01
 -3.0089700e-01
 -8.1648380e-02
  5.5796333e-04
  6.8009454e-01
  1.7538648e-02
  9.9817537e-02
 -1.2762055e+00
  7.0249766e-02
 -1.0181181e+00
  7.6593205e-02
 -1.8111948e+00
 -8.8490617e-01
 -1.1888576e+00
  9.1098756e-01
 -6.0859668e-01
 -1.1143817e+00
  3.0733320e-01
  7.7802318e-01
 -8.0829519e-01
  1.4958635e-01
 -1.5141161e-01
 -1.5950394e-01
 -1.9385783e-01
 -7.2702843e-01
  1.1415367e-01
  7.4785542e-01
 -4.5783326e-02
 -1.8617244e+00
  3.2828832e-01
 -1.6067435e-01
 -2.0030184e-01
 -6.0141462e-01
  6.6188687e-01
  1.3251612e+00
  5.7260793e-01
  4.7937471e-02
  2.7041906e-01
  5.1697746e-02
  2.5995770e-01
  4.6355960e-01
 -7.8323849e-02
  5.9955690e-02
  5.8772999e-01
  1.0586088e+00
 -1.3140607e-01
 -1.2023611e-01
 -1.6852784e-03
  4.2525908e-01
  2.8255874e-01
  4.4854529e-02
  2.5887638e-01
  2.8307769e-01
  1.7666025e-02
 -2.9742730e-01
 -1.9286923e-01
  1.3340325e+00
  3.9557934e-01
 -3.5055912e+00
 -2.4805547e-01
 -1.3316043e-01
  4.4676229e-01
  4.3367881e-01
  1.3379472e+00
 -8.3021510e-01
 -1.4596552e-02
  7.4207658e-01
  5.2389421e+00
 -1.5503286e+00
 -7.3951584e-01
  2.5576134e+00
 -6.2801208e+00
  5.0561891e+00
 -2.2193766e+00
  5.9084409e-01
 -2.3245569e-02
 -3.2626166e+00
 -3.4883785e+00
  1.0480760e+00
  3.5235593e-01
 -1.7992411e+00
 -1.5303172e+00
 -5.7387397e-02
 -4.8533535e+00
 -2.9276655e+00
 -2.2242106e-01
  9.0876669e-01
 -1.2051350e-01
 -1.0734619e+00
 -9.7536975e-01
 -1.0686656e+00
  8.6084917e-02
  2.4416504e+00
  1.0854141e+00
  1.6580346e-01
  8.7907501e-02
 -6.5587096e+00
 -9.3938822e-01
 -1.8234535e+00
 -1.9071453e+00
  3.0203635e-01
  2.3105529e-01
  4.1979572e-01
 -5.3934538e-01
 -9.0180516e-02
 -5.4585960e-02
  8.6043519e-01
  7.9234429e-02
 -1.4387249e+00
  4.9820680e-02
 -1.6307597e-01
  2.6379952e-01
  1.0723213e+00
 -9.6160516e-02
  7.9192221e-01
  6.2862062e-01
  8.3428562e-01
  9.6026562e-02
 -1.0075734e+00
 -2.9031792e-01
  1.3941015e+00
  2.6123065e-03
 -2.4841437e-01
  6.1859295e-02
  1.8494426e-01
  3.5279989e-01
 -2.1980073e-02
  9.5967256e-02
 -1.9896695e-01
  3.2836795e-01
  4.2990130e-01
 -1.9880769e-01
 -1.4570451e+00
 -1.0571311e-01
  9.1321039e-01
  4.4715106e-02
  2.6154521e-01
 -1.3870102e+00
 -2.0874774e-01
  1.9490863e-01
 -1.3014931e-02
 -6.7029953e-01
 -6.2681162e-01
 -2.1942602e-01
  3.7369105e-01
  8.0708694e-03
  5.1324457e-01
 -3.4076363e-02
  2.3061365e-03
 -1.5245830e+00
  4.8810724e-02
  1.2066146e-02
 -4.4353832e-02
 -6.7010760e-01
 -8.4604353e-02
  4.6628874e-02
  1.7071339e-01
  1.0721067e+00
 -2.9415569e-01
 -1.8092794e+00
  2.4151237e+00
  7.5067693e-01
 -1.3377309e-01
  4.0158013e-01
  9.1139263e-01
  1.8709505e-03
  1.3210757e-01
 -6.4960122e-01
  3.2416658e+00
  2.8531166e-02
 -7.2019786e-01
 -2.4859405e-01
 -1.2532933e+00
 -7.5268775e-01
  1.3291982e-01
 -4.4509447e-01
 -4.7696576e-01
 -1.9828492e-01
  8.4461085e-03
 -1.6329978e-01
 -1.4602177e+00
 -5.4437917e-01
 -6.9244659e-01
  9.5727450e-01
  3.2172915e-01
 -3.7361789e-01
  2.6625076e-01
 -4.5901874e-01
  4.6184200e-01
 -3.6306795e-02
 -2.1960422e-01
  2.0832986e-01
  1.1251258e-01
 -3.7222579e-02
 -4.0641870e-02
  1.6294642e-01
  2.6337692e-01
  2.2607937e-01
 -1.2200652e-01
 -1.4939758e-01
  7.7265114e-02
 -1.2589175e-01
  4.6580013e-02
  3.7267979e-02
 -1.1798877e-01
  1.4511824e-01
 -9.7077146e-02
 -5.6263912e-02
 -1.0997218e-01
  5.1693220e-02
  2.5252517e-02
 -4.0107135e-02
 -2.0892854e-01
  2.5254953e-01
 -1.6718964e-01
 -2.3398912e-02
 -1.4073980e+00
 -4.2220122e-01
  8.8296995e-02
 -6.2086755e-01
 -4.4290245e-01
  1.2660073e+00
 -8.0513519e-01
  3.9239126e-01
  1.0925460e+00
 -1.5122279e+00
 -2.0708753e-01
 -8.4160650e-01
  4.9846593e-01
  7.1626669e-01
 -5.8598405e-01
 -2.7357979e+00
 -8.8671103e-02
 -3.8858458e-01
  3.9479047e-01
  3.4126371e-01
  1.7367591e-01
 -3.7291366e-01
 -1.9709506e+00
  6.9314256e-02
 -2.4575375e-01
  8.7349705e-02
 -1.8046705e-01
  1.7284789e+00
  1.0392046e-01
  5.9493530e-01
  1.9276883e-01
 -2.9311805e+00
 -1.3949969e+00
 -3.1810873e+00
 -1.3858433e+00
  9.9169552e-01
 -1.3437147e+00
 -1.1855317e+00
  5.4174834e-01
  8.9273494e-01
 -1.7249148e+00
 -1.9497858e-01
  2.7842298e-01
 -1.8625526e-01
 -4.3298411e+00
 -2.2409542e+00
  1.3214055e-01
 -1.2421259e-01
 -1.8258986e-01
  9.2121142e-01
  1.0506574e+00
  1.1433164e+00
 -1.6356546e+00
 -9.9096619e-02
 -1.6733751e+00
  1.1692410e-01
  2.6863029e-03
 -1.7320452e+00
 -8.4796578e-01
  3.7833732e-01
  2.5370190e+00
  5.4051619e+00
  1.9251349e+00
  3.4175122e+00
  2.2128658e+00
 -3.0808078e-02
  8.4029645e-01
  5.5279929e-02
  3.8436222e-01
 -5.8298673e-02
 -7.2641808e-01
  8.0108501e-02
  7.3100716e-01
  4.5237258e-01
  2.0446134e+00
 -1.9119385e+00
  1.2455962e+00
  1.8142377e-01
  8.7904447e-01
 -3.3046728e-01
 -7.8950450e-02
  1.1727955e+00
 -8.3454722e-01
 -3.1856334e-01
 -1.7867225e+00
 -2.0862596e-01
 -1.3266437e-01
  1.6314103e-01
 -1.1039664e+00
 -1.6211991e-01
 -2.0971838e-01
  6.6707361e-01
  2.5846711e-01
  6.2235344e-02
 -5.0674655e-02
 -7.8312796e-01
  1.7219945e+00
  5.6200377e-03
 -5.8000457e-02
  1.1678283e+00
  6.3515246e-02
 -7.7325940e-01
 -6.7067802e-02
  6.7244850e-02
 -5.3346175e-01
  3.1402014e-02
 -2.3836838e-01
 -9.1450661e-01
 -5.3559887e-01
  3.6614981e-01
  4.0780196e-01
  8.1305140e-01
  8.5602206e-01
 -3.5951394e-01
 -2.0906498e-01
  1.0040510e-01
  2.4324700e-01
  1.1889318e+00
 -2.6240410e-02
 -5.1596630e-03
  3.3505712e+00
  1.0930837e+00
  3.6475320e+00
  2.1294398e+00
 -7.7437663e-01
 -1.1764187e+00
  2.2357845e-01
  4.5353329e-01
 -5.3240424e-01
  2.8401082e+00
  8.8345844e-01
  1.1006171e+00
  8.7060761e-01
 -2.0385962e+00
  1.0453735e-01
 -2.5399387e+00
 -2.7653759e-02
  9.2613643e-01
 -2.8283901e+00
  1.7040985e+00
 -1.5385697e+00
 -3.4556854e-01
 -2.6286995e-01
 -8.5987180e-02
 -3.9478222e-01
 -7.7140296e-01
  8.8820502e-02
  1.1397970e-02
  1.1328473e+00
  1.9761954e-01
 -3.6196348e-01
  1.0012841e-01
  8.3405867e-02
 -5.9196699e-01
 -5.5526114e-01
  1.5324190e-01
  3.3212658e-02
 -2.3569559e-01
  2.3067562e-01
 -1.4532128e-01
 -1.4366713e-01
 -1.6187201e-01
 -2.3466581e-01
 -1.9620410e-01
  8.0701865e-02
 -3.2718706e-01
 -1.8793383e-01
  2.9910322e-02
  7.1679899e-03
 -2.7912176e-01
 -7.6800450e-03
  2.3599526e-01
 -3.1312400e-01
 -2.5954717e-01
  6.1841723e-02
 -1.7760080e-01
 -4.6320960e-01
 -4.8347525e-02
  3.8467568e-01
 -1.2551759e-02
 -1.2983142e+00
  7.9670733e-01
 -3.9180760e+00
 -2.1724823e+00
  1.6990286e+00
 -7.8168607e-01
  9.6272123e-01
  5.2860653e-01
 -3.8497498e+00
 -1.4806662e+00
  1.8033440e+00
  1.8404657e+00
 -1.4592940e+00
 -1.4828095e+00
  9.7937357e-01
  2.1758306e+00
  1.0914793e+00
 -1.0575405e+00
 -1.3050069e+00
 -2.5793276e+00
  1.8358121e+00
  9.7670221e-01
  2.3464289e+00
 -2.5853124e+00
 -9.5065451e-01
 -1.6191381e+00
 -7.0194161e-01
 -1.9047062e+00
  1.5462719e+00
 -2.5155742e+00
 -2.3868096e+00
 -1.3255117e+00
 -3.8122859e+00
 -1.7928805e+00
 -3.3789105e+00
 -6.5324557e-01
  9.9655807e-01
  6.2013578e-01
 -5.4603547e-01
  1.8231984e+00
 -1.8375928e+00
 -1.8022819e-01
 -9.4740230e-01
 -1.1095212e+00
  4.6445483e-01
 -1.6906250e+00
  2.2580488e+00
  1.5896994e+00
 -2.3132608e+00
 -2.1454597e+00
  9.4450235e-01
  7.4089062e-01
  2.9921988e-01
 -3.6889739e+00
  2.3381009e+00
  2.1380272e+00
  5.1620102e-01
  1.8318881e+00
 -2.2532418e+00
 -1.9721110e+00
  9.9846327e-01
  5.1286113e-02
  6.1819835e+00
 -6.3074594e+00
 -2.5314662e-01
 -1.6729007e+00
  1.2788406e-01
 -1.4795064e+00
  9.3829226e-01
  5.0434774e-01
 -1.4446861e-01
 -1.7922602e+00
 -1.4918536e+00
 -1.1431001e+00
 -2.4767985e+00
 -3.4605169e-01
  1.0767826e-01
  6.9705021e-01
  3.3810917e-01
  1.7850848e+00
 -4.6882835e+01
 -2.6927223e+00
  2.9496424e+00
  9.9188006e-01
  2.1892085e+00
  4.9401349e-01
  1.6359950e+00
  1.8760668e+00
 -1.5602640e+00
 -1.6347953e+00
 -5.7823563e-01
  1.1415590e+00
 -2.8848181e+00
 -2.2148808e-02
  2.0782699e-01
 -2.3445282e+00
  1.2759919e+00
 -5.8544672e-01
 -3.0368006e+00
 -8.2867789e-01
 -1.2462608e+00
  1.7891331e-01
  3.8742471e-02
 -1.0418212e-02
  1.4906414e-01
 -9.0911096e-01
 -4.1242689e-02
  9.7916365e-02
  2.6462052e+00
  7.3234105e-01
  6.1808032e-01
  2.8116405e+00
 -1.0582495e+00
 -3.1963019e+00
  3.9593546e+00
 -9.0014733e-02
  1.6179531e+00
  4.5436895e-01
  9.5198828e-01
 -2.3118789e+00
 -3.8973689e+00
 -3.7633103e-01
 -2.0125134e+00
  5.0159293e-01
 -1.0457987e+00
  7.3424101e+00
  2.5892884e-02
 -1.8266287e+00
  2.1673088e-01
  2.5844827e+00
  3.5881343e+00
  4.8887615e+00
  7.9433268e-01
 -2.4710872e+00
 -5.1331210e-01
 -1.1119850e+00
  4.1001902e+00
  6.7867026e-02
  3.8541564e-01
 -6.1844759e-02
 -4.0729231e-01
 -1.9205277e-01
 -2.1148105e+00
  1.2282986e-01
 -1.1137723e+00
 -3.0183196e+00
  2.0751750e+00
  2.6872230e-01
  4.0544307e-01
 -1.6696646e+00
 -1.2260282e-01
  7.8106977e-02
  4.7789995e-02
 -1.3790469e+00
  3.9673857e-02
  5.6303066e-01
  1.4636366e+00
 -6.2574916e-02
  4.4356837e+00
  1.7694484e+00
  3.1163125e+00
  4.7515268e+00
 -8.2974167e+00
  2.0712330e+00
  1.5355860e+00
  5.1653421e-01
  2.1409249e+00
 -2.5937641e+00
 -3.6534882e-01
  1.7203060e+00
 -4.1491795e+00
  3.6078084e+00
 -4.7829539e-01
 -1.0109497e+00
  2.7775209e-02
 -2.3457179e+00
 -1.2964907e+00
  1.8038216e+00
  2.5845482e+00
  3.6995504e-02
  1.8661915e+00
  2.6132503e+00
  1.6923790e-01
 -1.3936900e-01
  5.8140177e-01
 -2.5115294e+00
 -1.4122943e+00
  1.0229614e+00
  4.4566490e-02
  3.6110630e+00
  1.6753128e+00
  2.0558636e-01
 -2.6435235e+00
  2.4527369e+00
 -5.6111640e-01
 -3.0248979e-01
 -2.5707245e-01
 -3.9457691e-01
 -1.9803350e+00
 -5.7367712e-01
  6.9715518e-01
 -2.8795071e+00
  1.1451873e-02
  1.1540318e+00
 -3.8899353e-01
 -2.4136806e+00
  4.8761997e-02
  1.8829026e+00
 -4.4291282e-01
 -2.3255472e+00
  9.2704469e-01
  5.6556329e-02
 -3.2613280e+00
  5.1818603e-01
 -8.5328710e-01
 -1.1146853e+00
  1.5774127e+00
  2.1640113e-01
 -2.1499462e+00
  6.8620276e-01
 -3.3974856e-01
 -6.4339952e+00
 -1.1586185e+00
  5.5867004e+00
  1.6079031e+00
 -8.3448887e-01
  1.2412726e+00
  3.1611338e+00
  3.1703451e-01
 -2.6511642e-01
  1.7760146e+00
 -1.3463478e+00
 -2.3497936e-01
 -2.7744749e+00
 -2.8072782e+00
  3.5177317e-02
 -2.2213616e+00
 -1.4925297e+00
  3.7674192e-01
  3.7774020e-01
 -8.5135061e-01
 -7.2444242e-01
  2.5994136e+00
  3.4971118e-01
  1.1908467e+00
  1.6240874e-01
  7.8496885e-01
 -1.3046067e+00
 -2.2527387e+00
 -3.8370883e-01
 -1.6592872e+00
 -7.8624386e-01
  1.2548847e-01
  3.0392299e+00
  1.3804017e+00
  2.9817021e-01
 -5.6424010e-01
  3.5712078e+00
 -1.2581720e+00
 -1.0135496e+00
 -9.1070592e-01
 -3.0302035e-02
 -6.7337580e+00
  3.2961378e-01
  4.3282607e-01
 -2.3500500e+00
 -2.8301833e+00
  1.5815562e+00
 -2.4925110e+00
 -3.5233083e-01
 -2.4205713e+00
 -1.4411440e+00
 -1.5017426e+00
  1.7121440e-01
  4.4805482e-01
 -1.1899169e-01
  1.6482529e-01
 -5.3132588e-01
 -2.3477523e-02
 -1.5922023e-01
  2.3566911e-01
 -1.6418976e-01
 -1.1919916e-01
 -1.8677872e-01
  2.9751978e+00
 -5.4283042e+00
 -2.0733941e+00
 -5.2328577e+00
  6.4470822e-01
  8.8164806e-01
  1.5984594e+00
  6.1522681e-01
 -4.0015596e-01
  2.7669296e+00
  2.2587694e-01
 -2.2990721e-01
  2.2275561e-01
 -3.7508218e+00
 -1.8688022e+00
 -6.8792939e+00
  1.3443288e+00
  2.9066439e+00
  1.4481094e+00
  2.3513973e+00
 -1.2389450e+00
 -1.3786604e-02
 -8.9347094e-01
 -8.4495270e-01
  9.8136646e-01
  2.1178527e+00
 -7.6628768e-01
  3.5717973e-01
 -2.0842858e-02
 -4.1226583e+00
 -1.1748636e+00
  2.1368248e+00
  1.4410203e+00
  5.7932239e+00
  1.5395427e+00
 -1.9322815e+00
  1.5283855e+00
  2.5018160e+00
  3.0593357e+00
 -1.3655596e+00
 -1.3198467e-01
  2.0399709e-01
 -4.3372220e-01
 -1.6772337e-01
 -9.8570788e-01
  8.7144516e-02
  1.4825835e+00
  1.8490191e+00
  4.5945950e+00
 -6.7021189e+00
 -3.8113706e+00
 -2.2361414e+00
 -6.3882703e-01
 -2.4827690e+00
 -1.4454972e+00
  1.9507976e+00
  1.1257740e+00
 -3.4313645e+00
 -1.6864997e+00
  1.3868290e-03
  6.5136182e-01
  5.7817264e-03
 -4.2897906e+00
 -2.3983567e+00
 -1.4066616e+00
 -8.3353311e-01
  2.4977083e+00
  3.4443181e+00
 -1.1849277e+00
  8.1456965e-01
 -1.9747019e-01
 -1.1663363e+00
 -5.6668043e-01
 -2.4336703e+00
 -1.6389066e+00
 -2.3950250e-01
  2.5860419e-02
 -6.1967331e-01
  1.0103674e+00
 -7.9811268e+00
  2.1610241e+00
 -2.4597259e+00
 -2.4948003e+00
 -8.9166611e-01
  2.3857951e+00
  2.1298044e+00
 -3.7045205e-01
 -3.2465756e-01
 -5.1839747e-02
  1.6166307e-01
 -6.4081508e-01
 -8.5471195e-01
 -6.2826210e-01
  3.1642985e+00
 -2.3831246e+00
 -3.9061570e+00
  9.5835781e-01
 -1.8118852e-01
 -1.0623735e+00
 -8.5522521e-01
  1.3180751e+00
 -1.9007331e+00
 -7.5596404e-01
 -1.8774285e+00
  1.4437142e-01
 -1.8271066e+00
  3.4414012e+00
  2.1412080e-02
 -1.8598837e-01
  2.3785124e-02
 -1.6819382e+00
  7.2880536e-01
  2.3869684e+00
 -1.9897280e+00
  1.4913948e-01
 -2.4836679e+00
  1.0398980e+00
 -2.6991744e+00
 -5.1972094e+00
 -6.7256510e-01
  1.3314173e-01
 -3.0005827e+00
  1.8882331e+00
  6.2214440e-01
 -5.1451969e-01
 -5.6229291e+00
  2.4886792e+00
  1.1790109e+00
 -6.2932569e-01
 -3.2786744e+00
  2.4142380e+00
 -6.7197180e-01
 -1.5842466e-02
 -1.4443620e+00
  1.0431427e+00
 -1.1449915e-02
  6.4261723e-01
 -4.6135335e+00
  2.3588142e+00
 -1.1791375e+00
 -2.4287564e-01
 -4.0134878e+00
 -1.2124156e+00
  3.5062709e-01
 -2.9767683e-01
 -1.9905120e+00
 -1.2537830e+00
 -1.3451005e+00
 -7.1995206e-02
 -1.4545106e+00
  4.8656607e+00
 -9.7235477e-01
  6.6457078e-02
  1.1330019e+00
  8.4064627e-01
  3.7808144e+00
 -1.4029303e+00
 -7.4521685e-01
 -2.0049005e+00
 -1.2033156e+00
 -1.4269893e+00
  1.4651366e+00
 -1.3648784e+00
  1.5591981e+00
 -8.9102787e-01
  3.8391857e+00
  2.2271698e+00
  5.7101482e-01
  4.7111884e-01
 -6.7726946e-01
 -3.1675255e-01
  1.2017361e+00
  1.2410444e-02
 -1.7893007e+00
 -5.8052048e-02
  1.0738339e+00
 -1.5059804e+00
  7.5520061e-02
  1.8842654e+00
  3.0704117e+00
  6.7608070e-01
 -2.5648913e-01
  1.7669096e+00
 -9.7348213e-01
  1.2673875e+00
 -2.1721518e+00
 -4.2471194e-01
 -2.1851864e-01
 -1.8124468e+00
 -4.4409819e-02
 -1.9329311e+00
  6.2120933e-02
 -4.6054411e+00
 -1.0633162e+00
 -1.6398855e+00
  3.9199779e+00
 -4.2620185e-01
 -1.7295402e+00
  2.0785658e+00
  4.3168283e+00
  1.0477380e-01
  6.8044823e-01
  3.4369657e+00
  5.4012135e-02
 -4.0820575e+00
 -6.8817604e-01
 -9.2891818e-01
  5.1382155e+00
 -2.1682096e+00
  2.8883243e+00
 -1.5600884e+00
 -9.9326694e-01
  1.7237473e+00
  2.3852220e+00
  3.5955751e+00
 -5.9978716e-02
  2.6169364e+00
  1.0485855e+01
  4.7074933e+00
  1.0473059e+00
 -1.3812852e+00
  1.1000437e-01
  3.2473403e-01
 -2.9486856e-01
  8.0945522e-01
  6.4982188e-01
  6.5599251e-01
 -2.7059982e+00
 -6.5814060e-01
  1.7883209e+00
 -5.2465968e+00
 -1.4431571e+00
  2.4840583e-01
 -3.2359867e+00
 -3.2790582e+00
  2.5178647e-01
 -9.3218483e-02
 -5.1005678e+00
 -1.3771235e+00
  5.1878719e+00
  1.8114898e+00
 -2.1052565e-01
 -5.6388462e-01
  9.3474936e-01
 -2.0562820e+00
  1.7363348e+00
  2.2548690e+00
  4.8123255e+00
  4.9825385e-01
  2.0717406e+00
 -1.3798746e+00
 -2.1785499e-01
 -3.7891653e+00
 -5.0906682e-01
 -1.3161980e-01
  7.5597992e+00
  3.1325173e-01
  4.4185953e+00
  1.0340599e+00
 -7.8272355e-01
 -3.8909659e-01
  3.8800724e-02
 -6.4152218e-02
  2.8700538e+00
  2.0999720e+00
 -2.8311779e+00
 -4.6669121e+00
  2.8049177e-01
 -6.7792559e-01
  8.2461037e-02
 -3.4560904e-01
  2.1149364e+00
 -2.1276815e+00
  1.5864843e-01
 -4.6204194e-01
  3.0887336e-01
 -2.2485256e-01
 -4.2768535e-01
 -1.1646388e-01
 -8.1903684e-01
  9.9044460e-01
  1.5191969e+00
 -2.1027884e-01
 -1.0108804e+00
  3.3568261e+00
 -4.5582744e-01
 -6.2968224e-02
 -2.2633340e+00
 -7.1610439e-01
 -2.9156842e+00
 -7.3310876e-01
  1.3523656e+00
 -3.0063751e+00
  5.8147663e-01
  2.6838460e+00
  1.6980294e+00
  3.8635182e+00
  3.8166664e+00
  1.2810158e+00
 -1.0740006e+00
  1.1473430e+00
 -2.5612159e+00
 -6.9092107e-01
 -1.4662902e+00
  4.4024497e-01
  2.0730441e+00
  2.9119244e+00
  3.6060112e+00
 -1.1734595e+00
  2.4513271e-01
  1.6708387e+00
  7.8361356e-01
  2.2173185e+00
  4.6365361e+00
  7.4479580e-01
  7.8257585e-01
 -7.2899348e-01
  2.0982847e-01
 -2.4245420e+00
 -1.1510814e+00
 -4.1993058e-01
  1.6658849e-01
  1.3837721e+00
  5.5347580e-01
 -2.2298245e-01
 -7.0683384e-01
 -2.5926352e+00
  3.5636282e+00
  2.7697155e+00
  2.2139587e-01
  1.4196510e+00
 -1.1107111e+00
  2.8751583e+00
  2.0042111e-01
 -1.4459608e+00
 -2.7531675e-01
  1.1616272e+00
  2.2547920e+00
  5.7057819e+00
 -1.6056561e+00
  1.8687924e+00
  1.0904342e+00
 -5.5275149e+00
  2.2145810e-02
 -1.8062534e-02
 -5.4226810e-01
 -1.1821919e-01
  2.5886461e-01
 -4.9767479e-01
 -5.6669917e-02
 -4.4025678e-02
  8.5700768e-01
  1.6244204e+00
  7.2073877e-01
  7.4896002e-01
 -6.9820243e-01
  2.5008178e+00
 -4.3013009e-01
  1.8557832e-01
  3.8869371e+00
 -1.4690657e-01
 -2.4268212e+00
 -1.9314094e+00
 -7.5931758e-01
  2.6691108e+00
  3.3280227e-01
 -2.2546305e-01
  1.1868029e+00
  5.2597260e+00
  7.5929737e-01
 -1.3066341e-01
 -5.3566623e+00
  9.5211774e-01
  3.1654522e-01
  1.9684786e+00
 -2.2446165e+00
  2.1740308e-01
  1.8105060e+00
  4.8094460e-01
 -8.5529965e-01
  7.4371177e-01
 -5.8096676e+00
 -1.5229820e+00
  1.6146492e+00
 -1.2459475e+00
  3.9277415e+00
  4.0966299e-01
 -7.4838114e-01
  9.0118212e-01
  2.1180658e+00
 -8.3567612e-02
 -2.9726655e+00
  2.4002349e+00
 -1.2778156e+00
 -1.4119110e-01
 -1.5305227e-01
  1.7719727e+00
 -7.2751737e+00
 -2.8454487e+00
 -6.7285520e-01
  2.7731414e+00
  2.1825156e+00
  2.9338069e+00
  2.2030468e+00
  1.0257446e+00
  1.6553832e+00
  1.1225455e+00
 -6.7630686e-02
 -9.5150697e-01
 -4.4868794e-01
  1.8995185e+00
 -6.0030483e-02
  2.0479650e+00
 -1.5951030e-01
 -2.4137473e+00
 -1.8703271e+00
 -1.9076954e+00
  1.7661316e+00
  1.8249228e+00
  2.0496261e-01
  4.2614584e+00
 -3.0987504e+00
  5.1510067e+00
 -2.4952029e-01
 -2.5833340e+00
 -2.3815653e+00
  2.6195875e-01
 -1.1247595e-02
 -2.5264844e-01
  1.4288727e+00
 -1.2390332e+00
 -3.4684293e-02
 -1.5965141e+00
  1.8471146e+00
  3.7369810e-02
  2.5082650e+00
 -1.3386827e+00
  1.4173878e+00
  1.5772173e+00
  1.6500033e-01
  3.8342413e-01
 -2.0589764e+00
 -5.8105677e-01
 -1.9945530e+00
  1.0357511e-02
 -3.5092466e+00
 -7.6503307e-02
  1.5544562e-01
 -6.0754905e+00
  2.7695448e+00
  1.4239103e+00
  2.8642278e+00
 -1.8988333e+00
 -2.2439894e-01
 -3.1640649e+00
 -5.0055575e-01
 -1.1399031e+00
 -2.6750979e+00
 -3.9137581e-01
 -1.2640439e+00
 -7.7382737e-01
  2.1878009e+00
  3.1397052e+00
  1.3857955e+00
 -1.6871154e+00
 -8.2578394e-04
 -7.5521815e-01
  3.1792529e+00
 -3.7772264e+00
 -3.1646255e-01
 -2.1360440e+00
  7.6616842e-01
  4.2786202e+00
 -1.0164415e+00
 -5.2348346e-01
 -3.8608089e-01
  6.2714344e-01
  3.2273299e-01
 -3.7666622e-01
  1.3929919e+00
 -7.2848099e-01
  2.5073714e+00
  2.9300375e+00
  3.3098371e+00
 -1.5734248e+00
 -6.1425388e-01
 -3.9929796e-02
  1.9251357e-01
  2.7861655e+00
 -2.6616132e+00
  2.3858008e-01
 -3.4785703e-01
 -1.6501896e-01
 -2.3490958e+00
 -2.8082523e+00
  7.5417995e-01
 -9.2147663e-02
  1.7614308e-01
  2.4270692e+00
  2.1157951e+00
 -5.8323526e-01
 -1.9855876e+00
 -1.4346399e+00
  7.1749628e-01
 -2.3913643e+00
  2.0744178e+00
 -1.6320621e+00
  1.0834178e+00
 -1.7335619e-01
 -1.4990643e+00
  5.4079992e-01
  4.8554173e-01
  1.8881102e+00
  1.6240085e+00
 -1.2322396e+00
 -1.3427367e+00
 -5.5173039e-01
  1.2905912e+00
  2.2957540e+00
 -4.3879369e-01
  5.7465564e-03
 -3.6266732e-01
  3.7665895e-01
 -1.7596880e-01
 -9.1953903e-02
 -4.0810842e-02
  1.5836319e-01
 -1.6736677e-01
 -7.1338739e+00
 -2.1375358e+00
 -1.9450046e+00
  1.7666893e+00
  7.4828339e+00
  5.1901994e+00
 -2.1999106e+00
 -3.6357031e+00
 -6.3095860e+00
  5.9001748e-02
  2.7772386e+00
 -1.9666679e-01
  1.1903765e+00
 -3.3235376e+00
 -1.8792640e+00
 -2.7408299e+00
  3.8464744e+00
  9.8132343e+00
  7.0553274e+00
  2.9788804e-01
 -7.2731513e-01
 -4.3210230e+00
 -4.8800668e-01
 -7.3068845e-01
 -3.4887075e+00
  1.1602732e+00
  5.8200252e-01
  5.9451449e-01
  2.0496841e-01
  3.5834527e+00
 -1.5203918e+00
  7.5896531e-01
 -1.0173509e+00
 -1.4165189e+00
  8.4873259e-01
 -2.8537931e+00
  5.6208402e-01
 -9.9614823e-01
 -1.4981866e+00
  7.5767416e-01
 -3.3010051e+00
  2.7418327e+00
  5.1916438e-01
 -6.9359377e-02
  8.5307336e-01
 -8.1956469e-02
 -2.5842258e-01
 -1.0704315e+00
 -6.9353662e+00
 -3.1681321e+00
  1.0592656e-01
  1.0097603e+00
  1.7397149e+00
  1.8818260e+00
  3.9275167e+00
  3.0768569e+00
  1.8931187e+00
  2.3040276e+00
 -1.0716923e-01
  1.9504783e+00
  1.4129037e-02
  1.2632675e+00
 -2.8105192e+00
 -3.3208554e+00
  7.8295308e-01
 -2.7597015e+00
  1.1990654e+00
  3.8099435e-01
  5.3068125e-01
  2.5499876e+00
 -8.2582140e-01
  7.0528162e-01
  1.2176590e+00
  8.1545615e-01
 -1.3430867e+00
 -1.6554053e+00
 -2.4156950e+00
 -4.8516040e+00
 -1.0370684e+00
  1.0365943e+00
 -5.9577274e-01
  1.8944892e+00
  2.5857177e+00
  1.6711600e+00
  7.3108256e-01
 -7.2190446e-01
 -1.1167624e+00
 -2.6971209e+00
  7.0310432e-01
 -3.5642073e+00
  1.9144840e+00
 -3.3768587e-02
  4.6657163e-01
  5.4338342e-01
 -2.1241892e-02
 -1.2634081e+00
 -1.0101366e+00
  5.3715807e-01
 -7.3310323e+00
 -2.6262686e+00
  3.6656353e+00
 -6.9931918e-01
  4.3506616e-01
 -2.1600015e+00
  1.3515241e-01
 -2.8432444e-01
  1.3290736e-01
  3.4204327e-02
  8.7128168e-01
  3.4597677e-01
 -1.2534970e+00
 -1.9343871e-01
 -2.8228865e+00
  1.5474669e+00
 -5.5645287e-01
 -8.3126527e-01
  1.1168289e+00
  2.6802490e+00
  3.9223623e+00
  1.2844812e+00
 -1.7456677e+00
  3.2219214e+00
 -3.7329738e+00
  1.0495849e+00
  6.5174639e-01
 -4.6284148e-01
 -3.9117965e-01
  1.8508725e+00
 -1.3180577e+00
  1.1135309e+00
  2.8642282e+00
  1.4363174e-01
  4.4327989e-01
  1.6342071e+00
  1.3185494e+00
  1.4834026e+00
  3.9217196e-02
  3.9412794e+00
 -3.5634825e+00
  6.6671979e-01
  2.5812954e-01
 -1.6589053e+00
  3.5272688e-01
  3.9510257e+00
 -5.2011120e-01
 -2.0029786e+00
  5.4276233e+00
  2.5485094e+00
  1.2187562e-01
  5.6301051e-01
  2.5056074e+00
  2.4703171e+00
  1.1026093e-01
 -2.7813230e+00
 -2.6477761e+00
 -1.8062807e+00
 -1.4293921e+00
  6.0339117e-01
 -1.1872977e-01
  1.1665036e-01
 -4.0507751e+00
  3.8894257e-01
  1.4808491e+00
 -8.1998354e-01
 -8.2972437e-01
 -7.3169541e-01
  2.1140294e+00
 -1.3134728e-01
  2.4061608e+00
 -1.3103539e+00
 -3.3784151e-01
  6.0832441e-01
 -4.8034784e-01
  1.7346168e+00
  2.9868424e-01
 -2.1078718e-01
 -5.0877042e+00
 -7.6797880e-02
  2.7258813e+00
  1.5487034e+00
 -5.9649386e+00
 -1.4703363e+00
 -7.8054053e-01
 -1.8035245e+00
 -3.2420525e-01
  1.0782344e+00
 -5.8955944e-01
  9.5119745e-01
  3.9391286e+00
 -2.4997869e+00
  5.9338551e-02
 -5.6507931e+00
  4.6268520e+00
  5.0728798e-01
 -2.0072756e+00
  1.2382078e+00
 -3.4877411e-01
 -1.0820835e+00
 -6.7638016e-01
  6.7051637e-01
 -9.4182976e-02
  3.1469810e-01
 -6.7309700e-02
  4.5299582e+00
 -4.7399755e+00
 -3.7176592e+00
 -3.0581658e+00
 -1.1374239e+00
  2.1174390e+00
  2.0002110e-01
 -1.0678345e+00
  1.0091244e+00
 -4.9797907e-01
 -3.9238352e-01
  6.2170467e+00
 -2.5388043e+00
  1.0162832e+00
  2.9384158e+00
 -4.3445283e-01
  2.6888888e+00
  3.3002267e+00
  5.9213966e-01
  2.5048656e+00
 -2.9896762e+00
  2.3378923e+00
  2.2814677e+00
  1.2366229e+00
 -8.1265414e-01
 -2.5015470e-01
  1.5060230e+00
  2.8521664e+00
 -6.6660970e-01
  5.3405082e-01
  2.4758575e+00
  2.4604361e+00
 -2.9084330e-02
  3.2033794e+00
 -4.8500594e-01
  9.0123242e-01
  1.2307113e+00
  6.9350362e-01
 -1.8779218e+00
 -1.2244061e+00
 -2.5015669e+00
  1.1784575e+00
  4.9320560e-02
  1.8040423e-01
 -2.3498411e+00
  2.6227407e+00
  1.8543924e-01
  2.6286876e-01
  1.6744634e+00
 -3.4544832e-01
  3.0527332e+00
 -1.6213897e+00
  4.9142723e+00
 -3.9138827e-01
 -1.2525142e+00
 -2.0338616e+00
  9.1196990e-01
  5.7588696e-01
 -2.6327270e-01
 -3.8644812e+00
 -4.9005857e-01
 -1.5046401e+00
 -3.0285919e+00
 -1.2220719e+00
 -5.5703753e-01
 -3.3826973e+00
  3.0832422e+00
 -9.3608433e-01
  5.1722569e+00
 -1.3951340e+00
  8.6554891e-01
  8.3320254e-01
  1.9292928e+00
  1.0014579e+00
  7.5325036e-01
 -2.0049419e+00
  7.6462254e-02
 -4.6361154e-01
 -6.2359995e-01
  7.4921139e-02
  1.3137301e+00
 -1.4391649e+00
  1.8826610e+00
  4.1599494e-01
  8.1646872e-01
  2.3909688e-01
  4.4270149e-01
  6.4173567e-01
  1.5394082e+00
  5.6821692e-01
  2.0885724e-03
  6.0808039e-01
  2.2838213e+00
  1.7130688e+00
  1.8089973e+00
  9.3256706e-01
  3.2610507e+00
 -2.9648860e+00
  2.1713898e-01
  2.4629042e+00
  1.2156975e+00
 -2.6298885e+00
 -1.1541319e-02
 -1.8563671e+00
 -3.4611452e-02
  3.8938251e-01
 -1.3602612e+00
 -1.4626239e-01
 -2.5131449e-01
  2.4025683e+00
  2.1010091e+00
 -1.3646297e-01
  5.0133520e-01
 -3.8401830e+00
  4.5309358e+00
  1.3973126e-01
 -3.1957147e-01
  2.2304816e+00
 -1.2853714e+00
  9.4635671e-01
 -2.4422724e+00
  8.4942764e-01
  3.3815041e-01
 -7.8550369e-02
  5.2995342e-01
 -5.0632167e+00
  1.0995842e+00
 -5.7396073e+00
 -1.9214876e-01
  5.0822797e+00
 -5.3350478e-02
 -4.1228528e+00
 -1.2225835e+00
  5.4237038e-01
  1.0494717e+00
  2.8638079e+00
  7.9755414e-01
 -1.2035556e+00
  6.7892170e-01
 -2.6323447e+00
 -6.9345158e-01
 -2.4419858e+00
  5.6716572e-02
 -5.2718717e-01
 -1.0667049e+00
 -1.6827403e+00
 -2.3765695e+00
  2.9726205e+00
 -8.7649298e-01
 -1.3463271e-01
 -1.1643034e+00
 -1.5839344e+00
  1.4808621e+00
 -1.3337232e+00
  4.7161597e-01
  2.3236057e-01
  1.8481517e-01
 -1.1573561e+00
  1.2045660e+00
  6.4837872e-03
  2.2791557e-01
 -2.8216801e+00
  1.7582819e+00
  4.7988658e+00
 -7.5669095e-02
  2.1637924e+00
 -1.7970569e-01
 -2.1043644e+00
 -2.2256949e+00
  5.5303985e-01
 -2.4681802e+00
 -6.0518301e-01
 -2.3928902e+00
 -1.2955091e+00
 -3.4221163e+00
 -2.3983190e+00
 -2.1277745e+00
 -2.9601759e-01
  1.5113946e+00
  2.0890935e-01
  2.8531184e+00
  5.5913329e+00
 -9.8608392e-01
 -1.7208439e+00
 -2.1132014e+00
  1.7348343e+00
 -1.6440691e+00
  3.3632832e+00
 -3.3867402e+00
