nep4 2 Ga O 
cutoff 8 4 221 29
n_max 8 8
basis_size 12 8
l_max 4 2 0
ANN 50 0
  1.4627109e-04
 -2.8453872e-03
 -2.4942670e-03
  7.5160670e-03
 -2.5378269e-04
 -4.1805496e-03
  2.0452358e-03
  1.2633217e-02
 -1.2711607e-02
 -1.9429924e-02
  2.8660216e-03
  7.3195160e-03
 -1.1161326e-03
 -5.4003606e-03
  2.5197756e-03
  9.2283767e-03
  1.0235339e-03
  1.0438888e-02
 -1.2605572e-03
  1.9040850e-03
  8.1091106e-04
 -2.3152868e-03
 -4.1122964e-04
  2.2472399e-03
  2.1919452e-03
 -3.0546477e-03
  4.8389048e-03
 -2.9113933e-03
 -1.2079979e-02
 -1.2616672e-03
  2.3285265e-03
  3.5841130e-03
 -3.1970870e-02
  7.2183209e-03
  2.5649052e-03
  2.8479926e-02
  2.5814832e-03
  8.5679125e-03
  1.7710665e-03
  2.8695751e-03
 -1.5925419e-03
  2.6895690e-03
  2.3654178e-03
 -1.6022365e-03
  1.6596723e-02
 -3.3698457e-03
  4.5497674e-03
  1.7342311e-03
 -2.7204833e-03
 -5.0267945e-03
 -1.6827500e+00
  1.3874847e-02
  6.6150841e-03
  1.2496257e-02
 -9.2220176e-03
  2.2539077e-02
  9.6429139e-03
 -3.4254470e-03
  8.8733435e-03
 -2.4902733e-04
  3.3823543e-03
 -1.3623739e-03
 -1.3292859e-02
  6.6818609e-03
  4.1454840e-03
  1.7229851e-02
 -7.8803720e-03
 -1.6463073e-02
 -1.3145343e-02
  2.6304871e-03
  2.7393206e-04
 -4.1261851e-03
  3.5112172e-03
 -5.6865388e-03
  3.2406594e-04
 -5.9260321e-03
  1.0602425e-02
  5.1372615e-04
 -3.4221166e-03
  3.4423007e-04
  5.2332222e-03
  4.3938262e-03
 -8.6982868e-04
 -1.0334925e-03
 -3.3723076e-03
 -6.4037847e-03
  2.3728062e-03
 -1.4823409e-03
  5.3887874e-05
  1.2836357e-03
  1.1567900e-02
 -4.7413171e-03
  2.5516415e-03
  2.1231206e-02
  5.0912844e-03
 -1.2334711e-03
  8.2157552e-04
  2.3388162e-03
 -1.6976717e-03
 -1.8729731e-03
 -1.0147301e-02
  2.4881263e-04
 -4.6577523e-04
 -2.6888516e-02
  1.1570947e-02
  1.4967959e-03
  1.1529117e-03
  5.7560406e-03
 -1.4017625e-02
  1.9410482e-02
  1.0569087e-02
 -4.1767075e-03
  3.9281864e-03
  3.7777799e-03
 -3.6933229e-03
 -3.2504598e-04
  1.0483852e-01
  3.0322142e-03
 -4.1224328e-03
 -4.9944222e-03
 -3.6797931e-03
  3.8919246e-03
  7.9906031e-02
 -5.4170801e-03
 -9.6628983e-03
  9.8957692e-04
 -3.5065298e-03
 -3.9807553e-03
 -1.4121603e-02
  8.5051404e-03
  1.8156084e-03
 -2.5317648e-03
 -1.3557727e-03
 -1.6076390e-03
 -3.4211695e-03
 -1.1863254e-02
 -7.4737845e-04
  7.0947460e-03
  3.1683019e-01
 -8.7494571e-03
 -1.1933063e-03
  1.3595669e-03
  7.8285462e-04
  1.5399412e-02
  6.6947103e-03
  5.1791249e-03
 -5.4710533e-04
 -6.2583215e-03
 -2.6206009e-02
  2.7487529e-03
  1.6884989e-03
 -1.0886124e+00
  8.6344313e-03
  5.4775816e-03
 -3.0972697e-03
  3.5936346e-03
  5.4991222e-04
  2.7899228e-03
  6.9961310e-03
  3.1458559e-03
 -1.1081029e-02
  4.7659860e-03
 -3.4628648e-03
 -3.5667585e-03
 -1.2196344e-03
  1.2621134e-02
  1.7573255e-03
  1.5436285e-02
 -6.6343355e-03
  1.8821727e-03
  1.1671185e-03
  5.2039297e-03
 -4.6334416e-03
  8.7108854e-03
 -2.6895157e-03
  8.5561920e-04
  9.0683177e-03
  1.6743345e-03
 -3.2980179e-03
 -2.1262742e-04
 -1.4220214e-02
  1.8850137e-03
  1.9157339e-02
 -2.9845810e-03
  1.0208791e-02
 -5.5150166e-03
  1.9292204e-02
  1.3170308e-03
 -7.3447521e-03
  7.4175340e-03
 -4.6711564e-03
 -1.6589083e-04
  2.5297764e-03
  3.9192461e-03
 -7.3996355e-04
 -1.5494723e-02
  6.1020390e-03
 -2.1805943e-03
 -2.4023425e-02
 -7.6175830e-04
 -2.4497446e-03
  8.9998208e-03
  9.4522045e-05
 -8.4228674e-03
 -6.9888588e-04
  2.4052300e-03
  1.7154111e-03
 -1.6791882e-03
 -6.1057985e-04
  1.3190128e-02
 -1.5784428e-02
 -9.0650667e-04
  9.5350454e-03
 -9.9975951e-03
  4.1135267e-04
  5.7054856e-03
  1.8898167e-01
  1.4091925e-01
  8.9918840e-01
 -4.6124038e-01
 -7.7088140e-02
 -7.9666835e-01
 -1.3377472e+00
  1.4769993e+00
  3.9348140e-01
 -4.5856765e-01
 -1.7057629e-03
  2.1399751e-03
 -4.3448871e-01
 -1.3425517e-01
 -4.3671989e-01
  8.1480211e-03
 -1.7244583e-01
 -3.1315940e-04
 -6.0053235e-01
 -1.8908867e-01
 -3.2762727e-01
  7.1292126e-01
  1.4086069e-01
 -1.6866951e+00
  4.9338448e-01
 -1.3360736e+00
  1.8397376e-02
 -3.5442895e-01
 -1.1324410e+00
 -1.0010657e-01
 -4.0806097e-01
  2.4153750e-01
 -1.0403036e-01
  5.9412611e-01
 -3.8548779e-01
 -1.6134618e-04
 -2.7222237e-01
 -8.0749132e-02
 -4.6208692e-01
  2.0162046e-01
 -5.5396873e-01
  3.0826107e-01
  3.3245137e-01
  4.9519010e-02
 -2.2823520e-02
  6.0121451e-02
  6.4874310e-03
  4.5635910e-03
  1.5438460e-01
 -4.2098023e-02
 -4.4452734e-03
 -1.7741572e-03
  3.8710663e-03
  1.7712222e-02
 -3.7799891e-02
  8.8391155e-02
 -8.6135328e-02
  5.6515809e-02
  3.1396989e-02
 -8.9476950e-02
 -1.6807940e-02
 -1.5059317e-03
 -1.1881705e-01
 -5.4395571e-04
  1.8891826e-02
 -3.8568452e-01
  1.8247177e-01
 -1.5221774e-03
 -5.9782513e-03
 -3.3969101e-02
 -2.3503977e-01
  1.5362158e-02
 -1.1652729e-02
 -1.5879254e-01
 -2.9616371e-01
  1.3022377e-01
  1.5720996e-01
  9.1898227e-03
 -2.0782745e-02
 -6.0207441e-02
  2.3068336e-03
 -2.1869794e-01
 -1.3385542e-01
 -8.4366620e-01
 -1.2564659e-02
  1.5668850e-02
 -2.9628837e-02
  1.1016489e-02
 -2.0986716e-01
 -1.2889632e-02
 -9.2777424e-02
 -1.3484396e-02
 -1.0568460e-02
 -5.2709044e-03
 -2.9722610e-03
  9.3754195e-02
 -9.6319069e-04
 -1.5658904e-02
  2.5496115e-03
  5.7634674e-03
 -1.7724022e-03
 -4.9315663e-03
 -1.4106837e-03
 -4.5931777e-03
  6.4965949e-04
  1.5118715e-02
 -2.3577614e-03
  8.2791761e-05
  1.0288268e+00
  8.7791193e-01
 -1.1861152e-02
 -2.5144292e-04
  2.5573435e-01
 -3.4265083e-01
 -1.6171265e-02
 -7.8636849e-01
 -3.8666520e-01
  6.1337445e-02
  1.5548199e-01
  8.2543090e-02
 -3.1326613e-01
 -5.7567132e-01
  2.7738845e-02
  1.2152636e-03
 -3.1733876e-01
 -5.3613600e-03
 -2.8551545e-03
 -2.1053271e-01
  5.6463236e-01
  4.2683836e-03
  3.6283932e-03
 -2.4923675e-01
  2.9002642e-02
  5.6541294e-01
  2.8809584e-03
  6.2533267e-02
  5.1402450e-02
  4.5870328e-03
  2.6146391e-01
 -4.6054362e-03
  2.5912043e-01
  1.0440887e-01
  1.0438802e-02
  4.5051337e-03
  7.4309893e-02
  7.9104481e-03
  9.0378448e-03
 -3.4570713e-03
  7.6302635e-03
 -9.5976584e-02
 -1.3701435e-02
 -7.5564291e-03
  2.2057439e-03
  2.6135917e-03
  4.7353026e-03
  1.8771544e-02
  1.9375237e-02
  6.1179873e-02
 -6.1420482e-02
  2.8742966e-01
  8.0112517e-03
  1.1470811e-02
  6.8895234e-04
  2.6628384e-04
  1.3923817e-03
  2.4486255e-04
 -9.8251384e-03
 -4.0246607e-04
 -3.6936841e-04
  4.5607425e-03
  1.3974053e-05
  9.4196908e-03
  1.1435162e-02
 -3.3911353e-03
  2.3118793e-03
 -1.3943253e-03
 -6.5653240e-03
 -9.1817146e-03
 -6.9094053e-03
  1.0946717e-02
 -3.7220670e-03
 -7.5234292e-04
 -1.1110053e-02
 -7.3006158e-05
 -4.8419661e-03
 -3.5650660e-03
 -8.5614517e-04
  7.6984526e-03
 -9.9654179e-03
  3.7534479e-03
  3.7617832e-03
 -4.9060574e-03
  3.5706202e-03
 -8.1085041e-03
  1.2169125e-03
 -2.9222399e-04
 -7.8662783e-03
  1.0925695e-02
  2.9709276e-03
  2.6848712e-03
 -2.5115358e-03
 -1.1105021e-02
  3.8429308e-03
  7.0818248e-03
  7.6007247e-03
 -1.8151543e-03
  4.4205151e-03
 -2.6273797e-03
  2.4779692e-02
 -2.1135269e-03
  9.3784258e-03
 -2.8662628e-04
 -4.2572585e-03
 -1.8055519e-02
 -2.0631995e-02
  5.5653835e-03
 -2.3186262e-01
  2.7580358e-02
 -1.3809248e-02
 -2.3662807e-01
 -1.6747138e-01
  8.1703934e-04
  7.8895554e-02
 -1.1331020e-01
  1.8087915e-01
 -5.5171468e-04
 -5.5755831e-02
 -4.5041861e-03
 -3.6170438e-03
 -2.6016578e-02
  5.1411255e-03
 -1.1077549e-01
  5.2899383e-03
  1.1562472e-04
  2.0927278e-02
  7.7313595e-02
 -6.6897877e-02
  2.2105398e+00
 -7.0104823e-02
 -3.9521974e-02
  5.4448396e-02
  1.7077003e-01
 -1.1570060e-03
  2.2827272e-01
  1.6043693e-01
  2.7003475e-02
  1.9231383e-02
  1.2624118e-02
  1.5987055e-01
  3.4989398e-02
  1.3528156e-01
 -4.7484340e-04
  2.3359120e-01
  1.8902284e-01
  1.7818268e-01
  3.3235483e-02
  1.2184168e-01
  1.2829312e-03
  1.4424139e-03
  9.2481037e-05
 -2.6328552e-03
 -2.3320701e-02
 -1.2329352e-02
 -2.8025876e-03
 -5.1997802e-05
  8.9487182e-03
  1.2936216e-02
  9.6200518e-03
 -1.8648267e-02
  2.3974737e-03
  9.5922593e-04
  6.1384873e-03
  3.3332643e-04
  7.9453625e-03
 -2.0669909e-04
 -8.5378643e-03
  8.2172497e-05
  1.1794000e-03
  7.4660674e-02
 -2.5470939e-03
  3.5918492e-05
 -2.8598739e-03
  3.0211257e-03
  5.7798382e-03
  6.0349870e-03
  9.5753716e-03
  2.0512857e-03
 -5.7931355e-04
 -3.5269805e-03
  3.9139809e-03
 -1.0374907e-02
  5.7093054e-03
 -4.1021770e-03
 -1.3313738e-03
  1.0028923e-03
  2.9225837e-04
  7.7261990e-01
 -2.3906199e-02
 -8.1732823e-03
 -3.1472207e-03
 -4.9331938e-03
 -1.3778780e-02
  6.7644319e-03
  6.1610392e-03
 -4.0899636e-03
 -5.9013534e-03
 -1.9971223e-03
 -3.8213599e-03
  4.1941837e-03
 -3.2053590e-03
  6.4905705e-03
  9.0546766e-03
  1.2086722e-02
 -1.3157406e-02
 -8.9582324e-04
  5.0567271e-04
 -7.8087556e-03
  1.1719209e-02
  1.0711256e-02
 -8.6159268e-03
  1.1995112e-02
  1.5294896e-02
 -9.6012857e-03
  2.1065194e-02
 -3.5892176e-03
  2.2652321e-02
  6.7982269e-03
 -7.0214598e-04
 -6.1824773e-03
  4.5109573e-03
 -2.1667238e-03
 -6.9615566e-03
 -6.8502715e-03
 -3.2047171e-03
 -5.7103629e-03
  2.6563811e-03
  1.3031932e-02
 -2.4941121e-03
  6.0362457e-03
  3.1066099e-03
  4.7889305e-03
  3.8723024e-03
  7.6158191e-03
  3.2730622e-03
 -8.1932219e-04
 -9.7368023e-04
 -1.1201697e-02
  9.6011994e-05
 -1.9039570e-04
  1.4607856e-03
 -5.7114172e-03
  1.7863179e-04
  2.2631029e-03
 -1.2335514e-03
  1.4750280e-02
 -1.4492265e-02
 -2.0509397e-03
  2.7508315e-02
 -6.0769287e-03
  9.3182502e-03
 -7.5121480e-03
  2.7157906e-03
 -7.2547058e-03
 -3.8566915e-03
 -1.0528829e-02
  4.1473755e-03
  5.9668785e-03
 -5.1391455e-03
  3.0747431e-03
  5.6195846e-03
  5.9783156e-03
 -1.8089857e-03
 -1.5086742e-03
  2.9346882e-03
 -6.7113074e-03
 -2.4495604e-03
  1.8287835e-03
 -6.2151733e-03
 -1.6677439e-03
 -2.9716743e-03
  9.3546677e-03
 -2.7975056e-03
 -4.2899530e-03
  8.5212116e-04
 -6.2059192e-04
  5.1653027e-03
  1.0289321e-02
 -4.5084255e-04
  1.8345928e-03
  3.6255491e-03
 -4.8476756e-03
  4.2344341e-03
 -2.4311978e-03
  2.3275276e-03
 -2.5019927e-03
  5.9378073e-03
 -9.9314062e-04
 -5.3468312e-04
  3.8723661e-05
 -5.8785360e-03
 -5.0809421e-03
 -2.9402450e-04
  1.3815810e-03
  8.2841907e-03
 -1.4925693e-03
 -5.4250429e-03
  4.7866525e-03
  1.5700940e-03
  1.1802397e-02
 -1.7008433e-03
 -3.6044244e-03
  7.1616145e-03
 -8.0518815e-04
  6.3250056e-03
  3.3488157e-04
 -1.5190847e-02
  4.8275059e-03
 -6.9390493e-03
 -6.1685387e-03
 -2.3654145e-03
 -1.6523105e-03
  8.3528329e-03
 -2.4910369e-03
  2.8337368e-03
 -3.8698474e-03
 -2.1516882e-02
  7.6325354e-03
 -3.3282690e-02
  2.5596430e-03
  1.4015873e-02
  2.9401401e-02
  1.3596022e-02
 -7.0953538e-04
 -2.0650679e-03
 -9.4433762e-03
 -3.3017069e-03
 -3.7916057e-02
  9.9825738e-03
 -1.2222067e-03
 -4.2548035e-03
  3.7189305e-03
  1.2012512e-02
 -3.5807237e-03
  2.8927880e-03
 -1.8511476e-03
 -1.1769987e-02
 -5.0470582e-03
 -9.5124933e-04
  1.2856390e-02
 -1.7132233e-03
 -5.2941684e-03
  2.6321348e-03
 -5.3476486e-03
 -5.1516080e-03
 -2.4589929e-03
  6.9943876e-03
 -1.1270735e-02
 -7.8757033e-03
  5.7776072e-03
 -3.0128628e-03
  2.9482725e-03
 -1.4729161e-03
  6.3394108e-03
  5.5222637e-03
 -9.8381266e-03
  6.8572308e-03
 -5.1279063e-03
  1.7945812e-03
  1.4572244e-02
  1.1172640e-03
  5.2461377e-04
  9.9604875e-03
 -4.7449763e-03
  8.1711197e-03
 -1.7372142e-03
 -6.0088965e-03
  3.0407473e-03
  5.6050140e-03
  5.3215520e-03
 -2.6748620e-03
  9.1072470e-03
 -1.4238473e-02
 -4.3375534e-03
 -4.7952946e-02
  3.2221046e-03
 -7.4662403e-03
  6.0229432e-03
  3.1495397e-03
  3.0301113e-03
 -5.4512121e-04
 -1.1419564e-04
  6.0760509e-03
  1.7871533e-03
 -2.7804866e-01
 -4.1532358e-03
  2.8339948e-03
 -2.2171359e-03
 -3.3259869e-03
 -1.6776790e-03
  7.1695604e-04
 -8.8024661e-03
 -2.9927617e-04
 -8.7635648e-03
 -8.6638681e-04
 -1.8797037e-03
  3.4836034e-04
 -7.6125804e-03
 -1.8849560e-04
  1.0401180e-02
  5.2314712e-04
  6.0205297e-03
 -4.2255716e-03
  1.7809814e-04
  4.5047402e-03
 -1.7316509e-02
 -2.7819637e-03
 -1.8409783e-02
 -2.3870696e-03
 -4.8193429e-03
 -3.3298053e-03
  2.4133015e-03
  5.4419073e-03
  3.0892463e-03
 -6.4327847e-04
 -6.4789900e-03
 -8.8827759e-03
 -1.3527641e-02
 -1.3407465e-03
 -1.0263721e-02
 -4.5722453e-03
  1.1947635e-03
 -7.3555572e-04
  7.9488019e-03
 -1.0139432e-02
 -5.8342074e-03
 -6.3028983e-03
 -8.6519802e-03
  8.8531413e-04
 -2.7362248e-03
 -2.4230501e-03
 -9.6413058e-01
 -1.0293549e-01
 -1.2410661e+00
 -4.3643790e-01
  9.4241005e-01
  1.4350277e+00
 -4.7425443e-01
 -3.2397068e-01
  1.3332484e+00
 -1.3996781e-03
  8.6886272e-02
  4.3106399e-02
 -4.8639867e-03
  2.4792928e-01
  1.5350865e-01
 -3.2644629e-01
 -2.5411595e-02
  6.7993519e-03
 -5.6182669e-04
 -9.2407227e-02
 -1.3351371e+00
 -3.1606532e-03
 -3.9367634e-03
 -3.8062766e-02
 -5.2882456e-03
  3.6926348e-02
 -6.6143903e-03
 -2.8485863e-03
 -3.5078032e-03
 -1.2663821e-03
 -8.0628466e-04
  3.5807099e-03
  9.6833818e-03
 -2.1253489e-01
 -8.8474918e-03
 -5.1295245e-03
  4.9924096e-03
  4.7424044e-03
 -1.2195399e-02
  5.7200432e-02
 -1.0216244e-02
 -1.0366338e-01
  7.1362460e-01
  3.8214587e-02
  2.3435319e-03
  1.2506688e-02
 -3.3471393e-03
  1.0741556e-02
  7.7982135e-03
 -1.6044717e-03
 -1.0514066e-01
  1.1754939e-02
 -6.1527221e-03
  3.9774096e-03
  1.6194613e+00
 -8.6055702e-01
 -1.3371198e+00
  9.6928614e-01
  7.5813895e-01
 -1.4171144e+00
 -7.1401477e-01
 -1.3549011e+00
  4.7678027e-01
  7.6784682e-01
 -1.7433986e-02
 -5.5338240e-01
  2.6620308e-01
  4.7927636e-01
  8.4821917e-02
  9.3741804e-02
  9.7441085e-02
 -3.1236496e-03
  5.1934832e-01
 -1.0999315e-02
 -1.3303472e+00
  6.8923188e-03
  7.2339121e-03
  5.4173812e-02
  8.0628228e-01
 -1.3925813e-01
  3.4038164e-03
 -4.6073170e-03
  2.8955659e-03
  5.7147842e-02
 -9.9724984e-01
  1.6176725e-02
 -1.1926636e+00
  2.8809202e+00
  2.2683083e-01
 -3.6308961e-03
  3.2598998e-03
  2.1650283e-02
  4.1890051e-03
 -4.2487535e-01
  5.6323265e-03
 -8.0798268e-02
  1.0764539e+00
  2.8943099e-02
  2.1621247e-03
 -6.8635200e-03
 -3.6054507e-02
  1.6340521e-03
 -9.0992749e-02
 -3.9752250e-04
 -1.3813494e-03
  5.3017844e-02
 -5.0725844e-03
 -1.3505021e-03
 -2.5711267e-03
 -9.0510240e-03
 -8.3750277e-04
  5.1984349e-03
  2.6181298e-01
 -5.0386805e-02
 -1.8322730e-02
  2.3454330e-03
  1.3641296e-01
  7.0813224e-03
 -1.3968768e-02
  5.1212978e-02
 -2.5472457e-02
  1.6355771e-03
 -1.7947389e-03
  8.5895788e-03
 -1.8744929e-02
 -5.8066128e-03
 -2.0343824e-03
 -7.4507953e-03
  1.1762450e-02
  1.1419146e-03
 -1.0334790e-03
 -1.2384695e-02
 -8.6440640e-03
 -3.8524870e-02
 -1.4755783e-04
 -8.2052522e-04
  3.5525383e-03
 -2.1921955e-02
 -2.4490408e-04
 -5.6387470e-03
 -5.2506600e-02
  1.5982818e-03
 -3.9228089e-03
  2.2071919e-03
 -1.4827497e-03
 -1.2588036e-02
  6.9113355e-04
  5.5708336e-03
 -3.6171591e-04
  2.8519172e-02
 -4.0133242e-03
 -1.2639314e-02
  3.9666822e-05
  2.1438263e-04
  2.8667318e-02
  9.6255855e-04
 -5.7829882e-04
 -5.1249866e-03
 -5.8282143e-03
  9.8666241e-03
 -3.9849521e-04
 -6.5463269e-04
 -2.8218995e-03
 -2.3372412e-04
 -2.4588406e-03
 -4.3648849e-03
  1.6432039e-03
  3.2582432e-03
  5.8457614e-03
 -4.1448674e-03
  9.3627416e-02
 -1.0252844e-03
  1.4450116e-03
 -2.3537276e-03
 -2.3180770e-02
 -2.0180432e-02
  6.3494653e-03
  1.3291057e-03
 -1.2485989e-02
  6.2456843e-03
  6.0931599e-04
 -5.1845745e-03
 -2.4528431e-03
 -2.4403757e-03
 -2.1406992e-03
 -1.1681911e-03
  4.5569353e-03
  2.0327379e-03
 -8.1833117e-03
 -1.1764208e-02
  6.3939596e-04
 -1.2214278e-02
  2.5560122e-03
  6.9261747e-03
 -2.6725443e-02
  2.0175602e-02
 -6.7339005e-04
 -3.3029083e-03
  2.8004521e-03
 -1.2010220e-02
  9.8961042e-03
  3.7438956e-03
 -8.8274516e-03
 -7.6255174e-03
 -1.6033450e-02
  1.2440626e-02
  4.3183872e-03
 -2.4686011e-03
  6.8392581e-04
  4.9118843e-04
 -3.0326238e-03
 -9.1009438e-03
 -1.7978949e-02
 -4.2421687e-03
 -1.2071716e-03
 -7.3139383e-03
 -1.0817903e-03
 -3.7057421e-03
 -2.1485796e-02
 -5.2929572e-03
 -2.9633811e-03
  7.4027865e-03
  2.7972411e-03
  4.4877403e-03
  1.1734704e-03
  3.0156425e-03
 -4.6977336e-03
 -3.4432218e-03
 -1.6479768e-03
 -3.0103675e-03
  7.4886763e-04
 -6.3101538e-03
 -1.2474882e-03
 -3.2309727e-03
 -5.0285440e-03
 -7.9180719e-03
 -8.0179423e-03
  8.2532801e-03
 -5.3166505e-03
  1.8933282e-03
  4.2953049e-03
 -1.7116460e-03
 -1.6982334e-03
 -1.4520271e-04
 -7.8437356e-03
  3.4599816e-03
  1.3707273e-04
  2.7252650e-03
  5.2833077e-03
  5.7940074e-04
  7.6882895e-03
  3.0102773e-04
 -1.3719994e-03
 -8.1000122e-04
  4.6549458e-03
  1.5473441e-03
 -4.1492335e-03
 -1.7430398e-03
  1.2810015e-02
 -4.4568558e-03
 -3.1968628e-03
  1.7297134e-02
  9.0182638e-03
  4.6288641e-03
 -5.6496682e-03
 -6.0601556e-03
 -1.4941918e-04
  1.2981487e-02
  6.2581566e-03
 -7.3590190e-03
  2.1974286e-03
 -2.7083175e-03
 -3.6245226e-03
  1.0665918e-02
  3.3503300e-01
  2.4649113e-01
  3.0919435e-03
  2.7714320e-03
  3.5531315e-01
 -1.2881733e-02
  3.2337561e-02
 -7.1144714e-03
 -4.0492904e-03
 -3.8822759e-03
  3.1710011e-03
 -4.8518144e-03
  5.9846151e-03
  2.1525598e-04
 -4.2064884e-03
  1.4937547e-02
  9.1518611e-03
 -5.3982274e-03
  1.0206176e-02
  7.9696355e-03
  5.5199645e-05
 -3.0324282e-02
  7.4110501e-03
  3.7236931e-03
 -5.3347042e-03
  4.2001773e-03
  6.0793655e-03
  4.5956164e-03
  1.4832566e-02
  2.5847484e-03
  4.0592859e-03
  1.0032469e-03
 -5.6464747e-03
  5.5539543e-03
  1.4671390e-03
 -1.2095027e-02
  1.5452428e-04
 -2.6452519e-02
  5.1745062e-04
  2.5547631e-03
 -5.4622936e-04
 -1.5454740e-03
  1.1313701e-02
  5.6838552e-03
  1.0309199e-05
  1.5809799e-03
  1.2655042e-02
  2.4265033e-04
 -2.0725534e-03
  3.9940595e-04
  5.8703334e-04
  1.7924858e-03
 -3.9504500e-04
 -1.5263373e-02
  6.4389873e-04
 -4.1276137e-03
  1.8816242e-03
  1.5440056e-02
 -6.6626561e-03
 -1.0453974e-02
 -8.2727475e-03
  2.0771041e-03
  2.2505931e-04
 -5.4326011e-03
 -5.3289528e-03
  1.1721422e-02
 -9.3327093e-05
 -5.9862579e-03
 -1.8278372e-02
  1.8369671e-02
 -3.2130929e-04
 -1.8170306e-02
 -3.0164574e-03
  6.0819881e-03
 -6.4968625e-03
 -3.1124675e-03
 -2.9728285e-04
 -3.4442930e-03
  9.0661962e-03
  9.8228101e-03
 -3.1951643e-03
  3.5378485e-04
 -2.1758964e-03
  1.1348823e-03
 -1.0099626e-02
 -1.5366686e-03
  1.8894206e-03
 -2.0477180e-03
  2.8953154e-03
 -4.3270816e-03
  4.6425578e-03
  5.0835931e-03
 -5.4024258e-03
 -5.4036546e-03
 -1.0640671e-02
 -4.6435925e-03
 -2.0570413e-03
 -4.5349100e-03
  3.0672081e-02
  7.3150187e-03
  8.0174714e-04
  1.0070285e-02
  6.2116948e-03
  3.0527366e-03
  2.4265641e-01
  7.2130419e-02
 -7.1482595e-05
 -7.5063312e-01
 -1.0065405e-01
 -9.5650256e-01
 -2.9122925e-04
  5.5996084e-01
  7.4132591e-01
 -5.4598409e-03
  2.0556785e-03
  4.1335584e-03
  6.0818307e-03
 -9.2724651e-05
  3.4782009e-03
  1.2752067e-03
 -2.7409545e-01
 -6.9722263e-03
  7.0178933e-03
 -1.9054554e-02
  5.2348576e-03
 -6.1917130e-04
  3.5389115e-03
 -4.3410185e-04
  4.0672892e-03
 -4.9845814e-03
 -1.5177289e-03
 -1.1974986e-03
 -1.0599605e-03
  8.8650621e-03
 -8.3025044e-01
 -5.9204700e-04
  8.4099248e-03
  4.4328630e-02
 -2.9100690e-02
 -5.3796391e-03
 -2.4191655e-02
  6.4927735e-03
 -3.1346942e-03
 -2.1933366e-03
 -6.3312310e-03
 -2.1181016e-03
  1.4120586e-01
  4.0068175e-04
 -5.0101662e-04
 -1.9837038e-03
 -9.0048574e-03
 -3.7018987e-03
 -4.9142949e-03
  5.4861680e-03
 -7.3819701e-04
  1.3772971e-03
 -4.7430592e-03
  3.1853425e-03
  2.9158564e-03
  2.1333946e-02
 -1.0541783e-03
 -3.5572669e-03
 -1.1692046e-02
 -3.1341440e-03
  4.9802281e-02
  5.7622506e-03
 -6.6530160e-03
  2.7721209e-02
  1.8269025e-03
 -3.8465476e-03
  1.2266411e-02
 -3.6123630e-02
  9.0083763e-02
  8.2402915e-04
  2.5627168e-02
 -6.8636676e-03
  8.3159423e-03
  4.7873907e-02
 -1.7039280e-03
 -3.8586520e-02
 -7.1374802e-03
 -6.6252626e-02
  4.9532377e-03
  4.6452735e-02
 -3.4494670e-03
  6.1805987e-01
  2.3770991e-01
  1.1292454e-01
  7.6885179e-02
 -1.3387679e-02
  1.9135229e-02
  6.4009317e-04
  2.2327647e-01
  2.1900900e-03
  1.5088703e-01
  2.8948194e-01
  1.7668757e-01
 -4.1902315e-02
  1.6115397e-01
 -7.9829663e-02
 -4.9555138e-02
 -2.9580483e-02
  2.0372018e-02
 -3.3018613e-01
 -6.9004327e-02
 -4.0041953e-03
 -2.1691528e-01
  2.8910717e-01
  1.7603420e-03
  3.6299296e-02
 -7.0940651e-02
  4.5158196e-04
  5.8704996e-03
 -7.4814693e-03
 -2.4212254e-03
  7.6652868e-03
  5.2606245e-04
 -2.0765504e-03
 -9.3600107e-04
  1.7655356e-03
  3.6783956e-02
  4.0885384e-04
 -5.7616457e-03
  8.9535397e-03
  9.9330302e-04
  1.0725558e-03
  8.2682987e-04
  1.9919479e-03
  1.8571049e-01
 -1.0675520e-03
  1.2373663e-02
  5.3124637e-03
  2.2729419e-03
 -1.3714923e-02
  4.2201588e-03
 -1.8384410e-02
  2.9946142e-03
  8.2923071e-03
  2.0065434e-01
 -5.3981026e-03
  5.2772812e-03
  6.0961554e-03
  3.7749107e-03
 -1.1185344e-03
  1.0762509e-03
  2.5987332e-03
  8.6787273e-04
  4.1656382e-03
  1.2426353e-02
  7.6865096e-04
 -2.7450519e-03
  1.6283042e-03
  1.1692487e-04
  3.0632515e-03
 -4.2603922e-04
  1.3387578e-02
 -1.2674484e+00
 -9.1867242e-03
  2.9660850e-03
 -1.1456701e-02
 -1.0393236e-03
 -5.5037779e-03
  1.1638794e-04
 -6.7031519e-03
 -8.7278706e-05
  2.4046400e-04
 -1.5831648e-01
  3.4078315e-02
  1.0009238e-02
 -1.9283373e-02
  4.4729403e-01
  5.9462702e-01
  1.9007590e-02
  1.9885637e-02
  1.6847868e-01
  8.4318025e-03
 -1.2682411e-02
  5.6305941e-02
 -1.9894961e-01
 -3.6427528e-01
 -1.0453028e-01
  2.2949848e-01
 -6.5539467e-01
  6.9867871e-03
  2.1186548e-03
 -8.2927778e-02
 -7.0347115e-02
  2.0767286e-01
  1.9724015e-02
 -1.7110487e-02
  2.9994676e-01
  4.7997567e-03
  7.1822763e-03
  7.1883529e-05
 -5.5208751e-03
 -9.5920432e-03
  5.1234400e-01
  3.5695035e-03
  2.5079381e-02
  5.6291437e-01
 -9.1667205e-02
  1.1732416e-02
  9.7732736e-05
  3.3773591e-03
 -5.4767109e-02
 -3.4275317e-01
 -7.6721288e-02
  1.1175209e-02
  1.4411969e-01
 -4.5341128e-03
 -4.0427335e-03
 -1.4858758e-03
 -2.8158538e-03
  2.2310562e-02
  2.0857947e-01
  4.3215821e-03
  2.5327595e-02
  2.1872868e-01
 -1.2156917e-02
 -8.0888617e-01
 -1.4361216e-03
  2.4736547e-03
 -2.5484818e-03
  3.6898017e-01
  8.4046975e-02
  1.6433319e-01
  2.9367930e-03
  3.7402660e-04
 -1.4787488e-01
  1.6349854e-03
  4.1062813e-02
 -3.3728767e-02
  3.3431917e-02
  1.1309637e-03
  1.6271677e-03
 -1.1725581e-02
  3.0996665e-04
  1.8649811e-03
  2.1677949e-02
  6.3785431e-03
 -8.2057742e-03
 -6.7293881e-03
 -3.9811984e-02
 -3.8260065e-03
  2.3054495e-03
 -9.4445888e-05
  3.2767584e-03
 -1.6161246e-02
  1.4572864e-02
  2.1172851e-02
  2.8821600e-03
 -4.2761932e-03
  1.8666476e-02
  1.7513035e-04
  8.4165484e-02
 -1.2203328e-03
  8.2682995e-03
 -1.4360790e-03
  2.4216052e-02
 -6.8205055e-03
 -4.7471252e-04
  1.1339117e-03
 -1.5230096e-02
 -7.1227197e-03
  2.2264963e-02
  5.0036696e-04
  6.9796207e-04
  8.4731067e-03
 -5.4712356e-03
 -1.8864004e-03
 -4.7145310e-04
 -6.0769045e-03
 -2.1702994e-03
 -1.5657900e-02
 -3.0787326e-03
 -3.1615351e-03
  7.4656135e-03
  1.6240925e-03
  1.6861798e-02
 -8.2221683e-03
  2.4037005e-04
 -7.6051359e-04
  1.2321469e+00
 -2.9227047e-03
  2.1758408e-03
  4.6918490e-03
 -8.0291351e-04
 -1.1685401e-02
  3.4388818e-03
  7.6546585e-03
 -1.3965663e-03
  1.0005864e-02
  2.3762763e-03
  2.1746370e-03
  2.9477377e-03
  6.7903678e-04
 -2.9753405e-03
  1.8799134e-02
 -3.8080977e-03
  1.4208145e-02
  4.2497294e-04
 -1.0876705e-02
 -9.7847097e-03
  4.1016747e-04
  1.4292183e-02
 -5.1343330e-04
  9.0790552e-04
 -8.6243270e-04
 -2.5324037e-03
  2.4733581e-03
 -1.8723421e-04
 -2.3442267e-03
 -2.4322867e-03
 -1.4328557e-03
 -1.3382685e-03
 -1.0248682e-02
  1.0004861e-03
  5.6509050e-03
 -9.9789351e-03
 -2.6603977e-03
 -2.6581589e-02
  4.3275482e-03
  5.2992598e-04
  4.5718829e-04
  4.2517106e-03
 -1.6301373e-03
 -2.8671935e-02
  3.9929940e-04
  2.0481902e-03
  5.6309532e-03
 -7.3922700e-03
 -3.3555627e-02
 -1.5454628e-01
 -2.8718760e-02
  9.6065640e-02
 -9.4891321e-03
 -4.6047077e-02
  3.8411529e-03
  6.6786803e-02
  1.3157505e-03
  2.1978281e-02
 -1.5047809e-02
  1.6444011e-02
 -1.1254520e-03
 -5.4770824e-03
  1.3617774e-02
  7.4432781e-03
 -2.1462764e-03
  2.4804631e-03
 -2.5066422e-02
 -1.2886914e-02
  6.9709523e-03
  9.7148150e-02
  5.5373747e-02
 -1.0268440e-02
  3.0953433e-02
  9.7339533e-02
  5.8389068e-02
  7.4539138e-03
 -1.4449813e-02
  5.7334129e-02
 -3.3312230e-03
  6.2481305e-03
  2.9035436e-03
  5.3817262e-03
  8.0640921e-03
  1.3106300e-02
  7.3969988e-03
  5.7314276e-03
 -8.2918368e-03
 -1.0107609e-02
 -1.4283630e-03
 -4.9058348e-03
  1.2087134e-03
 -2.5953797e-03
 -1.6158124e-02
 -9.6183699e-03
  9.2564728e-03
  1.4840772e-02
  2.5797707e-03
  6.6603546e-04
 -7.5252200e-03
  2.0214852e-03
  7.0859990e-03
 -6.9508195e-04
 -8.3935395e-04
 -2.4722032e-02
 -6.3787899e-03
  9.8655000e-03
  3.3011680e-04
 -5.2191289e-03
 -5.4278150e-03
  8.0982214e-03
  1.6496234e-03
 -3.0902042e-03
 -2.0869120e-03
  7.1061896e-03
  1.2234351e-02
  7.3744198e-03
  2.8964854e-04
  1.0064075e-02
  2.1974104e-04
  5.2356357e-03
  6.1215628e-03
 -4.8521068e-03
  3.4941635e-03
 -1.4529518e-02
 -1.6005361e-03
 -2.5367183e-03
  3.8230002e-05
  1.3644875e-03
  1.5387097e-02
  4.8310459e-03
  1.0815174e-02
  4.0484113e-03
 -1.6766726e-03
 -9.9250162e-04
  3.8104907e-03
 -2.1892817e-04
 -7.0898782e-04
  2.6905222e-04
  1.0197944e-02
  3.4375701e-03
 -1.7158345e-03
  5.8590160e-03
  1.1304790e-03
 -4.4753058e-03
 -1.2716056e-02
 -9.2802109e-04
 -1.1887488e-02
 -1.7278422e-02
 -8.2651563e-03
  1.4957057e-03
 -2.3949614e-03
  3.7724819e-04
 -4.6099274e-04
  1.2631777e-01
 -4.4313878e-02
 -1.8695716e-02
  5.1359731e-01
  4.4314808e-01
  8.6162263e-01
  6.9589838e-02
  6.2114324e-02
 -5.3349733e-01
  6.6099882e-01
  6.1759037e-01
 -2.1679522e-03
  1.4828264e-03
 -1.6176144e-03
 -4.9154339e-03
 -4.0783118e-03
  2.7317910e-03
  2.0352658e-03
  7.9547830e-02
  2.3744503e-01
 -7.8837974e-03
  6.9376532e-05
 -1.5128917e-03
 -3.5762951e-02
  3.7071601e-02
  1.2005189e-02
  4.0021581e-03
  4.5995381e-02
 -2.3940834e-03
  5.2370699e-03
 -1.3344669e-03
 -1.8019900e-02
 -2.0859101e-04
 -1.3978992e-02
  1.0176907e-01
  1.2038790e-02
  6.7224950e-02
  4.6254341e-02
  2.1787696e-02
 -9.8457851e-04
  5.4981397e-03
 -7.7363990e-02
 -6.4531028e-02
  5.9244796e-03
  6.4610741e-03
 -2.5630446e-02
  7.6491353e-03
  5.9648324e-03
 -1.2355984e-02
  3.8443455e-03
 -1.0236413e-02
 -1.2956768e-03
  3.7154071e-03
 -1.4840494e-03
 -9.7828927e-03
 -3.3286239e-03
 -1.1084974e-02
  2.4195053e-02
 -2.3093307e-04
 -1.6077304e-03
 -4.2431145e-03
  2.8569573e-03
 -6.3281697e-03
 -3.0228315e-02
  3.6757085e-03
  8.8709174e-04
 -4.9747340e-04
 -3.5169832e-03
  2.6587837e-03
  4.1007828e-03
  2.7765110e-04
 -9.3841046e-04
 -2.8877778e-03
  3.4368748e-03
  1.1693718e-02
  2.6455869e-03
  1.4867503e-03
 -9.6029555e-03
  2.3776554e-03
 -2.1007631e-03
  3.6057997e-03
  1.6560622e-02
 -5.3742607e-03
  2.0051105e-03
 -5.3416602e-03
  4.0619690e-03
 -9.9801067e-03
 -4.9023833e-03
  3.8637884e-04
  4.3771542e-03
 -4.6744209e-04
  1.1011912e-03
 -2.0767364e-03
  9.8154666e-03
 -5.3126710e-03
  8.7326895e-03
  6.8865372e-03
 -1.5216848e-03
  8.2901940e-03
 -3.6415509e-03
 -2.3938906e-03
  4.7794301e-03
 -1.3321230e-02
 -2.4131679e-03
  2.9644168e-03
 -4.2153443e-03
  2.8725876e-03
 -1.0681831e-03
 -7.6180947e-04
  2.4954109e-03
  1.7179560e-03
  5.3703100e-03
 -1.7722249e-02
 -1.0196918e-03
 -8.4191194e-04
  5.1629627e-03
 -9.0697287e-03
  7.3253445e-04
  7.9212049e-03
 -6.3293492e-03
 -1.0053907e-02
 -4.0544121e-04
  4.6968982e-03
 -4.1019358e-03
  1.0914889e-03
 -3.9522042e-03
 -1.1143215e-03
  1.7126621e-04
  2.4439446e-03
 -7.7889726e-04
 -3.6263224e-02
 -6.5657557e-03
  7.9947123e-03
  9.1186296e-03
  3.0983402e-03
  1.2981653e-04
 -1.8963482e-02
 -2.7442542e-03
  7.8655685e-05
  1.8124469e-03
 -9.7316556e-04
  1.1275532e-02
  1.2866174e-02
 -2.7837104e-01
  2.2636903e-03
 -6.4026630e-03
 -5.4040700e-03
 -1.7493184e-03
  3.8795343e-03
  8.9136772e-03
  7.4736425e-03
  2.5416389e-03
 -1.5887902e-03
 -7.7591971e-03
  5.2491678e-03
 -5.1217992e-03
  8.8501405e-03
 -1.3054038e-03
 -1.0657233e-02
 -9.7956192e-03
 -9.0998714e-04
  6.8295142e-04
 -3.0698991e-01
 -3.9768285e-01
 -5.5451345e-01
 -2.9741269e-01
  3.9331099e-01
  6.7438847e-01
  4.7877863e-01
 -1.8567301e-01
 -3.0040756e-01
  1.5025610e-03
 -1.9519168e-01
 -2.1557598e-01
  1.6208312e-03
  2.4782234e-01
 -2.4790610e-03
  1.8333482e-02
  1.4975119e-01
  6.4100692e-04
  1.2086747e-01
  1.3254429e-01
  4.1249031e-01
 -6.6740584e-01
  1.1626424e-01
 -1.3129595e-02
  1.1691331e-02
 -3.5420722e-01
  2.1628120e-03
  1.4715501e-02
 -1.2912471e-02
  2.7338726e-02
 -3.5089484e-01
 -2.0906178e-02
  1.9314135e-03
 -6.6031837e-01
  1.8206158e-01
 -3.9419607e-04
  1.5438003e-03
 -1.4388645e-03
  1.5491995e-01
  4.6802112e-03
  2.1311227e-02
 -2.8195580e-02
  9.9890091e-02
  8.5291602e-03
 -1.2492214e-02
 -3.2109240e-04
 -6.3302193e-04
 -6.1269971e-03
 -2.9612014e-01
 -5.2537373e-03
  1.1345916e-03
 -1.2798581e-01
 -1.1814091e-02
  3.1201891e-03
 -6.7493473e-03
  6.2458469e-03
 -1.0969372e-02
 -1.2872414e-02
 -1.2739311e-03
 -2.5476867e-03
 -3.5498627e-03
 -2.5147717e-03
  1.6236015e-02
  2.4392540e-03
 -1.4786269e-03
  2.8922581e-03
  1.8464539e-02
  2.5829196e-02
 -4.0762289e-03
  3.9129788e-03
  8.0816611e-04
 -2.7191626e-02
 -1.7612716e-02
  3.5407138e-03
  1.6354180e-03
 -1.2186558e-03
  1.3406940e-02
  9.2079323e-03
 -4.5608789e-02
 -2.3263048e-04
  4.3262738e-01
 -3.4046043e-03
 -4.4167633e-03
 -2.0395510e-03
  4.9113929e-03
 -9.9926139e-04
  2.0168925e-04
 -8.5634245e-03
  8.7807892e-04
 -2.4025075e-02
 -1.9531824e-02
 -5.4535577e-03
  1.0409434e-03
  5.2757151e-03
 -4.2946634e-04
  9.3249045e-03
 -8.2281308e-04
 -1.0381738e-02
  1.0857930e-03
 -5.6568137e-03
  3.2259675e-04
 -3.3787531e-03
 -7.6853270e-03
 -1.4008719e-02
  2.0285266e-02
  3.7022354e-03
 -4.8034723e-04
  8.7926205e-04
  7.0004598e-03
  1.6665693e-03
 -2.4304835e-03
  7.7712364e-03
  2.5460969e-03
  3.1628008e-03
 -8.0186449e-04
 -2.0511271e-03
  2.1176476e-02
  1.4531233e-03
 -1.0723898e-04
  4.3406510e-03
  2.7949782e-03
 -7.5438907e-03
 -2.4781280e-05
 -1.8059342e-03
  3.6865000e-03
 -6.1853593e-03
  1.3320366e-03
  8.0791013e-03
 -1.8440949e-03
 -2.0433485e-03
 -8.6338900e-04
 -3.1051177e-03
 -3.5218018e-04
  1.0092411e-03
  5.1263155e-04
  3.5975577e-04
 -9.3723566e-04
 -1.5553044e-03
  6.3462569e-03
 -3.0827094e-03
 -1.7363218e-03
  4.4506305e-04
 -5.8360971e-03
  2.2743335e-03
  3.1801427e-03
 -6.5514822e-03
  8.4678251e-03
 -2.4978556e-03
 -1.3202956e-03
  8.1397416e-03
 -5.4665674e-03
  1.9399342e-03
  8.7075830e-03
  1.7257253e-02
  1.1720384e-02
 -3.4331719e-03
  1.4735140e-03
  3.4959228e-03
  2.8183472e-03
 -1.4402999e-02
 -2.3773217e-03
  5.1287026e-03
  2.3671417e-01
 -1.5388529e-01
 -1.3640244e-01
  6.5325582e-01
  6.7026716e-01
  1.2857931e+00
  3.7383800e-03
 -2.9251089e-02
 -6.6185409e-01
  1.1825949e-02
  5.5731488e-03
  6.7132056e-02
  1.6490127e-03
 -5.2755386e-01
 -6.5033333e-03
 -3.1170776e-02
  9.3781380e-03
  2.1968568e-02
  2.6851371e-03
  7.4677654e-02
  1.7763185e-03
 -8.3700977e-02
  1.7466509e-03
 -4.3512620e-03
 -3.5053104e-02
 -6.0733729e-03
 -1.4377898e-03
  2.3886131e-04
 -3.9410433e-03
  3.5238225e-02
  4.4674966e-02
 -3.9258348e-03
  7.5816914e-02
 -2.7666867e-02
 -2.9637487e-04
 -3.8194198e-03
  3.2839819e-03
  3.9894790e-03
  1.3839701e-02
  1.5996139e-03
  2.8796946e-03
  6.5451629e-02
 -1.1651816e-01
  1.6149268e-02
  9.4907675e-03
 -4.8643188e-04
  4.3536004e-04
  1.4214455e-02
 -1.2360620e-02
 -1.2469162e+00
  4.9075852e-03
 -2.2876528e-03
  6.8300967e-03
 -1.6549558e-03
  7.7257864e-03
  7.5990427e-03
  2.3526454e-03
 -2.1425255e-03
 -6.0037994e-03
  1.6703647e-02
 -3.3943022e-03
  7.5230747e-04
  5.3229176e-02
 -9.8369783e-03
  1.8145704e-03
 -7.2450936e-03
 -2.8218986e-03
  4.8842919e-03
  8.7235197e-03
 -7.8283614e-03
 -9.0668974e-03
  7.1026501e-04
  2.3874352e-04
  2.1373287e-03
  4.8323311e-03
  9.5567066e-04
  4.3500061e-03
 -1.6783435e-02
  3.5342932e-04
  8.2509937e-03
  2.6047053e-03
  1.3181689e-02
 -4.8006321e-03
 -5.0996067e-03
  1.1294918e-03
  1.6509466e-02
  1.6900181e-03
 -1.0492281e-03
  8.2071155e-04
 -5.0180298e-03
  2.4598793e-03
 -5.1129097e-04
  5.5877874e-03
 -7.3706508e-03
  9.3853083e-03
 -3.9781135e-04
  1.8850077e-03
  5.3632250e-03
  2.3594897e-03
  9.9514704e-04
 -6.4302296e-03
 -6.5313764e-03
  4.1694762e-03
  2.1314111e-03
  5.4886243e-03
 -1.5018904e-03
  9.5523242e-03
 -2.3675652e-03
 -5.0411546e-03
  6.8520727e-03
  3.5853484e-03
 -4.1285619e-02
 -7.7032964e-03
  8.2980216e-02
  1.2261901e-03
  6.5766582e-03
 -2.6753599e-02
  6.8853525e-03
  1.5884973e-02
 -9.2654228e-03
 -1.4543843e-03
  2.0517742e-02
 -9.9870572e-03
 -2.8526711e-03
  1.6586010e-03
  9.4506349e-03
  4.9007218e-03
  3.7691968e-03
 -7.1087317e-03
  4.9297763e-03
  7.9698925e-04
  9.3446681e-03
  1.6432740e-03
  5.5817696e-03
 -1.2868133e-03
  3.2471199e-04
 -1.0131027e-02
  1.0914497e-02
 -3.7489278e-04
 -7.6400852e-03
  7.8203285e-01
 -4.1626184e-03
  1.3636995e-02
 -1.2255214e-04
  6.7575099e-03
  1.0433853e-02
 -1.0196600e-03
 -8.8860020e-03
  9.9322842e-03
 -3.2612879e-03
 -4.0022205e-03
  7.3388424e-03
 -6.5686554e-03
  1.0617711e-02
 -1.3173576e-02
 -5.9222721e-04
 -5.1893503e-04
  4.0508676e-03
  2.5928316e-03
 -1.2637610e-02
 -3.3630647e-03
  1.8891155e-04
 -1.2446981e-02
 -4.8272748e-02
 -8.2298154e-03
 -6.2382843e-02
 -1.7370425e-02
  6.6375588e-03
 -1.6272016e-03
 -2.5758546e-04
  1.2062735e-01
 -1.0079740e-02
 -7.6343291e-03
 -1.7199219e-03
 -4.9401876e-03
 -4.1549467e-03
 -8.6547425e-03
 -7.3695970e-03
 -2.3204543e-02
 -4.5669591e-03
  2.6475193e-02
 -4.1399198e-04
 -3.0742425e-03
  5.2859532e-03
  1.3121773e-02
  1.8081330e-02
 -1.0873593e-02
  1.3516236e-03
  6.2780017e-03
 -1.0513995e-02
 -4.8601669e-03
 -4.5336518e-03
 -1.7194961e-03
  7.9340430e-04
  1.6515067e-02
  2.9448513e-03
 -5.0969818e-04
 -4.7565936e-03
 -1.1764831e-01
  1.4813510e-03
 -2.8911806e-03
  2.8647122e-03
 -1.4185267e-02
  5.4893764e-03
 -4.1222149e-03
  3.2175821e-03
 -5.1390467e-04
 -1.0332929e+00
 -8.8854516e-01
  7.1562623e-04
 -5.8495272e-03
 -3.2927869e-03
 -5.1832339e-03
 -2.7330090e-05
  2.2244044e-03
  3.2796483e-03
  7.7483654e-03
  4.3602963e-04
  5.2473904e-04
  2.2520717e-02
  1.5447064e-03
 -9.9081546e-02
 -1.2272510e-03
 -8.5009597e-05
  1.1439327e-02
 -7.8603957e-04
  3.9717988e-03
 -1.1357810e-02
  3.4778211e-03
 -3.2636508e-02
  2.3393836e-03
 -1.0331833e-03
  2.3799024e-03
  7.0231629e-04
 -3.4478379e-03
 -1.1494985e-03
  4.7587004e-04
 -2.7863050e-03
 -8.8917906e-04
 -4.0722433e-03
 -2.5601219e-03
  9.3426142e-04
  3.5539658e-03
  5.9677581e-03
  6.8981377e-03
 -8.8864071e-03
  3.7679207e-04
  1.5823057e-04
  6.1278441e-03
 -5.8154487e-03
  2.9259755e-03
 -6.2436271e-03
 -5.4410002e-03
  2.0255478e-02
  1.2340117e-02
  2.6006205e-03
  4.1952814e-04
  2.2280954e-03
  3.8536882e-04
  1.3023638e-02
  6.0915798e-03
 -3.1909621e-03
  1.9438794e-03
 -4.5774914e-03
  2.2521676e-03
  1.1753656e-02
  7.1894350e-03
  1.1867181e-03
 -4.6209367e-03
 -4.9221790e-03
  6.7343316e-03
  2.9197428e-03
 -1.4136954e-03
  1.3178430e-02
 -2.7006028e-02
  4.3361004e-02
 -7.8599723e-03
 -5.2133333e-03
  1.5895932e-04
  1.2360554e-03
 -1.0410438e-02
  6.0469438e-03
 -3.2566483e-03
  3.6394016e-03
  2.4852068e-03
 -1.0250180e-02
  1.0770779e-03
  9.5424438e-03
 -1.8320980e-02
 -6.2848898e-03
  1.4609307e-02
 -1.6141519e-03
  7.6409904e-03
 -7.7985669e-04
 -9.7498915e-04
  3.2100778e-03
 -3.2431518e-03
 -1.5461408e-04
 -1.1269207e-03
  1.4052739e-03
 -2.9164550e-03
 -5.2415454e-03
 -2.2723880e-03
 -4.0241299e-04
  2.2272635e-03
 -7.4622435e-03
  1.6078338e-03
 -1.5200558e-02
  4.1329884e-03
  2.3352494e-02
  3.5248382e-03
 -3.4024182e-03
 -6.9158170e-03
 -2.0551388e-03
 -9.1531677e-03
 -6.3710441e-03
  3.6188029e-03
  1.0208664e-03
 -3.0953810e-03
 -4.6405876e-03
  1.1000834e-02
  4.1247476e-03
 -5.5867285e-03
 -4.4013672e-03
 -5.7795397e-03
 -3.0910019e-03
  1.0074878e-03
 -3.6443234e-03
 -4.7180481e-05
  2.5588116e-03
 -3.4437954e-01
 -1.6503697e-04
 -5.4272972e-03
 -5.6503131e-03
 -8.9451736e-03
  4.9458044e-03
  5.7506687e-03
 -2.0138990e-02
 -4.6739363e-04
 -5.8763023e-03
  2.2251306e-03
  4.9500782e-03
 -6.2021904e-04
  1.7792407e-03
 -4.1195835e-04
 -3.9819389e-04
  1.2774342e-02
  4.8447992e-03
  5.7279546e-04
  4.4368501e-04
 -2.3733616e-04
  9.0698455e-04
  1.1788931e-02
 -1.5388192e-03
 -8.9866342e-03
 -2.0876553e-04
 -3.9498098e-03
 -2.9105332e-03
  1.5334563e-03
  4.1234678e-05
 -1.3582353e-02
  4.8460430e-03
  6.8959701e-03
  4.3202336e-03
 -5.8048274e-03
  2.9224590e-03
  1.6174475e-02
  1.6191866e-03
 -7.0460928e-03
  1.4034119e-02
 -7.1313637e-03
 -7.4072727e-03
  2.3546070e-03
 -2.9683928e-03
  4.2848061e-03
  2.9100613e-03
  8.2363924e-03
  4.3438017e-02
  1.7154761e-01
 -1.6157218e-03
 -1.3894126e-03
  1.2103757e-03
  2.5853330e-01
 -9.0088062e-02
 -1.0895219e-01
 -3.2857864e-04
  1.0271557e-01
  9.3253382e-04
 -3.5854233e-03
  3.6887748e-03
 -1.7070472e-02
  4.4245846e-04
  2.2103721e-03
 -4.9708073e-04
  5.2854177e-03
 -2.9338743e-03
 -2.9113412e-02
 -5.5199163e-04
 -4.0280325e-03
  3.5700738e-02
  1.6267679e-03
  1.1281115e-02
 -1.6065726e-01
 -2.7144758e-02
  9.0228459e-03
 -1.5920181e-03
 -7.6315730e-05
 -1.8546484e-02
 -7.5186100e-03
 -3.0166950e-04
 -3.6589708e-02
 -1.5677085e-06
 -7.8094616e-03
 -1.1026304e-03
 -9.2131011e-03
 -7.9200026e-03
  1.5842525e-02
  4.0493435e-03
 -9.1854706e-03
  7.2910544e-03
  6.6793524e-03
  4.2230026e-03
  2.5168220e-03
  9.5626283e-03
  3.8906627e-03
  5.7939533e-03
 -2.4553447e-03
 -8.0050379e-03
 -1.5030373e-03
 -1.4569767e-02
  5.7973769e-03
 -2.0593407e-03
 -9.9607732e-04
 -5.1024626e-03
 -6.5525085e-02
  8.6606415e-03
 -1.8014188e-03
 -1.4905074e-02
 -4.9403613e-03
 -3.9336262e-03
  2.8555101e-02
  6.0786554e-03
 -3.3982366e-04
 -2.1957660e-03
 -5.2793194e-03
  1.7276191e-03
 -1.3611712e-02
  2.3537779e-03
 -6.8949987e-03
 -2.0309477e-03
 -7.0769817e-04
 -4.5964732e-03
  4.2533339e-03
  3.4069000e-03
  5.2061258e-04
  1.4840246e-02
  6.8332913e-04
  8.5600484e-03
 -3.6541659e-03
 -9.5856300e-04
 -3.5702910e-03
  4.0993937e-03
  5.1378533e-03
  1.3819742e-02
 -1.4657392e-03
 -4.6451814e-03
  6.8027189e-04
 -1.5451399e-03
 -2.1280046e-03
 -2.2493233e-04
  4.5121359e-03
 -3.9840667e-03
 -3.1978503e-02
  2.7474239e-02
  7.7988103e-04
 -1.4212697e-02
 -9.9824052e-03
 -4.2798529e-05
  1.2039511e-02
 -8.4570702e-04
  1.7869252e-03
 -5.2125013e-04
 -5.4317177e-03
  4.5156055e-05
  8.4998999e-03
 -7.2843032e-03
 -2.4297237e-03
 -3.6541992e-03
  6.4127594e-03
  2.3662202e-02
 -5.5409465e-03
  1.8534632e-03
 -1.6195620e-03
  1.8054225e-02
  3.9921112e-02
 -4.5783492e-03
 -9.9859703e-03
  1.6255708e-02
 -1.1880831e-02
  1.5364428e-02
 -2.1958521e-03
 -8.2184240e-04
  1.7399613e-04
  2.8147132e-04
 -6.8042305e-04
 -6.5046450e-04
 -8.1457429e-06
  1.0901160e-02
  2.1807289e-02
  1.1226754e-03
 -1.0281177e-02
 -3.6270589e-02
  6.7061656e-03
 -3.8569249e-02
  6.2525473e-03
 -9.3419023e-02
  4.1007155e-04
  1.1727205e-02
 -2.5865866e-03
 -6.5733790e-03
 -2.0033902e-02
  1.0632007e-04
 -2.0665894e-03
 -4.8900736e-03
 -8.6500654e-03
 -9.2138239e-04
 -8.0929307e-04
  1.5579336e-02
 -1.3040223e-03
  1.0190243e-02
  1.1186683e-02
  4.8136484e-04
  1.9161359e-03
  2.6168376e-03
 -5.1337453e-03
 -2.0062180e-02
  9.4323367e-02
  2.9983870e-03
 -1.1995009e-02
 -9.1794319e-03
 -8.0526024e-02
  9.1483939e-04
 -1.9082993e-02
 -1.8969275e-02
 -2.8380202e-02
  1.4271466e-01
  2.1167221e-03
  5.6887471e-05
 -2.0504523e-02
  7.5913579e-03
  6.5492751e-04
  9.6664362e-04
  7.3281089e-03
  4.9128762e-04
  1.1917337e-02
 -1.7240861e-03
 -6.0010930e-03
  1.9637577e-03
  4.3028272e-03
 -2.3704877e-03
 -6.9259484e-03
  1.0502869e-02
 -6.3987495e-03
  2.6880181e-03
  3.1211641e-02
  4.0316554e-03
  2.1430072e-03
 -3.6670535e-04
  8.9625297e-03
 -7.3531219e-03
  3.2266923e-03
 -2.6060075e-03
 -1.5089898e-02
  3.7430655e-03
  6.8660611e-03
 -2.0741946e-03
  6.2691043e-03
 -4.0939804e-03
 -9.5334230e-03
 -9.8371459e-03
  3.3514437e-03
 -3.3592803e-06
 -1.2443627e-03
  7.0333867e-03
 -3.3369195e-04
  1.4851473e-03
 -3.8956088e-04
 -6.0168789e-03
  1.2340549e-03
  1.8546004e-03
  3.9061240e-03
  2.3074550e-04
 -1.7872988e-03
  5.9661525e-03
 -2.5299145e-04
  1.7402745e-03
 -1.5953598e-03
 -1.7831972e-02
  9.6243899e-03
  4.5055707e-04
  3.6189049e-03
 -1.8383804e-03
 -1.6673929e-03
  5.0881431e-03
  4.9276318e-04
 -7.3358966e-03
 -4.5725829e-03
  4.1968673e-03
  1.3396387e-03
  6.1020949e-03
 -4.7444957e-03
 -3.4352152e-03
 -8.0568623e-04
  9.9011762e-03
 -1.4409378e-02
 -4.5593479e-03
 -1.6058671e-03
 -4.3219221e-03
 -1.7432456e-03
  3.1480510e-02
 -1.5244478e-03
  1.6636256e-02
  8.9108979e-04
  1.8619390e-02
  2.5818788e-04
 -1.6520448e-02
  1.0269647e-02
  7.2643124e-03
  2.3977149e-03
 -1.0277335e-04
  2.0232962e-02
 -7.8531745e-04
  2.6509732e-02
 -3.7398621e-02
  1.0529348e-03
 -1.7195908e-02
  1.0079836e-02
 -6.5026194e-04
  1.8916739e-03
  1.8008899e-04
 -2.2386504e-02
 -2.2200367e-03
  1.9920308e-05
 -8.9483772e-04
 -2.1181583e-02
 -8.1416871e-03
  8.0968058e-03
 -9.2967302e-03
 -5.1872339e-03
 -5.3797062e-03
 -1.3173954e-02
 -5.9469454e-03
 -1.5544667e-02
 -1.1142022e-03
 -1.9219238e-03
 -1.5865401e-03
  2.0176200e-03
  1.7258208e-02
 -1.5211547e-03
 -2.1732273e-03
 -8.4531745e-03
  3.5066975e-03
 -3.8606701e-03
  9.5385918e-03
  5.8575673e-03
 -7.5440912e-04
  1.5232567e-03
 -7.5087970e-05
  2.0034057e-03
  6.2130690e-03
  7.8290291e-03
  2.2842039e-03
  8.5238460e-03
  3.8058609e-03
  6.9501358e-03
  7.5022537e-05
 -1.6280492e-03
 -5.7455348e-03
 -5.5657146e-03
  1.1119997e-02
 -1.1503881e-02
 -5.7354313e-03
 -9.8744538e-03
 -5.7926662e-03
  7.4571986e-03
  1.6111165e-03
 -3.8632029e-03
 -5.3652646e-03
  3.4863793e-04
 -1.2130658e-02
 -2.8125022e-03
  2.5525542e-03
 -6.4009721e-03
  4.6424810e-03
 -3.0931330e-03
 -3.1807122e-03
  3.6388605e-03
 -1.5405279e-02
 -2.5481561e-03
 -1.5238759e-02
 -3.7078845e-04
  4.8624724e-03
 -4.1428080e-01
  1.4506998e+00
  5.4677486e-01
 -7.5526305e-02
  5.8443017e-02
 -2.1995805e-01
 -7.1738219e-01
 -3.9891195e-01
  1.7502885e-01
 -1.4755810e-02
 -2.1949974e-01
 -3.5796928e-01
  7.5599849e-02
  1.2695712e-01
 -8.8723339e-02
  1.5294922e-03
  1.7306535e-03
  4.8571019e-03
 -1.5337384e-02
  3.2331364e-03
 -7.2895046e-03
 -1.3635922e-03
 -1.7119094e-03
  9.7147472e-02
 -1.0346724e-01
 -2.7673963e-01
  3.4409664e-03
 -3.0452993e-03
 -2.2671050e-03
 -2.3594007e-02
  1.8120153e-01
  1.7824575e-02
 -1.0931261e-02
  1.3755474e-02
 -7.1882689e-03
 -1.2637427e-03
 -2.7006987e-02
 -1.7706271e-02
 -2.5839728e-01
  1.1127380e-01
 -2.9279545e-03
  5.8843051e-03
 -2.9353556e-01
 -2.7696781e-03
  1.6134467e-02
  4.8516662e-04
  2.1148077e-03
 -1.2484905e-03
 -1.5355104e-03
 -3.1769820e-03
 -2.2322033e-03
 -1.0076464e-02
  3.2560448e-03
 -1.4236849e-02
  6.7854056e-04
 -2.4560150e-02
  2.8186857e-03
 -2.4177032e-03
  3.5667422e-03
 -7.8962918e-04
 -2.3025416e-03
 -2.8203073e-04
  3.2187875e-03
 -2.4106624e-03
 -6.2744007e-03
 -3.6533645e-04
 -6.6856918e-04
  3.3834029e-03
 -2.8766375e-03
 -1.4431699e-03
  5.8865320e-04
 -2.3136218e-03
  4.2985196e-04
  2.6061058e-03
  1.2675541e-02
  2.5862752e-04
  3.3989472e-03
  9.7415876e-03
  2.6068988e-03
 -1.0558004e-03
 -1.3103420e-03
 -2.9514190e-03
 -6.8857907e-03
  4.6302821e-03
 -1.0699378e-03
  8.4335301e-03
 -3.4359228e-03
  2.3085555e-02
 -1.2871412e-02
 -1.2224012e-04
 -1.3128083e-02
  5.7574338e-03
  7.1798759e-03
  4.3440373e-03
  4.6339743e-03
  1.6005483e-02
  2.4613654e-04
  1.8133221e-02
  7.8289267e-03
 -1.3072602e-02
 -7.9841301e-04
 -1.5741254e+00
 -3.9654505e-03
 -2.5564111e-03
  4.8346695e-04
 -9.8210014e-03
  6.4908841e-04
 -3.4338359e-03
 -6.5224734e-03
  2.7365691e-04
  9.2474893e-03
 -4.4072890e-03
  2.0681562e+00
  6.6293672e-02
 -2.5264883e-01
 -2.2799582e-03
  1.9741303e-01
 -1.9545059e-03
  2.0753895e-03
 -8.6055286e-03
  1.2679063e-03
 -1.4441027e-03
 -1.6517302e+00
  8.3165443e-01
  6.5468426e-04
  2.7970306e-04
  1.2257668e-03
  4.5527737e-03
 -3.0823641e-03
 -3.2851782e-02
  1.5777086e-03
  6.9556287e-03
  7.3549315e-02
  8.0362651e-03
  1.7067762e-03
  7.0374105e-03
 -3.6703241e-03
  4.4154283e-02
 -8.6460233e-04
  1.6050329e-03
  5.4979128e-01
  1.4705079e-02
 -6.0831668e-04
 -9.4754376e-02
 -2.6745985e-03
 -3.4202742e-05
  5.2630277e-03
 -2.7982139e-03
 -3.0227106e-03
  1.8675972e-03
  4.1479860e-03
  2.0313829e-02
 -1.1957827e-02
 -1.4108946e-02
  3.3388995e-03
  1.4219679e-03
 -4.0855074e-01
 -3.0078765e-03
 -9.0612359e-03
 -7.8385025e-03
 -7.4325323e-02
  1.7347492e-02
 -6.7222571e-01
 -5.7134867e-01
  3.2975200e-01
  2.2905158e-02
  5.8107978e-01
 -7.1988180e-02
  4.0074535e-02
  2.0607014e-03
 -2.6878111e-02
 -1.6038832e-03
  5.1068348e-01
  4.8242602e-01
 -2.3667245e-01
 -9.5108822e-02
  2.5153797e-02
  3.3244857e-01
  2.6312800e-02
 -2.2744735e-01
  1.2127436e+00
 -4.0745333e-02
 -6.5166658e-01
  2.1616226e-01
 -5.2814949e-03
  3.2782224e-01
  4.0720992e-02
  3.7202829e-01
 -2.6591553e-03
  1.9396195e-03
  5.1860380e-01
 -3.2515351e-02
  1.8272483e-03
  2.3977134e-01
 -3.8604699e-03
  8.2580023e-02
 -1.0252775e-01
 -7.6265009e-03
 -3.0571479e-02
  1.7401151e-02
 -3.0883300e-01
  4.4457377e-03
 -1.8871625e-01
  1.6604909e-01
  1.1748177e-01
  1.9034408e-02
 -2.5002337e-01
  3.5059810e-02
 -3.7781885e-01
 -3.6787710e-01
 -1.2656094e+00
  5.6580728e-01
 -1.1894046e-01
 -2.9870161e-01
 -5.5080503e-01
  5.1590127e-01
  7.2331399e-01
  1.5777464e+00
  5.2360106e-01
 -1.1927193e+00
 -9.7096747e-01
  4.8792541e-01
 -4.0521312e-01
  5.2080941e-01
  1.0412924e+00
 -6.8051291e-01
  1.1645092e+00
 -7.6850981e-01
 -3.9467639e-01
 -3.2904521e-01
  2.7815953e-01
 -3.4763522e-02
 -3.5606381e-01
 -2.0891212e-01
  3.2520235e-01
  6.8868351e-01
 -1.3049790e+00
 -1.2259792e+00
  1.3728100e+00
  4.4608253e-01
 -8.9750387e-02
 -9.7367533e-02
 -4.5673308e-01
  4.2582041e-01
  3.7696477e-02
 -2.5408641e-01
  4.1864526e-01
 -1.8928899e+00
  2.0314565e-04
 -5.7844259e-02
 -1.2410413e-01
 -9.0725464e-01
 -2.2741742e-01
  3.9310634e-02
  2.6047614e-01
  3.0442189e-02
  1.1810347e-01
 -7.3209576e-02
 -5.6283498e-01
 -5.2456404e-03
  6.9110468e-02
  5.9847618e-03
  4.0171584e-01
 -1.2764324e-01
 -4.2953902e-01
  5.8245277e-01
 -6.6107482e-02
  3.9493972e-01
  5.0036699e-01
  2.9167950e-03
 -2.4169204e-01
  1.1213701e-02
  1.9647086e-02
 -1.0007277e-02
  9.1691583e-04
 -8.1122577e-02
 -3.8395867e-01
 -1.5222554e-01
  2.1632162e-03
  3.0627532e-03
  1.3168581e+00
  1.1743517e-02
  2.4847235e-03
 -2.9654397e-02
  4.7835000e-03
 -1.5512798e-02
  8.8890633e-03
 -2.0290473e-02
 -2.3449825e-02
  3.6916139e-03
  1.0301013e-02
  4.0645390e-03
  6.6615609e-03
 -4.3505831e-03
 -2.1399083e-03
 -2.8096359e-02
  8.6659094e-04
  2.7193199e-04
  3.1975202e-02
 -1.7321419e-02
 -2.5860411e-03
  8.3782682e-03
  7.3329383e-03
  1.5747463e-02
 -5.0672349e-03
 -1.0841635e-02
 -1.5165081e-02
  3.9999291e-02
  9.0663768e-03
  1.1308821e-02
 -7.9510491e-03
  1.1718060e-03
 -1.5512375e-02
 -9.9429870e-03
 -5.1004561e-03
 -2.7986586e-03
  1.4159328e+00
 -8.2650833e-04
  7.3924060e-03
 -1.0778846e-03
  1.5417241e-03
  5.3520845e-03
  1.8395908e-03
 -5.7563460e-03
  5.1027620e-03
  1.0487999e-02
 -3.7030871e-03
  3.5175476e-03
 -3.1811353e-03
  1.6639126e-03
 -2.7777853e-03
 -1.4937453e-02
 -2.2309588e-03
  9.5349075e-03
  3.3056960e-03
  3.9627026e-03
 -6.3378443e-03
 -3.0885746e-03
 -8.8259168e-03
 -7.9785725e-03
  1.7105191e-03
  1.0214328e-02
 -6.2684133e-03
  4.8412918e-03
 -5.2364231e-03
  6.2942866e-04
 -1.1109980e-02
 -8.8372868e-01
 -3.7577769e-03
 -9.4761793e-04
  7.0202830e-03
 -2.7412856e-03
  9.1083711e-03
 -2.2785068e-03
 -2.2655139e-03
  1.9360427e-02
 -4.3409835e-03
  2.0063594e-02
 -1.1091644e-02
  7.1084029e-03
  1.2356905e-02
 -3.4389000e-03
  8.3809422e-04
  1.6716091e-04
 -3.3099721e-03
  5.8935215e-03
 -3.3710820e-03
  5.4348703e-03
 -8.1576081e-03
  1.6202748e-02
 -5.1486677e-01
  5.2504003e-01
  2.3962488e+00
 -1.7462965e+00
 -2.5496681e+00
  6.1796850e-01
 -1.2207153e+00
  6.0946848e-02
 -6.0486352e-01
 -8.6262135e-04
 -4.0388461e-02
  1.5531037e-02
  6.0452562e-02
  1.4947268e-01
 -1.3648105e-01
  8.6712111e-03
 -2.1187458e-03
  7.9445820e-03
 -7.7041253e-02
  1.0363880e-02
  1.6714582e-02
  1.1006961e-02
  5.5569988e-01
 -6.1312895e-03
  1.6918631e-02
  2.8386752e-03
  2.7603367e-02
 -1.3115705e+00
 -3.8949831e-04
  1.3986412e-02
 -3.7041724e-02
 -5.5298433e-03
 -4.6650274e-03
  1.0603245e-02
 -1.1858074e-02
  6.1728279e-03
  2.6049134e-03
  7.6390156e-03
  1.3854549e-02
  1.0669727e-02
 -1.9937612e-03
 -2.4337638e-03
 -1.0175541e-02
 -6.0890364e-03
 -1.4141295e-02
 -1.0014301e-01
  2.1323092e-02
 -2.1634599e-02
  1.5543013e-02
  2.2994718e-02
 -6.2596197e-03
  3.2207642e-03
  1.2083276e-03
  3.5910972e-03
  2.2714776e-03
 -2.0076707e-02
 -1.2928318e-03
 -1.2440888e-02
  2.1250336e-03
  2.2487433e-03
 -1.5393356e-03
 -1.4051978e-02
  1.0482633e-02
  2.0345266e-04
 -2.0479815e-02
 -2.6956222e-03
 -9.6552743e-04
  7.4442592e-03
  1.3770234e-03
 -4.1793901e-03
 -1.5407933e-03
 -3.9687026e-03
 -5.7151294e-03
 -6.8975077e-03
 -6.0752057e-03
  3.6845211e-04
  1.1084108e-02
 -6.9937838e-04
 -4.0961532e-03
  6.0431502e-04
 -1.2267496e-02
 -3.0415871e-03
  2.0710498e-03
  5.9715234e-04
 -2.2505901e-03
 -4.0240833e-03
  8.4267054e-03
  4.9339999e-03
 -1.0471072e-04
  6.0977379e-04
  7.2064898e-03
  8.0203783e-04
 -1.3194076e-03
 -1.7814163e-02
 -5.5763819e-03
 -9.1893366e-03
 -4.8786066e-03
  4.3897363e-03
 -2.3306471e-03
  2.5593441e-03
  2.7499381e-03
 -1.5466639e-03
 -7.2741918e-03
  1.8436420e-03
  1.3688025e-03
  3.8819472e-04
  2.8933512e-02
  7.4446993e-04
 -3.7886611e-01
  4.3977916e-01
  1.4658952e+00
  1.2323410e-02
 -8.5200471e-01
  3.3921018e-01
  3.2920193e-02
  3.0523883e-02
  1.3128418e-02
  3.2567646e-02
 -7.9330467e-03
  9.7524144e-02
 -2.8352305e-01
 -6.1886157e-03
 -4.7143599e-01
  5.4440111e-01
 -6.2874228e-02
 -8.8094056e-02
 -2.9973033e-01
 -5.3311316e-03
 -5.5362885e-03
 -2.5169533e-03
 -4.7415722e-02
 -2.5262809e-01
  1.7202747e-01
  7.7303959e-04
 -1.2091930e-01
 -1.2721992e+00
  5.4722806e-03
 -1.3128023e-01
 -7.0781523e-04
 -2.8740537e-01
 -8.6372700e-03
 -2.0894378e-03
  2.3348692e-01
 -3.2346565e-01
 -1.5328974e-02
  2.3561331e-02
 -4.7079653e-02
 -5.4068575e-03
  5.1362030e-03
  3.0946711e-01
  9.0081260e-02
  1.5598133e-01
  1.0369671e-01
  1.1251505e-01
 -4.2454572e-03
 -1.7890340e-04
 -3.1247356e-03
  3.5174169e-02
 -7.0827720e-03
 -5.5451267e-03
  3.0639069e-03
 -8.0138929e-03
  7.7022642e-01
  3.6282189e-02
  4.2753029e-01
 -3.5819912e-01
  5.8790441e-03
 -1.3101909e+00
  2.8876248e-01
 -9.5375156e-01
  2.7537847e-01
 -2.9496038e-01
 -2.0414980e-01
  6.6882603e-02
 -1.9361931e-01
 -1.1219358e-02
  5.0590217e-01
  3.4022804e-02
  6.2640444e-03
  2.5586525e-01
  7.4957438e-02
  4.9700188e-03
  9.9557072e-02
  3.9238054e-01
 -8.0315815e-03
 -8.0092885e-03
  8.6265272e-03
  4.1023955e-01
  4.9923128e-03
 -1.2529853e-01
  5.9968554e-03
  2.6109621e-03
 -6.7540249e-03
  4.5532165e-03
 -5.1841345e-03
  3.7178774e-03
  1.3683525e-01
 -4.7780271e-03
  1.7411238e-01
  7.4101333e-03
  6.7200195e-03
 -1.2119766e-01
 -1.4476524e-03
 -1.4274382e-02
  2.0621843e-03
  2.7192349e-03
  4.9658748e-03
  3.1495461e-01
  1.0738539e-03
  1.1398991e-02
  1.5007145e-03
 -2.3802886e-02
 -1.6674178e-03
 -1.4619962e-02
 -5.9852684e-03
  1.2295419e-02
  1.6638899e-02
  3.2078162e-01
  6.1236662e-01
 -3.9737108e-01
 -8.1456184e-02
 -2.1134729e-03
 -7.9860993e-02
  3.0778837e-03
 -3.6877680e-01
 -4.6628457e-03
 -1.3187837e-03
 -8.3357893e-04
  7.6140013e-06
 -1.4525980e-03
  1.9836167e-03
  7.4033067e-04
  1.7419236e-03
  2.1196047e-03
 -3.3126701e-02
 -4.4835280e-03
  6.0936222e-03
  2.8717674e-03
  4.4567764e-04
  2.6285367e-03
  3.1085180e-03
  8.1395255e-03
  7.3045830e-04
  1.4090285e-01
  7.6744857e-04
 -5.5721365e-03
 -2.0489464e-02
  1.4492588e-03
  7.7176664e-04
  2.4423693e-04
  3.5927654e-03
  1.4178742e-04
 -7.8597795e-03
 -1.4973305e-04
 -2.1808830e-03
 -2.5611594e-03
  3.7995933e-03
 -3.0979767e-04
 -6.3061342e-03
  1.0694321e-03
  7.9932931e-04
  5.8522157e-04
  6.9783009e-03
 -1.6240989e-04
  1.0401467e-04
 -6.6820621e-03
  3.8984010e-03
 -4.0089879e-03
 -7.2104847e-03
 -3.1805262e-03
  4.4768332e-03
 -7.1501080e-03
 -2.7705233e-03
  9.3679801e-03
  2.8746729e-03
 -1.6022740e-03
 -2.3936634e-03
 -4.8512043e-03
  1.1074916e-02
  8.0641387e-03
 -9.2989072e-04
  1.2914672e-02
  1.7877166e-04
 -9.2507526e-04
 -2.3651766e-03
 -1.7403852e-02
 -4.1095223e-03
 -2.0560238e-03
  3.5222643e-03
  7.6690451e-03
  5.0538159e-03
  1.2575790e-03
  3.0725144e-03
  8.8469442e-03
  2.3525173e-03
  2.0116649e-03
  1.6220912e-03
 -8.7702964e-03
 -3.5872576e-03
 -4.5407242e-03
  1.9832038e-04
  4.7342232e-03
  4.8286533e-03
  4.1558361e-03
 -2.3390511e-03
  3.9006851e-04
  8.0069369e-03
  1.5302550e-02
  7.3842872e-03
 -6.8078574e-05
 -1.5178243e-04
 -6.1265794e-03
 -3.0691408e-05
 -3.1890552e-03
 -6.1176071e-04
 -5.7008496e-04
  1.1562075e-02
  2.1677816e-03
  3.7508726e-04
 -1.8119437e-03
 -1.0870228e-03
  6.2964619e-03
  7.2279945e-03
  1.5478827e-03
 -3.4884578e-01
 -2.6321608e-01
 -3.0029860e-01
  4.6233502e-01
  5.5944914e-01
 -6.1291510e-01
 -1.2153121e+00
 -4.6365848e-01
 -3.1475195e-01
  1.0155482e-02
  1.8575959e-01
  3.5615843e-03
 -7.7007525e-02
 -4.4385563e-03
  4.5963994e-01
 -8.3975494e-03
 -8.5715586e-03
  1.0287316e-01
  7.0666814e-01
  3.0082017e-03
  1.3571505e-02
 -4.4613844e-03
 -6.7743823e-02
  1.1085556e-01
 -1.0424060e-01
 -3.3123109e-02
 -5.2368343e-02
  4.7175536e-01
 -9.8736867e-02
  2.9655331e-01
  2.1919189e-01
  8.1496201e-03
 -1.6666053e-01
 -1.8910784e-03
 -1.0431645e-01
  9.5495833e-03
 -9.8444656e-02
 -1.5679106e-02
  2.7024271e-02
  1.4302392e-02
  8.7977257e-03
 -5.3631920e-02
 -3.6237822e-03
  3.2011473e-01
  1.0521574e-03
  7.2837090e-03
  5.4990230e-03
  2.7475199e-01
 -8.7181041e-03
 -2.0442743e-02
  7.7157456e-01
 -5.7313694e-03
 -4.8484574e-03
  4.9563148e-03
 -5.0163100e-04
 -5.7738000e-03
  1.4438313e-03
  1.5009177e-01
  1.6867786e-03
  6.2873513e-02
  2.7083952e-03
 -3.0027198e-02
 -2.4250584e-02
  2.0780794e-02
  8.5089862e-04
 -4.4745132e-03
 -9.9360105e-04
  1.3472571e-02
 -1.1842906e-02
  1.1510530e-02
 -1.2150176e-02
 -9.2153653e-04
 -1.0938764e-03
 -1.3800409e-03
  4.8802993e-03
  2.2408605e-02
  1.4272561e-02
 -4.8900960e-04
  7.1075568e-03
  1.0901834e-05
  6.1567668e-03
 -9.8005952e-03
  6.4686076e-03
  2.9161028e-03
  2.6948360e-04
 -2.2532488e-03
 -6.5223271e-01
 -5.6076380e-03
  1.1807625e-03
  2.1436671e-03
 -1.3632012e-02
 -3.7543753e-03
 -5.8985627e-03
 -1.3002702e-03
  8.6728502e-03
 -4.9273921e-03
 -2.1971427e-03
 -1.7926192e-02
  1.7797146e-03
 -8.9919856e-03
 -9.1794576e-04
  8.9069587e-01
  7.5838184e-01
 -1.5280818e-03
  1.4800620e-02
  5.1073759e-04
 -3.4147860e-03
  5.2579511e-03
  1.8639157e-02
  1.5636416e-01
 -1.9948074e-04
  1.4340543e-03
 -1.0451202e-03
 -2.2253441e-03
 -2.9157421e-03
 -2.0837302e-03
  1.8012562e-03
 -3.5945449e-03
  6.3568354e-03
  3.7336934e-03
  2.7507998e-04
 -1.0389539e-02
  1.3848174e-02
 -9.3915919e-03
  6.1859362e-05
 -1.4464904e-03
 -6.1221523e-03
  1.2573392e-02
 -1.0410282e-03
  3.1761620e-03
  8.6565298e-04
 -6.9453946e-04
  9.0433541e-04
  2.9070763e-04
 -4.6381159e-03
  2.3990124e-03
 -1.0134850e-02
  1.1784111e-03
 -5.5570318e-03
 -1.8100301e-02
 -8.4996026e-04
  2.7050793e-03
 -1.2143826e-03
  2.4896473e-02
 -1.1139449e-02
 -2.5669362e-03
  3.9641960e-03
  1.8569992e-04
  6.4300036e-04
  9.5555233e-03
 -1.2659081e-04
 -2.3012196e-04
  8.7213460e-03
 -1.4818868e-02
 -3.8611598e-03
 -5.9412858e-03
  5.2799535e-04
 -2.1769467e-03
  1.2055533e-03
  6.5744674e-04
  1.3485416e-03
  1.9057592e-03
 -1.7885673e+00
 -7.5036132e-01
 -4.6949338e-02
  1.2656600e-03
  1.6902391e+00
  1.8105684e-01
 -5.4604155e-01
 -1.3624251e-01
  4.2138988e-01
 -5.4539535e-03
 -2.2179271e-01
  1.6690667e-03
  6.4213443e-01
 -1.3191833e-02
  1.8573480e-02
  5.4277939e-01
  1.0045920e-02
 -6.3583963e-02
 -4.4131582e-03
 -4.7623296e-03
 -3.5702921e-03
 -4.5020311e-06
  7.5900238e-03
 -3.7684236e-03
 -1.3172716e-03
  3.9986584e-01
  3.6962647e-03
 -1.7721395e-03
  5.0102086e-03
  1.3041439e-02
 -7.6697720e-04
 -9.0501523e-03
 -7.8590484e-03
 -2.5546816e-03
  2.8256702e-03
  1.5168136e-03
 -1.7617507e-02
 -8.9322668e-01
 -1.4306672e-04
 -9.5925130e-02
  1.2151820e-02
  9.4196625e-02
  1.8519958e-03
  7.2979373e-03
  1.3700940e-04
 -6.9578742e-03
 -8.3676456e-03
  3.1196291e-03
  1.0720012e-03
 -6.9808615e-03
  5.8973986e-03
 -1.0355682e-03
  5.4855656e-04
  2.8332119e-04
  1.4726526e-01
 -6.1451025e-02
  1.0376587e-01
  1.4759810e-01
  2.6363569e-01
 -8.7302434e-01
 -1.2125007e+00
 -3.0936465e-01
 -1.9097551e-03
 -6.0376443e-02
 -2.0129983e-01
 -8.8565029e-02
  1.9108440e-01
  1.4509309e-02
 -4.2251113e-01
 -7.0057708e-01
  2.6333844e-02
  1.3924202e-02
  4.0482990e-02
 -8.1900805e-03
 -2.5778292e-03
  2.1752080e-02
  1.1607720e-01
 -6.3346252e-02
 -5.1441812e-04
  1.3386302e-03
  2.3814288e-03
 -2.5462511e-01
  2.9543089e-03
 -1.9301607e-01
 -6.1975233e-03
 -2.8545424e-02
  1.9976504e-02
 -7.0414162e-04
  3.7562635e-03
  8.2714664e-04
 -2.8500859e-02
  6.3223680e-03
 -4.7000796e-02
 -2.7684355e-03
 -2.5219398e-03
 -4.3980260e-03
  5.4677460e-02
  1.0352498e-01
  1.5716099e-03
 -1.0770687e-01
 -7.1877632e-03
 -9.2263715e-03
 -3.9215344e-03
  3.9573010e-02
  2.5640326e-04
  2.1549098e-03
  7.6422300e-03
 -1.1949679e-02
 -7.9160655e-04
  3.2694750e-03
 -2.4214338e-03
  6.4986765e-05
  8.7289969e-03
  2.1868905e-02
 -5.7552601e-03
  3.8642250e-04
 -9.0799446e-04
 -4.4306699e-04
 -1.6066590e-03
  8.0568697e-03
  4.6078614e-03
  1.7838513e-03
 -2.0275781e-02
  1.4594505e-03
  3.0722704e-03
  5.6011184e-05
 -2.9867236e-03
 -3.6537815e-03
 -4.8718643e-03
 -1.6202312e-02
 -3.6284702e-03
 -4.2779795e-03
  2.1897196e-03
  1.4425770e-03
 -2.8909235e-03
  4.4517387e-03
  1.2471633e-02
 -2.0601039e-03
  6.5310001e-03
  4.6261610e-04
  5.6781764e-03
  4.3583326e-02
  1.0432872e-02
  4.3532622e-04
  9.8450007e-03
 -7.8866370e-03
 -4.0213345e-03
 -1.4098817e-02
 -1.9340783e-03
  1.3027918e-02
  1.9122823e-03
 -5.3227805e-03
 -7.7207468e-04
  1.1800063e-02
 -2.3129771e-03
 -3.0177017e-03
 -5.7849516e-03
  1.4117439e-02
 -1.2797692e-03
  3.6358757e-05
  2.3056532e-03
 -9.4589964e-03
  2.8114635e-02
 -1.3146995e-03
  2.4414423e-01
 -4.0069130e-01
  5.8521318e-01
 -3.5408059e-01
 -1.1557177e-01
  1.2710050e-01
  7.5425959e-01
 -4.3830973e-01
 -1.1171699e-01
  8.4940307e-02
 -8.7313987e-02
  3.1376418e-03
 -6.5265131e-01
  1.7233969e-01
  1.4217156e-02
 -2.0772924e-01
 -1.8311901e-01
  1.7051827e-02
  2.3362839e-01
  2.6527250e-01
 -1.9650002e-01
 -4.7805753e-01
  1.3467988e-01
  2.7650067e-01
  6.5596096e-02
 -1.3510406e-03
 -6.1933110e-03
  7.2080009e-02
 -4.5467068e-02
 -5.4435804e-03
 -5.5146529e-03
  5.3574662e-03
  2.8623027e-01
  7.1446770e-03
 -1.5072921e-01
  6.8446547e-02
 -3.8161946e-03
 -4.8408065e-02
 -3.6021925e-03
 -4.4465507e-03
 -1.6574155e-03
  2.4061932e-01
  1.0450329e-02
  1.2304271e-02
 -1.7566415e-03
 -3.1387117e-02
  5.9094499e-03
 -3.4983644e-01
  2.7782007e-03
 -2.2107407e-03
 -3.6647029e-02
  9.9956878e-03
  1.4320131e-01
 -5.8613210e-03
  4.4812183e-03
 -9.0830383e-04
  5.5693853e-01
 -2.7909463e-03
  3.2647731e+00
  5.5059358e-03
  2.3231318e-02
 -1.1212894e-02
 -1.4456855e-03
  1.1093694e-03
  3.8267476e-03
 -1.3680833e-04
 -6.3248873e-03
 -5.9556495e-04
  4.6053450e-03
  3.1702563e-03
  9.7352229e-03
 -1.7403316e-01
 -3.8084072e-05
 -3.2314964e-04
 -9.2727318e-03
  2.3742525e-03
  1.3756776e-03
  4.2693841e-04
  8.7161764e-04
 -1.1069949e-03
 -2.4713835e-02
 -2.6671768e-03
 -7.9028131e-03
  4.9378886e-03
  7.2848266e-03
 -6.5564932e-03
 -2.2697621e-03
  3.9422759e-03
  8.9407517e-03
 -2.0464886e-02
  6.1356709e-03
  6.4763655e-03
  1.5746895e-02
  6.7708162e-03
 -7.9139117e-03
 -1.7863349e-03
  1.3780193e-03
 -6.5909377e-03
 -6.6675795e-03
  4.9606324e-03
  5.5275541e-03
 -1.8736423e-03
  5.3842533e-03
  1.7550511e-02
 -1.8052643e-03
  1.3888557e-03
 -1.3492717e+00
 -4.6727128e+00
 -1.6253285e+00
  5.2481170e+00
  8.9285421e-01
 -8.3119518e-01
 -6.8277168e-01
  9.8711640e-02
  2.3485577e+00
  1.8755320e-01
  1.0124125e+00
  7.9758829e-01
  8.2047576e-01
  5.9353322e-01
  1.6917849e-01
  9.9442548e-01
 -3.9277965e-01
 -7.3465550e-01
  3.9972058e-01
  1.4075929e+00
 -6.2615727e-04
 -1.8283711e-03
 -5.4882552e-02
 -8.7789482e-01
  1.8072101e+00
 -1.0296861e-01
 -5.9839990e-02
  5.7032126e-01
  1.2898682e+00
 -2.9022127e-02
 -2.2522575e-01
 -4.5596021e-01
 -1.5224316e+00
 -1.3750352e-02
 -6.3886084e-02
 -5.7300564e-02
  7.2692883e-01
  3.3851094e-03
 -1.6791601e-04
 -3.1912520e-03
 -4.9315235e-03
 -4.5062938e-01
 -1.9664355e-03
 -4.2665964e-01
 -2.7914489e-02
 -6.6719670e-03
  8.1647448e-03
 -1.6931465e-01
 -1.2826045e-03
  6.5298311e-02
  3.9537951e-01
  1.0243765e-02
  6.0346704e-03
  5.0280048e-03
 -2.6487866e-01
 -1.4198580e+00
 -2.4158482e-01
  6.4339751e-01
 -1.1876684e+00
 -4.7956544e-01
 -7.4609858e-01
  4.3079832e-01
  1.3447654e+00
  4.3648642e-02
 -7.0475303e-02
 -4.5723683e-04
 -3.9405671e-01
 -7.9942159e-02
  2.0021761e-03
  4.2910156e-01
  2.2258630e-03
  1.8653054e-02
 -2.0493783e-02
 -2.6186413e-01
 -2.3040732e-03
 -1.3894706e-02
 -4.6615906e-02
 -1.1073446e-01
  2.8105259e-03
 -2.7302723e-02
 -4.0758783e-01
 -6.3155461e-03
  2.2145116e-03
 -7.0574234e-04
  7.1329041e-03
  2.3222689e-02
  7.7333935e-02
 -1.2135313e-02
  2.1996866e-03
 -7.6877722e-03
  9.1420421e-03
 -1.5353965e-02
  4.7133411e-03
 -4.4982247e-03
 -1.2163932e-03
  9.7824326e-03
 -7.7702468e-03
  3.1631805e-03
  3.4805522e-03
  3.5061038e-01
  2.3538850e-03
  3.6974908e-03
  4.4549484e-04
 -2.7109697e-02
 -2.9795086e-03
  2.2994452e-03
  6.0924389e-03
 -5.4508029e-03
 -9.8217828e-03
 -2.3329134e-01
 -7.3596853e-01
  8.9735061e-02
  1.4433159e-03
  2.0366834e-01
  1.0882574e-01
  6.0316920e-01
 -1.3893406e-01
  1.1159983e-01
  1.0803776e-03
 -2.7977095e-03
  2.1868683e-02
  9.0213455e-03
 -1.7360675e-01
 -1.1990283e-02
  9.3060816e-03
  3.1276732e-03
  1.2707198e-03
  9.6518302e-04
 -6.1440741e-04
  3.2944980e-04
 -3.2383390e-04
  3.9186690e-04
  5.0080349e-03
  1.5687434e-02
 -2.1010544e-02
 -8.8581908e-04
  9.1981678e-04
  9.8765607e-04
  6.4918087e-03
 -3.2345883e-03
 -6.7378799e-03
 -2.4739714e-02
  3.4391280e-02
 -1.8075490e-02
 -6.1760237e-04
  8.7702898e-03
  1.4984357e-03
  3.4866044e-03
 -2.8676380e-04
 -2.9705020e-03
  1.6107375e-03
 -6.7879953e-03
  1.1595251e-02
  7.8378683e-03
  1.8243842e-04
 -3.3410424e-03
  1.2332652e-03
 -3.5944011e-02
  1.5802961e-02
  9.2999637e-03
  1.1696626e-02
 -2.6243664e-03
 -1.0856887e-02
 -1.1098256e-01
  2.0116051e-01
  5.1318407e-01
  6.4038819e-01
 -4.0985078e-01
  1.2581547e-01
  9.8531865e-02
 -2.1239918e-01
  2.2443312e-01
  7.9798025e-01
  2.4959002e-02
  1.9094977e-01
  1.4533137e-01
  1.1904462e-01
 -1.9535648e-03
  2.5954088e-02
  1.2594104e-01
 -2.4660542e-03
  8.3072120e-01
  2.3783924e-01
  1.3727621e-03
  8.8788942e-02
 -1.1682691e-01
  4.2217005e-02
  9.4370857e-02
  1.8288222e-03
  1.4867949e+00
  7.0695561e-01
  1.2119983e-03
 -9.4027176e-02
  1.7046869e-02
 -2.3808807e-01
  1.0761507e-01
  2.3227663e-01
  3.3119326e-03
  3.1327382e-03
  1.5594850e-01
 -2.9377623e-02
 -3.8031045e-02
  4.2316904e-03
 -2.2317244e-02
  2.1141993e-03
  8.3730221e-02
  4.1496139e-03
 -5.4692919e-04
 -3.3423069e-04
 -1.3318624e-02
  8.4269717e-03
  2.7714988e-02
 -1.2670779e-03
  1.3657566e-02
 -6.6761943e-03
 -8.4624942e-03
 -8.5007334e-01
  8.1812906e-01
 -3.3420050e-01
 -1.8287040e-01
  7.6982707e-01
 -4.9286593e-02
 -7.0256037e-01
  9.4336972e-02
 -1.4708060e-01
 -2.1821344e+00
  6.3929594e-01
 -3.3700347e-01
  4.5858899e-01
  9.9441558e-01
  2.0591633e-01
 -5.3714776e-01
  2.0159070e+00
 -2.5578970e-03
 -9.5688891e-01
  2.0428714e-01
 -4.0573776e-02
  5.2322298e-01
  1.3886049e-01
  5.7125020e-01
  9.8311311e-01
  8.0100459e-01
 -5.9188664e-01
 -2.5414231e+00
  7.7688152e-01
 -1.4537281e-01
  2.6311703e-02
 -1.4685324e-01
  5.1187003e-01
  3.8691783e-01
  1.0131187e+00
  3.4682602e-01
 -6.9585204e-01
  3.7419006e-01
  1.3266395e-01
 -1.0582774e+00
 -2.1982068e-01
  1.3877743e-01
  1.0594788e-02
  1.3062241e+00
  1.7187756e-01
  1.3421208e-01
 -8.2703672e-02
 -6.9139235e-02
  4.4466881e-03
 -2.2576794e-03
  8.7725315e-03
 -3.2471300e-03
 -1.0452078e-01
 -1.7262186e-03
 -3.1444222e-01
  2.9917818e-01
  2.0306490e-01
  1.6232750e-01
  1.8752748e-02
  1.2323055e-01
  1.5887489e+00
  4.5277685e-01
  3.3166759e-02
  4.6966553e-02
  1.5426709e-02
 -6.8778889e-03
 -2.9257292e-02
 -6.1219949e-03
 -1.1155084e+00
  1.9925019e-02
  7.0567075e-03
  1.7655902e-01
 -2.0254532e-01
  5.3970227e-03
  3.8260251e-02
  2.2828474e-03
 -6.4312696e-02
  1.3654642e-01
 -3.0583112e-02
  6.6076769e-03
  9.7417645e-03
  1.5302593e-01
  3.4486130e-03
  1.3949068e-02
 -1.0378688e-03
  4.2793327e-03
  1.1665964e-02
 -1.5098698e-04
  4.5036498e-04
  6.8428828e-03
  7.0146997e-03
 -1.1266465e-02
  8.4391842e-03
  3.9470986e-02
  1.7910851e-02
 -1.3622753e-02
 -1.2106118e-02
 -1.8532075e-02
 -7.5459696e-04
 -2.0424861e-02
  2.5747719e-05
  3.9610956e-03
  1.2745399e-03
  2.1474091e-02
 -2.6051796e-03
  4.9949964e-03
  4.0055057e-03
  1.2983250e-02
 -4.8290070e-02
  8.6874235e-03
  2.6086451e-02
  1.8141913e-01
 -1.6459277e-01
  1.8950965e-01
  2.3033194e-02
  1.2222276e-01
 -3.4806728e-01
  1.0666785e-02
  1.2949432e-02
 -2.8249940e-01
  4.5250761e-03
  3.1782006e-04
 -7.4959092e-02
  5.2697458e-03
 -2.2960352e-03
  1.8859355e-03
 -4.5258361e-03
 -6.2007522e-03
 -1.8195016e-02
 -3.9065569e-03
 -1.9551541e-03
  6.8937807e-04
  3.4107501e-03
  6.6559510e-03
 -9.2062289e-03
  2.2357842e-04
 -1.1845638e-02
  3.7829867e-03
  8.7792933e-02
  5.9100031e-03
  2.1954614e-03
 -6.9035479e-04
 -2.5717673e-04
  4.5894408e-03
  5.5554677e-03
  3.2827149e-03
  1.6676710e-04
 -8.0493521e-03
 -3.3723327e-04
 -8.2427013e-04
  1.9289578e-03
 -3.1572465e-02
 -2.7477113e-03
  7.9026278e-03
 -2.9611073e-03
  1.1424442e-02
 -6.4114830e-03
 -2.8488381e-02
  2.1962160e-02
  4.0132357e-03
  1.2497880e-03
  6.8096393e-03
  1.2711859e+00
 -2.6270180e+00
 -1.6507310e-01
  1.0004103e+00
  1.7801286e+00
 -8.9795059e-01
  3.7155921e+00
 -2.0617400e-01
  1.1698313e+00
 -6.7565598e-02
  6.0840011e-01
  1.5533440e-01
  2.7073136e-01
 -9.3948293e-01
 -6.8065757e-01
  8.8240212e-01
 -1.7608335e+00
 -3.9677286e-01
  3.0638764e-02
  3.8460538e-01
  1.4869640e+00
  4.2460558e-01
 -1.5128998e-01
 -1.8474836e+00
 -2.7437490e-01
  1.3173448e-01
  3.3090168e-03
 -5.0939240e-02
  1.3079967e+00
  2.9906285e-01
  4.4966948e-01
 -2.7683896e-01
 -2.2221971e+00
 -1.9787675e-02
  9.7801625e-05
  4.9483490e-01
  4.7090366e-01
  5.0735039e-01
  1.3136638e+00
  7.1718046e-03
 -2.1163216e-01
 -1.6582863e+00
 -5.5823177e-03
 -3.5762673e-03
  4.6198941e-03
  4.7897559e-01
 -4.8657348e-03
 -3.9473845e-04
 -6.3335530e-02
  2.9578963e-01
 -3.4057874e-02
  2.0758322e-02
 -1.1980379e-02
 -8.3081042e-03
 -2.5514362e-03
  1.1795338e-03
  6.3605665e-04
 -2.4898877e-02
  3.6962675e-03
  1.0392887e-03
  6.6045178e-03
 -9.2000893e-04
  1.0445695e-02
 -1.7344344e-02
 -9.1313850e-03
 -1.7108735e-04
  6.6537078e-04
 -4.3892330e-03
 -4.2181490e-03
  6.8926900e-03
  1.2342468e-03
  4.4365311e-03
  8.1498111e-03
  1.7891057e-03
 -5.7967403e-03
 -2.3239264e-03
  3.2437735e-04
 -1.7926159e-03
  4.6028869e-04
 -1.6207442e-02
 -7.0085838e-03
  1.7964482e-02
 -4.1860174e-03
  1.3235147e-03
 -2.2973267e-03
 -5.5817189e-03
 -1.3171749e-04
  1.4477429e-03
  2.8446901e-03
 -3.6220886e-03
 -8.7708905e-03
  5.3002378e-03
  1.0453088e-03
  1.2117828e-02
 -3.3383288e-03
 -1.0026275e-02
  7.5561726e-03
  1.1011473e-02
 -7.8001800e-03
 -5.2262950e-03
 -2.5349357e-03
 -1.8112430e-02
 -1.1086136e-02
 -2.6243604e-03
 -7.4579795e-03
 -7.7711646e-03
  1.1442716e-02
  7.3487195e-03
 -3.4839648e-01
 -1.2687832e+00
 -9.4802779e-01
  1.3860607e+00
  1.2326020e+00
 -6.8626165e-01
  5.1232922e-01
  1.9708362e-01
  7.3097932e-01
  7.7558470e-01
 -9.5593043e-02
  4.6554229e-01
  5.3324997e-02
 -6.2903970e-01
 -1.8556078e-01
 -5.1967021e-02
  9.3469065e-01
 -8.7818849e-01
  1.0936141e+00
  1.2252539e-01
 -6.3725392e-04
 -7.1924675e-01
 -2.3758569e-01
 -5.3778470e-01
  2.8181067e-01
 -3.5735015e-02
 -3.7969056e-01
  1.3577400e+00
  1.8344060e-01
  5.1928025e-01
 -4.2480963e-01
 -3.1429105e-02
 -3.6864349e-01
 -6.6718525e-01
 -7.7061838e-01
 -2.9080892e-01
  7.1633208e-01
  3.0448190e-03
  2.8378410e-02
 -1.3340712e-01
  4.0216792e-01
 -5.8021897e-01
 -2.2302596e-01
 -1.4550371e+00
  7.2711879e-01
  3.4088966e-01
  6.3200390e-01
  1.6474780e-01
  3.7405443e-01
  5.2510317e-02
  1.4336096e-01
  9.8135490e-03
  1.7546993e-02
 -6.9836546e-03
  3.6801044e-02
  2.9723668e-02
  1.0923119e-02
 -1.1491565e-01
 -2.1070020e-01
 -4.9093074e-01
 -3.1618059e-01
 -5.1354403e-03
  5.4540612e-02
 -8.8209234e-02
 -1.2433831e-01
  2.7311477e-03
 -2.0176156e-03
 -3.7976027e-02
 -1.0050344e-01
 -9.9520579e-02
 -1.3449837e-01
  2.1002267e-01
  7.4247452e-03
  8.3904512e-02
  1.1800712e-03
 -1.1137947e-03
  6.1640397e-02
  1.0320980e-02
 -1.3120615e-02
  2.4030286e-01
  3.4454618e-02
 -3.0127242e-02
  9.6916305e-03
 -3.9296118e-03
 -2.3823839e-02
 -7.9553127e-03
 -7.7209011e-02
  1.2803565e-01
  3.0989456e-01
 -2.8398964e-03
 -2.6386982e-01
  2.8099510e-01
 -1.4633251e-03
  7.7827298e-04
 -1.4079984e-01
  7.1504107e-03
  3.6390513e-02
  5.2596861e-01
  1.0672475e-02
 -3.5086849e-03
 -3.1995293e-02
 -1.7956795e-02
 -2.0292872e-03
 -7.4708310e-04
  1.6305339e-02
  2.8748371e-02
 -1.0515414e-02
 -1.0371893e-02
  4.3239629e-01
 -1.5239961e-01
 -1.4754612e+00
  6.2923860e-03
 -1.7985365e-01
  2.2693718e-02
 -3.2300338e-01
 -6.5174121e-01
  4.8949033e-02
 -4.7808375e-02
  6.5566741e-02
 -1.6944916e-03
  8.5460454e-02
 -6.7425318e-02
 -4.7875190e-01
 -2.7189437e-02
  1.7802410e-02
 -1.3020979e-01
  1.3695120e-02
  1.3102959e-01
  1.9028677e-04
  1.0883025e-03
 -1.1706104e-03
  6.5470007e-03
  1.7635904e-03
  3.8719975e-04
 -4.6257485e-02
 -2.6025081e-01
  1.7670024e-02
  1.3180752e-03
  7.0516532e-03
 -1.2508766e-01
  2.0909265e-03
 -1.2088150e-03
  1.4830504e-03
 -1.9579970e-03
 -9.1358293e-03
  1.2647691e-02
 -1.7749766e-02
  4.0313648e-03
 -9.0553577e-04
  2.4332672e-02
  1.1462229e-02
 -3.9043457e-03
  5.7103648e-03
 -7.7750691e-04
 -6.0618356e-02
 -1.0377399e-02
  2.9534341e-03
  2.0280082e-03
  3.9416745e-02
 -2.9645108e-02
  1.1299337e-02
 -1.0048611e-02
 -3.4521509e-02
  4.5002140e-02
 -1.9622204e-01
 -1.4880700e-01
 -2.3723954e-02
 -7.9944702e-03
 -5.4605031e-01
 -5.2162528e-02
  6.9466293e-02
 -2.9854989e-02
 -5.5142146e-02
 -5.4261507e-04
 -1.1484727e-01
 -1.6496908e-03
 -1.0951492e-02
 -1.3062347e-03
  1.3102775e-02
 -4.8333675e-02
  2.3864759e-03
  1.3039999e-03
  7.0099640e-03
  1.4585723e-02
  5.0851982e-02
 -1.5756985e-03
  3.8930313e-03
  1.0434081e-02
 -2.1724650e-03
 -2.7270075e-02
 -1.3163157e-03
  4.2241528e-03
 -7.4296677e-03
  2.6022852e-03
 -2.8156528e-02
  7.5382278e-03
  4.6669818e-03
  4.9117403e-03
 -6.2392261e-03
  1.0842537e-02
  2.0352020e-03
 -1.1717430e-03
 -4.3580707e-02
  1.1105216e-02
 -1.0592685e-02
  1.0969373e-01
 -8.8129228e-04
 -2.2941211e-02
 -4.3905885e-03
 -2.2698306e-02
 -1.0959910e-02
  1.7944746e-02
  1.3660445e-02
  1.5127966e-02
 -2.4311375e-04
 -1.0174244e-01
 -2.7348971e-01
 -7.4266422e-01
 -4.1178343e-01
  2.6566130e-01
  1.3205691e-01
 -2.4158049e-02
  2.3791830e-01
 -5.0967443e-01
 -6.1855590e-01
  3.3390086e-02
  2.7593744e-01
  7.2885668e-01
 -3.0545303e-01
  1.0612823e-02
 -5.5071246e-02
 -5.5533402e-02
 -2.1847477e-02
 -2.7472071e-02
 -8.0004472e-01
 -2.2749457e-01
  9.0804510e-02
 -6.1208006e-02
  4.4753976e-02
  1.6580109e-01
 -4.8416337e-01
 -1.0861022e-03
  2.1842070e-02
 -4.2431092e-01
 -3.0118780e-02
  8.7583214e-02
  6.5860271e-01
 -7.0099920e-02
 -5.6878324e-03
 -4.2937072e-03
  2.6602512e-03
  2.3004049e-02
 -2.3926090e-02
 -8.8469230e-04
 -1.1998305e-01
 -1.4545107e-03
  1.3867368e-02
 -1.6022431e-02
  9.9129021e-02
  1.8813691e-01
 -2.8446347e-01
 -4.8458166e-02
 -2.0482754e-03
  8.9189631e-04
 -7.4930710e-04
 -3.3928767e-01
  7.9795241e-02
  9.2749726e-03
 -1.5440070e-02
 -7.6126896e-02
  1.2508694e+00
 -9.8964781e-02
 -7.1637088e-01
 -2.9967831e-02
 -6.4406812e-01
 -1.1390114e-01
  5.9684116e-01
 -9.6557438e-03
  3.8186645e-03
  4.5289746e-01
  1.0382844e-02
 -2.2333559e-02
 -6.1527699e-01
  2.9612952e-01
  2.4898542e-01
 -1.2114789e-02
 -5.4430395e-01
 -4.4383151e-03
 -2.2395762e-02
  3.0308103e-03
 -8.7534534e-03
 -1.2690170e-01
  1.0842276e-01
  5.8094175e-03
 -1.7946549e-01
 -2.7914155e-02
  8.9945257e-02
  3.6061952e-01
 -3.6937227e-03
  8.4810838e-02
 -9.1824839e-03
  1.4851628e-01
  9.7156271e-02
 -2.9360021e-03
 -2.2403650e-01
  3.1238124e-02
  2.0076657e-02
 -1.8807508e-02
  5.7367566e-03
  2.0790419e-01
  2.8832752e-02
 -4.4667367e-02
 -5.1410836e-03
 -2.2884731e-01
 -2.3204440e-02
 -2.4850889e-01
  4.1589877e-03
 -3.7502791e-04
  6.8206484e-03
 -3.9802096e-03
 -2.4363836e-03
 -5.1579864e-05
 -1.2321703e-04
  1.5125188e-01
  5.6756735e-02
  1.6073352e-01
 -1.2607292e-02
 -2.4332121e-02
 -8.4672160e-03
 -1.5782008e-02
 -3.7493680e-03
  5.5946670e-03
  3.2616012e-02
 -3.0896781e-04
  2.9716468e-03
  2.5614961e-03
 -1.0956416e-03
 -9.0110507e-03
  7.3442678e-03
  3.7754003e-03
 -1.2198050e-02
 -1.6161603e-03
 -6.2732147e-03
  2.0073347e-03
  3.1435734e-03
  8.8704890e-03
 -6.3225605e-05
  4.5287875e-03
 -1.3597503e-03
 -1.0306418e-04
  1.0151954e-01
 -5.7589998e-03
 -1.2438077e-03
 -1.3130976e-02
  2.8386812e-03
  1.6597634e-02
 -7.4585271e-03
  1.2516668e-02
  1.4736759e-02
  3.3172232e-03
 -6.1771385e-03
  3.2575468e-03
  2.9811836e-03
 -5.9031565e-03
  2.7056492e-03
  1.0437352e-03
  6.2179810e-04
  4.8919329e-03
 -6.0246489e-03
 -3.8979962e-03
 -4.4474647e-05
  4.0163919e-03
 -1.7731939e-04
 -3.9607817e-03
  1.1065990e-03
 -2.4376661e-03
  1.8434351e-03
 -3.1994779e-03
 -3.2538786e-03
 -6.2921154e-04
  2.4888972e-03
 -5.3098663e-03
 -2.1025488e-02
  2.2944896e-03
  1.8726461e-04
 -5.2181669e-03
 -8.6142011e-03
  1.2437836e-02
  6.3894945e-03
  1.3515742e-03
  8.8153267e-03
  9.8870834e-03
 -4.2004921e-03
 -5.3378204e-03
  8.6055221e-03
  4.2792805e-04
 -3.6901329e-03
  8.8317627e-03
  7.8583434e-03
 -9.7071147e-03
 -4.4336286e-03
 -8.9585839e-05
  6.5359415e-04
  1.3458116e-02
  3.1763947e-04
  2.6233026e-03
 -1.8709841e-03
  7.5066753e-04
  5.9639490e-03
 -3.0667998e-05
  4.5704590e-03
  8.1146270e-04
 -1.4242985e-03
  1.5302485e-01
  7.1760467e-03
 -2.9656792e-03
 -8.6876210e-03
  8.2243740e-04
  4.7502492e-04
  1.2619694e-02
 -8.7916254e-05
  3.1709156e-04
 -7.3652942e-04
 -7.0052510e-03
  2.7127389e-03
 -8.2209352e-03
 -3.2709830e-02
 -8.6706234e-03
  6.3969186e-03
 -3.7561373e-03
  4.6011577e-03
 -1.1550299e-03
 -2.5270674e-01
  1.3383815e-02
 -2.8387170e-02
 -6.1416849e-03
 -6.4322324e-03
  5.9285378e-03
  1.1784702e-04
 -6.4146970e-03
  1.2256360e-02
 -2.8753097e-03
  9.6692136e-03
  2.2673500e-03
 -3.9614108e-03
 -6.7772870e-03
  4.4732494e-03
  9.4244033e-03
 -5.7834401e-03
  6.4254068e-03
  2.7756689e-03
 -1.2946780e-03
  2.5620305e-03
  3.2050230e-03
  9.2372922e-03
 -1.1717108e-03
  6.1644502e-03
 -4.8739449e-03
 -1.7912966e-03
  1.3362545e-03
  1.1614566e-03
  3.7645018e-03
  2.4650074e-04
 -7.4008905e-04
 -9.7753387e-04
  2.1371618e-03
 -1.0044035e-03
  7.0934463e-03
 -6.2604104e-03
  2.6195316e-04
 -1.7361276e-02
  1.3943060e-02
  2.4603991e-02
 -7.0910808e-04
  3.2677820e-03
  6.5242272e-04
 -1.0368585e-02
 -2.1685846e-03
 -2.9381346e-03
 -1.8603122e-02
  8.9040948e-03
 -4.7391918e-03
 -4.4483058e-03
  1.8090931e-04
 -2.5325593e-02
  2.0968686e-03
 -3.5715267e-01
 -9.5379591e-01
  6.7465192e-01
  5.9735405e-01
 -5.6073403e-01
  2.4305086e-01
 -1.9928111e+00
 -4.6561852e-01
  1.1038085e-02
  1.2743891e+00
 -2.3840635e-01
  1.5558071e-01
  1.9239764e-01
 -3.1056464e-01
 -2.1459030e-02
  4.0189311e-02
 -4.5404610e-01
  5.0271638e-03
  4.1503254e-01
 -1.6470425e-02
 -1.0027494e-01
  9.3284532e-02
 -4.7428992e-02
  3.4743868e-02
  1.1676712e-02
 -4.0061036e-03
 -3.1171781e-01
  6.4195907e-01
 -4.2437419e-02
  9.1184359e-03
 -4.0951982e-01
 -1.3108379e-02
 -1.3419411e-01
 -2.1380721e-02
  2.2985544e-03
 -1.0422202e-02
  3.0127320e-01
 -1.6673967e-04
 -7.9332246e-03
  2.1799542e-02
  8.4691588e-03
  1.9111190e-02
 -3.7417665e-02
 -1.9190799e-01
  1.9140836e-02
  4.4204465e-01
  6.0649333e-03
  5.8884919e-01
 -3.0389193e-01
 -1.9199234e-01
 -1.8245829e-03
 -6.0204495e-02
  8.9467000e-03
 -3.1423250e-03
  2.7341077e-01
  3.5353497e-04
  1.4265686e-04
  2.1458413e-02
  1.8953761e-03
  8.3577679e-03
  8.7280208e-03
 -8.8849157e-02
 -1.6956078e-02
  4.1150814e-03
 -1.9913916e-03
  3.6917327e-03
  2.2510176e-03
  5.8891223e-04
  9.9114119e-04
 -4.5295386e-05
  4.6428824e-03
  1.0850710e-02
  1.4662002e-03
  6.3618151e-03
  9.5843265e-05
 -7.2084148e-03
  9.2906156e-04
 -2.7700388e-03
 -1.1412540e-02
 -1.4535489e-03
 -2.2510679e-03
 -2.4796540e-03
  1.2038739e-03
  1.0951553e-02
  9.3096611e-04
 -1.1623569e-02
  2.8538054e-03
 -8.5228786e-04
  5.0287964e-03
  2.4838541e-03
  4.2815600e-03
 -8.1982091e-03
  1.4187490e-02
  1.0687569e-02
 -1.1746367e-03
  3.1934466e-02
 -6.9342833e-03
  3.3288423e-03
  6.8538226e-03
  1.4031983e-02
 -2.3583819e-03
 -7.1530081e-03
 -2.6227950e-04
 -8.7809259e-01
 -4.9904152e-03
 -6.5417471e-03
  4.4097140e-02
 -8.0804981e-04
  1.1224070e-04
 -2.6418513e-03
  2.2973673e-02
  7.7917822e-02
  2.1527478e-01
  5.9816008e-03
 -6.7973466e-05
 -1.2525910e-02
 -5.5602822e-03
 -1.6440268e-03
  4.4661043e-03
  6.9223472e-04
  9.6844705e-03
  4.0344847e-03
 -3.7115980e-02
 -5.3034887e-02
 -1.6079742e-02
  6.4680516e-04
 -6.8089482e-03
  1.5972611e-03
 -3.7541427e-03
 -5.2820528e-03
 -3.1409345e-03
 -6.2385402e-03
 -3.1690719e-03
 -1.1259139e-03
  1.0930010e-02
  1.1799309e-03
 -3.7789927e-03
 -3.5326383e-03
 -2.1851435e-03
  1.4831723e-03
  9.2625516e-03
 -1.7561263e-03
 -1.1975898e-02
 -3.6712992e-04
  1.3877542e-03
 -1.5051397e-02
 -1.1816544e-02
 -1.3492738e-02
 -3.6810620e-03
  1.9817846e-03
  9.3216458e-03
 -2.3650331e-03
  4.5222379e-03
  8.3509628e-03
 -5.2660215e-04
  5.2849818e-03
  9.4416639e-05
  6.6072377e-03
  6.7282148e-04
 -4.8602637e-04
  1.3516468e-02
  3.1899388e-03
 -9.1469372e-03
  6.1434074e-03
 -4.0666724e-04
  3.2617343e-03
  1.4283819e-02
  4.7127291e-04
 -4.4295361e-04
 -1.6321735e-02
 -7.7463822e-03
 -4.0033506e-04
  8.7527127e-04
  1.9513879e-03
 -1.4904472e-03
 -4.3901340e-03
  2.4192450e-04
 -1.4703758e-03
  1.0020791e-02
 -3.0928859e-03
  5.0415838e-04
 -2.7161534e-04
 -8.8544178e-04
  6.0712337e-03
 -6.9033150e-03
 -1.7092605e-03
  3.2024889e-03
  2.4478526e-03
 -3.8004847e-04
  2.7229455e-03
  1.0660721e-02
  4.7729593e-03
  1.0465684e-03
  2.1832490e-03
 -7.0801522e-03
 -5.4622348e-03
  9.3590890e-05
  6.1084488e-03
  8.3280302e-06
 -3.0528277e-03
  1.1746245e-02
  8.9198127e-03
 -4.2961878e-03
  8.6020883e-03
 -4.9573567e-04
 -1.9321406e-03
  1.2400182e-02
 -3.6322937e-04
 -2.5114324e-03
  7.5762221e-03
 -1.6610522e-03
  1.2028242e-03
 -2.2826664e-02
 -2.1277994e-02
  6.2771514e-03
 -1.4432597e-03
 -4.9693754e-01
  2.9566509e-01
  5.0956104e-04
  2.1793742e-03
 -7.5742682e-03
 -7.7000994e-04
  2.2565543e-03
 -1.3798832e-02
  6.5168242e-05
  8.5807098e-03
 -5.4960921e-03
  8.7926426e-04
  2.6703833e-03
  3.0599858e-03
 -3.1829593e-03
 -5.8682896e-03
  2.9320882e-03
  1.0806922e-02
 -1.2856166e-02
  6.5159239e-03
 -2.0529814e-03
  2.4883939e-02
  2.7256140e-03
 -4.5178551e-03
  7.3784445e-03
 -2.2433540e-03
  7.0824595e-03
  1.3964683e-03
 -4.5208246e-03
  3.3705703e-03
  3.7681132e-03
 -8.8549387e-03
 -3.0177853e-03
  9.8112570e-05
 -1.1748387e-03
  1.0164894e-04
  3.0337821e-03
  1.5461804e-02
  3.8527614e-03
  1.1164716e-02
 -1.3265536e-02
  1.3476313e-02
 -1.0068954e-03
 -7.2884205e-04
 -7.0429901e-03
  1.5481455e-02
 -1.0914317e-02
  3.3433177e-03
 -7.6581322e-04
  4.7223945e-03
  5.5547094e-04
  2.1747677e-03
  7.8108098e-04
 -1.7499079e-03
  8.8237673e-03
  1.3287892e-02
 -2.6234018e-03
  1.3262177e-03
 -1.4753536e-03
  2.7008364e-02
  1.9912212e-03
 -4.8668021e-03
  2.4154310e-03
  8.3545904e-04
  3.2946928e-03
 -1.0787437e-03
  5.8909558e-04
  7.6596909e-03
  6.3262703e-03
  5.1760674e-03
 -7.6042465e-03
  2.8507411e-03
  3.6862986e-03
 -2.7991282e-03
 -1.3160421e-02
  3.5426444e-03
 -9.7746290e-03
 -3.8946636e-03
 -7.2838822e-03
  8.4744836e-04
  2.9715188e-03
 -4.1001798e-03
 -2.5102651e-01
 -7.2716118e-04
 -6.2730857e-03
  3.8755685e-03
 -2.6296391e-04
  8.8200049e-04
 -2.4367461e-03
  5.2595786e-03
 -6.6787270e-03
 -1.3829635e-02
 -1.0291572e-02
  2.5490245e-03
 -9.0711694e-03
 -1.4140670e-02
 -1.9466976e-03
 -2.8830525e-03
  4.6686223e-03
  9.2473701e-03
  1.9076293e-02
 -7.6252138e-03
 -1.3355732e-02
  1.4466810e-01
  1.4780728e-03
 -7.5489847e-04
  7.2471600e-04
 -1.2605276e-03
  1.0085308e-03
 -7.4284957e-03
  1.7349154e-03
  1.3566872e-03
 -5.8497265e-03
 -1.2395928e-03
  4.1394681e-02
  1.9161060e-02
 -1.3984396e-03
  3.9049224e-03
  3.1260687e-03
  3.2454517e-03
  5.4856283e-03
 -6.3916054e-03
  3.1366814e-03
  1.5971044e-04
 -1.8851201e-04
  9.9547170e-03
 -8.1762001e-03
 -1.0809175e-02
 -1.6862928e-03
 -4.2928932e-03
  2.7172042e-03
  3.0829515e-03
  1.2282114e-03
  5.1558828e-03
 -3.9470379e-04
 -7.6010590e-03
 -1.3394060e-02
 -5.4087522e-03
  3.0230049e-03
  8.3382698e-03
 -7.6061804e-03
  4.6958937e-03
 -2.8583091e-02
  1.0097208e-03
 -1.7435212e-02
 -2.6498982e-03
  1.3873001e-03
  5.6594284e-03
 -9.1580870e-03
 -7.7928242e-04
 -2.5148902e-03
  6.0088583e-03
 -4.6892203e-03
 -2.9617001e-03
  1.3973584e-04
  1.6328710e-03
 -6.4676246e-03
 -6.9377506e-03
  4.0027415e-04
 -1.4931969e-02
  8.6620180e-03
 -7.2714157e-04
 -1.1144891e-02
 -1.3582736e-03
  6.7162752e-02
  1.4935746e-02
  1.0950977e-02
  4.4833842e-01
  2.8697929e-01
  1.6372922e-03
 -2.3078889e-02
  3.3127004e-03
  2.6151942e-02
  2.1188082e-03
  6.2058433e-03
  8.5340664e-02
 -2.4249405e-02
  5.7669514e-04
 -5.2913497e-03
  2.0577025e-03
 -2.0504333e-02
 -1.7199798e-02
 -1.9147946e-02
 -8.8960654e-04
 -3.7615485e-02
 -5.4714852e-03
  4.5787677e-04
 -1.6900046e-02
  3.4532924e-03
 -1.0146431e-02
 -5.4463524e-01
 -4.9732544e-04
  9.7682895e-03
 -2.2357637e-03
  5.0761830e-03
 -1.1805818e-02
 -4.1120029e-03
 -1.3199631e-02
  4.0962495e-02
 -2.9191114e-03
  1.6489819e-02
  1.3513416e-03
  5.4435139e-03
  8.7043578e-03
 -5.3873546e-03
 -2.3674076e-02
 -8.9898491e-03
 -3.1668406e-03
 -1.9107101e-04
 -2.5463917e-03
  3.6842756e-03
  9.4170235e-03
 -1.3572726e-02
 -1.2061857e-02
 -4.2510859e-04
  3.9226091e-03
 -2.1540814e-03
 -1.6649871e-04
 -4.2434661e-03
 -2.9069893e-03
 -1.4925012e-01
 -1.3291403e-03
 -2.0051135e-03
 -8.7299290e-05
  2.7321649e-03
  6.9297436e-03
 -2.7352588e-02
 -2.2981898e-04
  3.2780890e-04
  2.3074017e-03
 -4.7285371e-03
  4.0300703e-03
 -2.9432897e-03
 -8.1700319e-03
  2.4128631e-04
 -3.7214148e-03
  9.4099706e-03
 -1.1907344e-01
 -4.0797237e-03
 -1.1334866e-02
 -6.8152146e-03
  2.0467893e-03
  2.1909042e-03
  9.6529309e-04
 -3.3982776e-03
 -2.0109818e-03
 -6.7083980e-03
 -3.3851184e-03
  4.5622536e-03
 -2.1086955e-04
 -1.0861751e-03
 -7.9661962e-03
 -4.1552419e-03
 -4.3695257e-03
 -5.4173463e-04
 -1.0148928e-03
  4.8414902e-03
  8.3730565e-03
  6.6444655e-03
  2.9487086e-03
  4.1324226e-03
  1.7417381e-02
  7.4327355e-03
 -2.2169068e-03
 -4.9233008e-03
  1.2133225e-03
  6.5930788e-03
 -6.5327683e-03
 -2.3148961e-03
  6.2714750e-04
 -2.8499501e-02
  7.2629442e-03
 -2.1656002e-03
  8.9511095e-04
  7.7398163e-01
  4.5881723e-03
  9.2367111e-03
  2.5928842e-03
 -9.4797433e-04
  1.6704241e-03
  6.2796759e-04
  2.5779404e-02
 -2.5391129e-03
 -4.1723519e-04
 -2.1508390e-04
  1.3293714e-02
  1.4079697e-03
 -8.2450667e-03
  3.2258232e-03
 -5.5405749e-03
 -6.1834179e-04
  1.9020012e-03
  2.8698388e-03
 -1.7881917e-03
  1.5374846e-03
  4.5984681e-03
 -4.6043671e-03
 -2.2950161e-02
 -7.3390510e-03
  4.1092853e-03
 -5.5991760e-03
  6.7263870e-03
  1.1677906e-02
  3.1893337e-03
  7.8023542e-03
 -6.1807013e-03
  2.6903600e-02
 -1.0777157e-04
  3.1225409e-03
 -2.4325275e-03
 -3.1342730e-04
 -1.0586964e-03
  7.1835825e-03
 -2.0916262e-04
  2.4248530e-04
 -1.2300339e-03
 -8.4319618e-04
 -2.8996828e-03
  1.8849713e-03
  5.7830196e-03
 -1.5268723e-03
 -3.3748834e-03
 -4.3877517e-04
 -6.3787643e-03
  5.3945025e-03
 -2.1982187e-01
 -1.1834072e+00
  7.5936383e-01
  7.8790933e-01
 -1.2989675e-01
 -6.9354677e-01
  1.8354964e-01
 -8.4515018e-03
 -3.6742224e-03
 -2.0870590e-01
 -2.9032817e-01
 -7.9957139e-01
  2.7841742e-03
  1.2482258e-02
 -1.3807154e-02
 -1.9027917e-02
  1.8127780e-02
 -1.2982467e-01
 -7.2707668e-02
 -3.6619532e-01
 -4.0523555e-02
 -1.1104438e-02
 -2.2161817e-03
  1.5660249e-02
 -1.2524083e-02
 -5.5772865e-01
 -3.7301250e-02
 -1.8109581e-02
 -3.0796841e-01
  1.9131044e-03
 -1.9859208e-02
  2.7455281e-02
  1.4161315e-03
 -7.8966208e-03
 -7.1014583e-02
  6.3813098e-02
 -1.0791041e-02
 -9.4978129e-03
 -7.0524365e-03
  4.5907083e-03
 -1.7282072e-03
 -2.2292249e-03
  1.8037659e-04
  1.6260318e-03
 -5.1879496e-03
  1.1688168e-02
  2.3677899e-03
  1.7075725e-03
 -8.5231308e-03
 -3.8177881e-03
 -7.6695578e-03
  6.3434904e-03
  1.0083797e-02
 -3.0456573e-02
 -6.5978323e-03
 -1.0509803e-03
  4.7617937e-03
 -6.6219813e-01
  2.3787481e-01
 -5.4983161e-03
 -7.2689587e-03
 -1.4841711e-03
 -1.2137346e-03
  1.4603782e-03
 -8.6080665e-03
  1.9864237e-03
  1.0722427e-03
 -3.6721311e-03
 -1.1006831e-02
 -1.5332703e-04
 -8.1146089e-03
  1.8849279e-03
  5.5336505e-03
  7.5027090e-03
 -9.6214254e-04
 -9.2916808e-04
 -3.0089987e-03
 -5.4590805e-03
 -3.5328511e-03
 -3.8209755e-03
  1.5967990e-03
  7.6790112e-03
  2.6459256e-03
 -6.2509468e-03
 -6.7064621e-02
 -2.1443285e-02
  1.1446867e-02
 -2.1465035e-02
 -7.0572984e-03
  4.2942804e-03
  1.6910141e-02
  4.1443883e-03
 -1.2951287e-02
 -4.8037313e-04
 -4.1683239e-04
  2.7530841e-03
  6.3233585e-03
  3.0461445e-03
  9.9139602e-04
 -3.4510409e-03
  6.8407709e-04
  1.7020510e-03
  3.8854592e-03
  7.4438087e-04
 -8.1360340e-03
  5.2575381e-03
  2.1669322e-03
 -3.5288993e-02
 -5.0868919e-05
 -1.1490680e-02
 -2.7018008e-03
  1.3926797e-02
 -5.8491942e-03
  1.3365577e-02
 -3.1445414e-04
  9.4247988e-04
 -4.0959893e-03
  1.9877651e-03
 -3.1355226e-03
  5.5346050e-04
  1.1976394e-02
  1.4941274e-03
 -5.2799033e-03
 -7.2679515e-03
  1.2490521e-02
 -1.0392880e-02
 -9.3487063e-03
 -1.0018450e-03
 -7.6527954e-03
  3.1921379e-03
  2.5852735e-04
 -1.5948454e-04
  1.9854762e-02
  5.9323589e-04
 -7.1135635e-04
 -1.7227095e-03
 -7.1387752e-03
  9.5802755e-04
 -1.3230559e-03
 -1.8483031e-03
  1.6546390e-03
  1.4751683e-03
 -1.5171800e-02
  2.4405296e-03
  1.3024774e-02
 -1.0728045e-02
  4.6144174e-03
  4.1054827e-03
  1.0108154e-03
 -6.2605215e-04
  3.2977081e-05
 -3.7284652e-03
 -8.4267547e-03
  8.5751433e-03
 -1.1877705e-02
  2.8339769e-03
  1.2162734e-03
 -1.3561953e-03
  3.5470938e-03
 -1.4603834e-03
 -9.4837639e-03
  1.7783837e-03
 -6.6184043e-03
  2.6367740e-03
  1.4394162e-02
 -7.1102855e-05
 -1.5331193e-02
  2.3858726e-02
 -4.8074438e-03
 -9.7897844e-03
  2.3410429e-04
  1.4361398e-02
  4.6695099e-04
  1.5939744e-03
  6.7437730e-05
 -1.6263989e-03
  3.8916708e-03
  1.6957610e-04
  8.8319117e-03
 -1.2276852e-02
 -8.6278776e-03
 -1.3868914e-03
  6.0212384e-03
 -1.2104055e-04
  7.7103372e-03
  1.5822739e-03
 -1.7496794e-03
  8.1039593e-03
  3.0800235e-03
 -6.9512613e-03
 -3.8298189e-03
 -2.0362936e-02
  3.3703374e-03
  3.5330974e-03
  2.2870624e-02
 -1.8879279e-02
 -1.4051392e-03
  1.4975883e-05
  4.3368726e-03
 -1.1030060e-02
 -1.2522164e-02
  5.8091953e-03
  9.0756110e-04
 -2.2459356e-03
  7.3231291e-04
  4.1691125e-03
 -1.8249283e-03
  4.3734638e-03
 -9.6929427e-03
 -2.2569902e-03
 -5.9651467e-03
 -8.8564381e-03
  6.8457816e-03
 -7.1589428e-04
 -2.5611460e-02
 -3.2479671e-01
 -5.8440429e-01
  3.5916910e-01
  2.3968816e-01
 -4.2911342e-01
 -5.4706168e-01
 -2.8540002e-02
 -4.0074766e-01
 -1.4594476e-01
 -3.6897591e-01
 -3.5918492e-01
  2.6788205e-02
 -1.0391288e-01
 -2.3756997e-01
 -3.4759733e-01
  2.3638640e-02
 -1.0840894e-02
  5.4328215e-01
  1.4090440e-01
 -6.4312977e-01
  2.2268890e-01
  8.2024294e-01
 -1.8971027e-01
  2.1819657e-01
 -9.6719429e-02
 -3.1103080e-02
  4.2239758e-01
 -8.4879278e-04
 -7.8442746e-01
 -2.3251213e-01
 -5.5569322e-03
  1.7799255e-01
  3.9867949e-01
  1.9248031e-02
 -3.3331278e-01
 -2.2396070e-03
  2.7651424e-02
 -6.0189688e-01
  3.2221019e-02
  6.1087110e-03
 -7.6161297e-03
 -7.2424393e-03
 -3.4724720e-02
 -4.6958968e-01
 -2.9438941e-02
  1.6554938e-01
  2.0274490e-01
 -1.1591286e-04
  6.2472783e-02
 -1.3605352e-02
 -3.1727001e-02
 -3.8679896e-03
 -1.2477734e-03
  7.3411256e-02
  2.2667124e+00
  2.6016689e-03
 -7.1654175e-03
  2.0097125e+00
 -4.4996208e-03
  1.0406881e-02
  2.2088978e-01
  1.4674161e-02
  8.5699130e-03
  1.0186875e+00
 -2.3612274e-01
 -9.3963521e-04
  6.7706841e-01
 -2.8874943e-02
  1.3056599e-02
 -1.7615837e+00
  2.2336635e-01
  2.9675610e+00
  3.6113957e-01
  5.8547063e-03
  2.9979259e-01
  4.5449352e-01
  9.7117208e-02
 -5.7166009e-03
 -8.7797791e-01
  8.7758303e-03
  2.1010661e-01
  8.1858151e-03
  1.4354624e+00
 -3.5005711e-02
 -2.6460552e-01
 -1.5365893e-02
  3.6612229e-04
  1.2124527e-05
  1.0463205e-02
  3.7870184e-02
 -1.8923767e-02
  9.8959338e-03
  4.5812996e-03
 -8.2623661e-03
  1.0752399e-02
 -5.7307486e-03
 -1.0480127e-01
 -5.4982104e-03
 -4.8955008e-05
 -2.2727969e+00
 -2.9498967e-03
 -1.4584120e-03
 -8.1737973e-03
  8.9042526e-01
 -4.9582362e-01
 -1.8223189e-01
 -4.0580360e-03
  2.3635578e-01
  7.6082000e-03
  3.2059351e-01
  2.6604193e-01
  1.1805644e-01
 -2.4842566e-02
 -7.3980027e-01
 -1.7705597e-01
  6.3118234e-02
  1.2948743e-01
  9.3474936e-01
 -1.0194575e-03
  6.0913461e-01
 -2.2940233e-01
 -3.0515039e-01
 -1.0873502e+00
 -1.9485906e-01
  3.7909800e-01
  6.2690848e-01
 -8.8648880e-01
 -1.2242431e-01
  4.3228704e-01
 -2.1173697e-04
 -1.3464954e+00
  4.9252531e-01
  2.6634851e-01
  2.6416805e-01
  6.2587088e-01
 -4.3630737e-01
  1.0652583e-01
 -8.2099726e-03
  5.2134927e-02
 -5.0116861e-01
 -1.2670110e-01
 -1.2510577e-01
  7.5564780e-03
  1.1696966e-01
 -2.8783039e-03
  2.7210726e-03
 -1.5898481e-01
  4.6984903e-03
 -1.6447410e-01
 -6.1549604e-01
  1.1708847e-01
  8.4254537e-03
 -1.3848611e-02
 -5.5149841e-01
  1.4012393e+00
 -2.5776839e+00
 -6.4014763e-01
 -2.7351227e+00
 -1.7987261e+00
  7.6325595e-02
 -1.7992716e+00
 -2.5153130e-02
  1.2554906e-01
 -4.7800449e-01
  2.2779346e-01
  2.0081952e+00
  7.8634858e-01
  2.4052148e+00
 -1.9798093e+00
 -5.7830727e-01
 -1.5643461e+00
  2.0645270e+00
 -4.6918255e-01
  2.4975839e+00
 -9.7237849e-01
  1.8808247e-01
 -3.9359051e-01
  2.7268723e-01
  7.4264401e-01
 -7.3571050e-01
  7.4830931e-01
 -3.7620333e-01
 -2.4434626e+00
  1.2314990e+00
  4.3111071e-01
 -1.6778280e+00
 -1.5842271e+00
  1.8534025e+00
  2.0951099e+00
 -2.2451152e-01
  2.4407716e-01
 -5.9272856e-01
 -3.3832383e+00
  8.4616029e-01
 -2.5153923e-04
  5.3678025e-02
  6.9480515e-01
  1.1656095e+00
 -4.1090471e-01
  1.3412406e+00
 -1.1600704e+00
 -1.7398973e-01
  1.1660752e+00
  5.1179504e-01
  7.9615754e-01
  1.0993917e+00
  2.6485711e-01
 -1.6976483e+00
 -6.8364125e-01
 -2.5508851e-01
  2.0222542e+00
 -1.2799083e-01
 -1.1525870e-03
 -3.5325372e+00
  6.6483605e-01
 -5.6935023e-03
 -8.3375710e-01
  1.4590552e+00
  1.8317915e-01
 -7.4330615e-03
  8.2450449e-01
  1.3203464e+00
 -7.1844685e-01
 -5.1935077e-01
 -1.4192300e+00
 -6.2662470e-01
  7.7924490e-01
  7.6063520e-01
  6.7048699e-01
 -1.5094831e+00
 -4.4182863e-02
  1.2195431e-01
 -6.4757460e-01
  4.8889324e-01
  4.8565233e-01
  2.0669515e+00
  3.2085333e-02
  1.6775596e+00
  7.4027091e-01
  3.6752364e-01
  1.9418009e-01
  2.5446787e-01
  2.2330215e+00
  1.4138985e-02
 -4.2774203e-01
 -1.4862477e+00
 -5.4012799e-01
 -5.3447825e-01
  1.6965203e+00
 -1.2920222e+00
 -2.2865684e+00
 -9.3325436e-02
 -1.1592478e+00
 -1.9661664e+00
  3.2492998e-01
  1.7989036e-01
  6.3799155e-01
 -4.8147133e-01
  6.3626515e-03
 -1.0182183e+00
  1.1908994e+00
 -2.8729346e-01
  8.8392985e-01
 -9.7032525e-02
 -8.4487718e-01
 -8.8697955e-02
  1.5596752e+00
  1.4452772e+00
 -1.0622126e+00
 -1.0137376e+00
 -1.1048858e+00
  7.4909896e-01
 -8.3821541e-01
  3.7206326e+00
 -2.0589685e+00
 -2.7508241e-01
  1.4705003e+00
 -7.8201509e-01
  4.5599875e-01
 -5.5178928e-01
 -5.2451491e-01
 -1.8300620e+00
  3.0732075e-02
  2.6027396e-01
 -7.2589839e-01
  3.6857932e+00
 -6.3492060e-01
 -1.9918967e+00
  1.1207044e-01
  1.7549810e+00
  1.7787277e+00
 -1.2952491e+00
 -6.2852606e-02
  9.7575533e-01
 -1.6944938e+00
  6.3175219e-01
 -1.0709921e-01
 -2.1566684e+00
  1.4061804e+00
  9.9182886e-01
  4.8217809e-01
  2.3409884e+00
 -2.8735645e+00
  1.5981092e+00
 -6.8951219e-01
 -1.6128005e+00
 -1.3670254e+00
 -1.9527218e+00
  3.8339615e-01
  4.6579859e-01
 -2.1298463e+00
 -1.0486903e+00
 -1.1054779e+00
  1.3612843e+00
 -7.3566300e-01
 -3.7518318e-03
 -4.8400253e-01
  2.9953303e+00
 -1.9618576e+00
 -5.5444181e-01
 -6.0069370e-01
 -1.9303873e+00
  1.1249536e-01
  1.3651611e+00
  5.5311188e-02
  3.8743015e-02
  3.4200057e-01
  1.3564726e+00
 -1.6256007e+00
  3.4228048e+00
 -9.4923341e-01
  1.0867403e-01
 -8.0550367e-01
  1.3294947e+00
  3.6427531e-01
  4.9641329e-01
 -3.9065194e-01
 -1.2759724e+00
  1.9058789e+00
  3.3622393e-01
  1.3052771e+00
 -1.8413259e+00
  1.7294527e+00
  1.4830390e+00
 -1.7509881e+00
 -1.5033562e+00
  5.7374075e-02
  1.9659275e-01
 -9.3066609e-01
 -1.5137752e+00
  1.9870554e+00
 -1.4794900e+00
 -1.5598053e+00
  7.5881976e-01
 -1.4930166e+00
  1.3468266e+00
  9.4028646e-01
 -2.0178666e+00
  7.9259926e-01
  4.0105072e-01
  9.4574416e-01
  3.5038792e-02
 -1.0786353e+00
  1.6995093e+00
  2.2083170e+00
  1.5651560e+00
 -4.9137130e-01
 -7.7969040e-04
 -1.0388082e-01
  2.1854928e+00
  1.0418297e+00
 -1.2591667e-03
  7.6421297e-01
 -2.1589236e+00
 -7.5468385e-01
 -4.5262486e-01
  1.8194960e-04
  4.6372622e-01
 -8.6944962e-01
  5.6620061e-01
 -1.0618099e-02
 -6.4870232e-01
 -4.2278334e-01
 -8.2516766e-01
 -1.3951807e-01
  4.0371513e-01
  4.8782626e-01
  2.5757592e-02
 -1.2551104e+00
  3.8564000e-01
 -9.3386298e-01
  2.4137646e-02
  3.7925377e-02
 -9.1337681e-01
  6.4265418e-01
  7.8864723e-02
  1.1203568e-04
 -2.0278988e+00
  8.9000687e-02
  8.0109529e-02
 -2.4239720e-01
 -1.6722219e+00
  1.6542000e-01
  1.0132509e+00
  7.4990588e-01
  5.0698143e-01
 -2.0583663e+00
 -1.0608503e+00
  4.6622351e-02
  3.4335512e-01
 -1.0465730e+00
 -2.3003523e-01
 -2.4937327e-01
  2.3924489e-01
 -8.4378406e-02
  1.3373159e+00
  1.0962858e+00
 -8.6140946e-02
  1.9959552e+00
 -4.5546174e-02
 -2.6374906e-01
 -5.6351149e-01
  4.3804147e-03
 -1.9934446e-02
 -1.3847840e+00
  5.3747469e-01
 -1.2271005e+00
 -5.6641483e-01
  3.0173510e-01
 -6.4432931e-01
 -3.5535789e-01
 -1.9672588e+00
 -4.6837267e-01
 -1.2041608e+00
  4.2934086e-02
 -6.9153661e-01
 -6.3418257e-01
  7.5604993e-01
 -1.5395868e-01
 -1.2264018e+00
 -3.8633657e-01
 -7.6866597e-01
 -1.4519088e-01
 -1.5324773e+00
  7.9231888e-01
  6.1578095e-01
 -1.5927603e+00
  6.8375859e-03
 -3.3351719e-02
 -2.6000166e+00
  4.0716693e-01
  3.2846648e-01
 -4.6335816e-01
 -1.4682171e+00
  1.9308507e-02
 -1.2019477e+00
 -1.9389137e+00
 -3.3959211e-03
  4.8836634e-01
 -9.1016614e-01
 -1.3260345e+00
  2.0525579e+00
 -5.6731582e-01
 -3.4392297e-01
 -1.5237209e-01
  7.5441450e-01
 -1.4860398e+00
 -2.9530787e-01
  9.0947837e-02
  1.9884101e+00
  3.2460684e-01
  8.6849561e-04
 -4.1199154e-01
  6.5129876e-01
 -8.8090932e-01
 -2.4196733e-02
 -2.3961775e-03
  6.7756874e-03
 -9.4758040e-01
 -2.5486714e-01
  9.0858436e-01
  2.2085757e+00
 -1.7088600e+00
 -1.4864749e-01
 -1.1742138e+00
  3.3081744e+00
 -2.4317279e+00
  2.4740467e-02
  1.2349849e+00
  2.4387334e-01
  6.2216884e-03
 -6.8865919e-01
  4.0631220e-01
  1.0197247e+00
  1.5873489e+00
 -2.1640028e-01
  6.7074168e-01
  5.2426749e-01
 -5.1890379e-01
  9.9164248e-02
 -9.0047878e-01
  9.6659593e-02
  5.6300139e-01
 -7.1282279e-01
 -9.4548529e-01
  1.6628443e+00
 -1.1846745e+00
 -5.8200855e-02
  1.9903384e-02
  2.1834075e+00
 -1.2557616e+00
  5.9044648e-02
  5.7642072e-01
  2.4153457e+00
 -2.0329249e+00
 -9.2314953e-01
 -1.5949420e+00
  6.6623205e-01
 -1.0101492e+00
 -3.2132134e-02
  1.6519431e+00
 -4.1965452e-01
 -9.8945385e-01
 -5.5302078e-01
  1.7527007e+00
 -7.5609278e-04
  1.3178555e+00
  5.2696121e-01
  2.2044282e-01
 -6.6093910e-01
 -1.9766748e+00
  1.3460722e+00
 -6.1128104e-01
  5.1775575e-01
 -4.6015364e-01
 -7.9391277e-01
 -2.0805838e-02
  4.2489511e-01
 -3.6862109e-02
  4.2378724e-01
 -1.0481517e+00
 -3.4417468e-01
 -2.7061325e-01
 -8.5918957e-01
  6.0942639e-02
 -4.6051562e-01
  6.1167171e-04
 -2.3271711e+00
 -2.2687464e+00
 -1.3564751e+00
  2.0169666e+00
 -8.1968224e-01
  8.6515230e-01
  3.2062876e-01
  6.4081413e-01
 -9.2725782e-03
  9.8741144e-01
 -1.0451425e+00
 -1.0594770e+00
  1.2488276e+00
  2.9298955e-01
 -4.4513714e-01
 -7.3792495e-02
  3.4028668e-02
 -3.6169779e-01
 -1.7542915e-01
  6.8246919e-01
  1.2847615e+00
 -8.1622171e-01
 -1.8295215e+00
  2.2184470e+00
 -3.4329283e-01
 -9.2335671e-01
 -5.8996218e-01
 -7.4671203e-01
  1.1891869e-03
 -8.5160568e-02
  3.5672512e+00
  1.7633881e-01
  5.6463681e-02
 -2.2028337e-01
 -1.1280010e+00
  3.6225615e+00
  1.0020993e+00
 -1.7788029e+00
 -3.5899848e-01
  1.7508940e-01
  1.2029997e-02
 -5.7671562e-02
  1.3318903e+00
  4.3666530e-01
 -3.1992680e-01
 -1.4567950e+00
  2.7229137e+00
  1.0972147e+00
  4.3738812e-01
 -1.1940316e+00
 -9.7681642e-01
 -2.3839293e+00
  3.6685545e-02
 -1.8366748e+00
 -5.9938651e-01
  1.0123657e+00
 -2.2149765e-01
 -9.5638973e-01
 -5.7662901e-02
  6.2333059e-01
  8.9427248e-02
 -2.4585767e+00
  1.1304483e+00
 -1.2574998e+00
  1.0319605e-01
 -9.7521603e-01
 -1.1940627e+00
 -5.5316770e-01
  1.6786332e+00
  1.5345261e-03
 -9.6265262e-01
  6.6295600e-01
  2.0803742e-01
  4.0087613e-01
 -1.1470345e+00
 -8.4287876e-01
  1.5829540e+00
 -2.4738148e-01
 -8.6745232e-01
 -1.1537917e+00
  4.7128955e-03
  4.3733278e-01
  2.7181058e+00
 -1.4648747e-01
  1.0478973e-01
 -2.8428289e-01
  6.7943186e-02
  3.6516941e-01
  9.1716206e-01
 -7.0522785e-02
  9.8274314e-01
 -2.4045651e+00
 -1.9288885e-03
  4.0791723e-01
 -7.5591728e-02
 -1.6961793e+00
  5.3670192e-01
 -1.8998292e-01
  5.9155101e-01
  8.4188980e-01
  2.3741613e-01
 -1.0437776e-01
  1.5469636e+00
  2.2013175e+00
 -7.6810665e-02
  2.4901699e-01
  1.1500763e+00
  1.0556815e+00
  1.6408725e+00
  3.9504093e-01
  2.1061604e-01
  2.9885793e-01
  8.9730608e-01
 -7.9889782e-02
 -1.2831709e-02
  1.7171730e+00
  1.3265485e-02
 -1.9938035e-02
  9.1221774e-01
  6.4669415e-02
  2.6126176e-01
  6.8146157e-01
 -1.3149811e+00
 -1.2499740e+00
  4.8962742e-01
 -1.4243175e+00
  3.4985435e-01
  4.3348134e-01
  2.7781739e-03
 -1.2216394e-01
  2.7451293e+00
 -1.2234577e+00
  9.1854191e-01
  1.3615156e+00
  3.0234212e-02
 -4.1266024e-01
 -5.7147951e-03
  5.9060383e-01
 -1.0882406e+00
  5.0252402e-01
  7.0495820e-01
  2.4246500e+00
  5.6496471e-01
 -5.7653761e-01
  1.2076220e-01
  5.1780260e-01
  2.2684844e+00
 -6.9908929e-01
  6.1236084e-01
  1.3921577e+00
 -1.9880786e+00
 -1.4757708e+00
  4.0590656e-03
 -3.8334108e-03
  5.9376955e-01
 -4.2268163e-01
  8.3429986e-01
  7.0218870e-04
  2.7723024e+00
 -1.8432920e+00
  7.1715403e-01
 -1.5400277e+00
  1.9825742e-01
 -1.6858505e+00
 -1.5262456e-04
 -6.7778867e-01
  7.5362885e-01
  2.3404695e-03
  1.4560901e+00
  6.2200356e-01
  1.2531729e+00
  6.3660789e-01
  6.6566104e-03
  3.2316262e-01
  2.3004537e+00
  3.0115166e-01
  1.1494656e+00
 -1.5014076e+00
  1.0894295e+00
 -3.9217007e-01
  3.9809054e-01
  3.6743098e-01
  8.3588779e-01
  3.1924349e-01
  3.7749702e-01
 -8.8857371e-01
 -1.6146854e+00
 -4.9636120e-01
 -9.0656395e-04
 -5.8087075e-01
 -1.8797821e-01
 -9.2542700e-02
  8.5219204e-02
  1.9244483e-01
 -5.1313065e-02
 -4.3018237e-01
  1.7812264e-01
 -2.0060308e-01
 -1.4584263e-01
 -5.3899467e-01
 -8.0573475e-03
 -2.3191391e-01
  6.9406968e-01
 -3.8172236e-01
  5.6654018e-01
  3.7306339e-02
 -1.9568385e+00
  1.6123707e+00
 -2.0172266e-02
 -1.2863706e+00
 -6.3819540e-01
  1.2726693e+00
  7.6691508e-01
 -9.6616216e-02
  9.0446848e-01
  4.8559946e-01
  8.1820767e-03
 -1.0103893e+00
  4.8645520e-01
  1.2584612e-01
  5.2099239e-02
  4.1064945e-01
 -3.4716550e-01
  7.3060584e-01
 -4.6083136e-03
  3.6405611e-01
 -6.1924344e-01
  6.6964538e-03
  2.3570091e-02
 -8.9525157e-01
  1.0171980e+00
  3.8428122e-01
  1.5966069e-02
  8.3466572e-01
 -4.0138903e-01
 -3.4173548e-01
 -5.1254727e-04
  1.2186987e+00
 -1.5857837e+00
  6.5188730e-01
 -1.8936446e-03
 -6.3464433e-01
  3.7727636e-01
 -3.2933965e-01
  2.4341929e-03
 -2.7935404e-02
 -1.0064956e+00
 -7.3426771e-01
  1.9319962e-01
 -2.7588695e-01
  3.6407715e-01
 -4.1203210e-01
