nep4 2 Li T 
cutoff 5 5 81 81
n_max 8 8
basis_size 12 12
l_max 4 2 0
ANN 30 0
 -1.2652695e-01
 -6.3053948e-01
 -1.1917617e+00
  4.7108750e-03
 -1.6861546e+00
  9.7290128e-01
 -3.5474116e-01
  2.9497129e-01
 -5.5064386e-01
 -4.3436152e-01
 -6.1764586e-01
  1.6683607e-01
  8.9290977e-02
 -5.6521591e-02
 -1.3432960e-01
  4.6852068e-03
 -2.3517048e-01
 -4.8331958e-01
 -4.2075682e-01
 -1.3416804e+00
  1.0223297e-01
  6.9616862e-02
  6.1361545e-01
 -4.6787113e-01
 -1.3591534e-02
 -1.1386341e+00
  5.5448341e-01
 -1.0138661e+00
  1.5741158e-01
 -2.3499044e-02
 -2.0391788e-01
  1.6507217e-01
  7.9393340e-03
 -6.3934112e-01
 -3.9836502e-01
  2.2387812e+00
 -5.7283491e-01
  1.5964969e-01
  1.9015360e-01
 -3.5098863e-01
 -2.5637698e-01
 -4.2590326e-01
  1.0732864e+00
  1.3623275e-03
  3.8466349e-02
  1.1825105e+00
  7.6095322e-03
  5.3039342e-02
  6.0199467e-03
  1.1666634e-01
  1.4752774e-02
 -8.5245781e-03
 -1.7533159e-02
  9.3568645e-02
 -1.0475544e+00
  1.4874730e+00
 -7.4619383e-01
 -2.3535810e+00
 -8.3119762e-01
 -4.8714432e-01
  1.0070090e+00
  8.9507556e-01
 -6.6958803e-01
 -1.8938169e-01
 -1.4100057e+00
 -1.4023790e-01
 -7.0828104e-01
  5.4644387e-02
  1.6863342e-01
  1.0493215e+00
 -2.7535753e-03
  4.8694715e-01
 -6.2699065e-02
 -5.7423580e-01
 -1.5168704e-01
 -8.6284930e-01
  1.5846267e-01
 -1.8933012e-01
  7.2658169e-01
 -1.9562113e-01
  6.2748289e-01
 -6.3179523e-01
 -6.9942254e-01
 -2.5126122e-02
  6.9183958e-01
 -9.8324710e-01
  7.5787646e-01
  1.7101564e+00
 -5.7375515e-01
  5.0600809e-01
 -8.3356518e-01
 -8.3454347e-01
 -9.9968410e-01
  1.7227485e+00
 -7.4341142e-01
 -1.1609122e+00
  1.7854775e+00
  5.4550749e-01
 -3.5051185e-01
 -2.5626766e-02
 -1.5828407e-01
  4.0980779e-02
 -3.8202491e-01
  5.3659417e-02
  2.3980090e-02
 -9.3770665e-01
  7.3208354e-02
  4.6915838e-01
 -2.2637197e-01
  1.0472890e-01
  9.9994218e-01
 -7.3771095e-01
  8.2809633e-01
 -1.0664617e+00
 -5.0369024e-01
  3.0977544e-01
  5.4228485e-01
  4.7980726e-02
 -1.5796480e-01
  2.9793277e-01
  2.1928020e-01
  3.1511179e-01
  3.0210385e-01
  1.2205310e-01
  1.7409803e-02
  1.7137057e-01
  2.5231883e-01
 -1.5317458e-02
 -1.6941806e-02
 -7.9925382e-01
 -1.6100217e-02
 -4.4018319e-01
  3.4541166e-01
 -1.4185518e-01
 -3.6568020e-02
 -3.6574146e-01
 -4.9188331e-02
 -7.4380541e-01
 -8.4511429e-01
 -1.6554068e-01
  3.2016870e-01
  6.3803136e-01
  4.5081437e-01
  3.3457323e-03
  1.3750815e-02
 -3.8320526e-01
 -7.6978348e-02
 -1.6577525e-01
  7.9199284e-01
  4.1631553e-03
 -6.0267178e-03
  6.2999651e-02
 -4.6004456e-01
  3.3575714e-02
  1.3806227e-01
  5.9424881e-02
  3.4484199e-01
 -1.3004809e-02
 -1.0071103e-02
 -2.6963645e-01
  9.4986565e-02
  4.9167782e-02
  4.5919251e-01
 -1.3431413e-01
  7.1390343e-01
  3.8160855e-01
  7.0675534e-01
 -6.6713691e-01
  9.3756177e-02
 -4.7513393e-01
 -5.1754123e-01
 -7.8419322e-01
  2.4816546e-01
  3.2067627e-02
  6.1704022e-01
  3.8855854e-01
  5.3234136e-01
  6.9657438e-02
  2.1271244e-01
 -2.2153358e-01
 -6.2623078e-01
  1.9300695e-01
 -7.1387303e-01
 -7.6741439e-01
  6.4285055e-02
 -6.4343616e-02
  1.0988584e-01
  2.4497634e-01
 -1.1057866e-02
 -3.9864647e-01
 -4.7243881e-01
 -2.1967733e-02
  7.1070153e-01
 -2.6861686e-01
 -9.8267533e-02
  9.4257303e-02
  9.0723485e-02
 -1.2799876e-02
 -4.2856354e-02
  1.7489703e-01
 -3.2586008e-01
  6.4641678e-01
  1.1575465e-01
  5.3519553e-01
  1.0546797e-01
  1.1970709e-01
  5.3823066e-01
  1.7311871e-03
  2.0322862e-01
  1.3373455e-02
 -1.0366295e-01
  7.4550845e-02
 -1.1931034e-01
 -1.3073070e-02
 -1.4098018e-02
  1.6398637e-01
 -8.3030605e-01
 -3.3937249e-01
 -1.8866584e-02
  1.6664433e-01
 -1.0252442e-01
  1.5182756e+00
  2.3201812e-02
  4.8839206e-01
 -1.4819294e-01
  2.1955533e-02
 -6.6291696e-01
  6.0570335e-01
  5.7677251e-01
  1.2778322e-01
  6.0181868e-01
  1.2012991e-01
  3.7678385e-01
 -5.1405206e-02
  7.3800229e-02
 -3.9522637e-02
 -2.7969000e-01
 -4.3502632e-01
  4.1421026e-02
 -2.2224380e-01
  6.7495070e-03
  1.5325078e-01
 -4.8291281e-01
 -1.0281855e-01
 -6.3695723e-01
  8.1616409e-02
  2.5896052e-01
  2.4495485e-01
  3.7105728e-02
 -1.8181217e-01
 -5.1139616e-03
  1.1700533e-01
  1.6923543e-05
 -2.3581977e-01
 -4.4409773e-01
  1.6054018e-01
  2.4194475e-03
 -1.4898352e-01
 -1.1226474e+00
  9.9447064e-02
  9.0962321e-01
  1.8775325e-01
  3.2149382e-02
 -4.3911940e-01
 -1.2691528e-02
  8.8115685e-02
  1.1127565e-02
  4.8710075e-01
  8.6752065e-02
 -8.2098208e-03
 -9.6240819e-02
 -1.4595090e-01
  1.4605616e-01
  7.7441734e-01
  3.3290645e-01
  5.6507814e-01
  3.4042478e-02
 -1.0570813e+00
 -1.2390086e-01
  3.5868198e-01
  5.0081637e-02
  8.4663004e-02
  2.8800603e-02
 -1.1718962e+00
 -1.3010551e-02
  1.4623179e-02
  8.5568115e-02
  7.6757647e-02
 -3.7124876e-03
 -2.6999092e-01
 -6.2940165e-02
 -2.5537181e-01
  6.3880108e-02
 -3.0060085e-02
 -2.5775427e-02
  4.1151818e-02
 -1.4151125e-01
  9.6890191e-03
 -6.9214255e-02
  4.6516852e-03
 -1.8571812e-01
  4.1275945e-01
 -2.1340083e-02
  1.5722582e-01
 -2.3839769e-01
 -2.0538207e-02
 -7.4635759e-02
 -8.2198687e-02
  1.2463481e+00
  6.5238096e-02
 -1.1518735e-01
 -1.2749482e-02
 -2.9193587e-04
  1.2180874e-02
 -1.8665604e-01
  6.0599610e-02
 -6.3962504e-02
 -1.0619118e-01
 -8.5377665e-03
 -1.3101156e-01
  6.1848275e-03
  1.0368924e-01
 -1.8511504e-01
  8.7717339e-02
  4.9734232e-01
  1.7124842e+00
  2.8290969e-01
  3.7965545e-01
 -6.4286810e-01
  8.2346000e-02
 -4.7924601e-02
 -2.4690728e-01
 -7.1401089e-01
 -3.5850438e-01
  1.3712888e+00
  6.2585747e-01
  1.8117032e+00
 -9.3026787e-02
  3.9429490e-02
 -1.1514725e-01
 -5.5752766e-01
 -9.5100388e-02
  3.6384800e-01
  1.0346079e+00
 -1.7693016e-01
  5.0437499e-02
  3.3905390e-01
 -1.9214466e-01
 -1.7211051e-01
 -3.5109818e-01
  1.3048589e-01
  1.3780177e-01
 -2.3200767e-01
  3.9791182e-01
  6.9668907e-01
  1.1578670e-02
 -2.1638718e-01
 -2.9505959e-02
 -2.4722119e-01
  2.6198077e-01
 -8.7246805e-01
  5.0983459e-01
  5.6438923e-01
  3.7829554e-01
 -2.2487710e-01
 -2.0284219e-01
 -7.9951905e-02
 -1.7890255e-01
  1.7006078e-01
  1.1951665e-01
  2.7632686e-01
  5.2580029e-02
  1.0638256e-01
 -7.9421207e-02
 -7.5877741e-02
  4.6284348e-03
 -1.5106463e-02
  6.1833840e-03
 -2.4950252e-01
  1.9718030e-01
 -5.4583132e-01
 -2.2091721e-01
 -5.7103258e-01
  1.7247694e+00
 -1.3568498e-01
 -1.6339645e-01
 -7.1667176e-01
 -6.4783342e-02
 -2.3107830e-01
 -2.7548462e-01
  5.1389914e-02
  3.7471794e-02
 -1.4942698e-03
  4.1271195e-01
 -3.7969530e-01
 -6.6386476e-02
 -1.3769993e-02
 -5.8844347e-02
  1.6606644e-01
  1.4080431e-01
  1.9211480e-01
  6.2672637e-02
 -5.1417595e-01
 -1.6276151e-02
  1.9506755e-01
  1.1295795e-01
  6.3893780e-02
  1.6760347e-02
  1.3591312e-01
 -3.1255562e-02
 -7.2569423e-04
 -2.0470929e-01
 -5.2355066e-02
  6.5698914e-02
 -4.0808201e-01
 -2.1390605e-01
 -2.0432137e-01
  6.2327394e-03
 -5.5962313e-02
 -6.1665024e-03
  9.5617160e-02
 -5.3890467e-02
 -1.8526977e-02
  5.5894798e-01
 -2.7924651e-01
 -7.5766623e-02
 -4.5857240e-02
 -5.6668604e-03
  1.3446249e-01
 -7.7534169e-03
 -8.0661550e-02
 -8.6531073e-02
  1.0014012e-01
 -2.7180824e-01
 -1.2739876e-01
  1.9262306e-01
 -2.4981853e-01
 -2.2965275e-01
  9.4789408e-02
  3.8147554e-02
  9.7398879e-03
 -1.5838763e-02
 -1.4800597e-03
 -4.5658156e-02
 -1.6680500e-01
  6.5817960e-02
 -2.6850998e-02
  4.6488181e-02
 -4.6472322e-02
  3.4243781e-02
 -1.1775077e-02
 -2.1494308e-02
 -1.0609938e-01
  4.7786698e-02
  2.0728778e-02
  1.6536027e-01
 -3.5667725e-02
  2.5295980e-02
  3.0916885e-01
 -1.8583883e-02
  1.2019760e-02
  2.2236772e-02
  9.8173000e-02
  6.0791671e-02
 -2.3764466e-01
 -6.7266077e-02
 -4.7582280e-02
 -3.0197106e-02
 -4.4628005e-02
 -2.0828588e-01
 -1.1358684e-01
 -1.0337560e-01
  1.0793636e-01
 -6.5165371e-02
  1.8604195e-01
 -1.3673577e-01
 -5.1496472e-02
  1.3259706e-01
  2.9895833e-01
  9.7430788e-02
  1.0580543e-02
 -1.7612602e-01
 -1.9138396e-01
  1.8691888e-02
  4.1223429e-02
  3.7132752e-01
 -4.8719668e-01
  4.5871705e-01
 -1.9582351e+00
  3.0598602e-01
  2.2058088e-01
 -1.2044193e+00
 -1.2802590e+00
 -5.2675891e-01
  4.5616990e-01
 -2.0460116e-02
  8.5546218e-02
 -1.4911093e-01
  2.7601781e-01
  6.8039857e-03
  2.6563611e-02
 -6.4277574e-02
 -1.1033288e+00
 -4.2080589e-02
  5.3857736e-02
 -1.2343116e-01
  3.9306346e-01
 -2.7720204e-01
 -1.8497881e-02
 -7.5821322e-01
  3.8848672e-02
 -1.1736667e+00
  8.4593552e-01
 -1.7215867e-01
 -1.0128169e+00
 -7.1216427e-02
  1.3604909e+00
 -4.4704640e-01
 -4.4049060e-01
  3.6223154e-03
 -9.4410920e-01
 -8.0579978e-01
 -5.1262740e-02
 -3.6400759e-01
 -3.0979460e-02
  2.1914431e-01
 -3.1139812e-02
  7.5676489e-01
 -8.9261428e-02
 -5.1755056e-02
 -3.5793999e-01
  1.9267509e-03
 -1.0284147e-01
  1.5648517e-01
  1.2606952e-01
  2.0464194e-01
 -3.1138551e-01
  1.1548691e-01
  2.6282018e-01
 -1.6277748e-01
 -7.7677846e-01
 -1.7255230e-01
 -3.0049944e-01
 -5.1797241e-01
  1.8872277e-01
  1.2712200e-01
  7.7980435e-01
  1.0502735e+00
  4.3385032e-01
  2.8570417e-01
 -4.1059423e-02
 -3.6446938e-01
  4.7441192e-02
  6.3501820e-02
  2.1866854e-02
  1.1884819e-01
 -5.7923611e-02
 -1.4127266e-01
  8.8316642e-02
 -2.7227328e+00
  8.5500821e-02
 -2.6400799e-01
  1.7033306e-01
  6.7312136e-02
  3.8395613e-02
  1.5097041e-01
 -9.1152199e-02
  1.8543312e-01
 -3.8183428e-02
 -1.7366271e-01
 -3.5013480e-03
 -2.1651235e-01
 -4.6542786e-02
  3.9439309e-02
 -1.5341131e-01
  2.8255698e-01
 -1.0427928e-01
  3.3156329e-01
 -1.0483822e-02
  6.9062930e-01
 -1.0639030e-01
 -5.6551439e-01
 -5.8249301e-01
 -3.6893435e-02
  9.1827966e-02
  3.0563480e-01
 -2.2823736e-03
  1.8565416e-01
 -8.7855972e-02
  4.3062612e-02
  2.1292752e-01
  1.0323343e-03
 -2.2412154e-01
 -9.5272079e-02
 -3.8795564e-01
 -1.2981962e+00
 -6.4524704e-01
  1.9156681e+00
 -1.1659756e+00
  2.0037711e+00
 -2.4083918e-01
 -1.5883557e+00
  8.4019935e-01
 -6.3845879e-01
  4.7888267e-01
 -4.3570068e-01
 -6.4380133e-01
 -1.5072729e-01
  2.8358045e-01
 -6.8732607e-01
 -9.7913760e-01
  4.5539862e-01
 -6.2213600e-01
  4.6869189e-01
  1.9419778e-02
 -2.7798015e-01
 -9.9892370e-02
  2.1531371e-02
 -2.6859581e-01
  1.2932485e-02
  3.7822474e-02
  6.5785516e-03
 -1.9571848e-02
 -2.9098290e-01
  5.7506120e-01
 -4.7220238e-02
  1.9548549e-01
 -2.4121615e-01
  2.9148039e-01
 -1.5204756e-01
 -4.0590367e-01
  1.8733443e-01
  2.5009004e-02
  6.9246489e-01
 -4.2740470e-01
  2.9557657e+00
 -1.0819113e-01
 -5.3805545e-02
 -7.8159428e-01
 -7.3068023e-01
  1.4323383e-02
  2.2099353e-02
 -1.5448923e-01
  6.0618456e-02
  2.0433983e-01
  4.4870980e-02
 -3.4512050e-02
 -4.9269073e-02
 -9.2606314e-02
 -2.0965111e-02
 -5.7801709e-02
 -8.3607443e-02
  7.5758390e-02
 -2.7190068e-01
 -7.9423279e-02
  3.2205662e-01
 -6.7601912e-02
 -6.9627441e-02
 -1.0299246e-01
 -9.8239638e-02
 -9.0095945e-02
 -6.0320698e-02
  7.9719715e-02
 -9.5207259e-02
  3.2220885e-02
 -4.5184556e-02
  2.4364760e-02
 -3.4884099e-02
 -3.6951616e-02
 -2.0818295e-01
 -4.9145259e-02
 -1.6054878e-01
 -1.4304766e-01
 -2.4026213e-02
 -6.6796863e-03
  5.3830463e-03
  2.8494924e-01
 -2.1274628e-01
 -1.0352930e-01
  1.9575180e-01
  3.0135617e-01
  1.7411649e-01
  4.3734133e-02
 -8.5476331e-02
  1.2846698e-01
  1.9385180e-01
 -2.3068292e-03
  2.9338721e-02
  2.7911425e-01
 -5.1281052e-03
 -2.6321110e-01
 -9.9713475e-02
 -1.9873902e-02
  2.9536812e-02
  1.4996496e-01
  9.0211742e-02
  1.1416144e-01
 -8.0696136e-02
 -2.0636126e-01
  4.6772428e-02
 -1.4728016e-01
 -2.5354117e-01
 -1.3336477e-01
  3.1134976e-02
 -5.2650515e-03
  3.7559289e-01
  1.5808402e-03
  1.1379456e-01
  1.9720921e-01
  9.9414503e-03
  3.9759941e-02
  9.4255760e-02
  1.9536908e-01
  1.0527677e-01
  1.6628169e-03
 -1.2317916e-01
  3.7080398e-01
 -1.9883199e-02
  5.1238421e-02
 -1.2363846e-01
  8.8968407e-04
 -2.8780894e-03
  9.1803864e-02
 -1.2822603e-01
  3.7700549e-02
  6.3484661e-02
  1.0903152e-02
  2.7530137e-03
 -2.0728970e-02
  3.9164685e-02
 -3.4424778e-02
 -7.8106187e-03
 -3.3458510e-01
 -1.6440989e-01
 -4.3687443e-03
 -4.8417044e-01
  1.4090748e-01
 -2.0288555e-02
  5.0017089e-03
 -1.3865112e-01
 -2.2163887e-01
  7.2049797e-02
 -1.9097771e-01
  6.8052672e-05
 -9.9332273e-02
 -5.1113352e-02
 -4.7813967e-02
  1.5918016e-02
 -5.9199404e-02
  7.1617462e-02
 -1.5625043e-01
  8.2987100e-02
 -7.3390100e-03
  1.9839393e-02
  1.0893686e-01
 -4.3279767e-02
 -2.2362167e-02
  2.4991941e-01
 -1.1415388e-01
  2.0239908e-02
 -3.8985613e-01
 -1.8473786e-01
 -1.6176286e-01
 -9.7454447e-01
  1.6787264e-01
  7.5744003e-02
 -8.6109973e-02
 -6.4159065e-02
  7.0046365e-02
  1.3080019e-01
 -1.0356371e-01
  2.3418013e-02
  1.7681876e-01
 -8.0609053e-02
  3.2432131e-02
  1.0828207e-02
  1.1055011e-01
  1.8443172e-01
  2.1421580e-02
  8.3594248e-02
 -8.2749657e-02
  1.3631682e-01
 -2.5168395e-02
  1.4572300e-01
 -1.4199857e-02
  1.0386294e-02
 -1.6031173e-01
 -1.4019224e-01
 -6.9732212e-02
 -8.6160950e-02
 -9.0248205e-02
 -9.5704325e-02
 -9.7581215e-02
  5.6260876e-02
  4.0120298e-01
  5.5571917e-02
  3.9229665e-02
 -5.0556667e-02
 -6.3659321e-03
 -1.3000052e-02
 -5.8383651e-02
  6.5028928e-02
  8.1846833e-02
  1.3428149e-01
 -1.8308873e-01
 -3.9079927e-02
  1.1049742e-01
 -3.1053899e-02
 -5.0347205e-04
 -2.0376591e-03
 -5.8286808e-02
 -1.9637123e-01
 -9.0216637e-02
  1.0731381e-01
 -2.7261198e-01
  2.2030627e-02
 -1.1128815e-01
  1.5884364e-01
 -3.4860134e-02
  1.6443595e-02
  1.5154639e-02
 -1.5240037e-01
  1.5828161e-01
 -3.1549558e-01
 -1.1435963e-01
  7.3161826e-02
  7.3939981e-03
  3.7922047e-02
 -2.9111919e-01
 -3.4226038e-02
 -7.2352499e-02
  6.4485975e-02
  1.5573840e-01
 -1.6713874e-02
  2.2285759e-02
 -4.4705030e-02
  2.7309176e-01
 -9.9657118e-02
  2.0402634e-01
 -2.2295046e-01
 -2.6557934e-02
 -6.5263607e-02
 -3.2554694e-02
 -2.6838455e-01
 -1.5985996e-02
 -1.2736110e-01
 -7.4278452e-03
 -1.2703347e-01
  3.5343353e-02
  2.1428488e-01
  1.0244855e-01
 -8.1770644e-02
  2.7747750e-01
  8.0872223e-02
  5.0595056e-02
  2.5577165e-02
 -3.7219282e-02
  1.2189822e-01
 -1.3235860e-01
 -7.5542367e-01
 -1.1207521e-02
 -1.7892641e-01
  6.7364536e-03
 -3.1378612e-02
 -6.7085207e-02
 -2.2056891e-01
 -3.0514356e-01
 -3.0713522e-01
 -8.4010917e-01
  1.8698187e-03
  5.7497388e-01
  1.4092956e+00
 -1.7208095e-01
 -4.1230306e-01
 -1.3806497e-01
 -1.3561548e-01
 -2.7781582e-02
  1.5090254e-01
 -2.0875955e-01
  1.0410387e-02
 -2.0075135e-02
  9.2993295e-03
 -5.9573803e-02
 -1.7809866e-02
  2.4380939e-02
  6.2144870e-01
  7.9432949e-02
  2.0353325e-02
 -1.8042442e-01
  7.0381272e-01
  2.0699680e-02
  1.1151277e-01
  1.5104042e-01
 -1.8240428e-01
  2.3192886e-02
  6.6228442e-02
 -7.4194539e-03
 -5.6943011e-02
 -1.1724064e-01
  1.7806463e-02
 -1.8524395e-01
  9.1415249e-02
  1.8585704e-01
 -1.8946443e-03
 -1.4135995e+00
  3.5425607e-02
 -5.3210348e-02
 -8.3638914e-03
 -2.0090325e-01
 -1.0569230e-01
  5.0519429e-02
 -6.7929454e-02
  5.9820365e-02
  3.2476233e-03
 -8.8255972e-02
 -1.4583301e-02
  5.1357865e-02
  1.4999481e-01
 -2.0796919e-01
  1.9384655e-01
 -3.0352375e-01
 -2.0220754e-01
  1.6884701e-01
 -2.9552636e-01
 -3.0008104e-01
 -7.0231009e-01
  5.7333098e-03
  3.5244390e-02
  3.4546170e-01
  3.1436816e-01
  1.0995597e-01
  1.9036759e-01
 -7.1055025e-01
  1.0266069e-01
 -4.1089958e-01
 -2.0888998e-01
 -8.9434475e-02
  1.8393528e-02
 -3.9187244e-01
  3.3055148e-01
 -3.5525244e-02
 -1.8478259e-01
  5.9212059e-01
 -1.4887936e-01
  3.6488328e-02
 -2.0946532e-02
 -8.0480224e-01
  6.5616257e-02
  1.9803374e-01
 -1.9864342e-03
 -6.1896747e-01
 -7.4392755e-04
 -1.8783569e-01
 -5.2264109e-02
 -1.4631924e-01
  6.2537235e-01
  1.8575114e-01
  3.0216640e-01
  1.8973507e-01
  1.1705058e-01
 -4.3759784e-01
 -2.0211960e-01
  4.6292730e-02
  2.3140202e-01
  2.2358665e-02
 -9.6319325e-02
 -1.0889239e-01
  2.5085860e-01
  1.0681654e-01
  1.8983569e-02
 -2.9052777e-02
  3.4699805e-02
  7.2215252e-02
  1.8449125e-01
 -2.0938519e-01
 -1.0021578e-01
  8.3622552e-02
  8.1083469e-02
 -2.2023502e-01
  5.6166691e-01
  2.2614105e-02
  5.5612183e-01
 -6.0963817e-02
 -8.4166788e-02
  3.3262452e-01
 -3.0943289e-02
 -3.5077214e-02
 -3.4960920e-01
 -1.3618606e-01
  6.3837484e-02
 -1.9544840e-02
  5.9720777e-02
  8.6654518e-03
 -3.3948806e-01
 -3.2051291e-02
  1.1242600e-01
 -8.5671753e-02
  1.5918276e-01
 -2.7919921e-01
  1.0501701e-01
 -4.7164481e-02
 -1.7640366e-01
 -1.8453181e-02
 -1.6189489e-01
  3.4028411e-02
  1.3822852e-01
 -7.7507108e-02
  2.8232262e-01
 -2.2216126e-02
 -1.3326782e-01
  3.2862086e-02
  2.5429398e-01
  2.6313090e-01
  8.9376971e-02
  2.2232134e+00
 -1.1220535e-01
  3.6871120e-02
  2.2034313e-01
  1.7707441e-02
 -6.8926424e-02
  1.7622000e-01
  2.1929700e-02
  1.9453998e-01
 -7.7746414e-02
 -9.2518032e-02
  8.8861525e-02
  1.4225826e-01
  6.0006118e-01
  1.1046898e-01
  3.0507222e-02
  2.5481981e-01
  6.5298849e-01
 -3.0486088e-02
  5.7256681e-01
 -6.7362428e-02
 -7.7224732e-03
  1.3364026e-01
  5.7801269e-03
  4.8993513e-02
  6.1777133e-02
  1.4929659e-02
 -1.4153304e-02
 -2.2345910e-02
 -2.3340236e-02
 -9.2425145e-02
 -1.0451754e+00
 -2.9032278e-01
 -1.9142088e-02
  3.6524829e-02
  3.9164435e-02
 -5.0625868e-02
 -5.1406950e-02
 -5.8496673e-02
  2.4561959e-03
  5.7488125e-02
  2.1444205e-03
 -1.4862554e-01
  2.1660163e-01
  3.6679406e-02
 -1.0839643e-01
  2.8892063e-02
  5.1604241e-02
  8.6233960e-03
 -4.9692858e-04
 -9.5452860e-02
 -4.8432358e-02
  1.6925701e-01
 -1.6885053e-01
  3.3811519e-01
 -4.9176864e-02
  1.8180434e-01
  3.3071250e-02
 -5.8044028e-03
  7.2923966e-02
  4.0611714e-01
 -2.7962902e-01
  5.0696466e-02
  1.2571001e-01
  1.1498068e-02
  9.6756957e-02
 -1.9731647e-01
  2.4991665e-02
 -4.2849187e-02
 -2.1538202e-01
 -1.6249515e-01
  1.8138011e+00
 -1.2361158e-01
 -1.1522614e-01
 -9.4916835e-02
 -3.4529113e-03
 -3.5165498e-01
  2.3008157e-01
 -3.4842558e-02
  1.7427672e-02
  3.3465496e-01
 -1.0881793e-01
 -3.3207919e-02
 -1.5409908e-01
 -2.3115359e-02
 -2.9483614e-02
  1.6402133e-01
  6.9415107e-02
 -1.7121460e-01
 -4.9777884e-02
  1.1508628e-01
  4.5179285e-02
  3.2455727e-02
 -3.5574001e-01
  4.3653518e-02
  1.6910061e-02
 -1.3089685e-01
 -1.2783621e-01
  2.3651161e+00
  6.3968979e-02
 -2.3881719e-01
 -1.9810225e-01
  2.5962996e-01
  4.5412171e-01
  8.3080299e-02
  1.2569180e-01
  1.5904003e-01
  4.3693241e-01
  2.0868860e-02
  9.5314011e-02
  4.4227157e-02
 -1.2094846e+00
  5.9494875e-02
  1.1335684e-01
  5.7743747e-02
  1.4683479e-01
  1.2280359e-01
 -2.7007226e-02
  1.1653309e-01
 -6.4473577e-02
  5.5243802e-01
 -1.0037490e+00
  6.4597422e-01
  1.2424468e+00
  3.5912383e-01
  2.8042433e-01
 -8.7079930e-01
 -1.1556293e+00
  2.8578019e-01
  1.8721357e-01
  1.0644355e+00
 -3.3050049e-02
  1.0722587e-01
 -7.9852417e-02
 -1.1938694e-01
 -4.7552936e-02
 -9.7006178e-01
 -1.0513575e-01
  6.7523605e-01
  2.1289271e-01
 -1.1809859e-02
  1.3266389e-01
 -1.0218290e-02
  8.5517853e-02
 -7.0059776e-01
 -4.6624962e-02
 -2.8342190e-01
  1.2037958e-01
  3.7330526e-01
  1.4823341e-01
 -3.3682164e-02
  2.2474919e-01
 -3.5369638e-01
 -7.9927015e-01
 -3.3119467e-01
 -1.2194618e+00
  3.3641908e-02
  3.4388146e-01
  4.4163305e-01
 -3.5953346e-01
 -1.6982856e-01
  1.8075831e-01
 -7.9638016e-01
 -1.0892386e-02
  1.3277553e-01
  7.9472765e-02
  3.5009521e-01
  1.3094130e-01
  2.6543690e-02
  2.6484339e-02
  6.7377593e-03
 -2.4708781e-01
 -1.3801807e-01
 -2.8699738e-01
 -1.5650181e-01
 -1.9921072e-01
  2.4821182e-01
  6.7407258e-02
 -2.9604590e-01
 -3.6327046e-01
 -8.2901311e-01
 -2.5819838e-01
  2.8389256e-02
  6.3814394e-02
 -1.1188969e-02
 -4.7059696e-02
  1.0585608e-02
 -1.5301561e-01
 -1.2933312e-01
 -5.7534151e-02
  7.4168235e-02
  6.8561122e-02
  1.7273986e-01
  6.1631273e-02
  2.0395420e-02
 -1.1171108e-01
 -8.7703757e-02
 -3.7945900e-02
  2.6023042e-01
 -1.3389274e-01
  6.0220372e-02
 -5.6646494e-03
 -5.8914687e-02
  2.4239128e-02
 -1.8921141e-02
  2.3102359e-01
 -3.9703466e-02
 -2.2315588e+00
  5.5229474e-02
 -9.9750328e-01
 -1.3874473e-01
  2.3482311e-01
  4.6456521e-03
  3.9235115e-02
  7.4951038e-02
  8.1703767e-02
  3.9071026e-03
  1.1493601e-01
 -9.9975564e-02
  3.1990442e-02
  1.2994444e-01
  8.3615109e-02
  6.4072711e-04
 -5.0623551e-02
  1.6418198e-01
 -1.7186305e-02
 -5.5677809e-02
 -7.8078038e-03
  6.8675941e-01
  1.7652816e-01
 -1.7569493e-01
 -2.5200772e-01
 -1.6490044e-01
  2.5237726e-02
  1.1861642e-01
  1.8409690e-01
 -1.7736733e-01
  9.5652938e-02
 -9.8514006e-02
  1.1925759e-01
  1.7052078e-01
 -2.4853048e-01
 -3.3868939e-02
 -6.7223042e-02
  3.5741862e-02
  2.3274129e-02
  3.5865374e-02
 -2.9247567e-01
 -4.4787213e-02
 -6.9293097e-02
  1.4064503e-01
  2.9972078e-02
  6.0252924e-02
 -1.3518444e-01
 -1.0475113e-02
  1.5850279e-01
 -4.8645073e-01
  2.9312270e-02
 -8.0535166e-02
  6.4542659e-02
 -8.5301705e-02
  1.8056278e-01
  6.7885377e-02
 -3.0897610e-02
 -1.3585228e-02
 -3.9905407e-02
 -6.1659057e-02
  1.0622453e-02
 -9.6836753e-02
  1.9354549e-01
  1.2930945e-01
 -9.3355186e-02
  4.9897194e-02
 -3.5765368e-02
 -1.5531000e-01
 -1.3819000e-01
  4.6959966e-01
 -8.9090562e-01
  6.1557889e-02
  6.8046898e-02
  5.6639396e-02
  1.8201789e-01
  4.3037973e-02
  8.0777787e-02
  1.8906776e-02
 -8.2655713e-02
 -2.9786739e-02
  9.4081305e-02
  2.6068151e-02
  1.0422591e+00
 -1.4188342e-01
 -1.5891916e-01
  1.2632605e-01
  3.5338914e-01
 -1.9004935e-01
  8.7243207e-02
 -1.9916224e-01
 -1.7208825e-01
  3.1739682e-01
 -1.5126631e-01
 -3.3437833e-02
  9.6687218e-03
 -1.2245886e-01
 -1.5060341e-01
  1.1434117e-01
  8.0705427e-02
 -9.7632753e-03
  1.0935964e-02
 -9.2856973e-02
  3.0508870e-01
 -7.6158278e-02
  3.4283735e-02
 -8.5154392e-02
 -1.1473788e-02
  1.1973964e-01
 -2.3041513e-02
  1.2286826e-01
 -4.6560299e-02
 -1.2460545e-02
  6.7639753e-02
  1.0361616e-02
 -6.7327600e-03
  7.6472141e-02
 -5.6679584e-03
  2.3580417e-01
 -1.7538941e-01
 -3.1693511e-02
  7.0678145e-02
 -5.0831072e-02
  1.2167651e-02
 -9.3638282e-03
 -2.4259038e-02
  1.4617811e-01
  2.7460497e-02
  3.6789498e-01
 -1.0310212e-01
 -2.1298657e-01
 -4.1815588e-01
 -2.6794285e-01
 -8.1159419e-01
  3.8832806e-02
 -2.1446538e-01
  1.3065720e-01
 -2.3991722e-01
  4.1312629e-01
  4.7161299e-01
  1.8474705e+00
 -6.5705344e-02
 -4.0487161e-01
 -2.6274923e-02
 -7.2764386e-03
  3.6431253e-03
  1.7896865e-01
  1.7907565e-02
  3.6366504e-02
  3.2632220e-01
 -1.7319030e-01
 -4.6524055e-02
 -1.2261595e-01
  1.4208631e-01
 -5.2989032e-02
  2.8459253e-02
 -1.5083592e-01
  1.8872714e-01
 -1.2797269e-01
  5.4353330e-02
  1.0933182e-02
 -1.4581780e-01
 -4.6470255e-02
  1.1232153e-01
  3.3567552e-02
  1.8086083e-02
 -1.2634343e-01
 -9.8211870e-02
 -2.6812471e-02
  2.8778118e-01
  4.1959658e-01
 -5.1480103e-01
  6.0125263e-03
  9.8204635e-02
  2.9933706e-02
 -1.0786597e-01
 -1.3013314e+00
 -8.2947820e-02
 -1.5933055e-02
 -8.1189878e-02
  5.4846596e-02
 -3.9927626e-01
  7.7911869e-02
 -7.8100830e-02
  4.8569468e-01
 -6.4619049e-02
  2.1036246e-01
 -1.7057432e-02
 -1.0719391e-02
  4.8660148e-02
 -1.7252673e-01
 -4.6293151e-01
 -2.0264883e-02
  4.3759131e-01
 -5.7965736e-03
  1.7131409e-02
 -4.8316205e-01
 -3.0417663e-01
 -3.8873155e-02
  1.3917741e-01
  1.1829387e-02
  1.1374577e-01
  1.2729591e-01
 -1.0536336e-02
  4.4130802e-02
 -3.3254954e-01
  1.2096152e-01
  1.9324249e+00
 -3.2504816e-03
 -5.7910163e-02
 -7.3640287e-02
  4.1365385e-01
  1.8381979e-01
  5.1383600e-03
  5.6085933e-02
 -2.4068197e-02
 -3.5437860e-02
  1.9171172e-01
  3.4922078e-02
  4.4955973e-02
 -6.2299222e-01
  7.2007984e-01
 -2.0170030e-01
 -8.4462442e-02
  3.1146567e-02
  2.0967311e-01
  3.5201915e-02
  1.6875771e-01
 -1.6189383e-02
  1.6460340e-02
  8.4999122e-02
  2.5433651e-01
  1.2975263e-02
  2.3847400e-01
 -2.7034821e-02
 -1.0773476e-01
 -2.3488874e-02
  8.8982344e-02
 -1.2010235e-01
 -5.1526690e-01
 -4.1725192e-02
  1.9814396e-01
 -1.1449809e-01
  2.2534418e-01
  4.0621233e-01
 -1.6946723e-01
 -1.0146672e-01
  5.1770512e-02
  1.7998271e-02
 -2.0399618e-01
 -2.9038031e-02
 -3.0191774e-02
  3.4478715e-01
 -4.5892087e-01
 -1.6153856e-01
  4.3479968e-02
 -4.5144242e-01
 -1.1745276e-01
  1.8688551e-01
  4.0336132e-02
  8.8186696e-02
 -4.3172874e-02
  8.1689907e-03
 -4.0747151e-01
 -1.4474092e-01
  8.9140553e-03
  5.0355178e-01
  1.0555348e-01
  1.3637086e-03
 -8.3196205e-01
 -3.8509700e-01
 -3.7344035e-02
  5.9874304e-02
  1.8595061e-01
 -1.1366789e-01
  3.7531946e-02
  7.3390983e-02
  6.2914550e-02
  2.4356557e-01
 -3.7718419e-02
  4.5238340e-01
 -1.5886073e-01
  1.1116563e-01
 -1.9113399e-01
  5.9939232e-02
 -6.4716198e-02
 -3.7597486e-01
  1.0141950e-01
  1.2974057e-01
  1.2806891e-01
 -2.7310306e-01
  8.6220436e-02
  3.4145755e-01
  5.2715069e-01
  1.1932319e-01
  8.5464664e-02
 -6.0445260e-02
 -5.9255734e-02
  1.8940048e+00
  5.5351313e-02
  5.6627792e-01
 -9.2309855e-02
  1.1915508e-01
  5.4990903e-02
  3.3015016e-01
  2.3180669e-02
  5.5543352e-02
 -1.1428984e-01
 -1.6984852e-01
 -8.9175366e-02
 -2.9250246e-01
  4.2290300e-01
  6.3430771e-02
  1.5354650e-02
  7.3515773e-03
 -3.2734301e-02
  5.2803226e-02
 -6.5022022e-01
 -3.2993924e-02
 -2.7882013e-01
 -1.9231132e-01
  6.3071543e-01
  2.4813895e-01
 -9.0388559e-02
 -2.5418982e-01
 -2.7990121e-01
 -1.3033411e-01
  1.5357989e-01
  1.1378990e-01
 -1.5461920e-01
 -3.9305605e-02
  4.8393542e-01
 -2.8568181e-01
  4.7069855e-02
 -9.0993136e-02
 -6.8445690e-04
  4.1267264e-01
 -1.9359702e-01
  8.3824843e-03
  2.2978368e-01
  5.3096361e-02
 -1.7001174e-02
 -2.4950664e-01
 -5.4038763e-03
 -1.5317118e-01
 -1.1951403e-01
 -1.5689969e-01
 -2.9488537e-01
 -1.7638269e-01
 -1.5930954e-01
 -3.8603684e-01
  6.1298043e-01
  3.5336018e-02
  4.3543994e-01
 -2.0977780e-01
  1.7481641e-01
  8.3583005e-02
 -2.8287809e-02
 -2.5999367e-01
  1.6823220e-01
  3.9744285e-01
 -4.0475866e-03
 -4.6722922e-02
 -4.7313798e-02
 -2.0957340e-01
  2.4641067e-01
 -1.3917425e-01
 -2.9641876e-01
 -6.0574997e-02
 -1.2002671e-01
 -3.3374615e-03
 -1.7754884e-02
 -8.1403948e-02
 -3.1308597e-01
  3.6844420e-03
 -2.5824443e-01
  1.0766048e-01
 -7.4823601e-03
  1.3072765e-01
 -4.8856970e-02
  8.2024202e-02
  4.1500515e-01
 -3.9404193e-01
  8.6230028e-01
 -3.2504149e-02
 -4.9429154e-01
 -1.0014393e-01
  1.4673361e-02
 -7.3116928e-02
  8.8177845e-03
 -9.0054452e-02
  3.5581482e-04
 -2.2682916e-02
 -1.3396585e-01
  8.3232246e-02
  1.8258703e-01
 -4.3017659e-01
 -5.6887813e-02
 -3.1021671e-02
 -2.8513592e-01
  1.0578864e+00
 -4.8224235e-01
  8.0227369e-01
 -6.8103798e-02
 -3.3723670e-01
  3.4753048e-01
  2.1970010e+00
 -7.0394729e-03
  9.8526932e-02
 -2.1830776e+00
  3.8941658e-01
 -8.8969183e-01
 -7.4921829e-01
  1.2377011e+00
 -4.3432784e-01
  1.8573189e-01
  2.4712411e-01
 -3.7776697e-01
  5.4187804e-01
  2.8688499e-01
  9.2446983e-02
 -1.6636133e-01
  1.2557489e-01
 -1.2713300e-01
  3.5308778e-01
 -2.0374891e-01
 -4.4432530e-01
 -6.7486471e-01
  6.3521111e-01
  2.0639326e-01
 -4.1852120e-02
 -1.1738414e-01
 -8.7971681e-01
  2.1084861e-01
 -1.1409229e+00
 -1.6854858e-01
 -1.9025689e-01
 -1.2803103e-01
 -8.4518343e-03
 -4.4341739e-02
 -2.7783746e-01
 -1.5133311e-01
  8.7811977e-02
 -1.0606928e-02
  8.5857481e-02
 -1.5938971e-02
  2.1642910e-01
 -3.3690441e-01
  7.2777957e-02
  1.5717365e-01
 -5.0108910e-02
  9.6982884e-01
 -2.5320953e-01
  5.1068481e-02
  5.6013227e-02
  4.0116731e-02
  2.7628789e-02
 -6.7608319e-02
  4.0985647e-01
 -5.0452560e-02
  1.0621622e-03
 -1.8439716e-01
  3.6192350e-02
 -1.1179303e+00
  5.3513706e-01
  9.4332002e-02
  2.0962486e-01
  5.1690891e-02
  2.6926391e-02
  1.7285675e-01
 -5.8057882e-02
  5.0377790e-03
 -5.3865597e-02
 -1.0072833e-01
  1.9598548e-01
  1.4427464e-02
  1.7307229e-01
 -6.3601948e-02
 -4.6164724e-03
 -2.4687307e-02
  6.4710647e-02
 -3.8531151e-02
  9.5659904e-02
 -4.7593260e-01
  3.5909921e-02
 -1.0292614e-01
 -8.0005461e-03
 -2.7991700e-01
 -1.0726566e-01
  1.8048419e-01
  4.0224619e-02
 -4.9985234e-02
  3.5124482e-03
 -4.6793148e-03
  1.6598912e-01
 -1.7202508e-01
  1.0498243e-01
 -3.9255779e-02
  1.7512746e-01
  2.2938114e-01
  3.6340973e-01
 -1.1182430e-01
  3.5509539e-03
  3.4406766e-02
  1.5045324e-01
 -7.9845507e-03
  2.5328584e-03
 -2.6107690e-01
  1.2684244e-01
 -1.1257511e-01
 -2.2528729e-01
 -7.0860118e-02
  8.6381033e-02
  3.2858275e-02
  3.3588004e-01
 -1.5047482e-01
 -5.3581786e-01
  1.9837882e-01
 -5.1841598e-02
  2.1290477e-01
  6.8138176e-01
  4.6755746e-01
 -4.2360343e-02
  3.3596624e-02
 -8.7739512e-02
  9.8786972e-02
  3.8068097e-02
 -1.9466203e-01
 -7.5838763e-01
  1.7944664e-01
  9.0204284e-02
 -8.9800812e-02
  4.9862117e-02
 -2.6698911e-01
  3.9541300e-02
 -1.9312397e-02
 -1.7435341e-01
 -5.0519584e-03
 -6.8728591e-04
 -4.9556434e-02
 -2.1847883e-01
  1.2737708e-02
 -6.0669210e-02
  4.7473494e-02
 -7.9404217e-01
  8.5436799e-02
 -1.3352571e-01
 -1.7096989e-01
 -7.2718523e-02
  3.8654640e-02
 -9.4327591e-02
 -3.3956334e-01
 -4.0087351e-01
 -1.2085463e-02
 -8.0168545e-03
 -1.2659667e-02
  7.7391351e-03
  1.3167977e-01
 -4.1021076e-01
 -1.4509654e-01
  8.1653427e-03
  1.6617343e-01
 -1.9075030e-01
 -1.3760744e-01
 -4.0531531e-02
 -2.0347732e-01
  9.5886411e-03
 -4.8432358e-02
 -8.9318675e-01
  8.6427331e-03
 -2.4154495e-01
 -3.0800241e-01
  2.6932983e-02
 -7.3994689e-02
  3.7893049e-02
 -6.8645656e-02
 -3.3888370e-02
  4.0798154e-02
 -1.7479099e-01
 -4.8449617e-02
 -6.9943354e-03
 -8.0547795e-02
  2.0804815e-01
 -2.2901637e-02
 -1.7285675e-02
  7.1180731e-02
 -9.3246467e-02
 -3.4149486e-01
  2.9762886e-03
 -9.5093928e-02
  6.3794129e-02
  6.5557666e-02
 -1.3051119e-01
  6.3317704e-01
 -9.9993661e-02
 -2.3261496e-01
 -1.9599998e-02
  1.4059314e-01
 -2.4703284e-01
  7.7195741e-02
  9.7519197e-02
  6.1724573e-02
 -1.6108961e+00
  5.6051607e-03
  2.2195935e-01
 -1.6440967e-01
 -1.0797917e+00
  4.1986395e-02
  4.5304704e-02
 -1.4744288e-01
 -1.0751352e-01
 -5.8036077e-01
  1.4602084e-01
  5.9209269e-02
  5.1231980e-02
  3.3940095e-04
  4.4184305e-02
 -8.3685433e-03
  1.2745838e-02
  3.4127511e-02
 -7.8537725e-03
  3.4600489e-02
  1.5441997e-01
 -4.5310413e-03
  1.5216635e-04
 -8.7034881e-01
  3.9890438e-01
  8.3828914e-01
  4.5784935e-01
 -3.7812328e-01
  5.9166912e-02
  2.4017076e-01
  5.1211413e-02
  1.4053096e-01
 -5.3750783e-02
 -2.1404002e-02
 -2.3410487e-01
  1.8357317e-01
 -1.3101332e-01
 -1.3000602e-02
 -4.6134353e-02
  1.6754293e-01
 -1.3408491e-01
 -2.0983182e-01
 -3.5778418e-02
  4.9767706e-01
 -2.5571445e-01
 -1.0400634e-01
 -2.7772469e-02
  3.7167713e-01
 -3.1553391e-02
 -1.2313528e-03
 -8.8440016e-02
 -1.5544202e-02
 -1.2202232e-01
  2.3610710e-01
  8.2224803e-03
  1.8160779e-02
 -3.8832262e-01
 -3.7186292e-01
  9.1807686e-02
  1.7161487e-01
 -2.4222102e-02
 -1.4031689e-01
  1.4326772e-01
 -1.3565184e-02
  1.1679474e-01
  2.2792494e-02
 -3.4433685e-02
 -2.7712753e-01
  2.0115080e-01
 -3.9649270e-02
  1.8902914e-01
  1.7554939e-02
  6.5211169e-02
  8.5981421e-02
  1.3174468e-01
  1.1849755e+00
  1.6062074e+00
  1.1268690e+00
 -2.7415058e-01
 -1.0130644e+00
  5.8996342e-02
  6.2673181e-02
  3.6127195e-02
 -1.4546829e-01
  6.9685131e-03
 -1.7699036e-01
 -3.6978620e-01
  3.9836966e-02
 -7.1573681e-01
  2.3720946e-02
  5.4393458e-01
  2.4401657e-01
  3.1398672e-01
  2.0049199e-01
  1.4537324e-02
 -2.8203717e-01
 -6.1755620e-02
 -4.5244956e-01
 -3.9476913e-01
 -1.0292673e-02
 -9.0802144e-03
 -3.7107147e-02
  1.6285174e-01
  9.4344001e-03
 -1.3886490e-01
 -3.8524464e-02
  5.7340819e-02
 -5.0052971e-01
  2.7600212e-02
  1.0902648e-01
 -7.9557240e-02
  3.8319433e-01
  2.5844043e-01
 -2.8638250e-01
 -6.9922119e-02
  2.7234337e-01
 -2.9133007e-01
  1.6400495e-01
  3.9350101e-01
  2.1020899e+00
 -2.8292770e-02
  8.2185820e-02
  6.9599703e-02
  2.0557846e-01
  6.1160359e-03
 -1.7996940e-01
  7.8469694e-02
 -2.8054208e-01
 -2.7695379e-01
 -1.4562478e-02
 -1.2925313e-01
 -2.3769112e-01
 -1.5151717e-02
 -4.8328858e-02
  2.3744103e-01
  1.9830702e-02
 -7.5302802e-02
  3.9736956e-01
 -9.3166791e-02
 -1.0279692e+00
  3.1579122e-02
  1.0941482e-01
  2.5831589e-02
  2.1174885e-03
 -3.0461423e-02
  5.1913861e-02
 -4.8090148e-01
 -3.3867508e-02
  2.8283115e-02
 -1.4925734e-03
 -1.5614577e-01
  3.0899644e-02
  9.9703394e-02
 -3.5650933e-01
 -1.2255654e-01
  1.3653016e-02
  8.2428001e-02
  2.8423890e-02
  1.9077672e-01
 -9.4807576e-03
 -7.4037686e-02
 -1.7401038e-01
 -2.4653120e-02
 -6.9343984e-02
  7.1857624e-02
 -1.0043219e-01
  5.5041849e-03
  4.8656683e-02
  2.0805785e-02
 -7.9740733e-03
  1.1617729e-01
 -6.5715887e-02
  1.7307785e-01
  5.6317139e-02
 -2.6468784e-03
 -4.2686366e-02
 -7.8343444e-02
 -3.7923414e-02
  8.2409710e-02
  3.9531913e-02
 -8.4317416e-02
  4.3000452e-02
 -6.4525402e-01
  2.9450847e-02
 -5.5056192e-02
  2.1714689e-01
  1.8855421e-01
  4.5476049e-01
  1.0109302e+00
  1.4304149e-01
 -2.1494587e-01
 -1.0651205e-01
 -3.4280324e-01
  2.0717520e-02
 -8.2921885e-02
 -2.4321930e-02
  7.9038786e-03
 -8.5155712e-04
  1.4084348e-01
 -5.9139848e-02
  6.5002546e-02
  1.4039378e-02
 -3.2385733e-02
 -3.1246971e-03
  2.1537426e-01
  1.8573681e-01
 -2.2191967e-01
 -4.3895423e-02
 -3.6041062e-02
  7.3845938e-02
 -4.6835938e-01
 -6.3910916e-02
  2.8943297e-01
 -2.4746954e-01
  3.8609509e-03
  1.7059859e-02
 -3.1342510e-02
 -1.5028404e-01
  6.4891145e-02
 -5.4794550e-02
 -3.3858392e-01
 -2.2923762e-02
  6.7644358e-02
 -1.4505257e-01
  1.2856133e-01
  3.2347705e-02
 -1.3236535e-01
 -4.9674016e-01
  5.5970605e-02
  1.3917961e+00
  3.4330133e-04
 -9.3303330e-02
  3.7372246e-01
 -2.8753829e-01
  2.4015101e-02
  5.5072099e-02
  1.7129841e+00
  1.8622714e+00
  1.2822888e+00
  1.5807279e+00
 -8.2461339e-01
  4.8455811e-01
  2.5119157e+00
 -8.2813656e-01
 -9.7077221e-01
  9.2260122e-02
 -3.5222990e-03
 -5.5871361e-01
 -9.5273143e-01
 -1.6397929e-01
  1.0835451e-01
 -3.9040032e-01
  3.4432277e-02
 -1.5928540e-02
 -9.2993051e-02
 -2.6230112e-02
  1.8038105e-02
 -2.0604713e-01
  6.4512029e-02
  1.3221086e+00
 -3.8991600e-01
  3.3711866e-02
  2.2580492e-01
 -2.8925419e-01
  3.3559158e-02
  6.1823207e-01
  5.3117937e-01
 -1.7774580e-01
 -8.2156800e-02
 -1.0038539e+00
  1.4185783e-01
 -5.0503787e-02
 -3.6455098e-01
  9.9909753e-02
  9.9920377e-02
  7.0349034e-03
 -1.1101024e+00
  2.8436482e-01
  1.0620435e+00
  9.9357888e-02
 -8.8081598e-02
 -1.8136919e-02
  1.8243298e-01
  3.1407780e-03
  8.5960612e-02
  2.7937055e-02
 -2.8326493e-02
  2.2502134e-03
  7.8050077e-02
 -7.9079799e-02
 -1.4672818e+00
 -2.5685184e+00
 -2.7006788e+00
 -4.8818851e-01
  1.0127350e+00
 -2.0538681e+00
  2.2581646e-01
  3.0264333e-01
  1.4252721e+00
  1.7760571e+00
 -1.6237818e+00
  4.3564254e-01
  1.2285366e+00
 -7.0901275e-02
  1.7177043e+00
  7.4768203e-01
 -7.2857037e-02
 -1.3451587e+00
 -1.4820492e-01
 -8.2008831e-02
 -3.9829743e-01
  7.0457771e-02
 -4.5521376e-01
  1.0402607e-01
  5.6557983e-01
 -2.3040144e-01
 -7.2635841e-01
  1.4264470e-01
 -7.2925472e-01
 -3.4725019e-01
  3.9788425e-01
 -3.7990019e-01
 -1.6166227e+00
  1.7930947e-01
  8.0369222e-01
  4.7583260e-02
  1.2024718e-01
 -1.8274275e+00
 -1.7303014e+00
  5.4447949e-01
  3.7885115e-02
  8.3630666e-02
  7.4754858e-01
 -2.4459623e-01
  7.3493319e-03
  1.2625428e-01
  3.3032432e-02
  1.3567890e-01
 -1.6423626e-02
 -8.1873707e-02
  1.3094915e-01
 -1.1908595e-01
  1.3826713e-01
 -1.3254254e-01
  5.5317438e-01
 -1.4426612e+00
 -1.6970395e+00
  1.1131203e+00
  1.0748628e+00
 -1.2143310e-01
  1.1315877e+00
  1.1282295e+00
  2.2782932e-01
  9.5296407e-01
 -1.3292369e+00
  2.6144387e-02
  7.9093762e-02
 -9.7498602e-01
  1.6451411e+00
 -6.1661202e-01
 -3.8818564e-02
 -9.2903562e-02
 -8.1804746e-01
 -1.3716319e+00
 -1.0314995e+00
  9.5215678e-02
 -4.6962731e-02
 -5.7161248e-01
 -5.3511441e-01
  3.5627148e-01
  4.9919011e-03
 -4.8061073e-02
  4.7874841e-01
  3.0587649e-01
 -7.6611364e-01
  3.5190022e-01
 -2.1463300e-01
 -5.8243260e-02
 -3.6928719e-01
 -6.3853770e-01
 -5.3005570e-01
  6.9867110e-01
 -3.6166406e-01
 -6.5889023e-02
  5.4615581e-01
 -6.0617607e-02
 -1.2596923e+00
 -1.1216111e+00
 -4.2783879e-02
 -1.3618898e-02
 -5.5276603e-03
 -1.5456180e-01
 -1.2304296e-01
 -5.3220514e-02
 -1.2111310e-01
 -1.8576723e-01
 -1.0715909e-01
  4.5506429e-02
 -9.6815556e-02
  7.1793002e-01
 -5.3046629e-02
  5.1764983e-01
  3.6293264e-02
 -2.1869832e-01
 -5.8297094e-02
  1.0399392e-01
  9.0737417e-03
 -2.0047590e-01
  1.1533264e-01
  6.8190944e-01
 -1.9688260e-02
 -2.6359271e-02
 -7.6886110e-02
  1.3039102e-01
 -2.0462221e-01
  6.2989041e-02
 -2.2173868e-02
  7.2149582e-02
  4.7934824e-01
 -3.2789618e-01
  3.3885997e-02
  8.1305079e-02
  7.0155740e-02
 -9.8076463e-02
  2.7160330e-02
  7.0105821e-02
 -1.6601039e-01
 -1.5675511e-02
 -3.4951186e-01
 -3.7273794e-01
 -2.3884414e-02
  4.6321847e-02
  2.9255172e-02
  1.3588418e-01
 -7.1779013e-01
  4.0259395e-02
 -1.2948309e-01
  2.1924761e-01
 -3.1233269e-01
 -1.7661674e-02
  4.2002197e-02
  6.3466424e-01
  1.2945034e-02
  1.7770411e-01
 -4.4679508e-02
 -4.9524944e-02
 -1.1159777e-01
  1.6260749e-01
 -1.5374500e-02
  1.6902742e-01
 -1.2830745e-01
  4.5102321e-02
  7.2836637e-02
  7.8118637e-02
 -7.6524273e-02
 -7.9358920e-02
  1.1870529e-02
  1.4548173e-02
 -1.1815226e-02
 -9.8355927e-02
 -1.9099194e-01
 -1.3031726e-01
 -1.4810787e-02
 -6.3740034e-03
  1.1148664e-01
 -8.9762196e-02
 -4.8788693e-02
 -1.5128878e-01
  8.8459246e-02
  1.6431448e-01
  5.6335468e-02
 -1.9856133e-02
  2.8125951e-02
 -8.1199482e-02
  6.0369331e-02
 -1.1823639e-01
 -8.5393339e-02
  4.2932779e-02
  4.4696625e-02
  1.2769681e-01
 -9.4485335e-02
 -4.6299092e-02
  4.9939860e-02
  6.0610805e-02
 -1.9085574e-01
 -9.6796356e-02
 -1.3880111e-01
 -5.3274810e-02
 -7.6378249e-03
  4.1631818e-01
  8.5452728e-02
 -1.3162820e-01
 -1.6375405e-01
 -1.6403475e-01
  1.1676744e-01
 -8.3557535e-03
  9.3153063e-03
  1.6026359e-02
 -1.4377987e-01
 -1.8940988e-01
 -2.2587046e-01
  1.1047836e-01
  2.9114597e-02
  9.6705534e-02
 -4.8767366e-02
  9.4572224e-02
  2.6662070e-02
 -1.7241361e-02
 -6.6561311e-02
 -3.9079383e-02
 -1.6949487e-01
 -5.9739325e-02
 -6.3815397e-01
 -1.0122667e-01
 -1.3354808e-03
  1.4466397e-01
  1.1814417e-01
  1.1655627e-02
  1.6961689e-01
 -1.2090770e-03
 -3.0541766e-01
  5.2754236e-03
  6.9484934e-02
 -6.6400170e-03
  2.0386726e-03
 -1.4894916e-02
  3.0627627e-02
  2.4569756e-03
 -8.3424768e-04
  1.4485323e-02
  1.2801053e-01
  9.1122374e-02
  7.4143338e-01
  2.3347396e-02
 -1.9386397e-03
 -1.3358407e-03
  1.8907242e-01
  1.2452874e+00
 -1.0463418e-03
 -8.3400700e-03
  1.1375053e-01
 -3.6859497e-02
 -1.1503886e-01
 -6.1612034e-01
 -1.4117318e-01
  3.0736256e-01
 -9.9597365e-02
 -1.6421366e-01
 -8.7498978e-02
  1.7026445e-01
 -7.7286333e-02
  1.1573158e-02
 -1.4136246e-01
 -2.1120898e-01
 -3.5758339e-02
  4.3413374e-03
  7.9254530e-02
 -6.7247987e-02
  1.1165371e-01
 -2.9055429e-01
  9.8471838e-01
 -8.5002023e-01
 -2.2212018e-01
  9.2050493e-01
 -4.8216149e-02
 -2.2052056e-01
  3.7909442e-01
  1.1096315e+00
 -1.6661330e+00
  8.9715809e-01
  3.6858359e-01
  9.2485234e-02
 -1.3347723e-01
  8.5923076e-03
  1.7182018e+00
  7.2094291e-01
 -2.4145021e-01
 -9.0241998e-01
  6.1454642e-01
  2.6452981e-02
 -4.1295294e-02
 -1.0173820e+00
 -3.4304686e-02
 -1.7888495e-01
  6.6390330e-01
 -5.7050413e-01
 -1.3069289e-02
 -4.8950914e-01
  1.6566411e-01
  1.7574179e+00
  4.0119010e-01
 -5.1149100e-01
 -9.3420982e-01
  9.9394184e-01
 -1.1589846e-01
  4.2942464e-03
 -1.3589318e+00
 -5.5841929e-01
  6.6146061e-02
 -1.2910749e+00
 -6.6749174e-03
  1.5482714e+00
  8.9810902e-01
 -4.8482457e-01
 -1.4900155e-03
  1.4419560e-01
 -4.7442091e-01
 -3.7670605e-02
  2.6851359e-01
  2.2748959e-01
  2.0047267e-01
  6.2988889e-01
  2.9671705e-01
  9.7486973e-02
  2.9232655e+00
 -3.0757827e-01
 -1.1626125e-01
 -3.4087539e-01
  1.7660566e-03
  8.0235922e-01
 -3.1169179e-01
  9.9368942e-01
  5.4307562e-01
  5.3137638e-02
  7.7357173e-02
  3.4869511e-02
  1.2259033e+00
 -3.9725116e-01
  1.7931685e+00
  1.5637895e-01
 -1.8221135e-01
 -3.4618739e-02
 -1.6135755e+00
  2.7117884e-01
 -5.7566023e-01
  4.3253507e-03
  1.3212843e-02
  9.9366747e-02
 -9.7270153e-02
  3.1175137e-01
  3.0764243e-01
 -3.4281987e-01
 -1.7893523e-02
 -5.2035767e-01
 -3.6135733e-01
  1.2071070e-01
 -3.8575163e-01
  1.7549442e-01
  4.5696044e-01
  8.1900554e-03
 -3.2974908e-01
 -7.8645334e-02
 -7.8065866e-01
  3.7454861e-01
 -3.0225167e-01
 -1.4114288e+00
  5.8642161e-01
  7.2135054e-02
  2.4176174e-01
 -9.8726079e-02
 -7.7240326e-02
 -3.0585676e-01
 -7.1348725e-03
 -1.5426883e-01
  4.2415741e-01
  3.5870275e-01
  1.8716566e-02
  1.1571161e-01
  6.8073326e-01
 -6.1819965e-01
 -8.0574319e-02
  1.0416759e+00
 -1.0411581e+00
  9.8260611e-01
  6.1381310e-02
 -5.1641870e-01
  4.8730642e-01
  6.4769828e-01
 -1.1071531e+00
 -6.2852710e-01
  6.0228240e-01
 -4.8178640e-01
 -5.2423310e-03
 -1.0773947e+00
 -3.6735222e-02
 -6.2556875e-01
  1.2524642e-01
 -2.5650460e-01
  3.2727499e-02
 -1.9945666e+00
  2.3809025e-01
  4.3666996e-02
 -1.8467431e-01
 -3.1980929e-01
 -3.8106966e-01
 -9.0621340e-01
 -1.3438269e+00
  4.1378242e-01
  9.7126824e-01
 -1.5727782e-01
 -1.6213596e-01
 -1.3324583e-01
  2.0940740e-01
 -2.7877826e-02
 -1.3275647e+00
 -5.6525487e-01
  4.2708093e-01
  1.3855792e+00
 -3.0152845e-01
  3.1195369e-01
 -3.6275510e-03
 -8.1632268e-01
  7.9029888e-02
 -5.9598881e-01
  9.8518163e-02
 -5.6880202e-02
 -1.1508776e-01
 -7.3115848e-02
  3.2090232e-02
  3.3204437e-03
 -9.4346136e-02
  9.3098032e-01
  5.0218987e-01
  1.6425373e-01
 -1.8419373e-01
  1.7414293e-01
 -2.3158987e+00
  6.5432988e-02
  6.0825098e-01
  2.5304595e-01
  3.4295800e-01
  1.3500209e-01
 -1.5174034e-01
  6.1143883e-02
  1.1059214e-01
  1.3956700e-01
 -1.7503440e-02
 -2.3314102e-02
  8.3951652e-04
  3.5488558e-01
  9.3203910e-02
 -2.7817884e-02
 -7.6818548e-04
  1.8729420e-01
 -4.3738898e-02
  2.5886902e-01
  1.9150378e-02
  2.0031594e-01
 -6.6467933e-02
 -1.8022230e-01
  7.0161842e-02
  1.8275891e-01
 -5.7404496e-02
 -2.3368042e-02
  1.0782674e-02
 -3.4341928e-02
  1.0592267e-01
 -5.0726805e-02
  1.9243063e-01
  2.0565681e-01
 -1.5825680e-01
  3.5440806e-01
  4.4249937e-02
  9.2931584e-02
 -4.1064331e-01
  5.2808315e-02
 -2.9917672e-01
 -7.3552214e-02
 -1.0572652e-01
 -7.9493366e-02
 -5.1742923e-02
 -7.3739439e-02
  3.3252902e-02
 -2.4180639e-01
 -5.3386506e-02
 -3.6681443e-04
 -4.7595903e-01
  5.2529728e-01
  6.8904664e-03
 -5.7996088e-01
 -1.7827227e+00
  2.7161376e+00
  4.7194839e-01
  4.5170686e-01
 -8.1231982e-01
  2.0972151e-02
  6.9267169e-02
  1.1223004e-01
  6.5216050e-02
  1.4740160e-02
  3.8609456e-02
 -3.1269609e-04
  1.4129348e-02
 -9.9655814e-02
 -1.1336874e-01
  1.2874939e-02
 -1.6950291e-01
 -1.5955432e-01
  2.4680273e-01
 -1.0362753e-01
 -2.3566684e-01
 -1.6024243e-02
  1.2520193e-01
  1.3488980e-01
 -1.4695998e-02
 -2.6129377e-01
 -2.2989596e-01
  1.4067391e-01
  9.1098532e-02
  2.8205815e-01
 -2.1358258e-01
 -6.1445419e-02
 -2.8824142e-01
 -4.0164579e-02
  2.7127770e-01
  6.3164079e-01
 -3.4941435e-02
  2.1312416e-01
 -2.6468696e-02
 -1.5415016e-01
 -9.2026398e-02
 -1.3909130e-02
 -4.8878714e-02
  4.5688815e-02
  4.7845811e-02
  2.4103153e-02
  1.2875505e-02
  2.9695782e-01
 -1.1350454e-01
 -9.3827829e-02
 -4.2876855e-01
 -1.3336511e-01
 -1.0686908e-01
  3.2093981e-01
  2.0945682e-03
 -1.1285603e-02
  1.0961451e-01
  1.1797664e-01
  2.3851926e-02
  1.0809659e-01
  3.5864289e-03
 -1.9353647e-02
  6.9441170e-02
 -4.8881736e-02
  9.0714004e-03
  9.1383919e-02
 -4.3572979e-03
  3.2885030e-01
 -1.6218621e-01
  9.0488449e-02
  8.7846987e-02
 -2.0630702e-02
 -1.2906466e-01
  5.7194661e-02
  7.3540206e-03
 -3.2296613e-02
  4.5452613e-02
 -8.1097551e-02
 -5.1316358e-02
  9.2941970e-03
 -7.3173041e-03
  1.9318890e-02
 -1.2047719e-01
  2.2953278e-01
  2.0852691e-01
  2.0909387e-01
 -3.1759068e-02
 -1.7726002e-02
  2.2901313e-01
 -1.2155383e-01
 -1.5501288e-01
 -5.9899647e-02
  7.4034885e-02
  1.4821029e-01
 -1.2924039e-01
  6.4406283e-02
  3.5474718e-01
 -1.0270514e-01
  2.6735407e-01
 -6.5262698e-02
  2.6259549e-02
 -1.2680249e-01
  1.6921414e-01
 -1.7728329e-01
  6.2014478e-01
 -8.2380557e-01
  7.6596063e-01
  6.7346364e-01
 -1.1450776e+00
  1.7905384e+00
  2.1280704e-01
 -6.0740447e-01
 -1.0139961e-01
  1.5136755e-01
 -1.3933955e-01
 -4.4817659e-01
 -5.7809651e-01
 -6.4602482e-01
 -1.3207768e-01
 -9.8097372e-01
 -2.3179582e-01
 -2.4428412e-01
  5.3270394e-03
 -1.3604691e+00
  1.6588859e-01
 -8.6648440e-01
 -1.7296277e-01
  4.5543721e-01
 -1.4893914e+00
 -3.5229740e-01
  5.8748659e-02
  9.0055622e-02
 -5.5557716e-01
 -6.7856111e-02
 -1.2199065e-01
  1.7302309e-01
 -7.3763907e-01
 -5.0894130e-02
 -4.9226040e-01
 -6.2883019e-01
 -1.2114201e+00
 -1.0705843e+00
 -7.6379068e-02
  8.1336476e-02
 -6.6577005e-01
 -1.4698997e-01
  1.7562094e-01
 -4.6207151e-01
 -5.8753971e-02
 -1.6591990e-01
 -2.7261958e-01
 -5.5270154e-02
  1.1827941e-01
 -4.2756595e-02
  5.5465754e-02
  5.7933304e-02
  7.6476396e-03
  1.9836023e-02
 -1.3125193e-01
  2.9044813e-01
 -2.7239960e-01
  1.8052842e-01
 -2.5746492e-01
 -6.7640781e-01
  7.3731989e-01
 -2.9411772e-01
 -3.3371094e-01
  1.0924403e-01
  1.3439378e-01
  7.6097801e-02
 -1.2028117e-01
  2.3858549e-02
  8.3964579e-02
 -1.1686266e-02
  4.9521413e-02
 -2.8975643e-02
  1.7975269e-01
 -9.8894857e-02
 -9.5904887e-02
  5.1037997e-02
 -7.6975495e-02
  3.9226675e-01
 -1.2743339e-01
 -1.2568270e-01
 -4.0571013e-01
  7.7881142e-02
  1.1492354e-01
 -1.9482436e+00
  3.8884881e-01
 -1.7009532e-02
  5.7943337e-02
 -3.3543993e-02
 -1.1208159e-01
 -3.4765784e-02
 -8.7991959e-01
 -8.3375007e-02
  9.5399491e-02
 -2.1635363e-02
 -9.1211922e-02
 -1.0085976e-01
  2.8253142e-02
  9.2344638e-03
  3.7987534e-02
  1.3549359e-01
 -1.1600174e-01
 -9.6700519e-02
  3.8813427e-04
 -3.7361838e-02
  1.0582844e-02
 -1.0035810e-01
 -8.5183769e-02
 -1.9235788e-01
 -9.7601819e-01
 -1.7911981e+00
 -5.3410816e-01
 -1.2695378e+00
  5.6769019e-01
  4.8769927e-01
  2.0060501e-01
  1.3783816e+00
 -1.3150171e+00
  7.0138115e-01
  2.8755618e-03
 -4.5126358e-01
  3.0747247e-01
 -4.0179063e-03
  7.1192771e-02
 -1.2146624e-01
 -7.7700256e-03
  2.6102605e-01
 -4.0420443e-03
 -5.1378133e-03
 -2.2395535e-01
 -5.8171684e-01
 -1.3539331e-01
 -4.0236872e-01
 -4.1177902e-01
  5.6610972e-01
  3.0129243e-02
 -1.8567348e-01
 -3.9168897e-01
 -7.9365814e-01
  7.2673839e-01
 -5.0027442e-01
 -1.6001202e+00
 -9.6725649e-01
  1.9074756e-01
 -3.6206537e-01
 -1.9963501e-01
 -1.1606451e-01
 -7.6692355e-01
 -1.2806296e+00
 -3.6454979e-01
 -6.4973450e-01
  5.6512755e-01
  7.6590732e-02
  3.3614557e-02
 -2.1383251e-01
 -5.6555592e-02
 -3.4457088e-01
 -4.5254126e-02
  2.4312420e-02
  1.0819171e-01
 -2.1743023e-01
  5.1172793e-02
  7.5704046e-02
  7.6566689e-02
  1.0210162e+00
 -1.0028652e-01
  6.5719235e-01
 -3.7632026e-02
  2.3355840e-01
  8.1418943e-01
  7.7675951e-01
 -2.6301119e-01
  7.4069552e-02
  1.8222192e-01
  3.8231183e-02
  5.1551378e-01
  2.6893234e-01
  1.1595335e-01
  9.0765053e-01
  1.2787786e-01
  1.6652235e-01
 -3.7970337e-01
  1.8250948e-01
 -5.0758533e-02
  5.8161104e-01
  2.7601638e-01
 -8.1312180e-02
  4.5856845e-01
  8.5249156e-01
  8.0345452e-01
 -6.8998300e-03
  1.3371389e+00
 -7.2009638e-02
  1.1285688e-02
 -3.3864534e-01
 -3.3696473e-02
  8.5821593e-01
  2.8157622e-01
  6.4253253e-01
 -3.3857521e-02
  4.3015292e-01
  3.6455993e-02
  2.3268272e-01
 -1.0269271e+00
 -5.0920747e-02
  6.8508244e-01
  5.4830468e-01
  5.0420191e-02
  8.2904957e-02
 -9.7607136e-02
 -8.9033529e-02
 -1.2371053e+00
 -2.3368742e-02
 -5.9324694e-03
  1.1817777e+00
  1.2660683e+00
  3.4969887e-01
  2.2679633e-01
 -1.8418288e+00
 -7.8004205e-01
 -6.0527626e-02
 -2.7101101e-02
 -9.1607720e-01
 -7.7938414e-01
 -1.9145198e-01
  5.5626738e-01
 -9.6727505e-02
  3.5732007e-01
 -1.3361748e-02
  5.8562197e-02
 -2.6293704e-01
  4.8401352e-02
  7.4857168e-02
 -1.5412210e-01
  6.0930736e-02
 -7.8406841e-02
  1.5988441e-01
 -9.3753509e-02
  1.5369371e-01
  2.0650679e-02
 -2.7593089e-02
  1.1142959e-01
  3.8483873e-01
  1.1413012e-01
  1.6461205e-01
  5.8728557e-02
 -6.8137132e-02
 -3.8467925e-02
  4.0662774e-01
  2.5371069e-01
  1.3063052e-01
  2.0675272e-02
 -5.6104459e-02
  3.5823088e-02
  3.4719375e-01
  9.9908191e-01
 -1.5715016e-02
  5.1825553e-02
 -7.2751686e-02
  1.3237683e-01
  2.5642165e-03
  2.1199405e-01
  9.7347051e-03
 -1.8706968e-01
  4.6938404e-01
  5.3158142e-03
  6.4018804e-01
 -6.9089115e-02
  1.5508570e-01
  8.3396010e-02
  3.0952107e-02
 -9.3747646e-01
 -1.9395463e-01
  1.5355293e-01
  6.9993156e-01
 -7.6721567e-01
 -2.6461565e-01
 -7.6646376e-01
 -8.6323237e-01
 -7.6796703e-02
 -2.0698404e-01
  1.4646759e+00
  2.3032118e-01
  1.5264083e+00
  2.0637812e-01
 -1.7930996e-01
  1.9561924e-01
  5.1300269e-01
  1.4161167e+00
 -1.0452468e-01
  7.0320183e-01
  1.0465420e+00
  1.4345525e-01
  3.6037058e-01
  1.4295304e-01
  5.6544554e-01
  5.0535262e-01
  4.5403734e-01
  1.6145667e-01
 -2.5140688e-01
  5.5647781e-03
  5.5483580e-01
  1.2708390e-01
 -6.6168296e-01
  2.7119151e-01
  9.2220980e-01
  6.1924869e-01
  3.8779965e-03
 -2.6245072e+00
 -4.2777753e-01
  3.6804438e-02
  2.2139117e-01
  2.1426421e-01
  1.5390076e-01
  7.8318471e-01
 -2.1349292e-02
  2.6344508e-04
 -2.4303999e-02
 -2.7845226e-02
  3.7923008e-03
  3.3801414e-02
 -1.3408747e-01
 -6.1663049e-01
  1.1506242e-01
 -9.9936090e-02
  1.4027488e+00
  3.6312184e-01
 -3.2717362e-01
  1.2628153e-01
  3.6773491e-01
  3.5975922e-02
 -4.1516787e-01
 -3.0864919e-02
  2.8347144e-01
 -7.1877562e-02
  2.4020392e-01
  9.9224567e-02
 -2.0927107e-02
 -7.1268700e-02
 -2.7631944e-01
  1.2738673e-02
 -1.0636758e-01
  2.1242136e-03
 -1.3630685e-01
  3.6474198e-01
  3.5558316e-01
  2.7323747e-02
 -4.0106398e-01
 -2.5243266e-02
  4.4578977e-02
  2.2228174e-02
 -1.8860431e-01
 -2.6317152e-01
 -1.2333089e-02
  2.1067423e-01
 -1.5041979e-01
  2.5992194e-02
 -2.5334565e-02
 -2.2300631e-01
 -6.3353978e-02
  1.1772717e-01
 -9.4716452e-02
  4.0787211e-01
 -1.8064206e-02
 -4.5082599e-01
  2.0644493e+00
 -1.0812134e-02
  1.0526621e-01
 -8.5538410e-02
 -5.4875188e-02
  1.3224462e-02
  1.4114990e-02
  5.6912325e-02
  5.6470543e-02
 -6.2119374e-03
 -7.3240660e-02
  7.1562920e-03
 -1.0706016e-02
 -1.0704808e-01
 -1.5811290e-01
  2.5887415e-01
  1.5641677e-03
 -1.4358504e-01
 -1.8368821e-01
 -7.4322683e-01
 -3.5300565e-01
  1.0784956e-01
  3.8574761e-01
  6.6029951e-02
 -5.3112179e-01
 -5.5568832e-01
 -1.1420102e-02
 -7.5680219e-02
 -3.0722162e-01
 -4.6230119e-01
  2.4381131e-02
 -2.0685551e-01
  5.5382814e-02
  1.7368224e-02
 -7.4014559e-02
 -2.0222825e-01
  8.1022479e-02
 -9.0071626e-02
 -6.1043173e-01
 -3.0198759e-01
 -2.0284817e-01
  7.2011136e-02
  1.3371424e-01
  1.8934211e-01
  3.5597417e-01
  1.2388616e-01
  2.8037274e-01
 -8.7627150e-02
 -4.8864618e-01
 -6.1571145e-01
  3.8567469e-01
 -1.6001964e-01
  3.4146477e-04
 -6.0884744e-02
  8.2094640e-02
  1.8115368e-01
 -4.6757171e-01
 -3.8539478e-01
  8.6964838e-02
  7.4610032e-02
  1.5152055e-01
 -1.9569381e-01
 -2.8977785e-01
 -3.9130546e-02
 -9.8977543e-02
 -3.9315161e-01
 -2.5653216e-01
 -1.5168023e-01
 -7.6631808e-01
 -2.0992436e+00
 -2.9268217e-01
 -3.7681118e-01
 -3.6805156e-01
 -9.4815826e-01
  1.6071465e+00
  1.9389428e+00
 -5.9024388e-01
 -2.5344364e-02
  2.9251248e-01
  2.0559183e-01
  1.5727569e+00
 -1.0071769e+00
 -1.6378480e-01
  8.4179950e-01
  2.6878305e-03
 -2.1437979e-01
 -5.1033860e-03
 -3.2096130e-01
 -2.1334110e-01
  2.2819798e-01
 -1.6462496e-01
 -4.6144658e-01
  5.1270649e-03
  1.7374653e-01
 -4.8388439e-01
 -1.5462706e-02
  7.1472418e-01
 -7.4200004e-01
  1.5103277e-02
  4.9955551e-02
 -2.8545684e-01
  2.4431661e-01
  1.6133741e-02
  2.9453896e-03
  2.2015888e-03
 -1.9622773e-01
  4.8609930e-03
  4.0060550e-02
  8.0517024e-02
 -7.4444783e-01
 -1.1134883e-01
 -4.9726307e-02
 -1.2386956e-01
  1.0847875e-01
 -5.6499861e-02
 -1.8228848e-01
  8.2807153e-02
 -9.4664827e-02
  1.7836604e-01
 -2.9169804e-01
  5.3144954e-02
  1.0167348e-01
 -3.3658903e-02
  5.7003386e-02
 -1.2019151e-01
  1.2948242e-01
  9.4636474e-03
 -1.1887312e-01
  1.3578789e-02
 -1.6247243e-02
  1.6551955e-02
  1.8469948e-02
 -6.5195620e-02
 -5.9077121e-02
  1.7802742e-01
  5.8143523e-02
  6.6192694e-02
  1.8193930e-01
  4.1271418e-02
  1.0344134e-01
  3.9927620e-03
  9.7083382e-02
  1.2804794e-01
  2.2712888e-01
 -1.1151701e-01
  2.0916748e-01
 -2.5168322e-03
  1.1655575e-01
  2.2513052e-02
  8.9814246e-02
 -4.2228859e-02
  6.3803405e-02
  1.8883406e-01
 -2.4665220e-01
 -5.1725626e-02
 -6.4486034e-02
  8.0656290e-02
  1.0057303e-01
  4.3604057e-02
  1.1030929e-01
 -1.3058329e-01
 -1.1660653e-01
  2.8021324e-02
  1.6873753e-01
  1.6825064e-04
 -6.6331616e-03
  2.1960258e-02
  1.7955434e-03
  7.0369206e-02
 -1.0770221e-02
  4.0243354e-02
 -8.2536340e-02
 -7.8246919e-03
  1.3432149e-02
  5.9499707e-02
  7.3142670e-02
 -8.2950499e-03
 -1.3061543e+00
  1.5708153e-01
 -1.4995001e-01
  7.3028535e-02
 -1.3330406e-02
  1.6779628e-02
 -1.8607818e-03
 -2.9762434e-02
  1.4407188e-01
 -1.3840063e-01
 -2.6955213e-02
 -9.1391280e-03
 -8.9991577e-02
 -5.3932354e-02
 -1.4289141e-02
 -6.8376221e-02
  7.7154022e-03
  2.9028863e-02
 -1.4970160e-01
  4.4589436e-01
  4.0427562e-02
  3.3658862e-02
 -1.0158382e-02
 -1.7562632e-02
 -1.9491196e-02
  7.9743288e-02
  1.5947774e-01
  8.7435797e-02
 -3.2192104e-02
  9.2345878e-02
  1.0471418e-02
 -2.0451114e-01
 -1.0529083e-01
  2.2658987e-02
 -1.2550429e-02
  9.9771455e-02
 -1.4939776e-01
  4.3895468e-02
 -2.1580456e-01
 -1.7574948e-01
  6.1083429e-02
 -8.2017139e-02
 -1.3280097e-01
  2.6433989e-01
 -2.9709671e-02
 -1.5874982e-01
  2.5169080e-01
 -1.7162366e-01
 -8.3239749e-02
 -3.8006702e-01
  3.6339737e-02
 -1.3245322e-01
 -1.0737924e-01
 -3.2206753e-01
 -9.2875227e-02
 -9.9833143e-01
  2.5048899e-02
  3.7178922e-02
 -5.0357598e-01
  9.3965989e-01
 -8.6611778e-01
 -1.4948089e-01
 -4.4677180e-01
 -1.5180016e+00
  3.2917625e-01
 -1.0669086e+00
  3.9302409e-02
  2.1495949e-01
  9.5642871e-01
  2.9605696e+00
 -1.0699934e+00
  3.7999520e-01
 -1.7417709e+00
  5.1895112e-02
  1.2150336e-01
  1.3584168e-01
 -7.4401431e-02
  1.9409133e+00
 -5.5584949e-01
 -5.5938703e-01
 -8.0797857e-01
 -1.8930450e-01
 -2.1476042e-01
 -1.1567926e-02
 -2.6187476e-02
 -1.6965080e-02
  7.6327942e-02
  3.7396193e-02
 -3.4615979e-02
 -7.5544193e-02
  2.4649447e-01
 -9.2462391e-02
 -1.0381600e-01
  1.5919158e-01
  3.4289043e-03
 -1.2700714e-01
  1.0272001e-01
 -1.4266719e-01
 -1.6335756e-01
 -8.5898012e-02
 -2.4446202e-02
  3.4309030e-02
 -3.6454433e-01
 -3.7910432e-02
 -8.2186170e-02
  1.8369168e-01
 -5.0430650e-01
  1.1449801e-01
  7.2979487e-02
 -1.2972140e-01
 -6.0241576e-02
 -2.1325003e-03
  2.2695714e-03
  2.2895820e+00
  2.3529041e+00
  5.6453013e-01
 -2.2638755e+00
  3.4336588e+00
  4.9770802e-01
 -1.5910649e+00
 -4.9178218e-03
 -7.1408463e-01
  1.3539842e+00
  8.7083638e-01
 -3.5823076e+00
  6.8297309e-01
  3.2525954e+00
 -4.1088060e-01
  2.3130550e+00
 -1.9479465e-01
  7.1884733e-01
  2.5902563e-01
 -5.9195244e-01
 -2.4463568e+00
  6.6224098e-01
  2.0647414e+00
  1.1151916e+00
  7.1187037e-01
 -1.7781155e+00
 -1.1183611e+00
 -4.2474240e-01
  1.7687358e+00
 -1.1770754e+00
  1.6263658e-01
  5.3552166e-02
 -1.2713262e+00
  7.1484983e-01
 -1.1708974e+00
 -3.3658125e+00
 -2.2506097e-01
  1.0144997e-02
 -1.5594269e-01
  7.2950947e-01
  8.2103431e-01
  7.3459870e-01
  4.0138316e-01
 -2.9194519e-01
  4.5140797e-01
 -4.2579180e-01
  7.6856273e-01
  1.3595227e+00
 -7.8537810e-01
  3.3436306e-02
 -1.0105009e+00
  6.0391825e-01
 -1.9317824e-01
  2.2902854e-02
  1.3894551e+00
 -1.7723954e+00
 -3.5708976e-01
 -6.0435865e-02
 -3.0451074e-01
 -3.2046697e+00
  7.2526246e-01
  8.6698455e-01
  1.6198425e+00
  3.7185854e-01
 -1.7372702e+00
  2.1698642e+00
  4.8610505e-01
 -2.2240548e+00
  1.5744426e+00
 -7.6276469e-01
  1.0963104e+00
 -7.8184319e-01
  3.0256600e+00
 -1.6914116e+00
 -1.3232175e+00
  3.3706751e+00
  1.1346823e+00
 -8.5936171e-01
  1.2698256e+00
  1.0886834e+00
  4.7620527e-02
 -2.2699544e-02
  1.3058571e+00
 -1.5429531e+00
 -1.1439124e+00
 -2.0444548e+00
  5.6316143e-01
  5.0516266e-01
  1.3609773e-01
 -5.8255601e-01
 -8.8114746e-02
 -1.0243004e-01
  7.0429146e-01
 -2.4264328e+00
  5.3242415e-01
 -4.7154155e-01
 -9.0611213e-01
  1.2686180e-01
 -1.6364451e-01
 -1.6711098e+00
  6.1560571e-01
  1.0472672e+00
  6.3353461e-01
  1.6659329e-02
  8.7402046e-01
  1.3291667e+00
 -1.5933342e+00
 -2.9179156e+00
  1.7764601e+00
  5.0811702e-01
  9.0210512e-02
 -4.0209833e-01
  2.9072841e-03
 -1.9558992e-02
 -1.1755623e+00
  3.3396989e-01
 -1.1494013e-01
 -2.8773463e-01
 -1.5444447e+00
  3.4725612e-01
  1.5704551e+00
  1.5393491e+00
  1.5035930e+00
 -8.9381820e-01
  4.4887826e-01
  1.9173732e-01
  2.8403530e+00
 -5.8494549e-02
 -6.3651943e-01
 -4.3980142e-01
 -5.5706866e-02
  6.3623637e-01
 -3.9246187e-01
  3.4428534e-01
 -2.8465977e+00
 -4.6206170e-01
  3.0538120e+00
 -8.6954325e-01
  2.5210769e+00
  2.4105976e+00
 -3.8308557e-02
  4.0672082e-01
 -1.9820721e-01
 -3.9757720e-01
 -1.6157120e-01
  1.4512119e+00
  1.2043709e+00
  9.1882388e-04
  1.7338486e+00
  6.3768971e-01
 -4.2974901e+00
 -8.4018625e-02
 -1.6091621e-01
  2.4940303e-01
 -1.2653633e+00
 -8.4752023e-01
 -1.6517940e-01
 -9.5781349e-02
  8.4025663e-01
 -1.6888919e+00
  2.9924791e+00
  1.2996228e+00
 -5.0210392e-01
 -1.8848334e-01
  1.8163714e-01
  5.2866840e-01
 -2.1242132e+00
 -1.2601282e-02
 -9.9360961e-01
  1.9231434e-01
  3.8821757e-01
 -1.3512278e+00
 -7.3965222e-01
  1.3543628e+00
 -1.3970451e-01
 -2.1142826e+00
  1.6807899e-02
  1.2342607e+00
  3.3636454e-01
  2.2407222e+00
 -1.7725053e-01
  9.1419798e-01
 -3.8312623e-01
  7.6148587e-01
 -1.2580812e+00
  2.1072600e+00
 -1.3775243e+00
 -1.0682046e+00
 -6.1973661e-02
 -2.1274724e+00
 -2.2869937e-02
 -1.5949432e+00
  1.1344626e+00
  2.7347353e+00
 -1.0164559e+00
  1.7717541e+00
 -1.7373518e+00
  1.6779568e+00
 -5.7430738e-01
 -3.1860933e-01
  2.0573418e+00
  3.3276744e+00
 -1.0684634e+00
  3.2369736e-01
  2.4392045e+00
  1.8033123e-01
  1.2290618e+00
 -1.6008637e+00
  2.2549989e+00
  1.7132173e+00
  7.2259903e-01
 -9.8258376e-01
  8.0499458e-01
  3.1755444e-01
 -2.0702593e+00
 -2.3381572e+00
 -3.0931854e-01
 -4.8398095e-01
 -1.2280255e-01
  3.9413178e+00
 -2.6318538e-01
 -8.3909489e-02
  4.1988587e-01
 -1.4871290e+00
  8.3186328e-01
  3.2682034e-01
  1.4872754e-02
  2.2877061e+00
 -2.8978786e-01
  6.1115342e-01
  1.0031495e+00
  1.0897059e+00
 -4.7140124e-01
  7.6252574e-01
  1.7169120e+00
  7.2168964e-01
 -1.4356737e+00
  1.4300952e+00
 -5.8692344e-02
 -1.3187344e-01
 -9.8303419e-01
 -1.4406943e+00
 -5.0393409e-01
  1.0759089e+00
 -1.9310215e+00
  1.6696867e-01
  2.1821063e+00
 -6.3466795e-02
 -3.2038775e-01
 -2.3551497e-01
 -2.1259186e+00
 -1.7605006e+00
 -3.1935357e-02
 -1.5205394e-01
  1.1500196e-01
 -4.7209647e-01
 -1.1049216e+00
 -1.5093850e-02
 -1.8368094e+00
 -1.4850700e+00
 -9.6145797e-01
  4.3391216e-01
  6.7351705e-01
 -1.3172128e+00
 -7.8881718e-03
 -1.0339750e+00
  3.3635935e-01
  1.8184668e+00
 -8.9531310e-02
  1.2607780e+00
 -3.3787804e+00
 -2.3522506e+00
  2.5867195e+00
  1.1613593e+00
 -9.6740931e-02
 -2.9574192e+00
 -9.0488917e-01
  3.4755948e-01
  2.9872065e-02
 -3.9298248e-01
 -1.6610398e+00
  3.1360283e+00
 -1.9844942e-01
  8.1236893e-01
  5.9459764e-01
  1.4894357e+00
  1.1101770e-01
 -2.4116819e+00
  1.4038346e+00
  1.0966898e+00
 -4.5642012e-01
 -1.3184332e+00
  2.8832641e-01
  1.4673069e+00
 -3.1035158e-01
 -1.0583383e+00
 -3.1600025e-01
  3.6351055e-01
  9.4160515e-01
 -1.1414616e+00
  6.2191832e-01
  6.4639592e-01
  1.2932922e+00
  1.1913193e+00
  3.0551367e+00
 -7.0299655e-02
  5.6794840e-01
  5.1304299e-01
  2.9535568e+00
  5.6452131e-01
 -9.3318552e-01
 -4.1830382e-01
  9.3555129e-01
  1.6887709e+00
  2.8749263e+00
 -5.2121800e-01
  8.5617742e-03
  2.9210949e-02
  1.1709902e-02
 -8.2689130e-01
 -2.0347719e-01
 -1.6126388e-01
 -3.4439102e-01
  5.8627015e-01
 -7.5594705e-01
 -6.6653454e-01
  9.0780920e-01
 -1.6947266e-01
 -1.2232366e+00
 -7.9921186e-02
  1.2043753e+00
 -5.4960144e-01
 -5.3773049e-02
  6.8838763e-01
 -1.9312247e+00
 -4.2418700e-01
  1.4565347e+00
 -5.2653808e-02
 -4.2913261e-01
 -9.0448809e-01
 -1.3219004e+00
  2.2792296e-01
  2.0458810e+00
 -1.0343928e-01
  5.0098594e-02
 -2.8674796e+00
  2.1833744e+00
  5.7589269e-01
 -1.2761080e+00
 -6.0487384e-01
 -1.0624843e-01
 -2.1297450e+00
  1.6556602e+00
 -1.6550393e-01
 -7.8800565e-01
 -6.9193459e-01
 -1.1300280e+00
 -3.4924242e-01
 -7.3978156e-01
 -1.1712558e+00
 -5.5325001e-01
 -1.4051350e+00
  5.5361974e-01
 -4.6692240e-01
  2.2304799e-01
  8.1018156e-01
  5.5967989e+00
  2.8500590e+00
 -1.8071156e+00
 -9.5649976e-03
 -2.1463807e-04
 -4.3518278e-01
 -2.1264741e-01
  1.2102520e-01
  4.7247127e-01
  5.9029749e-03
  7.8539211e-01
  3.2928298e+00
  9.7005183e-01
  7.5987744e-01
 -4.5930552e-01
  3.4271670e-03
  2.0741431e-01
  2.3524575e+00
  1.9280653e-01
  1.6845450e-01
 -5.8436978e-01
  3.2284249e-02
 -2.2259986e+00
 -1.8353559e+00
  1.7836020e+00
 -2.1112090e-01
 -6.0333496e-01
  3.2807431e-01
 -1.7343160e+00
 -7.8086466e-02
  6.6185707e-01
  5.3726810e-01
  2.2599261e+00
  9.1041213e-01
  2.2341609e+00
  2.6089963e-02
 -2.0444493e-01
 -2.2098539e+00
 -5.9422916e-01
 -3.8979417e-01
  2.5768583e+00
 -1.4303123e+00
 -1.1273472e+00
 -3.6658677e-01
 -7.8570515e-01
 -1.7935890e+00
  8.2409042e-01
 -1.3276254e+00
  1.1038095e+00
 -1.1889820e+00
  1.2629489e+00
  1.2314531e+00
  1.1029832e+00
  1.0334263e+00
  1.5851643e+00
 -1.7418267e-02
 -2.1687604e-02
 -4.1495863e-01
 -3.2749463e-02
  7.5586945e-01
  1.7699121e-02
 -9.3529123e-01
  2.2994084e+00
 -1.0063134e+00
 -5.1281768e-01
 -4.4925189e-01
 -7.8996927e-01
  9.2740163e-02
  2.9720435e-01
 -8.1459314e-01
 -9.8399800e-01
 -6.0777199e-01
 -1.5265085e+00
 -1.9915537e+00
 -1.3746840e-01
  2.4197049e+00
  5.9971911e-01
 -3.5751319e-01
  2.0637143e+00
  1.6635722e-01
 -4.8989037e-01
 -1.8274130e+00
  9.7862966e-02
  2.4327602e+00
 -6.0752326e-01
  6.2097585e-01
 -6.7730516e-02
 -1.0910250e+00
  5.7125497e-03
 -2.5652547e+00
  5.8143962e-02
  2.1672373e-01
  1.3969561e+00
  8.4859937e-01
  1.4370236e-01
  4.2859462e-01
  1.6057278e-01
 -4.1188383e-01
 -4.9616179e-01
  9.1000646e-01
  2.6781565e-01
 -8.1637174e-02
  1.9672589e-01
 -2.3408439e+00
  1.0359165e-01
 -1.8797833e-01
  1.0032903e+00
  1.2827179e+00
 -4.3844458e-01
  5.1466697e-01
  4.7755606e-02
  1.2227957e+00
  1.1142136e-01
 -1.7733979e+00
  2.8115860e-01
 -1.8538431e+00
 -4.6496028e-01
  6.7249161e-01
 -2.9308984e+00
 -4.8398715e-01
 -1.2271503e+00
  8.8050985e-01
  7.7215165e-01
  2.2754576e+00
 -1.1004282e+00
 -2.3420842e-01
  4.3442219e-01
  7.9587770e-01
  4.3468401e-01
 -1.7956650e+00
  7.3079443e-01
 -3.6248631e+00
  7.6029128e-01
 -1.2181792e+00
  1.7058506e+00
  6.3355201e-01
  9.8818433e-01
 -4.8721474e-01
  9.4180852e-01
  5.6079185e-01
  1.6775686e-01
 -2.9248464e-01
 -4.0896684e-02
  1.3510115e-01
  1.9599954e-02
 -4.3378046e-01
  4.8639449e-01
 -8.5352194e-01
  1.7164268e-01
 -4.2501679e-01
  1.1827277e+00
  4.1275170e-01
  6.2053627e-01
 -1.9477347e-01
  8.8728273e-01
  1.5343660e-01
 -8.5382169e-01
 -7.1299195e-01
 -7.8508705e-01
 -3.3909729e-01
 -2.1311400e+00
  2.4098318e+00
 -8.8406301e-01
  9.0380949e-01
 -3.1342747e+00
 -7.6835078e-01
 -3.0210528e-01
  5.4799682e-03
  3.1156257e-01
 -1.5338883e+00
  1.3474679e+00
 -6.9052023e-01
  4.6065080e-01
  4.9740696e-01
  1.1828877e-01
  2.1190286e+00
 -1.0201923e+00
  4.2994091e-01
  8.0564082e-01
 -5.4341514e-02
  3.7610929e-02
 -2.1619608e+00
  1.7897904e-02
  2.2085415e-01
 -4.1291448e-01
 -6.1092848e-01
 -2.5434230e-02
 -1.1153554e+00
  1.7261475e+00
  4.3058679e-01
  1.3254608e+00
 -1.1709812e+00
  2.7439597e+00
  9.1045135e-01
  6.5558863e-01
  5.6153333e-01
  2.9262331e+00
  1.2672797e-01
 -4.5924097e-01
  1.5507227e+00
  1.5450770e+00
 -4.6501586e-01
 -9.4727898e-01
  1.0134964e+00
  5.0330973e-01
 -4.3087173e-01
 -3.4699050e-01
 -1.3167261e-01
  9.8693609e-01
 -9.4630623e-01
  2.5519407e+00
  3.9391518e-02
 -5.0032116e-03
  7.7928400e-01
  1.0216839e+00
 -4.4443986e-01
  3.8792899e-01
 -9.0204149e-01
 -1.1452259e-02
 -1.0528955e+00
 -7.0547503e-01
  7.2794908e-01
  1.2978523e+00
  4.9156867e-02
  4.5047984e-01
  1.1944033e+00
  1.5940107e-01
 -2.0373316e+00
 -3.4247410e-02
 -1.3504208e+00
  1.1143100e+00
  4.0159740e-02
 -2.0886374e+00
 -1.0759436e+00
 -6.4355791e-02
 -1.1432126e+00
 -9.5858485e-02
 -1.3450754e+00
 -2.1913445e+00
 -1.6855796e-01
  5.2601540e-01
  2.1058424e-01
 -8.9825445e-01
  1.0400480e-02
  6.3839185e-01
  8.8243157e-01
 -1.2333471e-01
 -1.4477837e-01
  1.3647125e+00
  4.1086894e-01
  1.0154934e+00
 -2.4785322e-01
  4.7091144e-01
  5.6355018e-02
 -5.2758619e-02
 -5.8741802e-01
  5.0251037e-02
 -1.8365349e-01
 -1.0896237e-01
 -8.2151154e-03
  8.0829096e-01
 -2.0459817e-01
  5.8996633e-02
  8.5197277e-02
  9.4431847e-01
  1.3306757e+00
 -4.0877616e-01
 -1.9266174e+00
  2.3005424e-01
 -8.5328275e-01
 -1.5340370e+00
 -1.8599521e-01
 -1.7104630e-01
 -1.2717820e+00
  1.1081182e+00
  3.7553382e-01
  2.7904997e+00
 -5.1765448e-01
  1.8108529e+00
 -5.4571503e-01
 -2.4310483e-01
  1.6227050e+00
  1.0806634e+00
 -8.2041609e-01
 -1.0630307e+00
 -1.0035987e+00
 -3.3386210e-01
 -1.0728315e-01
  9.4685666e-02
 -1.2778230e+00
 -1.2167517e-01
  1.1379067e+00
  3.1935301e-01
 -1.0139252e+00
  7.4667430e-01
 -6.8241325e-03
  8.3777571e-01
  2.8828511e-01
  1.3496709e+00
 -3.0428228e-01
 -4.0627643e-01
  3.5839376e-01
 -1.7398074e-01
 -8.7722600e-02
 -9.5104510e-03
  1.3174817e-01
 -7.0225018e-01
  2.5497690e-01
 -3.3142033e-01
 -3.3093464e-01
 -6.1109227e-01
 -1.1037233e+00
  2.3884952e-01
 -4.0173319e-01
 -1.0359930e-01
 -5.5510856e-02
  8.3295983e-01
 -7.1702480e-01
 -9.4376609e-02
  3.1847320e-02
 -4.7717106e-01
 -8.3356798e-01
 -5.7238603e-01
 -1.7847316e+00
  8.2697636e-01
  1.0055528e+00
 -5.8822346e-01
  5.4337583e-02
  1.2761239e+00
 -1.3100956e-01
  2.5758272e-02
 -1.2226887e-01
 -9.7926017e-03
 -9.0767318e-01
 -1.2106197e+00
 -5.7779890e-01
 -6.9839728e-01
 -2.7068731e-01
  2.2179060e+00
  5.8639330e-01
 -8.4798884e-01
  9.5471960e-01
 -6.2858897e-01
 -1.3814518e-01
 -1.7605689e+00
  3.0018106e-01
  1.5542819e-01
  1.2232738e+00
  5.0183475e-01
  4.6496469e-01
 -2.0214005e+00
  1.0265361e+00
  1.5055168e-01
  9.5356297e-01
  3.2618415e-02
  6.4393044e-01
  1.6482430e+00
  3.6672869e-01
 -1.1643501e-01
  9.7987369e-02
  4.7673774e-01
  6.8501121e-01
  3.9368388e-01
  5.1299757e-01
 -2.4912541e-01
 -1.0443657e-01
  6.3882279e-01
 -4.9584317e-01
  8.0739766e-01
 -3.5407376e+00
  1.1624195e-01
  1.1035838e+00
 -1.4797325e+00
  5.4254496e-01
 -2.0368750e+00
 -1.6238141e+00
 -4.6343064e-01
  1.7632726e+00
 -5.9614807e-01
  3.9965501e-01
  1.2480185e-01
  5.9973544e-01
  1.2770909e+00
  5.9944052e-01
 -1.6218487e+00
  9.0434194e-02
 -9.1745180e-01
 -1.3264422e+00
 -1.9793597e-01
 -7.0335698e-01
  7.3542124e-01
  3.7643135e-01
  1.2035346e+00
 -2.0813430e-02
  1.0700322e+00
  2.9465491e-01
  3.8136989e-01
  8.5356164e-01
 -3.8535833e-01
  1.5834551e+00
  4.5957410e-01
 -4.5510980e-01
  1.1125250e+00
  4.4471696e-01
 -4.6685129e-01
 -1.1728284e+00
  1.2757018e+00
  3.3464056e-02
 -6.8651855e-02
 -1.1017562e+00
  1.2526438e+00
 -3.7121648e-01
  2.6227659e-01
 -4.2633107e-01
  2.3034310e-02
  8.9338154e-01
 -2.4859221e-01
 -2.3264262e-01
  2.1305501e+00
 -2.4189304e-01
 -1.0027555e-01
  4.8984486e-01
  8.4466177e-01
  1.8893734e+00
 -7.1242225e-01
  1.7316740e+00
 -2.0923193e+00
 -9.7128117e-01
 -3.7556332e-02
  1.1456611e+00
 -1.9901933e-01
  4.2463708e-01
  3.1137672e-01
 -2.1491261e+00
 -5.7827294e-01
  1.8410082e+00
  1.0898852e+00
 -3.7800782e+00
  7.5303710e-01
  3.9577532e-01
 -3.2187960e-01
 -1.1130480e+00
 -1.5762329e-01
  1.6261029e+00
 -3.0013415e-01
  1.3724947e+00
 -4.9821353e-01
 -5.5254698e-01
  1.5394641e+00
  1.3528399e-01
 -2.8879654e-01
  1.0599623e+00
 -1.3594937e+00
 -4.6190327e-01
  9.5524347e-01
 -1.7359814e-01
 -8.5173762e-01
 -9.4742203e-01
  3.0731645e-01
 -6.4289665e-01
 -1.5593435e+00
 -2.5951719e-01
 -6.9172405e-02
 -7.1098137e-01
 -6.9010442e-01
 -2.5843430e-02
 -4.4145405e-01
  5.1659334e-01
 -2.1205641e-01
  7.5900698e-01
  1.1777568e+00
  1.0476471e-01
  1.7316353e+00
  1.4812917e-01
  1.0484875e+00
 -9.5784771e-01
 -1.1393468e+00
  1.1013166e+00
  1.2632871e-01
  8.4101462e-01
  4.7395158e-01
  9.2243803e-01
 -2.1503580e+00
 -5.1704222e-01
  6.9596577e-01
 -3.3417559e+00
  4.2643677e-02
  2.9507803e-02
 -9.0075427e-01
  7.7273929e-01
 -1.4801811e+00
  1.3698965e+00
  5.8423662e-01
  5.8816916e-01
 -1.0719023e+00
  1.3082151e+00
  1.3354734e-01
  1.0535262e+00
 -8.5503930e-01
  1.3111929e+00
  1.9070143e-01
 -1.4403671e+00
  7.4237537e-01
 -2.0339200e-01
 -9.3838590e-01
 -1.4504851e+00
  1.2023026e+00
  1.0400857e+00
 -4.8968863e-01
 -6.7817116e-01
  2.7800682e-01
  1.4619746e+00
 -4.2623973e-01
  8.0380011e-01
 -4.5629825e-02
  8.1859708e-01
 -7.2733447e-02
  6.1147791e-01
  3.2083526e-01
  9.5704973e-02
  1.0989451e+00
 -1.9669561e-01
  3.3862680e-01
 -1.0552370e-01
  1.9960804e-01
  5.3211272e-01
  2.3154187e-01
  3.0992830e-01
 -8.9286315e-01
 -3.5813636e-01
 -6.4282484e-02
  2.9097739e-01
 -5.8511353e-01
  2.6182611e+00
 -3.4865084e-01
  8.4044188e-01
  2.1426797e+00
 -1.0619899e+00
  1.2263453e+00
 -9.0221018e-01
 -8.1686221e-02
 -1.0691104e+00
 -2.5319388e+00
  1.0578513e+00
 -6.1383235e-01
  5.3962481e-01
 -8.4853582e-02
  9.1584280e-02
 -4.4495016e-01
  1.8879050e+00
  5.4583043e-01
 -2.2451083e-01
 -3.8110127e-04
  2.5163737e-01
  2.1698272e+00
  2.6126656e-01
  1.4531614e-01
 -1.4469312e+00
  4.5485261e-01
  3.2315962e-05
  1.5970561e-01
 -2.8273499e+00
  2.4160101e-01
 -1.1104536e-02
  1.4063211e-01
 -1.5305798e+00
 -6.9269764e-01
 -4.9468961e-01
  2.7292201e-01
 -8.1180900e-01
  2.2929832e-01
  3.4334891e-02
  3.4334891e-02
  3.4334891e-02
  3.4334891e-02
  3.4334891e-02
  3.4334891e-02
  3.4334891e-02
  3.4334891e-02
  3.4334891e-02
  4.2173084e-02
  4.2173084e-02
  4.2173084e-02
  4.2173084e-02
  4.2173084e-02
  4.2173084e-02
  4.2173084e-02
  4.2173084e-02
  4.2173084e-02
  3.8343817e-02
  3.8343817e-02
  3.8343817e-02
  3.8343817e-02
  3.8343817e-02
  3.8343817e-02
  3.8343817e-02
  3.8343817e-02
  3.8343817e-02
  1.8650033e-02
  1.8650033e-02
  1.8650033e-02
  1.8650033e-02
  1.8650033e-02
  1.8650033e-02
  1.8650033e-02
  1.8650033e-02
  1.8650033e-02
  6.7785564e-03
  6.7785564e-03
  6.7785564e-03
  6.7785564e-03
  6.7785564e-03
  6.7785564e-03
  6.7785564e-03
  6.7785564e-03
  6.7785564e-03
  3.0257512e-02
  3.0257512e-02
  3.0257512e-02
  3.0257512e-02
  3.0257512e-02
  3.0257512e-02
  3.0257512e-02
  3.0257512e-02
  3.0257512e-02
